{
  "type": "NeuralNetworkGPU",
  "sizes": [
    49,
    16,
    16,
    16,
    1
  ],
  "layers": [
    {
      "weights": [],
      "biases": []
    },
    {
      "weights": [
        [
          0.30102941393852234,
          0.44917982816696167,
          0.2639394998550415,
          -0.15440227091312408,
          0.5745647549629211,
          -0.08071055263280869,
          -0.06551600992679596,
          -0.1754211038351059,
          0.9212440252304077,
          0.6036731600761414,
          0.4622630476951599,
          0.2658831477165222,
          -0.025533797219395638,
          -0.07244602590799332,
          -0.17868877947330475,
          -0.19833222031593323,
          0.36429381370544434,
          -0.07661860436201096,
          -0.08592880517244339,
          -0.14311888813972473,
          -0.019204890355467796,
          -0.07136073708534241,
          0.09538584202528,
          0.050910867750644684,
          0.09258665889501572,
          -0.19189780950546265,
          -0.10680144280195236,
          -0.018802974373102188,
          0.1692744642496109,
          0.1067458987236023,
          -0.045155804604291916,
          -0.28170400857925415,
          0.09934530407190323,
          0.16085082292556763,
          0.1767064779996872,
          -0.27476227283477783,
          0.0826404020190239,
          0.12243635207414627,
          -0.12785403430461884,
          -0.00984860211610794,
          0.22199319303035736,
          -0.05241991579532623,
          0.00805370882153511,
          -0.2220916748046875,
          0.2266770452260971,
          0.10816965252161026,
          -0.12183042615652084,
          -0.12549841403961182,
          0.0929318442940712
        ],
        [
          -0.4576353430747986,
          -0.6339558362960815,
          -0.763274073600769,
          0.22215919196605682,
          -0.6525946855545044,
          0.1595529168844223,
          -0.14470548927783966,
          0.04578648507595062,
          -1.153733253479004,
          -0.7479934096336365,
          -0.7246432900428772,
          -0.11545757204294205,
          -0.16870282590389252,
          0.12831825017929077,
          -0.05333933234214783,
          0.3293084502220154,
          -0.11760791391134262,
          -0.19243256747722626,
          0.01623627170920372,
          0.09543989598751068,
          -0.03504196181893349,
          -0.18504834175109863,
          0.17182929813861847,
          0.29694265127182007,
          -0.10019659250974655,
          0.13403058052062988,
          0.2083609253168106,
          0.18093341588974,
          -0.07963592559099197,
          0.03153971582651138,
          0.16877399384975433,
          0.04517688602209091,
          -0.20085833966732025,
          -0.010936474427580833,
          0.10503746569156647,
          0.3012666702270508,
          -0.4046718180179596,
          0.05703451484441757,
          -0.026421912014484406,
          -0.021603528410196304,
          -0.33433517813682556,
          0.17588892579078674,
          -0.04915984719991684,
          0.36834681034088135,
          -0.12562410533428192,
          0.07818126678466797,
          0.16966329514980316,
          0.007573562208563089,
          -0.037548501044511795
        ],
        [
          -0.47636085748672485,
          -0.4239215850830078,
          -0.4984372854232788,
          0.1783931702375412,
          -0.45184609293937683,
          -0.16527383029460907,
          -0.10098592936992645,
          0.06426088511943817,
          -0.9214059710502625,
          -0.7836331725120544,
          -0.5270479917526245,
          -0.30094149708747864,
          -0.11248386651277542,
          -0.024139340966939926,
          0.0558437742292881,
          0.19619601964950562,
          -0.117848701775074,
          -0.1533385068178177,
          -0.025839438661932945,
          0.17164155840873718,
          -0.16098493337631226,
          0.08088434487581253,
          0.03939979895949364,
          0.07963776588439941,
          -0.13142606616020203,
          -0.09770671278238297,
          -0.025609752163290977,
          0.26613959670066833,
          -0.3537536561489105,
          -0.14975832402706146,
          0.09025456011295319,
          0.017775967717170715,
          -0.3007754385471344,
          -0.03404974564909935,
          0.09547413885593414,
          0.054643139243125916,
          -0.2828845679759979,
          -0.09358710050582886,
          -0.041456419974565506,
          0.2857866585254669,
          -0.07262060791254044,
          0.0046738083474338055,
          0.06844653189182281,
          0.24319076538085938,
          -0.013543703593313694,
          -0.07142510265111923,
          0.076212078332901,
          -0.015980200842022896,
          -0.2066207230091095
        ],
        [
          0.01411317940801382,
          0.33203333616256714,
          0.44741538166999817,
          0.10662335902452469,
          0.18803799152374268,
          0.19270090758800507,
          -0.17914175987243652,
          0.11700768023729324,
          0.38086628913879395,
          0.36359545588493347,
          0.27290427684783936,
          0.01312714908272028,
          0.08245138823986053,
          0.12005001306533813,
          0.14868029952049255,
          -0.09878166019916534,
          -0.0689195767045021,
          0.020942166447639465,
          0.04827314242720604,
          -0.10277697443962097,
          0.01267870981246233,
          0.12163550406694412,
          -0.05632993206381798,
          -0.23132310807704926,
          0.03942815959453583,
          -0.07241092622280121,
          0.10711519420146942,
          -0.04797060042619705,
          0.2746177911758423,
          -0.15814627707004547,
          0.11557215452194214,
          -0.2518918812274933,
          -0.013287699781358242,
          -0.07703603804111481,
          0.11352287232875824,
          0.09973321855068207,
          0.02219456620514393,
          0.11878019571304321,
          0.08573383092880249,
          0.11713448166847229,
          0.30270662903785706,
          0.16028378903865814,
          0.043587666004896164,
          -0.11274625360965729,
          0.03494325280189514,
          0.13884642720222473,
          -0.07912313938140869,
          -0.00955768022686243,
          0.0021416819654405117
        ],
        [
          0.382488489151001,
          0.7341446280479431,
          0.7011221647262573,
          -0.339362770318985,
          0.6044023633003235,
          -0.164729043841362,
          -0.16161322593688965,
          -0.34318503737449646,
          0.890984296798706,
          0.6301795840263367,
          0.6053512692451477,
          0.36075595021247864,
          0.19575071334838867,
          -0.18562251329421997,
          -0.015394479967653751,
          -0.2885453999042511,
          0.10736913979053497,
          -0.1794336885213852,
          -0.1626453697681427,
          0.0036724561359733343,
          0.1117590069770813,
          -0.18879927694797516,
          -0.00008706995140528306,
          0.05076885595917702,
          0.23366841673851013,
          -0.17917504906654358,
          0.04138852655887604,
          -0.23738865554332733,
          0.2293996810913086,
          0.2001868188381195,
          0.028458548709750175,
          -0.062397103756666183,
          -0.0020534696523100138,
          -0.10211076587438583,
          -0.1329157054424286,
          0.047599878162145615,
          0.10457488894462585,
          0.12716618180274963,
          0.11964159458875656,
          -0.25023898482322693,
          0.37797245383262634,
          0.19603580236434937,
          -0.13865803182125092,
          -0.10242919623851776,
          0.3577937185764313,
          0.048147838562726974,
          0.07100134342908859,
          -0.2642940580844879,
          0.32092711329460144
        ],
        [
          -0.41023433208465576,
          -0.3595472574234009,
          -0.29502788186073303,
          0.07506374269723892,
          -0.22769466042518616,
          -0.15613539516925812,
          0.13502664864063263,
          -0.04040997847914696,
          -0.6420441269874573,
          -0.4967934191226959,
          -0.36781975626945496,
          -0.1926863193511963,
          -0.1877572387456894,
          0.016929369419813156,
          0.12020529806613922,
          0.11025690287351608,
          -0.3164064288139343,
          0.04207398742437363,
          0.14271366596221924,
          0.10108370333909988,
          -0.07804054766893387,
          0.18587736785411835,
          0.11933009326457977,
          0.05841829255223274,
          -0.16798701882362366,
          0.10052140802145004,
          -0.08182355761528015,
          0.1907283216714859,
          -0.3310438394546509,
          0.0602036714553833,
          -0.009822864085435867,
          0.14691825211048126,
          -0.22098428010940552,
          -0.07603652030229568,
          0.0765935629606247,
          0.09008128196001053,
          -0.29788434505462646,
          0.06544259935617447,
          -0.06605492532253265,
          0.09491776674985886,
          -0.16257640719413757,
          0.18245798349380493,
          0.1799679696559906,
          -0.06739053875207901,
          0.004430277273058891,
          -0.07426192611455917,
          0.07508482038974762,
          0.1664566844701767,
          -0.19414132833480835
        ],
        [
          0.6631187796592712,
          0.6805140972137451,
          0.8230597972869873,
          -0.5723181366920471,
          0.5262536406517029,
          0.03975139558315277,
          -0.052034471184015274,
          -0.23019899427890778,
          1.515360951423645,
          1.112166404724121,
          0.6278510093688965,
          0.4622611701488495,
          0.28701406717300415,
          0.10525618493556976,
          -0.10077126324176788,
          -0.3018621802330017,
          0.046864841133356094,
          0.04742274433374405,
          -0.028548691421747208,
          -0.22492307424545288,
          0.3332471251487732,
          0.17622719705104828,
          0.13422228395938873,
          -0.39197462797164917,
          0.2551614046096802,
          0.018337689340114594,
          0.06214004382491112,
          -0.10862617939710617,
          0.3544074296951294,
          0.1685982197523117,
          -0.09147724509239197,
          -0.08103521913290024,
          0.2688262462615967,
          -0.032405074685811996,
          0.045095670968294144,
          -0.19570547342300415,
          0.3725733757019043,
          -0.14984601736068726,
          0.1627555638551712,
          -0.34538739919662476,
          0.23772665858268738,
          -0.19922961294651031,
          0.16452689468860626,
          -0.12268399447202682,
          0.11522063612937927,
          -0.031849998980760574,
          0.13034449517726898,
          -0.258372962474823,
          0.32428520917892456
        ],
        [
          0.07533566653728485,
          -0.29809075593948364,
          -0.3221685290336609,
          0.18604327738285065,
          -0.22855283319950104,
          -0.05547124519944191,
          0.1818082630634308,
          0.06324773281812668,
          -0.17994685471057892,
          -0.04511379078030586,
          -0.24649924039840698,
          -0.09988058358430862,
          -0.24012359976768494,
          0.0945451408624649,
          0.10581973195075989,
          -0.15936827659606934,
          0.006905590649694204,
          -0.10284968465566635,
          -0.1499122679233551,
          0.1086847111582756,
          -0.15616506338119507,
          -0.15651486814022064,
          0.18778415024280548,
          -0.15096208453178406,
          -0.020781384781003,
          -0.06797127425670624,
          -0.015763206407427788,
          0.08776762336492538,
          -0.036572787910699844,
          -0.18265987932682037,
          -0.1495545357465744,
          -0.12249555438756943,
          -0.21545518934726715,
          0.14225918054580688,
          0.07387712597846985,
          0.1122714951634407,
          0.04265522584319115,
          -0.0380711555480957,
          -0.12191915512084961,
          -0.13239240646362305,
          -0.20023754239082336,
          -0.12087743729352951,
          -0.005806040950119495,
          0.19376739859580994,
          0.10855661332607269,
          0.12767240405082703,
          0.06397278606891632,
          -0.12464916706085205,
          -0.2117590606212616
        ],
        [
          -0.12907621264457703,
          0.1330951750278473,
          0.17699378728866577,
          -0.09110540896654129,
          0.013412125408649445,
          -0.17751671373844147,
          0.14254170656204224,
          -0.04838817939162254,
          0.13588754832744598,
          -0.07967256754636765,
          0.08679400384426117,
          -0.12353487312793732,
          -0.0065003917552530766,
          -0.13691683113574982,
          -0.09715042263269424,
          0.1673576384782791,
          0.033465851098299026,
          0.13207575678825378,
          -0.021589158102869987,
          0.09028290212154388,
          -0.09245306998491287,
          0.11879070848226547,
          0.006624153815209866,
          0.11467407643795013,
          -0.03394906222820282,
          0.07003376632928848,
          0.09665323793888092,
          -0.17326076328754425,
          -0.15693725645542145,
          -0.1930403858423233,
          0.09083740413188934,
          0.08509886264801025,
          -0.16584956645965576,
          0.051133569329977036,
          -0.06801511347293854,
          0.011497140862047672,
          0.1955757886171341,
          0.1884429007768631,
          0.16873997449874878,
          -0.004208946600556374,
          -0.08247394859790802,
          0.10566160827875137,
          -0.02657259814441204,
          -0.06476876884698868,
          0.009923877194523811,
          -0.13743211328983307,
          0.01968362182378769,
          0.06343129277229309,
          -0.16879650950431824
        ],
        [
          0.06758735328912735,
          0.12375093251466751,
          0.023395933210849762,
          0.012782005593180656,
          0.07378571480512619,
          -0.17002597451210022,
          0.13016872107982635,
          0.005672779865562916,
          -0.08657336235046387,
          -0.09082326292991638,
          0.2442728728055954,
          0.060889825224876404,
          0.012802062556147575,
          -0.14407959580421448,
          0.10725253075361252,
          -0.1960517019033432,
          0.15414948761463165,
          -0.15034523606300354,
          -0.016026247292757034,
          -0.18462757766246796,
          -0.1271008998155594,
          0.07417649030685425,
          0.03190833330154419,
          0.16362039744853973,
          -0.029945233836770058,
          0.07552624493837357,
          0.04310343414545059,
          0.1601516455411911,
          0.15191499888896942,
          -0.07346894592046738,
          -0.1240515410900116,
          0.09753667563199997,
          0.21197058260440826,
          -0.03722412884235382,
          -0.022266242653131485,
          0.13470520079135895,
          0.15775048732757568,
          0.01763387955725193,
          -0.005800449289381504,
          0.0973428264260292,
          -0.14785686135292053,
          0.11370254307985306,
          -0.18523798882961273,
          0.08092661947011948,
          -0.11321721971035004,
          -0.17522397637367249,
          0.04577144235372543,
          0.1067172959446907,
          0.1377774327993393
        ],
        [
          -0.39662107825279236,
          -0.5064513683319092,
          -0.6551108956336975,
          0.37078267335891724,
          -0.5648723244667053,
          0.1473073810338974,
          0.0607244148850441,
          0.1697763353586197,
          -1.194030523300171,
          -0.6645362377166748,
          -0.44223859906196594,
          -0.4678746461868286,
          -0.344586044549942,
          0.043784745037555695,
          -0.10973081737756729,
          0.23021365702152252,
          -0.04292776435613632,
          -0.18947096168994904,
          -0.06491238623857498,
          0.1478414088487625,
          -0.34682390093803406,
          0.19267845153808594,
          -0.1564178466796875,
          0.09878617525100708,
          0.019247401505708694,
          -0.14913706481456757,
          -0.1187223270535469,
          0.21773140132427216,
          -0.3043268024921417,
          -0.08552148938179016,
          -0.1485947072505951,
          0.2894695997238159,
          -0.30894148349761963,
          -0.02701978012919426,
          0.15295833349227905,
          0.32668596506118774,
          -0.1625969558954239,
          -0.06178687885403633,
          0.19038328528404236,
          0.062149837613105774,
          -0.35965147614479065,
          -0.059622712433338165,
          0.17330262064933777,
          0.05397522822022438,
          -0.3427571654319763,
          0.1848261058330536,
          0.16674935817718506,
          0.2890315055847168,
          -0.07072944939136505
        ],
        [
          -0.05475800856947899,
          -0.4121747314929962,
          -0.2033863365650177,
          0.08485643565654755,
          -0.31730103492736816,
          -0.1607123464345932,
          0.1816466897726059,
          0.030298074707388878,
          -0.586197555065155,
          -0.5231415629386902,
          -0.36770668625831604,
          -0.0490274503827095,
          0.08250243216753006,
          -0.050847072154283524,
          -0.17406238615512848,
          0.12425078451633453,
          -0.11350204795598984,
          0.1508292406797409,
          -0.13582630455493927,
          0.08575376868247986,
          -0.19254504144191742,
          -0.18897747993469238,
          -0.03095252439379692,
          0.13304480910301208,
          -0.03307878226041794,
          -0.18153469264507294,
          -0.1701524704694748,
          -0.12289226055145264,
          -0.09949473291635513,
          -0.006038835737854242,
          -0.017279047518968582,
          -0.046498458832502365,
          -0.13604597747325897,
          0.11888650804758072,
          -0.18725265562534332,
          -0.02997463010251522,
          -0.13039220869541168,
          -0.030490832403302193,
          0.0360969714820385,
          0.13552722334861755,
          -0.13588811457157135,
          0.11455685645341873,
          -0.01881048083305359,
          0.13761156797409058,
          0.11219694465398788,
          0.04780065640807152,
          -0.043604303151369095,
          0.13023221492767334,
          -0.025717293843626976
        ],
        [
          -0.08005615323781967,
          0.1009005457162857,
          0.21802157163619995,
          0.09084878861904144,
          -0.045695070177316666,
          -0.14539389312267303,
          -0.1455981284379959,
          0.11197961866855621,
          0.05055643245577812,
          -0.08125213533639908,
          0.12901420891284943,
          0.05353909730911255,
          0.1486540138721466,
          -0.10756735503673553,
          0.057827118784189224,
          0.19386667013168335,
          0.049796056002378464,
          -0.0481327548623085,
          -0.012386619113385677,
          0.003897174960002303,
          0.19424770772457123,
          -0.19200614094734192,
          0.16197437047958374,
          0.18851900100708008,
          -0.11557503044605255,
          -0.18802711367607117,
          0.02101573348045349,
          0.039327580481767654,
          -0.016892174258828163,
          -0.19795913994312286,
          0.042923130095005035,
          -0.10083123296499252,
          0.03716100752353668,
          0.04384637996554375,
          -0.06400416791439056,
          -0.19810834527015686,
          -0.12628459930419922,
          -0.10622483491897583,
          -0.04783374071121216,
          0.0031062609050422907,
          -0.17865778505802155,
          0.13098163902759552,
          -0.026418447494506836,
          -0.11104577034711838,
          -0.14880938827991486,
          0.05613529309630394,
          0.04537284001708031,
          -0.022053981199860573,
          0.13297438621520996
        ],
        [
          -0.26593559980392456,
          -0.33514603972435,
          -0.5967316031455994,
          0.43188101053237915,
          -0.404264360666275,
          -0.14892856776714325,
          0.08829852193593979,
          0.0665133148431778,
          -0.7625895738601685,
          -0.3798503279685974,
          -0.5336440801620483,
          -0.04003655165433884,
          -0.10155851393938065,
          -0.11500576138496399,
          0.05039486661553383,
          0.007834102027118206,
          -0.243797168135643,
          0.0897325873374939,
          -0.09693737328052521,
          0.0061887819319963455,
          -0.07177872210741043,
          -0.11275936663150787,
          0.00932477880269289,
          0.024801841005682945,
          -0.0655851736664772,
          -0.14142529666423798,
          0.16019874811172485,
          0.1837206482887268,
          -0.05761194974184036,
          -0.15000757575035095,
          -0.014491901732981205,
          -0.030253389850258827,
          -0.15030114352703094,
          0.11423429846763611,
          -0.1641402244567871,
          0.17023304104804993,
          -0.2995143532752991,
          0.17021544277668,
          -0.04899255558848381,
          -0.027178389951586723,
          0.057556040585041046,
          0.09232055395841599,
          0.006231625564396381,
          0.1957395374774933,
          -0.20031563937664032,
          0.043249621987342834,
          -0.08407716453075409,
          0.07709237933158875,
          -0.11142978817224503
        ],
        [
          0.017854157835245132,
          0.11217324435710907,
          0.2647875249385834,
          -0.06712347269058228,
          -0.10821947455406189,
          0.12584221363067627,
          -0.19801530241966248,
          -0.06682724505662918,
          0.23493121564388275,
          -0.06117606908082962,
          0.21642735600471497,
          0.004509159363806248,
          0.07853153347969055,
          0.18864010274410248,
          -0.030650759115815163,
          0.018085237592458725,
          0.20766817033290863,
          -0.08826450258493423,
          -0.02081657387316227,
          0.0342482291162014,
          -0.0666719526052475,
          0.08481855690479279,
          0.05123985558748245,
          0.14379552006721497,
          0.18479622900485992,
          0.011429019272327423,
          0.04073673486709595,
          -0.15650883316993713,
          0.16745992004871368,
          -0.163234680891037,
          0.10313718765974045,
          -0.10843520611524582,
          0.23426063358783722,
          0.13373956084251404,
          -0.09007745236158371,
          -0.20471471548080444,
          0.038499414920806885,
          -0.00649371650069952,
          -0.029759438708424568,
          -0.044723931699991226,
          -0.13445661962032318,
          0.05887928977608681,
          -0.07431071251630783,
          0.13866004347801208,
          -0.008159066550433636,
          0.19055995345115662,
          0.07094524055719376,
          -0.059088852256536484,
          0.01239947509020567
        ],
        [
          -0.04274582862854004,
          -0.20970599353313446,
          -0.4953887164592743,
          0.07263585925102234,
          -0.13353371620178223,
          0.07279125601053238,
          -0.049875322729349136,
          -0.05300678312778473,
          -0.7138946056365967,
          -0.23181375861167908,
          -0.21656620502471924,
          -0.375169575214386,
          -0.11496023088693619,
          0.10297854244709015,
          0.17061661183834076,
          0.03203257545828819,
          -0.26954343914985657,
          0.11520155519247055,
          -0.1251223087310791,
          0.16448648273944855,
          -0.15797728300094604,
          -0.12440238893032074,
          0.0820995643734932,
          0.21902154386043549,
          -0.25074827671051025,
          0.11382319033145905,
          0.02489115670323372,
          0.16795416176319122,
          -0.1419295370578766,
          0.1186889037489891,
          0.13302285969257355,
          0.007126619108021259,
          -0.17349699139595032,
          -0.19121919572353363,
          0.05448789522051811,
          0.13547645509243011,
          0.04495484381914139,
          -0.07100144028663635,
          0.13538523018360138,
          0.030761629343032837,
          0.005062878597527742,
          -0.17226511240005493,
          0.09077722579240799,
          -0.06693222373723984,
          -0.1298573911190033,
          0.13824288547039032,
          -0.12728501856327057,
          0.08908029645681381,
          -0.01361929066479206
        ]
      ],
      "biases": [
        -0.23461568355560303,
        0.4597797989845276,
        0.4920925498008728,
        0.08166944235563278,
        -0.4275284707546234,
        0.36542168259620667,
        -0.5990659594535828,
        -0.06956566125154495,
        -0.1642310917377472,
        -0.03243351727724075,
        0.2540847957134247,
        0.2093498408794403,
        -0.0674530565738678,
        0.3293576240539551,
        0.12876270711421967,
        0.06859639286994934
      ]
    },
    {
      "weights": [
        [
          0.58553147315979,
          -0.7867387533187866,
          -0.7266260981559753,
          0.319581538438797,
          0.664264976978302,
          -0.40467795729637146,
          0.8883806467056274,
          -0.25306060910224915,
          -0.14686675369739532,
          -0.10587386041879654,
          -0.5699148178100586,
          -0.5798266530036926,
          -0.05507171154022217,
          -0.6366835832595825,
          0.06400206685066223,
          -0.26274341344833374
        ],
        [
          0.2909751534461975,
          -0.10656876116991043,
          -0.3478262424468994,
          0.09818325936794281,
          0.3095729351043701,
          -0.10097800940275192,
          0.08151740580797195,
          -0.021168597042560577,
          0.11147016286849976,
          -0.03337237611413002,
          -0.12981103360652924,
          -0.08187276124954224,
          0.028885599225759506,
          -0.14445964992046356,
          0.1345701664686203,
          0.056494131684303284
        ],
        [
          0.4899500608444214,
          -0.6406922936439514,
          -0.4756404161453247,
          0.1261315494775772,
          0.2797360122203827,
          -0.4308815896511078,
          0.6986224055290222,
          -0.34446221590042114,
          -0.045335158705711365,
          -0.0158001109957695,
          -0.4961349666118622,
          -0.16490039229393005,
          0.175379678606987,
          -0.20739424228668213,
          -0.12459991127252579,
          -0.4016994833946228
        ],
        [
          0.4244607388973236,
          -0.6565458178520203,
          -0.6744810938835144,
          0.05889182537794113,
          0.6505367159843445,
          -0.4540940225124359,
          0.8992496132850647,
          -0.19947941601276398,
          0.07112149149179459,
          0.06857705861330032,
          -0.714597761631012,
          -0.43596187233924866,
          0.025167886167764664,
          -0.6021728515625,
          -0.007045297417789698,
          -0.33484554290771484
        ],
        [
          -0.18431563675403595,
          -0.0019294811645522714,
          0.25577816367149353,
          0.1339671015739441,
          -0.23208953440189362,
          0.09109645336866379,
          -0.14256256818771362,
          -0.044336698949337006,
          0.08060808479785919,
          0.0658303052186966,
          0.18060606718063354,
          -0.10491590201854706,
          0.22530004382133484,
          0.1621321737766266,
          0.09597623348236084,
          -0.039302289485931396
        ],
        [
          0.2092851847410202,
          -0.6312541365623474,
          -0.524684488773346,
          0.2384835034608841,
          0.49454036355018616,
          -0.25394144654273987,
          0.3391302525997162,
          -0.15748587250709534,
          0.13233599066734314,
          0.1352798491716385,
          -0.5502153038978577,
          -0.1587526649236679,
          -0.09589775651693344,
          -0.5208835601806641,
          -0.008462558500468731,
          -0.23459374904632568
        ],
        [
          0.6920604705810547,
          -1.0395811796188354,
          -0.9217419624328613,
          0.45234358310699463,
          1.0750223398208618,
          -0.7229586243629456,
          1.3624324798583984,
          -0.35976970195770264,
          -0.03930897265672684,
          0.05568663403391838,
          -1.0216156244277954,
          -0.31773436069488525,
          0.018885357305407524,
          -0.6833029389381409,
          0.06901733577251434,
          -0.3772774040699005
        ],
        [
          -0.1012052670121193,
          0.18729165196418762,
          0.12467900663614273,
          0.027440914884209633,
          -0.16107439994812012,
          0.17833946645259857,
          0.11025384813547134,
          -0.05208989232778549,
          0.11537041515111923,
          0.0996914803981781,
          0.12303656339645386,
          0.12107634544372559,
          0.017000049352645874,
          0.1011851504445076,
          -0.12027444690465927,
          -0.13581904768943787
        ],
        [
          -0.052502553910017014,
          -0.15002459287643433,
          -0.1755056530237198,
          -0.13206824660301208,
          0.21040084958076477,
          -0.09783843159675598,
          0.02887032739818096,
          -0.0064070094376802444,
          -0.051266659051179886,
          -0.048762377351522446,
          0.14221049845218658,
          0.06764201074838638,
          0.04486028477549553,
          0.13296133279800415,
          -0.16836874186992645,
          -0.0175057053565979
        ],
        [
          0.07545846700668335,
          -0.30150774121284485,
          -0.21742166578769684,
          -0.04288187623023987,
          0.1047656387090683,
          -0.06101946160197258,
          0.4699135720729828,
          -0.010972755029797554,
          -0.0038005339447408915,
          -0.1446201652288437,
          -0.2913992404937744,
          0.0575406476855278,
          -0.1260199248790741,
          -0.07656843215227127,
          0.05170420929789543,
          -0.11038040369749069
        ],
        [
          0.6504737138748169,
          -1.032975435256958,
          -0.5887977480888367,
          0.3228895962238312,
          0.7052091360092163,
          -0.5463175773620605,
          1.037656307220459,
          -0.24625493586063385,
          -0.07745238393545151,
          -0.0258586835116148,
          -0.9642364978790283,
          -0.5523267984390259,
          0.07606856524944305,
          -0.675613284111023,
          0.2877372205257416,
          -0.5135385394096375
        ],
        [
          0.10867100954055786,
          -0.4295215308666229,
          -0.30724748969078064,
          -0.07920105010271072,
          0.18957452476024628,
          -0.24593143165111542,
          0.5363542437553406,
          -0.275943785905838,
          0.12504756450653076,
          -0.02298104204237461,
          -0.39383572340011597,
          -0.12092532217502594,
          0.18848088383674622,
          -0.25360164046287537,
          0.1449698954820633,
          -0.32740485668182373
        ],
        [
          0.41289880871772766,
          -0.8615857362747192,
          -0.8059273958206177,
          0.25310030579566956,
          0.6564716100692749,
          -0.4802172780036926,
          1.0257841348648071,
          -0.1732591837644577,
          0.11255452036857605,
          -0.01341532077640295,
          -0.901127815246582,
          -0.37036851048469543,
          -0.04731500521302223,
          -0.5838189125061035,
          0.24612490832805634,
          -0.5484664440155029
        ],
        [
          0.2580604553222656,
          -0.4996509552001953,
          -0.3591562509536743,
          0.27561554312705994,
          0.5848848223686218,
          -0.3159843385219574,
          0.726763129234314,
          -0.0891542062163353,
          -0.08677611500024796,
          0.15003806352615356,
          -0.643178403377533,
          -0.34339186549186707,
          -0.19971837103366852,
          -0.37737372517585754,
          -0.0713622123003006,
          -0.4092608094215393
        ],
        [
          0.4225446581840515,
          -0.44475218653678894,
          -0.6342408657073975,
          0.10524645447731018,
          0.3220040202140808,
          -0.5521733164787292,
          0.6984866261482239,
          -0.15168757736682892,
          0.055236440151929855,
          -0.018632225692272186,
          -0.5606046915054321,
          -0.4841214120388031,
          0.013948433101177216,
          -0.20516513288021088,
          -0.04051422327756882,
          -0.19932501018047333
        ],
        [
          0.29059797525405884,
          -0.1542096734046936,
          -0.08856173604726791,
          -0.007885495200753212,
          0.24866130948066711,
          -0.34377261996269226,
          0.2846251428127289,
          -0.008470488712191582,
          -0.23345604538917542,
          0.057946547865867615,
          -0.10306324809789658,
          -0.26954954862594604,
          -0.06312621384859085,
          -0.0484115295112133,
          0.019271913915872574,
          -0.3153837323188782
        ]
      ],
      "biases": [
        0.016892846673727036,
        0.09032079577445984,
        -0.08324575424194336,
        -0.013928287662565708,
        0.2520546615123749,
        -0.010746144689619541,
        -0.04720798134803772,
        -0.050107214599847794,
        -0.11956700682640076,
        0.08464538305997849,
        0.08553052693605423,
        0.028526119887828827,
        0.06245100498199463,
        -0.201748326420784,
        -0.03069162368774414,
        0.04874487221240997
      ]
    },
    {
      "weights": [
        [
          -0.5186153650283813,
          -0.24444937705993652,
          -0.4326512813568115,
          -0.4103892147541046,
          -0.03329774737358093,
          -0.13692989945411682,
          -0.5020963549613953,
          0.0035765301436185837,
          -0.11454072594642639,
          -0.23040159046649933,
          -0.627044677734375,
          -0.09521499276161194,
          -0.5162959694862366,
          -0.17499224841594696,
          -0.24088451266288757,
          -0.09597592800855637
        ],
        [
          -0.5061402916908264,
          0.12743553519248962,
          -0.3033043146133423,
          -0.27644699811935425,
          0.37208297848701477,
          -0.42051079869270325,
          -0.8194540143013,
          0.33427512645721436,
          -0.02436666376888752,
          0.04014857858419418,
          -0.7398560047149658,
          -0.37410134077072144,
          -0.6416991949081421,
          -0.38222241401672363,
          -0.45326143503189087,
          -0.17518430948257446
        ],
        [
          -0.1792551577091217,
          -0.30735599994659424,
          0.0010272882645949721,
          -0.0748482346534729,
          -0.0796075388789177,
          -0.292348712682724,
          -0.005717151798307896,
          -0.12077852338552475,
          -0.20478296279907227,
          -0.202420175075531,
          -0.21753598749637604,
          -0.3033240735530853,
          -0.3850073218345642,
          -0.06083308160305023,
          -0.34702104330062866,
          0.03722550347447395
        ],
        [
          -0.14744944870471954,
          -0.13433682918548584,
          0.09191613644361496,
          -0.2204061895608902,
          -0.14821049571037292,
          -0.2341080605983734,
          0.1731259971857071,
          -0.18105226755142212,
          -0.1762387901544571,
          -0.25313374400138855,
          0.1567528247833252,
          -0.03751427307724953,
          -0.23678602278232574,
          0.10793326050043106,
          -0.2705147862434387,
          -0.12913551926612854
        ],
        [
          -0.4193195700645447,
          -0.14893940091133118,
          -0.07614093273878098,
          -0.4622594714164734,
          0.07789259403944016,
          -0.08569428324699402,
          -0.6980364322662354,
          -0.030211618170142174,
          0.11270696669816971,
          -0.24064218997955322,
          -0.6486799716949463,
          -0.3236115872859955,
          -0.5253884792327881,
          -0.1338825672864914,
          -0.4557744860649109,
          0.03473079949617386
        ],
        [
          -0.3785044252872467,
          -0.05985557660460472,
          -0.10406002402305603,
          -0.23849065601825714,
          0.0044065676629543304,
          -0.14106932282447815,
          -0.7734032869338989,
          0.18912486732006073,
          -0.08294354379177094,
          -0.1899012178182602,
          -0.6469851136207581,
          -0.3257661461830139,
          -0.5280743837356567,
          -0.5212623476982117,
          -0.25143906474113464,
          -0.016816213726997375
        ],
        [
          -0.40134745836257935,
          -0.10700853914022446,
          -0.5055293440818787,
          -0.6591730713844299,
          0.2902162969112396,
          -0.5170581936836243,
          -0.9675025939941406,
          0.22896955907344818,
          0.16465117037296295,
          0.08522679656744003,
          -0.6038395166397095,
          -0.005160872358828783,
          -0.6248559951782227,
          -0.32376039028167725,
          -0.4344581961631775,
          0.08224740624427795
        ],
        [
          -0.35306301712989807,
          -0.3319338858127594,
          -0.3283984065055847,
          -0.5127744674682617,
          0.06741423159837723,
          -0.27650749683380127,
          -0.38895025849342346,
          0.06274915486574173,
          -0.21229733526706696,
          -0.011069675907492638,
          -0.28307563066482544,
          -0.3036407232284546,
          -0.21008425951004028,
          -0.18618100881576538,
          -0.4455442428588867,
          -0.16946949064731598
        ],
        [
          -0.7753137946128845,
          0.18941225111484528,
          -0.48569348454475403,
          -0.5833666920661926,
          0.42392879724502563,
          -0.34070003032684326,
          -0.9579737186431885,
          0.2757550776004791,
          0.28671929240226746,
          -0.10192152112722397,
          -0.8244487643241882,
          -0.031124673783779144,
          -0.6776910424232483,
          -0.4113551080226898,
          -0.39735719561576843,
          -0.22245754301548004
        ],
        [
          -0.546401858329773,
          -0.02619544230401516,
          -0.1632234901189804,
          -0.4531068801879883,
          0.21723732352256775,
          -0.30101436376571655,
          -0.6265336871147156,
          -0.05132042616605759,
          -0.034418150782585144,
          -0.3017579913139343,
          -0.4921122193336487,
          -0.07089470326900482,
          -0.6317887306213379,
          -0.3974864184856415,
          -0.2915724813938141,
          -0.0509631521999836
        ],
        [
          -0.582714855670929,
          -0.09931212663650513,
          -0.25401923060417175,
          -0.4344719350337982,
          -0.11862893402576447,
          -0.2530122697353363,
          -0.5240762233734131,
          0.008807826787233353,
          -0.05415715277194977,
          -0.2985439896583557,
          -0.5085500478744507,
          -0.19000586867332458,
          -0.4366365969181061,
          -0.1670546680688858,
          -0.17814470827579498,
          -0.12446928769350052
        ],
        [
          -0.1991119682788849,
          -0.33396875858306885,
          -0.14506183564662933,
          -0.4843735098838806,
          -0.16629813611507416,
          -0.3138464093208313,
          -0.5924996137619019,
          -0.20177540183067322,
          -0.011895401403307915,
          -0.18743540346622467,
          -0.3948441743850708,
          -0.33907362818717957,
          -0.22614501416683197,
          -0.2320443093776703,
          -0.17500844597816467,
          -0.19430549442768097
        ],
        [
          -0.5014528632164001,
          -0.1925971955060959,
          -0.3693183958530426,
          -0.4884182810783386,
          0.14829742908477783,
          -0.3350267708301544,
          -0.4289519190788269,
          0.12700816988945007,
          -0.0033503419253975153,
          -0.12456394731998444,
          -0.29982420802116394,
          -0.2058883011341095,
          -0.3544444739818573,
          -0.36882084608078003,
          -0.1866927146911621,
          -0.19762645661830902
        ],
        [
          -0.5944249629974365,
          0.1680288016796112,
          -0.3611410856246948,
          -0.566252589225769,
          0.4509449303150177,
          -0.17185837030410767,
          -1.020323395729065,
          0.29824298620224,
          0.14443951845169067,
          0.09207843989133835,
          -0.8421714901924133,
          -0.20984958112239838,
          -0.7712448239326477,
          -0.5247917771339417,
          -0.34658852219581604,
          0.018529467284679413
        ],
        [
          -0.2687496542930603,
          -0.23735526204109192,
          -0.45699915289878845,
          -0.15955054759979248,
          -0.15314623713493347,
          -0.22550591826438904,
          -0.4296140968799591,
          0.11844225972890854,
          -0.01659185253083706,
          0.004791347775608301,
          -0.4564172923564911,
          -0.3340837359428406,
          -0.553380012512207,
          -0.32134243845939636,
          -0.13563957810401917,
          -0.0945662409067154
        ],
        [
          -0.12045605480670929,
          -0.28262075781822205,
          -0.373632550239563,
          -0.286164253950119,
          -0.011593456380069256,
          -0.11445638537406921,
          -0.4513406455516815,
          -0.04144306108355522,
          -0.007737303152680397,
          -0.13295087218284607,
          -0.33779600262641907,
          -0.37826523184776306,
          -0.22324301302433014,
          -0.19555336236953735,
          -0.2085796296596527,
          -0.2146240621805191
        ]
      ],
      "biases": [
        0.06595012545585632,
        0.17509528994560242,
        -0.2150586098432541,
        -0.14778465032577515,
        -0.11037395149469376,
        -0.0822412297129631,
        0.27149638533592224,
        -0.2910093665122986,
        0.5247390270233154,
        0.023672493174672127,
        -0.03364931046962738,
        -0.014572154730558395,
        -0.3171779215335846,
        0.29073312878608704,
        -0.27539148926734924,
        -0.33251848816871643
      ]
    },
    {
      "weights": [
        [
          0.8815004825592041,
          1.3236600160598755,
          -0.032338809221982956,
          -0.3803926706314087,
          0.9898297190666199,
          0.9849178194999695,
          1.4393136501312256,
          0.607140064239502,
          1.6887060403823853,
          0.9947494864463806,
          0.7918199300765991,
          0.5699517726898193,
          0.7457503080368042,
          1.624782681465149,
          0.5894362926483154,
          0.3449448049068451
        ]
      ],
      "biases": [
        -4.109012126922607
      ]
    }
  ],
  "inputLookup": {
    "totalClouds[0]": 0,
    "lowClouds[0]": 1,
    "mediumClouds[0]": 2,
    "highClouds[0]": 3,
    "rainChance[0]": 4,
    "rainAmount[0]": 5,
    "windSpeed[0]": 6,
    "temperature[0]": 7,
    "totalClouds[1]": 8,
    "lowClouds[1]": 9,
    "mediumClouds[1]": 10,
    "highClouds[1]": 11,
    "rainChance[1]": 12,
    "rainAmount[1]": 13,
    "windSpeed[1]": 14,
    "temperature[1]": 15,
    "totalClouds[2]": 16,
    "lowClouds[2]": 17,
    "mediumClouds[2]": 18,
    "highClouds[2]": 19,
    "rainChance[2]": 20,
    "rainAmount[2]": 21,
    "windSpeed[2]": 22,
    "temperature[2]": 23,
    "totalClouds[3]": 24,
    "lowClouds[3]": 25,
    "mediumClouds[3]": 26,
    "highClouds[3]": 27,
    "rainChance[3]": 28,
    "rainAmount[3]": 29,
    "windSpeed[3]": 30,
    "temperature[3]": 31,
    "totalClouds[4]": 32,
    "lowClouds[4]": 33,
    "mediumClouds[4]": 34,
    "highClouds[4]": 35,
    "rainChance[4]": 36,
    "rainAmount[4]": 37,
    "windSpeed[4]": 38,
    "temperature[4]": 39,
    "exposureLength": 40,
    "totalClouds[5]": 41,
    "lowClouds[5]": 42,
    "mediumClouds[5]": 43,
    "highClouds[5]": 44,
    "rainChance[5]": 45,
    "rainAmount[5]": 46,
    "windSpeed[5]": 47,
    "temperature[5]": 48
  },
  "inputLookupLength": 49,
  "outputLookup": {
    "totalImagingTime": 0
  },
  "outputLookupLength": 1,
  "options": {
    "inputSize": 0,
    "outputSize": 0,
    "binaryThresh": 0.5,
    "hiddenLayers": [
      16,
      16,
      16
    ]
  },
  "trainOpts": {
    "activation": "sigmoid",
    "iterations": 20000,
    "errorThresh": 0.005,
    "log": false,
    "logPeriod": 10,
    "leakyReluAlpha": 0.01,
    "learningRate": 0.3,
    "momentum": 0.1,
    "callbackPeriod": 10,
    "timeout": "Infinity",
    "beta1": 0.9,
    "beta2": 0.999,
    "epsilon": 1e-8
  }
}