{
  "type": "NeuralNetworkGPU",
  "sizes": [
    49,
    16,
    16,
    16,
    1
  ],
  "layers": [
    {
      "weights": [],
      "biases": []
    },
    {
      "weights": [
        [
          -0.11198725551366806,
          -0.36364296078681946,
          -0.3725998103618622,
          0.311779648065567,
          -0.22962088882923126,
          -0.16746656596660614,
          0.033307213336229324,
          0.07619449496269226,
          -0.3986107110977173,
          -0.5337349772453308,
          -0.15263111889362335,
          -0.2507772743701935,
          -0.08138644695281982,
          0.15354539453983307,
          0.06442274153232574,
          0.05187438055872917,
          -0.162743479013443,
          -0.19106045365333557,
          -0.18476161360740662,
          0.06213570013642311,
          -0.2165258526802063,
          -0.006464475300163031,
          0.15046527981758118,
          0.06821398437023163,
          -0.09286560118198395,
          0.15979182720184326,
          -0.18642809987068176,
          0.22100083529949188,
          -0.024439772590994835,
          0.10934681445360184,
          0.20657676458358765,
          0.2745031714439392,
          -0.17197993397712708,
          0.07523754984140396,
          -0.12746185064315796,
          0.017798032611608505,
          -0.013307611458003521,
          -0.07354212552309036,
          0.1820487082004547,
          0.19404177367687225,
          -0.07688480615615845,
          0.12088539451360703,
          -0.0689573734998703,
          0.14701344072818756,
          -0.2414705753326416,
          -0.09744299948215485,
          0.062147870659828186,
          -0.0943756252527237,
          0.08774344623088837
        ],
        [
          -0.01746828854084015,
          -0.1583298146724701,
          -0.055641695857048035,
          0.15857750177383423,
          -0.2235976755619049,
          0.06989982724189758,
          0.1290050745010376,
          -0.09713563323020935,
          -0.2136029452085495,
          -0.3984889090061188,
          -0.25293663144111633,
          -0.21801777184009552,
          -0.14644671976566315,
          -0.09874530136585236,
          -0.008262000046670437,
          -0.15089133381843567,
          -0.1308334320783615,
          -0.18715855479240417,
          0.034135427325963974,
          -0.13567599654197693,
          0.06875165551900864,
          -0.11442272365093231,
          0.17486123740673065,
          -0.0037090834230184555,
          -0.0336119569838047,
          -0.03481701761484146,
          -0.014390031807124615,
          0.1569938361644745,
          0.019755138084292412,
          -0.18798090517520905,
          -0.04627711698412895,
          0.018111327663064003,
          -0.18050836026668549,
          0.05621441453695297,
          -0.18499957025051117,
          0.13029775023460388,
          -0.05804019048810005,
          -0.05174247547984123,
          0.05551854148507118,
          0.20117071270942688,
          0.037931136786937714,
          -0.08903361856937408,
          -0.0029988912865519524,
          0.14763620495796204,
          0.016502102836966515,
          -0.07717400789260864,
          -0.1410655826330185,
          0.13616588711738586,
          0.036771468818187714
        ],
        [
          0.28738847374916077,
          0.2886466979980469,
          0.467611163854599,
          -0.3198126554489136,
          0.43076109886169434,
          0.1726665049791336,
          -0.049175865948200226,
          -0.006169849541038275,
          0.580856204032898,
          0.6143772006034851,
          0.36578652262687683,
          0.25535938143730164,
          0.2553224563598633,
          0.11167683452367783,
          -0.16314265131950378,
          -0.1031176745891571,
          0.3014231324195862,
          -0.12259326875209808,
          0.02919677644968033,
          -0.022778397426009178,
          0.17638994753360748,
          0.09149204194545746,
          0.025103013962507248,
          -0.10900133848190308,
          0.12107159197330475,
          -0.02499118633568287,
          0.14278599619865417,
          0.012220862321555614,
          0.0737207680940628,
          0.12515023350715637,
          -0.09507414698600769,
          -0.18451248109340668,
          0.28811609745025635,
          0.14772407710552216,
          -0.13540080189704895,
          -0.11707501113414764,
          0.1101016104221344,
          -0.01642679236829281,
          -0.11121754348278046,
          -0.11694358289241791,
          0.20153291523456573,
          -0.09589649736881256,
          -0.060802657157182693,
          -0.27396270632743835,
          0.14253388345241547,
          -0.13455192744731903,
          0.09190922975540161,
          -0.34924641251564026,
          0.21595893800258636
        ],
        [
          0.12900310754776,
          0.056267064064741135,
          0.051499251276254654,
          -0.08503952622413635,
          0.26196053624153137,
          -0.0659133717417717,
          -0.039981693029403687,
          -0.1422589123249054,
          0.15667690336704254,
          0.17542603611946106,
          0.11888348311185837,
          0.165456160902977,
          0.04875963181257248,
          0.09690573811531067,
          -0.11626817286014557,
          -0.17456109821796417,
          0.011119171977043152,
          0.1677083671092987,
          0.03268743306398392,
          0.008098401129245758,
          0.19562606513500214,
          -0.1480318158864975,
          -0.189531147480011,
          -0.034755904227495193,
          0.018616562709212303,
          0.18765881657600403,
          -0.0026597401592880487,
          0.008529772982001305,
          0.2202318161725998,
          -0.008287363685667515,
          0.10829728841781616,
          -0.1412288099527359,
          0.1762022227048874,
          -0.15608161687850952,
          -0.03261321038007736,
          0.13417167961597443,
          -0.04268764704465866,
          -0.0847686231136322,
          0.03956034779548645,
          0.12735535204410553,
          0.0384533554315567,
          0.12400037795305252,
          -0.004130597226321697,
          0.05007309094071388,
          0.15621893107891083,
          -0.062326449900865555,
          -0.09260037541389465,
          0.12345245480537415,
          -0.059771522879600525
        ],
        [
          0.20557686686515808,
          0.35963180661201477,
          0.42577865719795227,
          -0.2080189287662506,
          0.0448937825858593,
          0.05323245748877525,
          0.026154085993766785,
          -0.08388437330722809,
          0.4473188817501068,
          0.35576131939888,
          0.12165610492229462,
          0.11537210643291473,
          -0.09064988791942596,
          0.14330746233463287,
          0.09051427245140076,
          0.007434386759996414,
          0.009518260136246681,
          0.02676333487033844,
          0.06314629316329956,
          -0.16895751655101776,
          -0.0010636614169925451,
          -0.15978240966796875,
          -0.1283574104309082,
          0.07375094294548035,
          0.2806190848350525,
          0.06642831861972809,
          -0.04988452047109604,
          -0.14800013601779938,
          0.020862115547060966,
          0.12334366142749786,
          0.1622447371482849,
          0.017719494178891182,
          0.1198677271604538,
          -0.12864352762699127,
          0.08496329188346863,
          -0.23109574615955353,
          0.2872409522533417,
          0.0379803404211998,
          -0.20245850086212158,
          -0.02469850890338421,
          0.08467516303062439,
          -0.052110590040683746,
          0.010716209188103676,
          -0.0035602326970547438,
          0.06612470746040344,
          -0.005211156327277422,
          0.17062389850616455,
          -0.26645562052726746,
          0.057902656495571136
        ],
        [
          0.25366395711898804,
          0.6694934368133545,
          0.6368667483329773,
          -0.22766688466072083,
          0.3877113461494446,
          -0.06007484346628189,
          -0.04159761965274811,
          -0.20582334697246552,
          0.986478328704834,
          0.8569568991661072,
          0.702994704246521,
          0.3587217628955841,
          0.03332136943936348,
          -0.1696443259716034,
          -0.0689859390258789,
          -0.08227355778217316,
          0.3189837634563446,
          -0.16086602210998535,
          0.04089883342385292,
          -0.3106973171234131,
          0.11949452012777328,
          -0.06860354542732239,
          0.14837849140167236,
          -0.06550449877977371,
          0.2529884874820709,
          -0.1277516782283783,
          -0.07070711255073547,
          -0.392583429813385,
          -0.0016898183384910226,
          0.08158305287361145,
          -0.05752250924706459,
          -0.32295358180999756,
          0.1793399304151535,
          -0.05805371701717377,
          -0.08170883357524872,
          -0.1021331399679184,
          0.2225191444158554,
          -0.1656518280506134,
          -0.1709640920162201,
          -0.27930086851119995,
          0.18013586103916168,
          0.14386296272277832,
          -0.057316165417432785,
          -0.11717131733894348,
          0.26941415667533875,
          0.020038407295942307,
          0.09623458981513977,
          -0.28144371509552,
          0.2502480447292328
        ],
        [
          0.15962116420269012,
          -0.06194060295820236,
          0.19027574360370636,
          0.09745640307664871,
          0.12967364490032196,
          0.00001622684249014128,
          -0.1215883269906044,
          0.12553103268146515,
          -0.09746024012565613,
          -0.06964440643787384,
          0.04774234816431999,
          -0.0833953246474266,
          -0.09783539175987244,
          -0.02514810673892498,
          0.1558074802160263,
          -0.0737767145037651,
          0.2141222208738327,
          -0.10423852503299713,
          0.04680689424276352,
          0.11943293362855911,
          0.15801581740379333,
          -0.1989266574382782,
          -0.04055285081267357,
          -0.041106391698122025,
          0.11042159795761108,
          0.05208183825016022,
          -0.020810017362236977,
          0.12061364203691483,
          0.08994947373867035,
          0.13983140885829926,
          0.05416060611605644,
          -0.15804791450500488,
          0.12489216029644012,
          -0.03555374592542648,
          -0.04931144416332245,
          0.12292260676622391,
          -0.08025055378675461,
          0.17300590872764587,
          0.12336528301239014,
          0.10120660811662674,
          -0.004980395548045635,
          -0.07793750613927841,
          -0.039746154099702835,
          0.033140670508146286,
          0.20189620554447174,
          0.09883522987365723,
          -0.02861437015235424,
          -0.028129473328590393,
          0.19623708724975586
        ],
        [
          0.3262673616409302,
          0.26897957921028137,
          0.5392143130302429,
          -0.17174848914146423,
          0.5525866746902466,
          0.03585875779390335,
          0.02518394961953163,
          -0.21871352195739746,
          0.678017258644104,
          0.39386752247810364,
          0.6850565671920776,
          0.3978169560432434,
          0.2129608541727066,
          -0.026561500504612923,
          -0.05310550704598427,
          -0.27352407574653625,
          0.07203079760074615,
          0.0007591306930407882,
          -0.09720045328140259,
          -0.05054444447159767,
          0.31604325771331787,
          -0.03493296355009079,
          0.17039507627487183,
          -0.020730840042233467,
          0.14924298226833344,
          0.04875543713569641,
          0.11015158891677856,
          -0.30740150809288025,
          -0.012598496861755848,
          -0.022167382761836052,
          0.024438699707388878,
          0.05232631042599678,
          0.3019421100616455,
          -0.06735836714506149,
          0.06138891354203224,
          -0.1921597421169281,
          0.27802038192749023,
          0.1790432333946228,
          0.004316915292292833,
          -0.2401966154575348,
          -0.03953482210636139,
          0.04699965938925743,
          0.09528796374797821,
          0.022691762074828148,
          0.33733415603637695,
          0.1586126983165741,
          0.13708359003067017,
          -0.23669952154159546,
          0.15405701100826263
        ],
        [
          0.37659353017807007,
          0.3722081184387207,
          0.4398766756057739,
          -0.1876174956560135,
          0.3557843267917633,
          -0.15059515833854675,
          -0.17713867127895355,
          0.05527767166495323,
          0.4761755168437958,
          0.5879746675491333,
          0.38461506366729736,
          0.28501397371292114,
          0.13566511869430542,
          -0.13455599546432495,
          0.13248476386070251,
          -0.07344167679548264,
          -0.002344780368730426,
          -0.1567922681570053,
          0.12015538662672043,
          -0.21292616426944733,
          0.013718144036829472,
          0.11233820021152496,
          -0.09291347116231918,
          -0.19587533175945282,
          0.26460155844688416,
          -0.1220824345946312,
          -0.16649501025676727,
          -0.29210662841796875,
          0.10179115831851959,
          -0.0018098049331456423,
          -0.034048017114400864,
          -0.013138885609805584,
          0.20420438051223755,
          -0.10395068675279617,
          0.06400027126073837,
          -0.17714203894138336,
          0.06903199851512909,
          -0.027119530364871025,
          0.11782535165548325,
          -0.01178779173642397,
          -0.06807631999254227,
          0.16350093483924866,
          0.12803997099399567,
          -0.114722840487957,
          0.09464818239212036,
          0.18642030656337738,
          0.029496481642127037,
          -0.2347879856824875,
          0.2939768433570862
        ],
        [
          -0.14854086935520172,
          -0.0014286312507465482,
          -0.04952266812324524,
          0.18663597106933594,
          -0.15172693133354187,
          0.19068214297294617,
          0.13038122653961182,
          0.14979766309261322,
          -0.2888451814651489,
          -0.19788528978824615,
          -0.24234259128570557,
          0.0523812435567379,
          -0.09984318166971207,
          -0.16935475170612335,
          -0.01849547028541565,
          0.20803090929985046,
          -0.062397733330726624,
          -0.14831343293190002,
          -0.15061019361019135,
          -0.1278400421142578,
          0.09008529037237167,
          0.11810899525880814,
          0.17703251540660858,
          -0.10361500829458237,
          -0.13385307788848877,
          -0.19632823765277863,
          0.13350223004817963,
          0.001170533592812717,
          -0.18886476755142212,
          -0.025998137891292572,
          0.10056598484516144,
          0.11969579011201859,
          0.06942719966173172,
          0.15748213231563568,
          0.11733387410640717,
          0.2157612144947052,
          -0.2283935248851776,
          0.05527855083346367,
          -0.06112334132194519,
          -0.00006684057734673843,
          -0.16752997040748596,
          0.05522851273417473,
          0.05710005760192871,
          -0.12586519122123718,
          -0.07221321016550064,
          -0.023378970101475716,
          0.05437638610601425,
          0.027882186695933342,
          -0.22305621206760406
        ],
        [
          -0.3452237546443939,
          -0.3419910967350006,
          -0.5713168382644653,
          0.32454460859298706,
          -0.3384198844432831,
          -0.17233404517173767,
          0.058425333350896835,
          0.06408988684415817,
          -0.764538586139679,
          -0.5085728168487549,
          -0.7160131335258484,
          -0.331093430519104,
          -0.21876785159111023,
          -0.060658104717731476,
          0.14691823720932007,
          0.12852564454078674,
          0.009523083455860615,
          0.03909745812416077,
          0.14723530411720276,
          0.29038751125335693,
          -0.23837417364120483,
          0.1523808389902115,
          -0.1702110767364502,
          0.22001032531261444,
          -0.2831171452999115,
          -0.1340300440788269,
          -0.007821843959391117,
          0.10949293524026871,
          -0.029951149597764015,
          0.06872851401567459,
          -0.037772487848997116,
          0.07925587147474289,
          -0.2850102484226227,
          -0.16339899599552155,
          0.06649366766214371,
          0.051634807139635086,
          -0.1945267617702484,
          -0.04243539273738861,
          -0.14852377772331238,
          0.3850158452987671,
          -0.259061723947525,
          0.0941975936293602,
          -0.10331950336694717,
          0.21420033276081085,
          -0.2763536274433136,
          0.012494717724621296,
          -0.11856728047132492,
          0.07218223065137863,
          -0.14199498295783997
        ],
        [
          -0.43508395552635193,
          -0.8012756109237671,
          -0.5296533703804016,
          0.2470492124557495,
          -0.42371463775634766,
          0.1667330265045166,
          0.08529675006866455,
          0.2543841004371643,
          -1.1980414390563965,
          -1.109121322631836,
          -0.6897609233856201,
          -0.4561961591243744,
          -0.026343489065766335,
          -0.11801551282405853,
          0.1390548050403595,
          0.22304455935955048,
          -0.3145216107368469,
          0.10263504087924957,
          0.031049426645040512,
          0.3077901601791382,
          -0.25016674399375916,
          0.07833069562911987,
          -0.027000747621059418,
          0.14276184141635895,
          -0.30650636553764343,
          0.07837691903114319,
          0.02323288470506668,
          0.1910090297460556,
          -0.05434839054942131,
          -0.1402973085641861,
          0.06432612985372543,
          0.3269503116607666,
          -0.29001384973526,
          -0.03448820486664772,
          -0.1263228952884674,
          0.047731246799230576,
          -0.165973961353302,
          0.1782669574022293,
          -0.07351618260145187,
          0.3858664631843567,
          -0.1764654815196991,
          0.18717437982559204,
          0.07669765502214432,
          0.38273972272872925,
          -0.33118462562561035,
          0.013968704268336296,
          -0.004741558339446783,
          0.31320613622665405,
          -0.30763813853263855
        ],
        [
          -0.203923299908638,
          -0.44239476323127747,
          -0.39632856845855713,
          0.12420178204774857,
          -0.48955675959587097,
          0.18201377987861633,
          0.14636631309986115,
          0.2151547223329544,
          -0.58735191822052,
          -0.532457172870636,
          -0.5365435481071472,
          -0.13247954845428467,
          -0.13110704720020294,
          0.0678364560008049,
          -0.14613226056098938,
          0.31720712780952454,
          -0.2937145233154297,
          0.10222657024860382,
          -0.020846163854002953,
          0.07744177430868149,
          -0.2793463468551636,
          0.0882534608244896,
          -0.08687574416399002,
          -0.027643918991088867,
          0.09487970173358917,
          -0.054033223539590836,
          -0.1048082485795021,
          -0.05556105077266693,
          0.06930923461914062,
          -0.1814904510974884,
          0.07931657880544662,
          0.1892596185207367,
          -0.07746446132659912,
          -0.06246700882911682,
          0.03201749920845032,
          0.061417773365974426,
          -0.06842684745788574,
          -0.065064437687397,
          -0.06660615652799606,
          0.24504411220550537,
          -0.002456699963659048,
          0.149191752076149,
          -0.10082805901765823,
          0.2571353614330292,
          0.0394391231238842,
          -0.11743257194757462,
          0.055211931467056274,
          0.1423797309398651,
          0.09995569288730621
        ],
        [
          -0.17645516991615295,
          -0.3836567997932434,
          -0.4657701849937439,
          0.3084755837917328,
          -0.41331031918525696,
          -0.19428856670856476,
          0.036919813603162766,
          -0.057172056287527084,
          -0.30473747849464417,
          -0.41856148838996887,
          -0.3111579120159149,
          -0.2053166925907135,
          -0.10678882151842117,
          -0.0776447206735611,
          0.007406281307339668,
          0.0014166136970743537,
          -0.08894752711057663,
          -0.034905724227428436,
          -0.13519048690795898,
          -0.0700073167681694,
          0.026567112654447556,
          -0.017746295779943466,
          -0.15805736184120178,
          0.03953756019473076,
          0.001418080646544695,
          0.03964896872639656,
          -0.034436993300914764,
          0.10507415980100632,
          0.02469802275300026,
          -0.12259107828140259,
          -0.0899953618645668,
          0.3163789212703705,
          -0.01653125137090683,
          -0.046484772115945816,
          -0.07871703058481216,
          -0.017271453514695168,
          0.11659576743841171,
          -0.0833936557173729,
          -0.02641432359814644,
          0.2109895944595337,
          -0.15784497559070587,
          0.1712157130241394,
          0.08320208638906479,
          -0.06155485659837723,
          -0.09129523485898972,
          0.07047007232904434,
          -0.11531252413988113,
          -0.025041965767741203,
          -0.1480579823255539
        ],
        [
          0.4939671754837036,
          0.634913444519043,
          0.7870412468910217,
          -0.3445057272911072,
          0.4627856910228729,
          -0.1851612627506256,
          -0.04905317351222038,
          -0.4745856523513794,
          1.1950373649597168,
          0.7499907612800598,
          0.6653099656105042,
          0.366122841835022,
          0.031910743564367294,
          -0.01771438680589199,
          0.0834384560585022,
          -0.46747878193855286,
          0.3022727966308594,
          0.12120024859905243,
          0.016890257596969604,
          -0.13557638227939606,
          0.25345760583877563,
          -0.16015630960464478,
          0.04468755051493645,
          -0.16711221635341644,
          0.05807723477482796,
          -0.1467827558517456,
          -0.17219746112823486,
          -0.11695894598960876,
          0.06926753371953964,
          -0.09271714091300964,
          -0.16268673539161682,
          -0.1079990416765213,
          0.3142011761665344,
          0.12977857887744904,
          0.12092669308185577,
          -0.28120920062065125,
          0.0972759947180748,
          0.0014833207242190838,
          -0.07521550357341766,
          -0.11921986937522888,
          0.3339393138885498,
          0.011087505146861076,
          -0.21499177813529968,
          -0.27590665221214294,
          0.25887441635131836,
          -0.18567873537540436,
          -0.18141552805900574,
          -0.21582971513271332,
          0.19746121764183044
        ],
        [
          0.31397199630737305,
          0.41253361105918884,
          0.36714431643486023,
          -0.08391418308019638,
          0.2923164367675781,
          0.17394205927848816,
          -0.1633969098329544,
          -0.26897022128105164,
          0.576229453086853,
          0.45379388332366943,
          0.2967176139354706,
          0.33582767844200134,
          -0.08839498460292816,
          -0.12122880667448044,
          0.06903570145368576,
          0.010176463983952999,
          0.09907613694667816,
          0.05353115126490593,
          -0.004567745141685009,
          -0.08472354710102081,
          0.2355862557888031,
          -0.14254984259605408,
          -0.09402566403150558,
          -0.2091531753540039,
          0.2871011197566986,
          0.1326545923948288,
          -0.07524716109037399,
          0.07858732342720032,
          0.05509692057967186,
          -0.12130806595087051,
          -0.1318255066871643,
          -0.23895928263664246,
          0.04851698502898216,
          0.06097869202494621,
          -0.1254248321056366,
          0.023793987929821014,
          0.08162480592727661,
          -0.16569580137729645,
          0.07308430224657059,
          -0.17180904746055603,
          0.14285317063331604,
          0.154663547873497,
          0.07231835275888443,
          -0.22771993279457092,
          -0.02088424563407898,
          0.19318419694900513,
          0.03406481817364693,
          -0.22482416033744812,
          0.2860416769981384
        ]
      ],
      "biases": [
        -0.0011007373686879873,
        0.16893550753593445,
        -0.3088700473308563,
        -0.046593934297561646,
        -0.10325061529874802,
        -0.30908843874931335,
        0.07046029716730118,
        -0.38752439618110657,
        -0.27649086713790894,
        -0.06381554156541824,
        0.3678625822067261,
        0.4154084324836731,
        0.08072841912508011,
        0.313749223947525,
        -0.3161246180534363,
        -0.25593113899230957
      ]
    },
    {
      "weights": [
        [
          -0.3386339545249939,
          -0.1949678212404251,
          0.3332250714302063,
          0.176095649600029,
          0.19679085910320282,
          0.28114697337150574,
          -0.1785513311624527,
          0.33894649147987366,
          0.1884511113166809,
          -0.29982489347457886,
          -0.3412211537361145,
          -0.6050196290016174,
          -0.4507530629634857,
          -0.19149689376354218,
          0.5487673282623291,
          0.19797256588935852
        ],
        [
          -0.26273784041404724,
          -0.24024292826652527,
          0.13263672590255737,
          0.1026575118303299,
          0.17172613739967346,
          0.418000727891922,
          -0.00352927902713418,
          0.021036110818386078,
          0.03202152997255325,
          -0.15521475672721863,
          -0.34650924801826477,
          -0.42052343487739563,
          -0.23032639920711517,
          -0.3622179329395294,
          0.43988361954689026,
          0.29430487751960754
        ],
        [
          -0.26864099502563477,
          -0.23064744472503662,
          0.3662402331829071,
          0.008988285437226295,
          0.061934925615787506,
          0.4568144381046295,
          -0.10227198898792267,
          0.2800130248069763,
          0.3819620907306671,
          -0.4414554238319397,
          -0.6791977286338806,
          -0.7968882918357849,
          -0.455455482006073,
          -0.2588749825954437,
          0.5856190919876099,
          0.3965027630329132
        ],
        [
          0.22352544963359833,
          0.17041537165641785,
          -0.2465539425611496,
          -0.1380583494901657,
          -0.12640279531478882,
          -0.4222753345966339,
          0.03421970456838608,
          -0.23421978950500488,
          -0.1158992350101471,
          -0.046419210731983185,
          0.519173264503479,
          0.585279643535614,
          0.1675669103860855,
          0.4042961895465851,
          -0.38318970799446106,
          -0.15744830667972565
        ],
        [
          -0.278846800327301,
          -0.27959421277046204,
          0.14764219522476196,
          0.12691937386989594,
          0.32041606307029724,
          0.43286481499671936,
          0.11127077043056488,
          0.3284244239330292,
          0.22128061950206757,
          -0.23848797380924225,
          -0.3830821216106415,
          -0.5133030414581299,
          -0.5256081223487854,
          -0.4777015149593353,
          0.3018992841243744,
          0.1407211422920227
        ],
        [
          -0.5955581665039062,
          -0.3359626233577728,
          0.4253743886947632,
          -0.018348731100559235,
          0.2360994815826416,
          0.4568192660808563,
          0.021412283182144165,
          0.5129903554916382,
          0.2415819615125656,
          -0.4121496081352234,
          -0.7518822550773621,
          -0.8575344681739807,
          -0.3663959205150604,
          -0.3262074589729309,
          0.6916342377662659,
          0.17825856804847717
        ],
        [
          -0.3710700273513794,
          -0.11789125949144363,
          0.25113916397094727,
          0.11137327551841736,
          0.1133880466222763,
          0.28689324855804443,
          0.10675642639398575,
          0.18641789257526398,
          0.07156991213560104,
          -0.04557381570339203,
          -0.20308861136436462,
          -0.4135325849056244,
          -0.10013798624277115,
          -0.3643846809864044,
          0.439920574426651,
          0.2108486443758011
        ],
        [
          -0.46573618054389954,
          -0.15314079821109772,
          0.35690978169441223,
          -0.02262428216636181,
          0.22818194329738617,
          0.6656376719474792,
          -0.014836950227618217,
          0.6244142651557922,
          0.45345619320869446,
          -0.24770088493824005,
          -0.5636739134788513,
          -1.1235744953155518,
          -0.7815371155738831,
          -0.3466954529285431,
          0.7930436730384827,
          0.5008437037467957
        ],
        [
          0.051705751568078995,
          0.1637512743473053,
          0.2072778344154358,
          -0.012144356034696102,
          -0.06051306053996086,
          -0.1359139233827591,
          0.1118311658501625,
          0.20663465559482574,
          -0.11840531975030899,
          0.005905643571168184,
          0.11439639329910278,
          -0.07124388962984085,
          0.16476403176784515,
          0.1925283968448639,
          0.042320653796195984,
          -0.15906931459903717
        ],
        [
          -0.36844179034233093,
          -0.24325400590896606,
          0.5213590860366821,
          -0.08054570853710175,
          0.30906838178634644,
          0.6507844924926758,
          -0.025103747844696045,
          0.4584878385066986,
          0.4294859766960144,
          -0.22470778226852417,
          -0.8916775584220886,
          -1.027037501335144,
          -0.5669828057289124,
          -0.5846596956253052,
          0.7492522597312927,
          0.19523295760154724
        ],
        [
          -0.5609714984893799,
          -0.4758121371269226,
          0.2608966529369354,
          -0.07107434421777725,
          0.20981022715568542,
          0.6671238541603088,
          -0.01804710552096367,
          0.6050812602043152,
          0.29063984751701355,
          -0.1866278350353241,
          -0.49374106526374817,
          -0.8582413792610168,
          -0.392925888299942,
          -0.43598514795303345,
          0.5747366547584534,
          0.2629844546318054
        ],
        [
          -0.3484334647655487,
          -0.27218571305274963,
          0.33314579725265503,
          0.14344187080860138,
          0.13729317486286163,
          0.5625637769699097,
          -0.24888759851455688,
          0.1936657875776291,
          0.42891472578048706,
          -0.2620014548301697,
          -0.5313876867294312,
          -0.7005808353424072,
          -0.35154396295547485,
          -0.38057440519332886,
          0.6457808017730713,
          0.35155171155929565
        ],
        [
          -0.17271751165390015,
          -0.11688848584890366,
          0.4461252689361572,
          0.06858019530773163,
          0.0044108787551522255,
          0.43694671988487244,
          -0.1508823037147522,
          0.2174709290266037,
          0.22178597748279572,
          -0.23999404907226562,
          -0.5946436524391174,
          -0.6225440502166748,
          -0.5090577602386475,
          -0.21724939346313477,
          0.5817529559135437,
          0.24336901307106018
        ],
        [
          0.2035459280014038,
          0.07483913749456406,
          -0.11838735640048981,
          -0.03504851460456848,
          -0.03125102445483208,
          -0.36266183853149414,
          -0.06794824451208115,
          -0.21179206669330597,
          -0.237788587808609,
          -0.007829288952052593,
          0.33891424536705017,
          0.3150522708892822,
          0.0005683547351509333,
          -0.0260725449770689,
          -0.30032584071159363,
          0.0745968297123909
        ],
        [
          -0.10056881606578827,
          -0.2376435250043869,
          0.12673071026802063,
          0.04500463604927063,
          -0.04816288501024246,
          0.529532253742218,
          -0.1519695669412613,
          0.4598086476325989,
          0.11703503131866455,
          -0.04595498368144035,
          -0.4752216935157776,
          -0.528731644153595,
          -0.3047933280467987,
          -0.3889754116535187,
          0.4033143222332001,
          0.07674992084503174
        ],
        [
          -0.07367447763681412,
          -0.15223093330860138,
          0.3436366319656372,
          0.08209119737148285,
          -0.012238076888024807,
          0.13143374025821686,
          -0.15327581763267517,
          0.09486617147922516,
          0.0532384067773819,
          -0.12691138684749603,
          -0.30163049697875977,
          -0.4337509572505951,
          -0.3396930396556854,
          -0.04325703904032707,
          0.04617417976260185,
          0.117389976978302
        ]
      ],
      "biases": [
        -0.2679801285266876,
        0.008338706567883492,
        -0.12465355545282364,
        0.31032291054725647,
        -0.1890118420124054,
        -0.08713282644748688,
        -0.2712513208389282,
        -0.4489121735095978,
        -0.0898485779762268,
        -0.15967892110347748,
        -0.20594647526741028,
        -0.33402788639068604,
        -0.24631085991859436,
        0.047508902847766876,
        -0.061931073665618896,
        0.09518216550350189
      ]
    },
    {
      "weights": [
        [
          -0.05950666964054108,
          -0.39581096172332764,
          -0.4268026053905487,
          0.0368666909635067,
          -0.15360747277736664,
          -0.1519101858139038,
          -0.10941661149263382,
          -0.5010097622871399,
          0.09464334696531296,
          -0.4302802085876465,
          -0.26967984437942505,
          -0.5110413432121277,
          -0.12077255547046661,
          -0.1085829883813858,
          -0.24745041131973267,
          -0.25722792744636536
        ],
        [
          -0.22534602880477905,
          -0.25203925371170044,
          -0.20484896004199982,
          0.5161141157150269,
          -0.10538192838430405,
          -0.3546779453754425,
          -0.10459763556718826,
          -0.5855602622032166,
          0.031521525233983994,
          -0.6772288084030151,
          -0.46184787154197693,
          -0.4210517704486847,
          -0.2430504411458969,
          0.35938969254493713,
          -0.42681553959846497,
          0.0540175586938858
        ],
        [
          0.448565274477005,
          0.28200414776802063,
          0.4603257477283478,
          -0.3928757905960083,
          0.3391217887401581,
          0.4905357360839844,
          0.10113559663295746,
          0.5507190823554993,
          -0.1759432554244995,
          0.47996118664741516,
          0.3328656852245331,
          0.12704157829284668,
          0.2901632487773895,
          -0.2863825559616089,
          0.2966121435165405,
          0.08305693417787552
        ],
        [
          -0.3811117708683014,
          -0.1703449934720993,
          -0.3442346155643463,
          0.06513820588588715,
          -0.14412309229373932,
          -0.24238334596157074,
          -0.3117387592792511,
          -0.47146257758140564,
          -0.23115010559558868,
          -0.4614315629005432,
          -0.404893696308136,
          -0.1482420265674591,
          -0.2136368453502655,
          0.15886275470256805,
          -0.17296850681304932,
          -0.044357482343912125
        ],
        [
          -0.09808184206485748,
          -0.2066168487071991,
          -0.26693251729011536,
          0.3670663833618164,
          -0.3306322693824768,
          -0.43859153985977173,
          -0.12964500486850739,
          -0.6314651966094971,
          0.15498203039169312,
          -0.580528736114502,
          -0.5643633604049683,
          -0.49111923575401306,
          -0.31438276171684265,
          0.4367259442806244,
          -0.3815876841545105,
          -0.12998753786087036
        ],
        [
          -0.4070771038532257,
          -0.07277605682611465,
          -0.18732821941375732,
          0.35892677307128906,
          -0.138434499502182,
          -0.46978631615638733,
          -0.37329229712486267,
          -0.597891628742218,
          0.08939921855926514,
          -0.40958571434020996,
          -0.3775027394294739,
          -0.31846553087234497,
          -0.34286463260650635,
          0.16823548078536987,
          -0.15297341346740723,
          -0.21462994813919067
        ],
        [
          -0.14963722229003906,
          -0.10676892101764679,
          -0.5705694556236267,
          0.46474266052246094,
          -0.45045948028564453,
          -0.30252671241760254,
          -0.13309817016124725,
          -0.36304786801338196,
          0.23773464560508728,
          -0.39275866746902466,
          -0.4880068004131317,
          -0.30278822779655457,
          -0.3456938564777374,
          0.1885228455066681,
          -0.4404822289943695,
          -0.24952253699302673
        ],
        [
          -0.09496606886386871,
          -0.26709696650505066,
          -0.429714560508728,
          0.029372846707701683,
          -0.17623521387577057,
          -0.35574713349342346,
          -0.38591381907463074,
          -0.26480087637901306,
          -0.12611031532287598,
          -0.1847420036792755,
          -0.4458080530166626,
          -0.1501927524805069,
          -0.2516176998615265,
          0.009393717162311077,
          -0.05841981992125511,
          -0.07781898230314255
        ],
        [
          -0.07362185418605804,
          -0.28211575746536255,
          -0.1659696102142334,
          -0.24497129023075104,
          -0.26745840907096863,
          -0.19582974910736084,
          -0.23682229220867157,
          -0.11595851182937622,
          -0.2007274478673935,
          -0.2682775855064392,
          -0.05004694685339928,
          -0.13749046623706818,
          -0.2604094445705414,
          0.07261642813682556,
          -0.21751460433006287,
          -0.04457474499940872
        ],
        [
          -0.2892054617404938,
          -0.1773197203874588,
          -0.16156844794750214,
          0.3183089792728424,
          -0.3985690474510193,
          -0.2795451283454895,
          -0.4063762128353119,
          -0.36794570088386536,
          -0.02113700471818447,
          -0.49059808254241943,
          -0.2621401250362396,
          -0.296374648809433,
          -0.3568323254585266,
          0.2977834641933441,
          -0.3788776695728302,
          -0.05000694468617439
        ],
        [
          -0.180193692445755,
          -0.3666141629219055,
          -0.06365715712308884,
          -0.1589377075433731,
          -0.3103899657726288,
          -0.2649936378002167,
          -0.05679677426815033,
          -0.28339508175849915,
          0.07435408234596252,
          -0.2741846740245819,
          -0.24600090086460114,
          -0.366452157497406,
          -0.33934736251831055,
          0.031216667965054512,
          -0.35481730103492737,
          -0.24851351976394653
        ],
        [
          -0.21871443092823029,
          -0.20320113003253937,
          -0.4842038154602051,
          0.20630547404289246,
          -0.13698610663414001,
          -0.5606705546379089,
          -0.22193993628025055,
          -0.4588574767112732,
          0.13653430342674255,
          -0.497494101524353,
          -0.25142747163772583,
          -0.450967401266098,
          -0.16299594938755035,
          0.1717945784330368,
          -0.18520116806030273,
          -0.16695183515548706
        ],
        [
          -0.4277505874633789,
          -0.10877050459384918,
          -0.4696808159351349,
          0.42945823073387146,
          -0.08717624843120575,
          -0.5783457159996033,
          -0.09253990650177002,
          -0.6309605240821838,
          0.22545185685157776,
          -0.6625465154647827,
          -0.5477272868156433,
          -0.4599766433238983,
          -0.4545402526855469,
          0.35776644945144653,
          -0.09815958887338638,
          0.007667591795325279
        ],
        [
          -0.3527984619140625,
          -0.09108597785234451,
          -0.48446783423423767,
          0.38452577590942383,
          -0.33412298560142517,
          -0.354580819606781,
          -0.09229534864425659,
          -0.40816769003868103,
          -0.04901198670268059,
          -0.4813340902328491,
          -0.4876914322376251,
          -0.4992409944534302,
          -0.258313924074173,
          0.2245643585920334,
          -0.1451234370470047,
          0.045565903186798096
        ],
        [
          -0.48466646671295166,
          -0.18261493742465973,
          -0.42451271414756775,
          0.38274869322776794,
          -0.41359683871269226,
          -0.4311784505844116,
          -0.0672633945941925,
          -0.6037081480026245,
          0.22949400544166565,
          -0.43285903334617615,
          -0.3456867039203644,
          -0.4391455352306366,
          -0.22394916415214539,
          0.1817011684179306,
          -0.09215950220823288,
          -0.26918306946754456
        ],
        [
          -0.09819956868886948,
          -0.19417798519134521,
          -0.36188262701034546,
          0.5921197533607483,
          -0.39716053009033203,
          -0.5371080040931702,
          -0.3034171164035797,
          -0.5271819829940796,
          -0.043904539197683334,
          -0.4705139994621277,
          -0.3880847692489624,
          -0.2790464162826538,
          -0.4453778564929962,
          0.2040082961320877,
          -0.07731374353170395,
          -0.10314997285604477
        ]
      ],
      "biases": [
        -0.07733216881752014,
        -0.08789599686861038,
        -0.21735787391662598,
        -0.06668800115585327,
        0.2668747901916504,
        -0.01710589788854122,
        0.002293011639267206,
        -0.29215919971466064,
        -0.31721970438957214,
        -0.10137633979320526,
        -0.23726367950439453,
        0.013401723466813564,
        0.31385383009910583,
        0.00888146460056305,
        0.15480580925941467,
        0.055437929928302765
      ]
    },
    {
      "weights": [
        [
          0.6314953565597534,
          1.126318335533142,
          -2.242412805557251,
          0.6593134999275208,
          1.251996397972107,
          0.9333438873291016,
          1.0185376405715942,
          0.468658447265625,
          0.10170111060142517,
          0.8396682739257812,
          0.4426078498363495,
          0.8761889934539795,
          1.304645299911499,
          0.9581223726272583,
          1.0775007009506226,
          1.1310009956359863
        ]
      ],
      "biases": [
        -2.9347331523895264
      ]
    }
  ],
  "inputLookup": {
    "totalClouds[0]": 0,
    "lowClouds[0]": 1,
    "mediumClouds[0]": 2,
    "highClouds[0]": 3,
    "rainChance[0]": 4,
    "rainAmount[0]": 5,
    "windSpeed[0]": 6,
    "temperature[0]": 7,
    "totalClouds[1]": 8,
    "lowClouds[1]": 9,
    "mediumClouds[1]": 10,
    "highClouds[1]": 11,
    "rainChance[1]": 12,
    "rainAmount[1]": 13,
    "windSpeed[1]": 14,
    "temperature[1]": 15,
    "totalClouds[2]": 16,
    "lowClouds[2]": 17,
    "mediumClouds[2]": 18,
    "highClouds[2]": 19,
    "rainChance[2]": 20,
    "rainAmount[2]": 21,
    "windSpeed[2]": 22,
    "temperature[2]": 23,
    "totalClouds[3]": 24,
    "lowClouds[3]": 25,
    "mediumClouds[3]": 26,
    "highClouds[3]": 27,
    "rainChance[3]": 28,
    "rainAmount[3]": 29,
    "windSpeed[3]": 30,
    "temperature[3]": 31,
    "totalClouds[4]": 32,
    "lowClouds[4]": 33,
    "mediumClouds[4]": 34,
    "highClouds[4]": 35,
    "rainChance[4]": 36,
    "rainAmount[4]": 37,
    "windSpeed[4]": 38,
    "temperature[4]": 39,
    "exposureLength": 40,
    "totalClouds[5]": 41,
    "lowClouds[5]": 42,
    "mediumClouds[5]": 43,
    "highClouds[5]": 44,
    "rainChance[5]": 45,
    "rainAmount[5]": 46,
    "windSpeed[5]": 47,
    "temperature[5]": 48
  },
  "inputLookupLength": 49,
  "outputLookup": {
    "totalImagingTime": 0
  },
  "outputLookupLength": 1,
  "options": {
    "inputSize": 0,
    "outputSize": 0,
    "binaryThresh": 0.5,
    "hiddenLayers": [
      16,
      16,
      16
    ]
  },
  "trainOpts": {
    "activation": "sigmoid",
    "iterations": 20000,
    "errorThresh": 0.005,
    "log": false,
    "logPeriod": 10,
    "leakyReluAlpha": 0.01,
    "learningRate": 0.3,
    "momentum": 0.1,
    "callbackPeriod": 10,
    "timeout": "Infinity",
    "beta1": 0.9,
    "beta2": 0.999,
    "epsilon": 1e-8
  }
}