{
  "type": "NeuralNetworkGPU",
  "sizes": [
    41,
    16,
    16,
    16,
    1
  ],
  "layers": [
    {
      "weights": [],
      "biases": []
    },
    {
      "weights": [
        [
          0.3426257371902466,
          0.2160840481519699,
          -0.1900232583284378,
          0.07003870606422424,
          0.16580048203468323,
          -0.04867612197995186,
          -0.1733839362859726,
          0.05767735838890076,
          0.08887694776058197,
          0.39777860045433044,
          0.23155470192432404,
          -0.024439528584480286,
          0.1160576120018959,
          0.19696857035160065,
          -0.17035126686096191,
          -0.0645587369799614,
          0.3134101629257202,
          0.06657660752534866,
          0.09903392195701599,
          0.08492807298898697,
          0.3079964220523834,
          -0.032695211470127106,
          -0.08396364748477936,
          0.1519877314567566,
          -0.03034757822751999,
          -0.04006056487560272,
          -0.04505786672234535,
          -0.04971139132976532,
          0.26064014434814453,
          -0.13671793043613434,
          0.02868627943098545,
          0.04552511125802994,
          0.23164430260658264,
          0.1623726636171341,
          0.18523088097572327,
          0.006929345428943634,
          0.07431606948375702,
          0.11963175237178802,
          0.1426769644021988,
          -0.14012891054153442,
          0.05336190387606621
        ],
        [
          0.6733900904655457,
          0.7328610420227051,
          -0.2326093316078186,
          0.16372783482074738,
          0.34035515785217285,
          0.15367719531059265,
          0.1735503226518631,
          -0.2298383265733719,
          0.7453692555427551,
          0.9181308150291443,
          0.18360137939453125,
          0.14813090860843658,
          0.4485795199871063,
          -0.1798790693283081,
          -0.11466624587774277,
          -0.06338906288146973,
          0.3724592626094818,
          0.07628223299980164,
          0.12368983775377274,
          -0.29779475927352905,
          0.4396008551120758,
          -0.008142818696796894,
          0.1678127497434616,
          0.039764370769262314,
          0.23812013864517212,
          -0.009813254699110985,
          -0.1148935928940773,
          0.0006897395942360163,
          0.45719632506370544,
          0.0587165392935276,
          -0.029267728328704834,
          -0.18802155554294586,
          0.40729132294654846,
          0.13836818933486938,
          -0.03070991486310959,
          -0.043510887771844864,
          0.4056381285190582,
          0.023596763610839844,
          0.16775037348270416,
          -0.29774153232574463,
          0.33039960265159607
        ],
        [
          0.19689035415649414,
          0.059546519070863724,
          0.18945994973182678,
          -0.1344296932220459,
          0.20692117512226105,
          -0.13786853849887848,
          0.06607536226511002,
          -0.13578562438488007,
          0.2424117922782898,
          0.23937155306339264,
          -0.006009548436850309,
          -0.027726147323846817,
          0.18221059441566467,
          -0.06698150187730789,
          -0.08167221397161484,
          -0.026026345789432526,
          0.2819143533706665,
          0.03206011652946472,
          -0.036105141043663025,
          0.08774282783269882,
          0.3526942729949951,
          -0.11766444891691208,
          0.004973189439624548,
          -0.03009270876646042,
          0.06435613334178925,
          -0.16197086870670319,
          -0.01303323358297348,
          -0.057728949934244156,
          0.18219901621341705,
          0.04851119592785835,
          -0.08298496156930923,
          0.14866416156291962,
          0.332788348197937,
          0.12761190533638,
          0.18179231882095337,
          -0.039104122668504715,
          0.3342835307121277,
          -0.098982073366642,
          -0.039734166115522385,
          -0.15559832751750946,
          0.043558552861213684
        ],
        [
          0.20175878703594208,
          0.275275319814682,
          0.11547671258449554,
          0.13724194467067719,
          0.3571564257144928,
          -0.1779612898826599,
          -0.03926607593894005,
          -0.2101455181837082,
          0.4022940993309021,
          0.5592276453971863,
          -0.047696005553007126,
          0.10357557237148285,
          0.24489986896514893,
          -0.020975356921553612,
          -0.18002574145793915,
          0.1539020538330078,
          0.012896961532533169,
          -0.1641264259815216,
          0.20310772955417633,
          -0.027809761464595795,
          0.20780214667320251,
          0.034683484584093094,
          0.1077132448554039,
          -0.08561821281909943,
          0.3621155023574829,
          -0.07839100807905197,
          0.007669080514460802,
          -0.118928924202919,
          0.12672904133796692,
          0.0217298474162817,
          -0.1350032091140747,
          -0.1712646186351776,
          0.3871701955795288,
          -0.08221063017845154,
          0.059702318161726,
          -0.006754394620656967,
          0.3766269087791443,
          -0.18288178741931915,
          -0.13557755947113037,
          0.16415190696716309,
          0.3200240731239319
        ],
        [
          -0.3625156879425049,
          -0.28555983304977417,
          -0.04928766191005707,
          -0.22404055297374725,
          -0.4603796899318695,
          -0.048120491206645966,
          -0.026621593162417412,
          0.029273273423314095,
          -0.24839715659618378,
          -0.41687366366386414,
          -0.2653255760669708,
          0.09771178662776947,
          -0.29917195439338684,
          -0.09858483076095581,
          -0.08423350751399994,
          0.13069778680801392,
          -0.2730942368507385,
          -0.06548409163951874,
          0.10025518387556076,
          -0.14784717559814453,
          -0.337647944688797,
          -0.12950612604618073,
          0.12741608917713165,
          0.016529329121112823,
          -0.2453019917011261,
          0.162642702460289,
          0.010409464128315449,
          0.21368294954299927,
          -0.043257758021354675,
          -0.19264818727970123,
          -0.21302883327007294,
          0.03715173527598381,
          -0.28312772512435913,
          -0.05579325556755066,
          0.06042230874300003,
          0.029052522033452988,
          -0.035624630749225616,
          -0.09712829440832138,
          0.0859903022646904,
          -0.12755218148231506,
          -0.26062464714050293
        ],
        [
          -0.3014421761035919,
          -0.197726771235466,
          0.09089181572198868,
          -0.10661385953426361,
          -0.35972121357917786,
          0.07430945336818695,
          0.0453861728310585,
          -0.020672140643000603,
          -0.39705702662467957,
          -0.2538982927799225,
          -0.12191203981637955,
          0.134532630443573,
          -0.004250507336109877,
          -0.1876898854970932,
          0.05436622351408005,
          0.2341938465833664,
          -0.3044510781764984,
          0.07296871393918991,
          -0.005980455316603184,
          0.22666917741298676,
          -0.17042478919029236,
          0.17453932762145996,
          -0.19185759127140045,
          -0.14111585915088654,
          -0.3299637734889984,
          0.08252296596765518,
          0.020382924005389214,
          -0.11426293849945068,
          -0.007416534703224897,
          0.03702295571565628,
          -0.10331512242555618,
          -0.09517055749893188,
          -0.3105628788471222,
          0.012803974561393261,
          -0.08174125105142593,
          -0.04374409094452858,
          -0.2542911469936371,
          0.03940491005778313,
          0.023222601041197777,
          -0.12707950174808502,
          -0.1612538993358612
        ],
        [
          0.06765030324459076,
          0.019449414685368538,
          0.1762092411518097,
          0.055119000375270844,
          -0.14040686190128326,
          0.09242910146713257,
          -0.005352386273443699,
          -0.14956311881542206,
          -0.06648993492126465,
          0.039393894374370575,
          -0.022660022601485252,
          0.011475554667413235,
          0.14894941449165344,
          0.1161404699087143,
          -0.15358896553516388,
          -0.007818439044058323,
          -0.10749037563800812,
          0.019644852727651596,
          0.02704775705933571,
          -0.12192022800445557,
          -0.004684706684201956,
          0.07631819695234299,
          -0.026981815695762634,
          0.002970898523926735,
          -0.15439599752426147,
          0.08970297127962112,
          0.11740715801715851,
          -0.09522770345211029,
          -0.1925007402896881,
          0.09355036914348602,
          -0.19274266064167023,
          0.10469558835029602,
          -0.13922052085399628,
          0.14891456067562103,
          -0.17839084565639496,
          -0.011499147862195969,
          0.02650226280093193,
          -0.08066385984420776,
          -0.15058590471744537,
          0.024124082177877426,
          0.02128053456544876
        ],
        [
          -0.3292417824268341,
          -0.10957615822553635,
          -0.08566165715456009,
          -0.049306683242321014,
          -0.3842426836490631,
          -0.05582950636744499,
          0.18109409511089325,
          -0.13187988102436066,
          -0.37567591667175293,
          -0.2827479839324951,
          -0.26148471236228943,
          0.025185171514749527,
          -0.3025856614112854,
          0.19880461692810059,
          0.12980318069458008,
          0.03436765819787979,
          -0.07211694121360779,
          0.1674494594335556,
          -0.15516160428524017,
          0.16946382820606232,
          -0.32847052812576294,
          0.12520527839660645,
          -0.0800871029496193,
          0.011098968796432018,
          -0.18641145527362823,
          -0.031189406290650368,
          -0.109955333173275,
          -0.010726996697485447,
          -0.11999072134494781,
          0.17921051383018494,
          -0.07694018632173538,
          0.0879192128777504,
          -0.09244988858699799,
          -0.043912988156080246,
          -0.10767398029565811,
          0.09393421560525894,
          -0.32088667154312134,
          0.000042949650378432125,
          0.07145992666482925,
          0.15477217733860016,
          -0.11058655381202698
        ],
        [
          -0.613960862159729,
          -0.5694135427474976,
          0.12325568497180939,
          -0.1979949176311493,
          -0.49539685249328613,
          -0.1499030590057373,
          -0.05512198805809021,
          0.10705692321062088,
          -0.6181686520576477,
          -0.871063232421875,
          -0.04584598168730736,
          0.0014240073505789042,
          -0.1964566856622696,
          -0.0721106082201004,
          -0.16789941489696503,
          0.10368605703115463,
          -0.3512077331542969,
          0.15193520486354828,
          -0.014654512517154217,
          -0.08387904614210129,
          -0.3201783299446106,
          0.1197766363620758,
          0.048621807247400284,
          0.24773800373077393,
          -0.4437299966812134,
          0.05393616110086441,
          0.10699733346700668,
          0.09417206794023514,
          -0.30048710107803345,
          0.05079000070691109,
          -0.006488419603556395,
          -0.05045659840106964,
          -0.3960212171077728,
          0.0799257904291153,
          -0.11052117496728897,
          0.26935136318206787,
          -0.3177523910999298,
          0.18689830601215363,
          0.03331733122467995,
          0.2603110074996948,
          -0.36312606930732727
        ],
        [
          0.07999493181705475,
          -0.30038827657699585,
          -0.15338069200515747,
          -0.20057395100593567,
          -0.25337475538253784,
          -0.05980539321899414,
          0.13811840116977692,
          -0.047835491597652435,
          -0.31937888264656067,
          -0.2678828835487366,
          0.06195725128054619,
          -0.1291772872209549,
          0.10259414464235306,
          0.0787026509642601,
          -0.00841521006077528,
          0.17288559675216675,
          -0.2138350009918213,
          -0.06781121343374252,
          0.06489866226911545,
          0.11524581164121628,
          0.06717341393232346,
          0.0990542396903038,
          0.11867102980613708,
          -0.06893166154623032,
          0.046368494629859924,
          -0.11204338073730469,
          -0.05165593698620796,
          0.018750939518213272,
          -0.16893109679222107,
          0.18363700807094574,
          0.1486176997423172,
          0.128621906042099,
          0.11300604790449142,
          -0.11731093376874924,
          0.004054628778249025,
          0.08718983083963394,
          -0.11070551723241806,
          -0.16901351511478424,
          0.00898821372538805,
          0.002635982120409608,
          -0.05206398665904999
        ],
        [
          -0.2873895764350891,
          -0.22793327271938324,
          0.15602318942546844,
          -0.19746986031532288,
          -0.22390152513980865,
          0.008525391109287739,
          -0.04698574170470238,
          -0.0795934870839119,
          -0.05704954266548157,
          -0.14076487720012665,
          -0.12169407308101654,
          0.0999329537153244,
          -0.20891951024532318,
          -0.013462362810969353,
          0.03792927414178848,
          -0.11669637262821198,
          -0.043868277221918106,
          -0.14905089139938354,
          0.1650625318288803,
          -0.09128868579864502,
          0.0827966034412384,
          -0.16918215155601501,
          -0.16928479075431824,
          -0.11582750082015991,
          -0.018240537494421005,
          0.05179338902235031,
          0.10693633556365967,
          -0.15196509659290314,
          -0.0210903100669384,
          -0.16162537038326263,
          0.027335165068507195,
          -0.05149994045495987,
          -0.22338131070137024,
          0.019797656685113907,
          -0.15115945041179657,
          0.16222713887691498,
          0.1254742592573166,
          -0.11318742483854294,
          0.04428515583276749,
          -0.04993981868028641,
          0.04134843125939369
        ],
        [
          -0.45699575543403625,
          -0.5337122678756714,
          -0.11455567181110382,
          -0.05387169122695923,
          -0.4294777512550354,
          -0.05088866502046585,
          -0.05402557924389839,
          0.13059142231941223,
          -0.6430588960647583,
          -0.5542488098144531,
          0.032696109265089035,
          -0.18975244462490082,
          -0.13855360448360443,
          -0.021189287304878235,
          0.1130187064409256,
          0.12710560858249664,
          -0.1928895264863968,
          -0.03223390132188797,
          -0.07036224752664566,
          -0.028893625363707542,
          -0.05962878093123436,
          0.10300324112176895,
          0.03166687861084938,
          0.03931843861937523,
          -0.2677381634712219,
          -0.11116519570350647,
          -0.20911401510238647,
          0.1373743712902069,
          -0.24149231612682343,
          -0.15631234645843506,
          0.13496343791484833,
          -0.1091451495885849,
          -0.4027021527290344,
          0.0650266483426094,
          -0.0043382891453802586,
          0.026598112657666206,
          -0.25546228885650635,
          0.18994095921516418,
          -0.0402919240295887,
          0.11542744934558868,
          -0.052578430622816086
        ],
        [
          0.04031476750969887,
          -0.2040070742368698,
          -0.09498290717601776,
          -0.2337818294763565,
          -0.0727839544415474,
          -0.11481353640556335,
          -0.16190604865550995,
          0.09982696175575256,
          -0.3535669445991516,
          0.01862805336713791,
          0.03955820947885513,
          0.149013489484787,
          0.04796130582690239,
          -0.1980646401643753,
          -0.20301766693592072,
          0.1052849218249321,
          -0.01140571292489767,
          -0.18977361917495728,
          0.055817652493715286,
          -0.1426706612110138,
          -0.20028330385684967,
          -0.1544729769229889,
          0.07170579582452774,
          -0.17839044332504272,
          -0.290269136428833,
          0.09116145968437195,
          -0.15564867854118347,
          -0.07214320451021194,
          -0.23104552924633026,
          0.07835123687982559,
          -0.19586974382400513,
          0.18798163533210754,
          0.004960332531481981,
          -0.10695969313383102,
          -0.11677763611078262,
          0.17023640871047974,
          -0.2352563887834549,
          0.16092084348201752,
          0.000672158959787339,
          0.1328200399875641,
          0.046391285955905914
        ],
        [
          0.1410444974899292,
          0.010762961581349373,
          -0.11239476501941681,
          0.1320255547761917,
          -0.12332789599895477,
          -0.1721334308385849,
          0.1651894450187683,
          -0.04044317826628685,
          -0.08618305623531342,
          0.03078649193048477,
          -0.18768130242824554,
          0.12771111726760864,
          0.08044236898422241,
          0.13166017830371857,
          -0.0826459750533104,
          -0.15989866852760315,
          0.1477506160736084,
          0.18579094111919403,
          -0.08963591605424881,
          0.14326433837413788,
          -0.10290873795747757,
          -0.07294422388076782,
          -0.14336784183979034,
          -0.15472407639026642,
          0.20582610368728638,
          -0.06939040869474411,
          -0.04412921890616417,
          0.07504474371671677,
          -0.036989983171224594,
          -0.05053181201219559,
          -0.04726911336183548,
          0.041066184639930725,
          0.1004917100071907,
          -0.149814635515213,
          -0.03683045506477356,
          -0.18225327134132385,
          0.008447598665952682,
          -0.08452285826206207,
          -0.06156859174370766,
          -0.12413942068815231,
          0.025375641882419586
        ],
        [
          -0.40030404925346375,
          -0.48865872621536255,
          0.04958726838231087,
          0.0204327255487442,
          -0.4263487160205841,
          -0.09664478152990341,
          0.09129691869020462,
          0.07873193919658661,
          -0.30855563282966614,
          -0.43440714478492737,
          -0.016362829133868217,
          -0.1381254345178604,
          -0.22391235828399658,
          0.035388607531785965,
          -0.09705593436956406,
          0.11412215977907181,
          -0.13071389496326447,
          0.1753346025943756,
          -0.09963741153478622,
          0.06320208311080933,
          0.0020018077921122313,
          0.1342785358428955,
          -0.024227945134043694,
          -0.07616851478815079,
          -0.026162590831518173,
          0.0024327433202415705,
          -0.02874886430799961,
          0.06081164628267288,
          -0.3331947922706604,
          0.15414546430110931,
          0.13451382517814636,
          0.16406740248203278,
          -0.21459022164344788,
          -0.10824641585350037,
          -0.15200544893741608,
          -0.01250387541949749,
          -0.1333182454109192,
          -0.08354577422142029,
          0.10474362224340439,
          -0.1447114199399948,
          -0.31115517020225525
        ],
        [
          -0.14990130066871643,
          0.16367757320404053,
          0.1652972251176834,
          -0.15839692950248718,
          -0.17489224672317505,
          0.04867062345147133,
          0.0665736272931099,
          -0.160725936293602,
          0.09378678351640701,
          -0.07272092252969742,
          -0.12636683881282806,
          0.14511790871620178,
          0.06387610733509064,
          -0.0033060680143535137,
          -0.15682342648506165,
          -0.1669318974018097,
          -0.03703952953219414,
          -0.18098662793636322,
          0.09107951819896698,
          -0.09901139885187149,
          -0.11591965705156326,
          0.06941371411085129,
          -0.10903855413198471,
          0.1236051544547081,
          0.14182926714420319,
          0.09435080736875534,
          -0.06720908731222153,
          -0.1719352751970291,
          0.03538794443011284,
          -0.1181008368730545,
          0.17145127058029175,
          -0.046861231327056885,
          0.13926735520362854,
          -0.07951871305704117,
          -0.001125917537137866,
          0.0022985050454735756,
          -0.06332945823669434,
          -0.16440097987651825,
          0.09671316295862198,
          -0.1462111622095108,
          -0.10955832153558731
        ]
      ],
      "biases": [
        -0.1977151483297348,
        -0.14905473589897156,
        0.0017866558628156781,
        -0.2025676667690277,
        0.18107973039150238,
        0.19525496661663055,
        -0.012446665205061436,
        0.07671406865119934,
        0.11295849084854126,
        -0.12017849087715149,
        -0.08142195641994476,
        0.22165241837501526,
        0.05554628744721413,
        -0.006466730963438749,
        0.09976767003536224,
        -0.06839132308959961
      ]
    },
    {
      "weights": [
        [
          0.08713143318891525,
          0.647041916847229,
          0.32607394456863403,
          0.3525843024253845,
          -0.31283172965049744,
          -0.3950566053390503,
          0.13099266588687897,
          -0.05916333943605423,
          -0.4337175488471985,
          -0.18407678604125977,
          -0.09512278437614441,
          -0.29346200823783875,
          -0.14644230902194977,
          0.045806221663951874,
          -0.21928077936172485,
          -0.055991362780332565
        ],
        [
          -0.35188254714012146,
          -0.749685525894165,
          -0.39171624183654785,
          -0.468265175819397,
          0.2944929599761963,
          0.07531014829874039,
          -0.0889807939529419,
          0.30006179213523865,
          0.6059732437133789,
          0.2620234489440918,
          -0.03270735964179039,
          0.36567792296409607,
          0.20494529604911804,
          0.06395088881254196,
          0.519432783126831,
          0.17593704164028168
        ],
        [
          -0.20357440412044525,
          -0.654431939125061,
          -0.37353044748306274,
          -0.38268956542015076,
          0.25009965896606445,
          0.3457416594028473,
          0.013822360895574093,
          0.2953357696533203,
          0.5937675833702087,
          0.2088014930486679,
          0.04928139969706535,
          0.3788727819919586,
          0.17524442076683044,
          0.08226662874221802,
          0.07314770668745041,
          0.04063631594181061
        ],
        [
          0.042057204991579056,
          0.051546938717365265,
          -0.08062046766281128,
          0.17009423673152924,
          0.20293830335140228,
          0.2632083594799042,
          0.18794025480747223,
          0.1416570395231247,
          0.10384451597929001,
          -0.04035397991538048,
          -0.06508691608905792,
          0.28997883200645447,
          0.1490657478570938,
          0.01207683701068163,
          -0.11224537342786789,
          -0.053031183779239655
        ],
        [
          0.6417055726051331,
          1.2481298446655273,
          0.42394253611564636,
          0.555686891078949,
          -0.4939793348312378,
          -0.522807240486145,
          -0.03426981344819069,
          -0.353678822517395,
          -0.9715571403503418,
          -0.17935626208782196,
          -0.062240563333034515,
          -0.658058226108551,
          -0.09694800525903702,
          0.24590624868869781,
          -0.6764748096466064,
          0.14179633557796478
        ],
        [
          0.02554113045334816,
          -0.23052005469799042,
          -0.11789167672395706,
          -0.025323035195469856,
          0.2447192221879959,
          0.2726205587387085,
          0.06744639575481415,
          0.33582261204719543,
          0.1527877002954483,
          0.14446084201335907,
          0.1490912139415741,
          0.3220791816711426,
          0.12703688442707062,
          0.05346846953034401,
          -0.05339890345931053,
          -0.11264688521623611
        ],
        [
          0.02234652265906334,
          -0.18754610419273376,
          -0.21677017211914062,
          -0.18661244213581085,
          -0.06828486919403076,
          -0.06916870176792145,
          0.17815972864627838,
          -0.10529083758592606,
          0.11442166566848755,
          -0.0937015488743782,
          0.07585867494344711,
          0.14430966973304749,
          0.012930860742926598,
          0.04528377205133438,
          0.1312132179737091,
          -0.13690678775310516
        ],
        [
          0.33892351388931274,
          0.6411073803901672,
          0.08318344503641129,
          0.36899319291114807,
          -0.4367203414440155,
          -0.18932794034481049,
          0.17130164802074432,
          -0.23637403547763824,
          -0.668038010597229,
          0.08693189918994904,
          -0.24449428915977478,
          -0.4833639860153198,
          -0.05182110145688057,
          0.25468358397483826,
          -0.4937213361263275,
          -0.14139693975448608
        ],
        [
          -0.019650980830192566,
          0.1399243324995041,
          0.04572657495737076,
          0.0873049721121788,
          -0.10896701365709305,
          0.15949013829231262,
          -0.09312882274389267,
          0.05156633257865906,
          0.12590080499649048,
          -0.0996129959821701,
          -0.19321832060813904,
          -0.12330593168735504,
          -0.005246534012258053,
          0.12337660044431686,
          0.010213097557425499,
          -0.15329676866531372
        ],
        [
          -0.008673424832522869,
          0.26111215353012085,
          0.24104547500610352,
          0.28125739097595215,
          -0.09692417085170746,
          -0.29333406686782837,
          -0.0899319052696228,
          -0.15752576291561127,
          -0.4765348732471466,
          0.12321411818265915,
          0.1379861682653427,
          -0.1306900829076767,
          -0.1498207002878189,
          -0.04191213101148605,
          -0.2204219251871109,
          -0.15090353786945343
        ],
        [
          0.28941845893859863,
          0.5303504467010498,
          -0.0109908077865839,
          0.38715416193008423,
          -0.34715309739112854,
          -0.04058438539505005,
          -0.20404832065105438,
          -0.27624860405921936,
          -0.28452834486961365,
          0.05592208355665207,
          -0.20350809395313263,
          -0.3222607970237732,
          -0.11751803755760193,
          0.0884937047958374,
          -0.0952007919549942,
          0.13738910853862762
        ],
        [
          0.08304716646671295,
          -0.04991729184985161,
          -0.1796032190322876,
          -0.15054993331432343,
          -0.13791169226169586,
          -0.019286639988422394,
          -0.09351388365030289,
          -0.03206338360905647,
          -0.1133313700556755,
          0.110621877014637,
          0.01687510870397091,
          0.058223869651556015,
          0.09527884423732758,
          -0.1883697360754013,
          0.03998137265443802,
          -0.023423241451382637
        ],
        [
          0.3429124653339386,
          1.0300885438919067,
          0.0993598997592926,
          0.6002681255340576,
          -0.42641526460647583,
          -0.2232796996831894,
          -0.21736778318881989,
          -0.38810598850250244,
          -0.7553396224975586,
          -0.15360766649246216,
          -0.25357067584991455,
          -0.5464259386062622,
          -0.0025771246291697025,
          -0.09320731461048126,
          -0.28073862195014954,
          0.17096510529518127
        ],
        [
          -0.013691654428839684,
          -0.5706817507743835,
          -0.34803682565689087,
          -0.10488469153642654,
          0.2529199719429016,
          0.2503081262111664,
          -0.035585854202508926,
          0.1870388388633728,
          0.4649231433868408,
          0.22186675667762756,
          0.0835581123828888,
          0.41964834928512573,
          0.22407305240631104,
          0.08101216703653336,
          0.16174456477165222,
          -0.032396137714385986
        ],
        [
          0.10034359246492386,
          -0.36341798305511475,
          -0.18522769212722778,
          -0.29962244629859924,
          0.1860714852809906,
          0.30984553694725037,
          -0.0649268627166748,
          0.09397213906049728,
          0.4236641228199005,
          0.10800488293170929,
          0.12121125310659409,
          0.07330834120512009,
          -0.008171852678060532,
          -0.0926513671875,
          0.07433757185935974,
          0.09326516836881638
        ],
        [
          -0.13272380828857422,
          0.10253193229436874,
          0.2061711996793747,
          0.02530715800821781,
          -0.11089321225881577,
          0.04235665500164032,
          0.06554506719112396,
          -0.1598958969116211,
          -0.1763332486152649,
          0.051444195210933685,
          -0.1786489337682724,
          -0.19376137852668762,
          0.0298170018941164,
          -0.061736226081848145,
          -0.1693768948316574,
          -0.08855535089969635
        ]
      ],
      "biases": [
        -0.08529031276702881,
        -0.05282492935657501,
        -0.008021836169064045,
        0.2354678511619568,
        -0.038885317742824554,
        0.08020763844251633,
        0.08362296223640442,
        -0.019339747726917267,
        -0.03249526768922806,
        -0.048799529671669006,
        -0.11008486151695251,
        -0.0022207999136298895,
        0.09510931372642517,
        -0.1171368807554245,
        0.000934716546908021,
        0.06680980324745178
      ]
    },
    {
      "weights": [
        [
          -0.33606982231140137,
          0.04566583037376404,
          -0.0033175284042954445,
          -0.20203398168087006,
          -0.16129030287265778,
          -0.1888156533241272,
          -0.1754121631383896,
          -0.04351939260959625,
          -0.08178004622459412,
          -0.20381183922290802,
          -0.3298727571964264,
          0.007617410272359848,
          -0.35443469882011414,
          -0.07844829559326172,
          -0.24885497987270355,
          -0.03144087269902229
        ],
        [
          0.008007439784705639,
          -0.1673417091369629,
          -0.17377641797065735,
          -0.3129148483276367,
          0.2313026636838913,
          -0.4046161472797394,
          -0.0503007248044014,
          -0.0005985137540847063,
          -0.2164973020553589,
          -0.02929600700736046,
          0.04012014716863632,
          -0.003538617631420493,
          -0.12645091116428375,
          -0.38261061906814575,
          -0.15493464469909668,
          0.0003491024544928223
        ],
        [
          -0.3779323995113373,
          0.06095670536160469,
          -0.2751394808292389,
          -0.15170951187610626,
          -0.3754485547542572,
          -0.08125227689743042,
          0.03647591918706894,
          -0.2361053079366684,
          -0.2471626102924347,
          -0.07144354283809662,
          -0.0992053896188736,
          0.01597454771399498,
          -0.36157143115997314,
          -0.2353743314743042,
          -0.17409758269786835,
          -0.03686824440956116
        ],
        [
          -0.3202015459537506,
          0.2535140812397003,
          0.3686927556991577,
          -0.07688597589731216,
          -0.6963555216789246,
          0.20313796401023865,
          0.08694788813591003,
          -0.37802553176879883,
          -0.044092096388339996,
          -0.20096327364444733,
          -0.2675006687641144,
          -0.04405123367905617,
          -0.4456958472728729,
          0.302628755569458,
          0.3323684632778168,
          -0.2115677148103714
        ],
        [
          0.011491052806377411,
          -0.3509514033794403,
          -0.2789989411830902,
          -0.23145872354507446,
          0.2808218002319336,
          -0.3228619694709778,
          -0.050987884402275085,
          0.36438748240470886,
          0.025362728163599968,
          -0.054189544171094894,
          0.2155250906944275,
          -0.23632176220417023,
          0.20465971529483795,
          -0.34334611892700195,
          0.01300546433776617,
          0.06698743999004364
        ],
        [
          -0.34170740842819214,
          0.13081075251102448,
          -0.06705696880817413,
          0.02071322873234749,
          -0.4184497594833374,
          -0.10750123113393784,
          0.07701531052589417,
          -0.2693796157836914,
          0.03709215298295021,
          -0.28174757957458496,
          -0.21399930119514465,
          0.013295646756887436,
          -0.332004576921463,
          -0.02298866957426071,
          -0.14616268873214722,
          -0.25164592266082764
        ],
        [
          -0.031782906502485275,
          -0.2537034749984741,
          -0.39919358491897583,
          -0.17474603652954102,
          0.11265653371810913,
          -0.20735667645931244,
          -0.010847007855772972,
          -0.0870131105184555,
          0.10020186752080917,
          -0.19113467633724213,
          -0.22427386045455933,
          -0.05508475378155708,
          0.04048050194978714,
          -0.3735998272895813,
          -0.01605583354830742,
          -0.10113480687141418
        ],
        [
          -0.17395168542861938,
          -0.11912604421377182,
          -0.11874345690011978,
          -0.39883169531822205,
          -0.18115130066871643,
          -0.24234411120414734,
          -0.3355155289173126,
          -0.15083573758602142,
          -0.27615684270858765,
          -0.16361172497272491,
          -0.2448670119047165,
          -0.025541145354509354,
          0.03555479273200035,
          -0.23181244730949402,
          -0.050598133355379105,
          -0.0368058942258358
        ],
        [
          0.23036208748817444,
          -0.442169725894928,
          -0.1524016261100769,
          -0.300285667181015,
          0.29568010568618774,
          -0.3198857009410858,
          -0.23259608447551727,
          -0.07111271470785141,
          0.08198144286870956,
          0.17682941257953644,
          0.21081526577472687,
          0.0748482197523117,
          0.35575518012046814,
          -0.1106502115726471,
          -0.3350728750228882,
          -0.04419141635298729
        ],
        [
          0.36929458379745483,
          -0.6380423903465271,
          -0.4591846764087677,
          -0.037673112004995346,
          1.0229727029800415,
          -0.39802414178848267,
          0.03446023166179657,
          0.5147380828857422,
          0.11914016306400299,
          0.3495030701160431,
          0.3114749789237976,
          0.10614694654941559,
          0.7412212491035461,
          -0.40112239122390747,
          -0.4655492901802063,
          0.24969644844532013
        ],
        [
          -0.3382752239704132,
          0.5873326659202576,
          0.4223520755767822,
          -0.09364267438650131,
          -0.7679929137229919,
          -0.013941746205091476,
          -0.06104031950235367,
          -0.5345097184181213,
          0.13133679330348969,
          -0.34252020716667175,
          -0.3218857944011688,
          0.05513186380267143,
          -0.6696037650108337,
          0.34945398569107056,
          0.22735455632209778,
          0.05940908566117287
        ],
        [
          -0.7303757071495056,
          0.8783641457557678,
          1.0026004314422607,
          0.23599153757095337,
          -1.5115485191345215,
          0.3800617754459381,
          0.27634990215301514,
          -0.9561861157417297,
          0.049710389226675034,
          -0.4074603319168091,
          -0.5241649150848389,
          0.023822493851184845,
          -1.065916657447815,
          0.6929501891136169,
          0.5221790671348572,
          -0.1511399894952774
        ],
        [
          0.0841311514377594,
          -0.24425974488258362,
          -0.39289581775665283,
          -0.3833160400390625,
          0.15174375474452972,
          -0.16077463328838348,
          -0.07212641090154648,
          0.17626407742500305,
          -0.09819161891937256,
          -0.09492917358875275,
          -0.034283898770809174,
          -0.18704618513584137,
          0.14885447919368744,
          -0.2542469799518585,
          -0.07699474692344666,
          -0.16900281608104706
        ],
        [
          -0.28903788328170776,
          -0.10499583929777145,
          -0.17767566442489624,
          -0.350674033164978,
          -0.06568733602762222,
          -0.3340286910533905,
          -0.03573766350746155,
          -0.020685439929366112,
          -0.08839854598045349,
          -0.13140390813350677,
          -0.28220316767692566,
          -0.06691785901784897,
          -0.0950954481959343,
          -0.05281081795692444,
          -0.27631446719169617,
          -0.2017851322889328
        ],
        [
          -0.14694203436374664,
          0.23983190953731537,
          0.07859369367361069,
          -0.3106727600097656,
          -0.5908980965614319,
          -0.28113681077957153,
          0.044240158051252365,
          -0.12489793449640274,
          -0.15039438009262085,
          0.00570179708302021,
          -0.17577949166297913,
          -0.04884732887148857,
          -0.49593424797058105,
          -0.026165487244725227,
          -0.200177863240242,
          0.031252745538949966
        ],
        [
          0.21198056638240814,
          -0.46211862564086914,
          -0.1101604476571083,
          -0.1728164702653885,
          0.28425857424736023,
          -0.2268240749835968,
          -0.25389695167541504,
          0.331167995929718,
          0.011956142261624336,
          0.0741792768239975,
          0.1998225301504135,
          -0.2076057493686676,
          0.18630450963974,
          -0.3368336856365204,
          -0.016834290698170662,
          -0.010536043904721737
        ]
      ],
      "biases": [
        -0.3805341124534607,
        -0.26793012022972107,
        -0.22235378623008728,
        -0.2194010615348816,
        -0.22031956911087036,
        -0.3682146668434143,
        -0.38718926906585693,
        -0.18930941820144653,
        -0.2321511209011078,
        -0.23728595674037933,
        0.10330464690923691,
        -0.003196615958586335,
        -0.1090293750166893,
        -0.21452896296977997,
        -0.20136545598506927,
        -0.2965225279331207
      ]
    },
    {
      "weights": [
        [
          0.25871381163597107,
          -0.403072714805603,
          0.32143276929855347,
          1.1152821779251099,
          -0.7733158469200134,
          0.5458210706710815,
          -0.34654301404953003,
          -0.013102399185299873,
          -0.7782567143440247,
          -1.9024615287780762,
          1.381164789199829,
          2.785428524017334,
          -0.5307865142822266,
          -0.00874324794858694,
          0.5824227929115295,
          -0.7926570773124695
        ]
      ],
      "biases": [
        -0.6244077086448669
      ]
    }
  ],
  "inputLookup": {
    "totalClouds[0]": 0,
    "lowClouds[0]": 1,
    "mediumClouds[0]": 2,
    "highClouds[0]": 3,
    "rainChance[0]": 4,
    "rainAmount[0]": 5,
    "windSpeed[0]": 6,
    "temperature[0]": 7,
    "totalClouds[1]": 8,
    "lowClouds[1]": 9,
    "mediumClouds[1]": 10,
    "highClouds[1]": 11,
    "rainChance[1]": 12,
    "rainAmount[1]": 13,
    "windSpeed[1]": 14,
    "temperature[1]": 15,
    "totalClouds[2]": 16,
    "lowClouds[2]": 17,
    "mediumClouds[2]": 18,
    "highClouds[2]": 19,
    "rainChance[2]": 20,
    "rainAmount[2]": 21,
    "windSpeed[2]": 22,
    "temperature[2]": 23,
    "totalClouds[3]": 24,
    "lowClouds[3]": 25,
    "mediumClouds[3]": 26,
    "highClouds[3]": 27,
    "rainChance[3]": 28,
    "rainAmount[3]": 29,
    "windSpeed[3]": 30,
    "temperature[3]": 31,
    "totalClouds[4]": 32,
    "lowClouds[4]": 33,
    "mediumClouds[4]": 34,
    "highClouds[4]": 35,
    "rainChance[4]": 36,
    "rainAmount[4]": 37,
    "windSpeed[4]": 38,
    "temperature[4]": 39,
    "exposureLength": 40
  },
  "inputLookupLength": 41,
  "outputLookup": {
    "totalImagingTime": 0
  },
  "outputLookupLength": 1,
  "options": {
    "inputSize": 0,
    "outputSize": 0,
    "binaryThresh": 0.5,
    "hiddenLayers": [
      16,
      16,
      16
    ]
  },
  "trainOpts": {
    "activation": "sigmoid",
    "iterations": 20000,
    "errorThresh": 0.005,
    "log": false,
    "logPeriod": 10,
    "leakyReluAlpha": 0.01,
    "learningRate": 0.3,
    "momentum": 0.1,
    "callbackPeriod": 10,
    "timeout": "Infinity",
    "beta1": 0.9,
    "beta2": 0.999,
    "epsilon": 1e-8
  }
}