{
  "type": "NeuralNetworkGPU",
  "sizes": [
    49,
    16,
    16,
    16,
    1
  ],
  "layers": [
    {
      "weights": [],
      "biases": []
    },
    {
      "weights": [
        [
          0.0791962593793869,
          -0.07696304470300674,
          0.10416312515735626,
          -0.10223166644573212,
          0.10278797894716263,
          0.03280600160360336,
          -0.06887056678533554,
          0.11666935682296753,
          0.07990112900733948,
          0.051343560218811035,
          0.061304446309804916,
          0.21793442964553833,
          -0.15591084957122803,
          0.17056749761104584,
          0.19592060148715973,
          0.03253627195954323,
          -0.12766388058662415,
          -0.04705354571342468,
          0.13011528551578522,
          0.11790405958890915,
          -0.013057292439043522,
          0.16330686211585999,
          -0.0785219594836235,
          0.15120255947113037,
          0.009831062518060207,
          0.0713014230132103,
          -0.19667492806911469,
          0.09684527665376663,
          0.10813813656568527,
          -0.07336949557065964,
          0.15632687509059906,
          0.06890904158353806,
          0.12002123147249222,
          -0.0904657244682312,
          0.19072158634662628,
          -0.037247221916913986,
          0.1577739119529724,
          -0.1772587150335312,
          -0.09776472300291061,
          -0.04815069958567619,
          -0.1160292848944664,
          -0.11020157486200333,
          -0.031095361337065697,
          -0.10753429681062698,
          0.050943393260240555,
          -0.09881741553544998,
          0.14530901610851288,
          -0.02150287851691246,
          0.22054168581962585
        ],
        [
          0.2652543783187866,
          0.1489466279745102,
          0.46674859523773193,
          -0.17684471607208252,
          0.12377533316612244,
          -0.1723492443561554,
          -0.08668091148138046,
          -0.2237178236246109,
          0.4837479591369629,
          0.19649478793144226,
          0.49415257573127747,
          0.24651038646697998,
          0.08605741709470749,
          0.1461275815963745,
          0.09101266413927078,
          -0.22147345542907715,
          0.21261802315711975,
          -0.0693194717168808,
          0.04855272173881531,
          0.05256364867091179,
          0.22485694289207458,
          0.12148772180080414,
          -0.03461792320013046,
          0.04084838554263115,
          0.08181367069482803,
          0.07024569064378738,
          -0.02450305037200451,
          -0.17485150694847107,
          0.009842958301305771,
          0.007790146395564079,
          -0.19289371371269226,
          -0.1495150923728943,
          0.003969717305153608,
          0.05645148083567619,
          -0.006500624120235443,
          -0.02477625012397766,
          0.3127342462539673,
          -0.008769226260483265,
          0.018244178965687752,
          -0.14923256635665894,
          0.2512381672859192,
          -0.16260766983032227,
          0.04188229888677597,
          -0.16485947370529175,
          0.09506367892026901,
          -0.10355721414089203,
          0.0501197874546051,
          -0.23511680960655212,
          0.18468311429023743
        ],
        [
          0.484112948179245,
          0.3687369227409363,
          0.5140014290809631,
          -0.17992518842220306,
          0.37830573320388794,
          -0.10324298590421677,
          0.018465861678123474,
          -0.07230968773365021,
          0.7343320250511169,
          0.509558916091919,
          0.3571945130825043,
          0.37809836864471436,
          0.12128385156393051,
          -0.17083300650119781,
          0.16393603384494781,
          -0.14610128104686737,
          0.2974407374858856,
          -0.019075198099017143,
          0.15428154170513153,
          -0.10710731893777847,
          0.17677325010299683,
          0.07049006968736649,
          -0.10545045137405396,
          -0.28066742420196533,
          0.2996998727321625,
          0.18546493351459503,
          -0.15521268546581268,
          -0.2991263270378113,
          0.34233853220939636,
          0.11475617438554764,
          0.023466769605875015,
          -0.30324625968933105,
          -0.04242044687271118,
          -0.027834264561533928,
          -0.09488913416862488,
          -0.04414857178926468,
          0.33180615305900574,
          -0.06284378468990326,
          -0.1793617457151413,
          -0.0393294021487236,
          0.06808984279632568,
          -0.16561941802501678,
          -0.11619140207767487,
          -0.04883221536874771,
          0.2803798019886017,
          0.06480477005243301,
          -0.05653102323412895,
          -0.1233808621764183,
          0.2028803527355194
        ],
        [
          -0.5222247838973999,
          -0.8531463742256165,
          -0.7206127643585205,
          0.4757228493690491,
          -0.6866614818572998,
          0.15653231739997864,
          -0.09442703425884247,
          0.40616169571876526,
          -1.4005602598190308,
          -0.8214542269706726,
          -0.7026946544647217,
          -0.4154634177684784,
          -0.15292906761169434,
          0.03927433118224144,
          -0.16290917992591858,
          0.19768908619880676,
          -0.3513329327106476,
          -0.07243476808071136,
          -0.06723714619874954,
          0.4051874279975891,
          -0.23850488662719727,
          0.02896909788250923,
          -0.12981531023979187,
          0.09207971394062042,
          -0.2571856677532196,
          -0.08456125855445862,
          0.06800148636102676,
          0.2949208617210388,
          -0.20866769552230835,
          -0.08291332423686981,
          0.11865855008363724,
          0.4518994092941284,
          -0.22822412848472595,
          0.0849246010184288,
          0.0629502609372139,
          0.22216251492500305,
          -0.22511237859725952,
          0.06596409529447556,
          0.06912123411893845,
          0.34690409898757935,
          -0.35936418175697327,
          0.10862161219120026,
          -0.050946496427059174,
          0.25903594493865967,
          0.02658831514418125,
          -0.07034196704626083,
          -0.14278900623321533,
          0.17729246616363525,
          -0.3621794283390045
        ],
        [
          0.06838876754045486,
          0.08958126604557037,
          0.2936174273490906,
          0.04839174076914787,
          0.020395861938595772,
          0.1643199324607849,
          -0.04209683835506439,
          0.09663451462984085,
          0.2926076054573059,
          0.0765659511089325,
          0.31122127175331116,
          0.21236415207386017,
          0.06231529638171196,
          0.16898304224014282,
          -0.14530105888843536,
          -0.0143657848238945,
          0.1947663277387619,
          -0.02925644814968109,
          -0.1405130922794342,
          0.03224795684218407,
          0.15858881175518036,
          -0.02329839952290058,
          0.14899294078350067,
          0.12249502539634705,
          -0.1008320301771164,
          -0.0916605293750763,
          0.12748874723911285,
          0.0629427433013916,
          -0.1077052652835846,
          -0.1894533783197403,
          -0.008659043349325657,
          -0.014574483036994934,
          0.21090950071811676,
          -0.03701980039477348,
          -0.16434907913208008,
          -0.14973682165145874,
          0.013562154024839401,
          -0.16440878808498383,
          -0.055596593767404556,
          -0.19251275062561035,
          -0.07761289179325104,
          -0.060306746512651443,
          0.1334616094827652,
          -0.15808770060539246,
          0.1666581779718399,
          0.1582181453704834,
          0.06961065530776978,
          -0.23105496168136597,
          0.04096653312444687
        ],
        [
          -0.07176320254802704,
          -0.21877571940422058,
          -0.18134485185146332,
          0.2614004909992218,
          0.02662881650030613,
          0.10046431422233582,
          0.03723117709159851,
          -0.12938633561134338,
          -0.2934648394584656,
          -0.31015339493751526,
          -0.10997705906629562,
          0.08846841752529144,
          -0.09169773012399673,
          0.04968420788645744,
          -0.05527867376804352,
          0.07272903621196747,
          -0.12819330394268036,
          -0.04664912819862366,
          -0.011791347526013851,
          0.1126505434513092,
          0.0566776767373085,
          0.19490449130535126,
          -0.1820075809955597,
          0.14484114944934845,
          -0.07232416421175003,
          -0.0025248322635889053,
          0.011935091577470303,
          0.05568982660770416,
          0.022003142163157463,
          -0.17468993365764618,
          -0.1965898871421814,
          -0.06848202645778656,
          -0.1629767268896103,
          0.12795831263065338,
          -0.18974623084068298,
          -0.045795708894729614,
          0.15835678577423096,
          0.05620251223444939,
          -0.07933801412582397,
          0.1759312003850937,
          0.13711535930633545,
          0.14632542431354523,
          -0.0755186378955841,
          -0.1377398818731308,
          -0.0016715902602300048,
          -0.04780612513422966,
          -0.052989132702350616,
          0.10081347823143005,
          -0.11086095124483109
        ],
        [
          0.07307758927345276,
          0.22250081598758698,
          0.19202089309692383,
          -0.02147170901298523,
          0.3796083629131317,
          0.07524143904447556,
          0.022122351452708244,
          -0.08179952949285507,
          0.45754489302635193,
          0.23995424807071686,
          0.2506810426712036,
          0.14955930411815643,
          0.1589055210351944,
          -0.00927335862070322,
          0.10269004106521606,
          -0.113890141248703,
          0.18536992371082306,
          -0.16396379470825195,
          0.11038501560688019,
          0.059098199009895325,
          -0.027836840599775314,
          0.01995833031833172,
          -0.20291998982429504,
          -0.2365773469209671,
          0.08836281299591064,
          0.1246718317270279,
          0.09135924279689789,
          -0.06776180863380432,
          -0.008999690413475037,
          -0.0480743944644928,
          0.16050061583518982,
          0.10028238594532013,
          0.249486044049263,
          -0.14067719876766205,
          0.1877138316631317,
          -0.23358555138111115,
          0.06132425367832184,
          0.17753590643405914,
          0.009505641646683216,
          -0.01350658480077982,
          0.2072516530752182,
          0.0030806611757725477,
          -0.052642177790403366,
          0.11273376643657684,
          0.24176599085330963,
          0.023770460858941078,
          -0.07766959071159363,
          -0.005363681819289923,
          0.06609319150447845
        ],
        [
          0.12715131044387817,
          0.1849820464849472,
          -0.12588968873023987,
          0.13108782470226288,
          -0.018277134746313095,
          -0.1376064419746399,
          0.06455051898956299,
          0.024089910089969635,
          -0.13948427140712738,
          -0.12213817238807678,
          -0.03949578478932381,
          -0.13644105195999146,
          0.10053124278783798,
          -0.18387848138809204,
          0.15662290155887604,
          0.0771854817867279,
          -0.12611156702041626,
          0.10959365963935852,
          -0.06333914399147034,
          0.012836981564760208,
          0.09220524877309799,
          0.0782955065369606,
          -0.16345860064029694,
          0.18419407308101654,
          0.13549095392227173,
          0.158447727560997,
          0.16995559632778168,
          0.09090711176395416,
          0.031147997826337814,
          -0.11216531693935394,
          0.0959443673491478,
          0.17524011433124542,
          0.18578249216079712,
          0.13766713440418243,
          0.0552457757294178,
          0.1662965565919876,
          -0.06375741958618164,
          -0.18088284134864807,
          -0.12924717366695404,
          0.10568368434906006,
          0.1071939691901207,
          0.021750368177890778,
          0.09900812804698944,
          0.04706927388906479,
          0.15780851244926453,
          0.1873893141746521,
          -0.03840835019946098,
          -0.03082871623337269,
          0.2354746162891388
        ],
        [
          -0.04634872451424599,
          -0.014273944310843945,
          0.14849995076656342,
          0.2370530515909195,
          0.12612910568714142,
          0.17887622117996216,
          -0.06630068272352219,
          0.16025659441947937,
          0.29168900847435,
          0.16161343455314636,
          -0.08342180401086807,
          -0.07751520723104477,
          -0.11553413420915604,
          0.14508946239948273,
          0.09481991082429886,
          0.08104787766933441,
          0.1628614217042923,
          0.061946701258420944,
          0.014642649330198765,
          0.022237615659832954,
          -0.06357739120721817,
          0.1427352875471115,
          0.18863998353481293,
          -0.10791648924350739,
          0.13313867151737213,
          -0.1393377184867859,
          0.004755576606839895,
          -0.03199043869972229,
          -0.04996369779109955,
          0.008402748964726925,
          -0.12298832833766937,
          0.01897815428674221,
          0.06532202661037445,
          -0.05828065052628517,
          -0.16948847472667694,
          -0.08906275033950806,
          0.19633835554122925,
          -0.15122388303279877,
          -0.049205243587493896,
          -0.08560425043106079,
          -0.045882727950811386,
          -0.050870031118392944,
          0.0736398696899414,
          -0.010561331175267696,
          0.1808079481124878,
          0.041981589049100876,
          0.08163510262966156,
          0.10563530027866364,
          -0.07987461984157562
        ],
        [
          0.11927191913127899,
          0.03692355006933212,
          0.12272002547979355,
          0.008098848164081573,
          0.3139212131500244,
          0.035570453852415085,
          0.1367071270942688,
          0.04451221600174904,
          0.5993372201919556,
          0.19301842153072357,
          0.23962412774562836,
          0.22137285768985748,
          0.018860945478081703,
          0.0880884975194931,
          0.19514399766921997,
          -0.22866328060626984,
          -0.018179232254624367,
          -0.0491773784160614,
          0.14291149377822876,
          -0.24289877712726593,
          0.3038147985935211,
          0.02619883231818676,
          -0.1055409386754036,
          0.030889276415109634,
          0.22592377662658691,
          -0.06927467882633209,
          -0.10183989256620407,
          -0.22386057674884796,
          0.014272370375692844,
          0.14049801230430603,
          -0.030969971790909767,
          -0.11005645990371704,
          0.01434956956654787,
          0.15587396919727325,
          -0.0031724406871944666,
          -0.0942353904247284,
          0.06401755660772324,
          0.1391177624464035,
          0.1208299770951271,
          -0.1613476425409317,
          0.0755259320139885,
          0.09608351439237595,
          0.023418167605996132,
          -0.2087678760290146,
          0.2941467761993408,
          0.0988391786813736,
          0.025238709524273872,
          0.03649264574050903,
          0.07518497854471207
        ],
        [
          -0.3805934190750122,
          -1.0364160537719727,
          -1.016755223274231,
          0.46150410175323486,
          -0.6043211221694946,
          0.09307737648487091,
          0.09825585782527924,
          0.38605746626853943,
          -1.6495838165283203,
          -1.3649380207061768,
          -0.9760493040084839,
          -0.4446546733379364,
          -0.3827463686466217,
          0.14507290720939636,
          -0.1391954869031906,
          0.37425336241722107,
          -0.35829851031303406,
          0.19608984887599945,
          -0.04503658041357994,
          0.22483350336551666,
          -0.057778261601924896,
          -0.11111125349998474,
          -0.1493675857782364,
          0.2006358653306961,
          -0.16271157562732697,
          -0.14379021525382996,
          -0.08754482120275497,
          0.22328214347362518,
          -0.33957239985466003,
          0.13185261189937592,
          0.1442568153142929,
          0.5324748158454895,
          -0.34782466292381287,
          0.11848670989274979,
          0.060005802661180496,
          0.16304822266101837,
          -0.20060984790325165,
          0.05428741127252579,
          -0.0316971093416214,
          0.14778892695903778,
          -0.2582699656486511,
          0.1837584674358368,
          -0.04817919060587883,
          0.44463446736335754,
          -0.14381279051303864,
          -0.19805993139743805,
          0.07088210433721542,
          0.23401497304439545,
          -0.11125514656305313
        ],
        [
          0.08359157294034958,
          -0.022405438125133514,
          -0.01962520368397236,
          -0.03982534259557724,
          0.1094592958688736,
          0.08974175155162811,
          -0.15078948438167572,
          0.012367615476250648,
          0.17972342669963837,
          0.2080644816160202,
          -0.07830172777175903,
          0.01389107946306467,
          -0.172106072306633,
          0.07080210000276566,
          -0.04621006175875664,
          0.06142169237136841,
          -0.10928227007389069,
          0.10770759731531143,
          0.1134587749838829,
          -0.16474223136901855,
          0.022071052342653275,
          -0.18310634791851044,
          0.05332178249955177,
          0.09608744829893112,
          0.21760495007038116,
          -0.14264614880084991,
          0.09825611859560013,
          0.1857626736164093,
          -0.035796359181404114,
          0.19856970012187958,
          0.1313367486000061,
          -0.18899881839752197,
          -0.07744958251714706,
          0.16585850715637207,
          0.19055017828941345,
          0.020183727145195007,
          0.0701853334903717,
          -0.03485792130231857,
          0.05068551376461983,
          -0.05917899310588837,
          -0.010441910475492477,
          -0.12600277364253998,
          -0.11798709630966187,
          0.07800469547510147,
          0.19462023675441742,
          0.024615177884697914,
          0.05952705070376396,
          -0.11625393480062485,
          0.15494099259376526
        ],
        [
          0.8156167268753052,
          1.0100443363189697,
          0.8835574388504028,
          -0.40191295742988586,
          0.5907140374183655,
          0.11751730740070343,
          0.15088491141796112,
          -0.3537949323654175,
          1.4460341930389404,
          1.2627097368240356,
          1.0614858865737915,
          0.43474289774894714,
          0.4086540639400482,
          -0.19523616135120392,
          0.052036747336387634,
          -0.42672857642173767,
          0.17666961252689362,
          -0.1412024050951004,
          -0.15500584244728088,
          -0.33150890469551086,
          0.3623732626438141,
          -0.009897646494209766,
          -0.043346576392650604,
          -0.3786463439464569,
          0.07750235497951508,
          0.0252708587795496,
          0.14388155937194824,
          -0.23193097114562988,
          0.3905044496059418,
          0.038730304688215256,
          -0.2209661602973938,
          -0.24691274762153625,
          0.4017331898212433,
          0.06831496208906174,
          0.14614742994308472,
          -0.14733797311782837,
          0.33808210492134094,
          0.06605875492095947,
          -0.18544113636016846,
          -0.17451059818267822,
          0.3794719874858856,
          -0.05938364565372467,
          -0.0066800788044929504,
          -0.3031347095966339,
          0.42091384530067444,
          0.1158396303653717,
          0.16853174567222595,
          -0.3587592542171478,
          0.2535790503025055
        ],
        [
          0.11910707503557205,
          0.2551804184913635,
          0.0969809740781784,
          0.06610266119241714,
          0.17919696867465973,
          -0.042377762496471405,
          0.0016717608086764812,
          -0.06294865906238556,
          -0.006303183734416962,
          0.04940005764365196,
          0.25700393319129944,
          0.027076881378889084,
          -0.10835566371679306,
          -0.19112110137939453,
          0.06413587927818298,
          -0.09454581886529922,
          -0.04716508835554123,
          -0.0679422914981842,
          0.0339391715824604,
          0.0866558775305748,
          -0.08889871090650558,
          0.11618980020284653,
          -0.15581586956977844,
          0.12632472813129425,
          -0.12096190452575684,
          0.16845983266830444,
          0.15772612392902374,
          -0.09954511374235153,
          0.009703927673399448,
          -0.037678707391023636,
          0.06149236485362053,
          -0.021522633731365204,
          -0.01375861931592226,
          0.1077081561088562,
          0.04413042590022087,
          -0.07014600187540054,
          0.15389536321163177,
          -0.145345538854599,
          -0.0355701707303524,
          0.14685745537281036,
          -0.10756370425224304,
          0.06898526847362518,
          0.10032865405082703,
          0.062339141964912415,
          0.20006303489208221,
          0.011684566736221313,
          0.03665341064333916,
          -0.1603485494852066,
          0.17148421704769135
        ],
        [
          0.48716142773628235,
          0.7500105500221252,
          0.4989212453365326,
          -0.1409747302532196,
          0.3586777448654175,
          0.1814471185207367,
          -0.15274541079998016,
          -0.17908142507076263,
          0.8829944133758545,
          0.9341344833374023,
          0.7363242506980896,
          0.42646297812461853,
          0.31908220052719116,
          -0.18338541686534882,
          0.13648450374603271,
          -0.250942587852478,
          -0.0012613678118214011,
          -0.06766264140605927,
          0.15381145477294922,
          -0.0936746597290039,
          0.33748331665992737,
          -0.05268310382962227,
          -0.15867874026298523,
          -0.20392903685569763,
          0.04547542706131935,
          -0.1492483913898468,
          -0.1349482238292694,
          -0.19551286101341248,
          0.25760114192962646,
          -0.1412592977285385,
          0.00010525949619477615,
          -0.2855742871761322,
          0.060959476977586746,
          -0.10953918844461441,
          0.15582457184791565,
          -0.3263911306858063,
          0.3664063811302185,
          0.14043083786964417,
          -0.00850486196577549,
          -0.025891251862049103,
          0.3409203588962555,
          0.1294744461774826,
          -0.05255914852023125,
          -0.3047161400318146,
          0.16727623343467712,
          -0.0071723805740475655,
          0.009521318599581718,
          -0.16175305843353271,
          0.12829400599002838
        ],
        [
          0.20058444142341614,
          -0.00976569578051567,
          0.08864856511354446,
          0.003988025709986687,
          0.04958479851484299,
          -0.17319589853286743,
          -0.16258735954761505,
          0.09808369725942612,
          0.28316205739974976,
          0.23539948463439941,
          0.08630954474210739,
          -0.056822024285793304,
          0.20482537150382996,
          0.0038755235727876425,
          0.1718343198299408,
          -0.1701587438583374,
          -0.04084247723221779,
          -0.11055424064397812,
          0.12389390170574188,
          -0.20234373211860657,
          0.24724668264389038,
          0.008013672195374966,
          -0.16575747728347778,
          0.018400821834802628,
          0.057455506175756454,
          0.15297532081604004,
          0.12446819245815277,
          -0.2125765085220337,
          0.0778205618262291,
          0.06523925811052322,
          -0.15662924945354462,
          0.15661665797233582,
          -0.08477390557527542,
          -0.04757600277662277,
          -0.1750633865594864,
          0.053154297173023224,
          -0.025072768330574036,
          -0.11949820071458817,
          -0.20047636330127716,
          0.09150345623493195,
          0.10285381227731705,
          0.15025882422924042,
          0.1387919932603836,
          -0.030533969402313232,
          0.08377756923437119,
          0.039915550500154495,
          -0.12295377254486084,
          -0.23119387030601501,
          0.15209153294563293
        ]
      ],
      "biases": [
        -0.14459161460399628,
        -0.1620723307132721,
        -0.4748882055282593,
        0.2985840439796448,
        -0.022446466609835625,
        0.13188977539539337,
        -0.35021936893463135,
        0.005747978109866381,
        0.0291973315179348,
        0.04428332671523094,
        0.5543320775032043,
        0.1263837367296219,
        -0.676006555557251,
        0.16020657122135162,
        -0.547563374042511,
        -0.01604205183684826
      ]
    },
    {
      "weights": [
        [
          -0.07990046590566635,
          0.004283606540411711,
          0.15638697147369385,
          -0.40011388063430786,
          0.13376671075820923,
          -0.16218411922454834,
          0.28660669922828674,
          -0.05958414450287819,
          0.06758111715316772,
          0.030591780319809914,
          -0.41598060727119446,
          0.1266166865825653,
          0.259375661611557,
          -0.10305666923522949,
          0.3731829822063446,
          -0.024742744863033295
        ],
        [
          -0.0900956466794014,
          0.07910683006048203,
          0.007773361634463072,
          -0.08599170297384262,
          -0.10090261697769165,
          -0.13693198561668396,
          -0.021234719082713127,
          0.02488178201019764,
          0.2279272824525833,
          0.18551047146320343,
          -0.2403746396303177,
          0.2048434019088745,
          0.43661782145500183,
          -0.03097349777817726,
          0.05742814019322395,
          0.10622207820415497
        ],
        [
          -0.1702190637588501,
          0.2898413836956024,
          0.22413142025470734,
          -0.4226400852203369,
          -0.11254863440990448,
          -0.2264535129070282,
          0.2190617471933365,
          0.02149963192641735,
          -0.11385322362184525,
          0.1697155386209488,
          -0.5045965313911438,
          -0.15841396152973175,
          0.42212846875190735,
          0.06416458636522293,
          0.1060691624879837,
          0.008267994038760662
        ],
        [
          0.012239140458405018,
          0.019494030624628067,
          0.30017295479774475,
          -0.47314581274986267,
          0.012864582240581512,
          -0.18436622619628906,
          0.1754637509584427,
          0.11749467998743057,
          -0.006211362779140472,
          -0.001602034317329526,
          -0.5750861763954163,
          -0.10769304633140564,
          0.4095498025417328,
          -0.183926522731781,
          0.2622879147529602,
          0.12701624631881714
        ],
        [
          0.04840948432683945,
          0.026212362572550774,
          0.43378758430480957,
          -0.7103609442710876,
          -0.00008444128616247326,
          -0.05665487423539162,
          0.013788621872663498,
          -0.12842515110969543,
          -0.176649272441864,
          0.1525423377752304,
          -0.5750733017921448,
          -0.08629331737756729,
          0.7443407773971558,
          -0.10964295268058777,
          0.35671648383140564,
          -0.07799489796161652
        ],
        [
          -0.010847157798707485,
          0.04163940250873566,
          0.4270419776439667,
          -0.6356073617935181,
          -0.12298668920993805,
          -0.09780576825141907,
          0.2133377492427826,
          -0.1281166970729828,
          -0.054411791265010834,
          0.15861138701438904,
          -0.7203899025917053,
          -0.1300259530544281,
          0.48626044392585754,
          0.02923288196325302,
          0.44613537192344666,
          0.1433892548084259
        ],
        [
          0.20559342205524445,
          -0.05951203033328056,
          -0.13800185918807983,
          0.28412550687789917,
          -0.023571481928229332,
          0.193854421377182,
          -0.10911328345537186,
          0.1527540385723114,
          0.07465805113315582,
          -0.17029671370983124,
          0.37179043889045715,
          -0.1470983773469925,
          -0.2689960300922394,
          0.18756525218486786,
          -0.21683728694915771,
          0.11586885899305344
        ],
        [
          -0.018806597217917442,
          0.24011477828025818,
          0.41235268115997314,
          -0.6548703908920288,
          -0.1853742003440857,
          -0.09899338334798813,
          -0.05876551568508148,
          -0.1656392216682434,
          0.0880020260810852,
          0.04620741307735443,
          -0.9572665095329285,
          -0.20837925374507904,
          0.8028068542480469,
          0.031260740011930466,
          0.44473838806152344,
          0.03732326626777649
        ],
        [
          0.051261402666568756,
          0.10641670972108841,
          0.28412726521492004,
          -0.8037247657775879,
          0.1672428697347641,
          -0.10889703035354614,
          0.002594537800177932,
          0.011712970212101936,
          -0.056385621428489685,
          0.1629795879125595,
          -0.9204099178314209,
          -0.036425504833459854,
          0.6446874141693115,
          -0.13797613978385925,
          0.40616413950920105,
          -0.11381348967552185
        ],
        [
          -0.0009337337105534971,
          0.16798393428325653,
          0.4449683427810669,
          -1.1159976720809937,
          0.14739367365837097,
          -0.34219515323638916,
          0.36913245916366577,
          -0.35705652832984924,
          0.04353489354252815,
          -0.01914905197918415,
          -1.0734145641326904,
          0.03829864785075188,
          1.0102587938308716,
          0.10540648549795151,
          0.6398462057113647,
          -0.09718883782625198
        ],
        [
          -0.03744412586092949,
          0.2724093794822693,
          0.4936387836933136,
          -1.0191352367401123,
          0.06585987657308578,
          -0.32461270689964294,
          0.2956778109073639,
          -0.3304429352283478,
          -0.07919365912675858,
          0.35984840989112854,
          -1.2990554571151733,
          0.005681772716343403,
          1.2020891904830933,
          0.09936339408159256,
          0.6016225814819336,
          0.00018914422253146768
        ],
        [
          0.02349381521344185,
          0.06931636482477188,
          0.2337184101343155,
          -0.49261873960494995,
          0.18932312726974487,
          -0.06367801129817963,
          -0.11322996020317078,
          0.08006938546895981,
          0.14956343173980713,
          -0.11600394546985626,
          -0.46975356340408325,
          -0.09441320598125458,
          0.4652736186981201,
          -0.0512562096118927,
          0.1860411912202835,
          0.18997544050216675
        ],
        [
          -0.05185185745358467,
          0.34870558977127075,
          0.07084669917821884,
          -0.5117620825767517,
          -0.013537428341805935,
          -0.08745376020669937,
          0.2520924210548401,
          0.06336231529712677,
          -0.11518142372369766,
          -0.011959481053054333,
          -0.7841953039169312,
          -0.17564734816551208,
          0.7717946171760559,
          -0.07522201538085938,
          0.43510040640830994,
          -0.10083334892988205
        ],
        [
          -0.19139055907726288,
          0.3059360086917877,
          0.4540683925151825,
          -0.7076655030250549,
          0.15630514919757843,
          -0.21022433042526245,
          -0.011955258436501026,
          -0.26696014404296875,
          -0.2878732681274414,
          0.16620929539203644,
          -1.138874888420105,
          -0.10672503709793091,
          0.8675556778907776,
          -0.0005996735417284071,
          0.5575211048126221,
          0.10885679721832275
        ],
        [
          -0.0976279079914093,
          0.23869411647319794,
          0.34775546193122864,
          -1.0717023611068726,
          0.18063105642795563,
          -0.15132364630699158,
          -0.044364918023347855,
          -0.08863715827465057,
          0.12328231334686279,
          0.08782386779785156,
          -1.1226234436035156,
          -0.08505833894014359,
          0.9137293100357056,
          -0.11431582272052765,
          0.5126495361328125,
          0.14005215466022491
        ],
        [
          0.0542440265417099,
          0.3979763984680176,
          0.5241910219192505,
          -1.3081508874893188,
          0.11733114719390869,
          -0.4526931345462799,
          0.3515051007270813,
          -0.057562205940485,
          -0.022378189489245415,
          0.3194018006324768,
          -1.6738555431365967,
          0.09592655301094055,
          1.3397830724716187,
          -0.004173328168690205,
          0.9213538765907288,
          0.05883694812655449
        ]
      ],
      "biases": [
        -0.28992483019828796,
        0.11232021450996399,
        0.06185441091656685,
        -0.30754828453063965,
        -0.24402067065238953,
        -0.3896705210208893,
        0.09566617012023926,
        -0.22118553519248962,
        -0.2014487385749817,
        -0.3932591378688812,
        -0.5292994976043701,
        -0.17180952429771423,
        -0.3005264699459076,
        -0.2009001225233078,
        -0.32853004336357117,
        -0.6222655773162842
      ]
    },
    {
      "weights": [
        [
          -0.23877505958080292,
          -0.2310718446969986,
          -0.34444835782051086,
          -0.2381519228219986,
          -0.36488595604896545,
          -0.18916960060596466,
          0.08527901768684387,
          -0.17566798627376556,
          -0.25526654720306396,
          -0.3558220863342285,
          -0.30877405405044556,
          -0.166890487074852,
          -0.41675713658332825,
          -0.31942176818847656,
          -0.3096749782562256,
          -0.7697935700416565
        ],
        [
          -0.2681801915168762,
          -0.19616122543811798,
          -0.26825910806655884,
          -0.25317391753196716,
          -0.3351631164550781,
          -0.22295790910720825,
          0.19789128005504608,
          -0.1501809060573578,
          -0.39867305755615234,
          -0.4016108512878418,
          -0.3392978012561798,
          -0.22296090424060822,
          -0.28384318947792053,
          -0.3993162512779236,
          -0.21284422278404236,
          -0.5410217642784119
        ],
        [
          -0.07292019575834274,
          0.026197779923677444,
          -0.12772870063781738,
          -0.001172633026726544,
          -0.2954748570919037,
          -0.4077427387237549,
          0.06745583564043045,
          -0.09083710610866547,
          -0.2862227261066437,
          -0.5081037878990173,
          -0.5449386835098267,
          0.0023203971795737743,
          -0.2710062861442566,
          -0.2803674340248108,
          -0.530430257320404,
          -0.6629415154457092
        ],
        [
          -0.08800414949655533,
          -0.35845956206321716,
          -0.1331661194562912,
          -0.24030764400959015,
          -0.21709351241588593,
          -0.1879846602678299,
          0.08082447201013565,
          -0.4410008490085602,
          -0.4309897720813751,
          -0.2627991735935211,
          -0.34055429697036743,
          -0.10499157011508942,
          -0.18698100745677948,
          -0.4939606189727783,
          -0.2119276374578476,
          -0.35657793283462524
        ],
        [
          -0.014425549656152725,
          0.21445085108280182,
          0.02107967808842659,
          -0.29742881655693054,
          -0.45887312293052673,
          -0.251238614320755,
          0.4344029426574707,
          -0.3162771463394165,
          -0.32801321148872375,
          -0.6540824174880981,
          -0.6763119697570801,
          -0.14027783274650574,
          -0.4072762131690979,
          -0.33377549052238464,
          -0.6027073264122009,
          -0.8223678469657898
        ],
        [
          -0.23745407164096832,
          -0.22733932733535767,
          -0.10473461449146271,
          -0.08837109059095383,
          -0.11959449201822281,
          -0.24052682518959045,
          -0.14211440086364746,
          -0.39933255314826965,
          -0.38367074728012085,
          -0.2546086311340332,
          -0.0449514165520668,
          -0.30593499541282654,
          -0.36415737867355347,
          -0.1717653125524521,
          -0.2911176085472107,
          -0.3875914514064789
        ],
        [
          -0.09075699746608734,
          -0.08428612351417542,
          -0.28101402521133423,
          -0.2566680610179901,
          -0.30843105912208557,
          -0.20168839395046234,
          -0.061628520488739014,
          -0.4142395853996277,
          -0.09417775273323059,
          -0.4560176432132721,
          -0.28739139437675476,
          -0.23671934008598328,
          -0.2891313135623932,
          -0.4044284224510193,
          -0.3069514036178589,
          -0.44454941153526306
        ],
        [
          -0.28029316663742065,
          0.14263714849948883,
          0.01629854179918766,
          -0.1552777737379074,
          -0.10737667232751846,
          -0.4063473641872406,
          0.45567312836647034,
          -0.4468740224838257,
          -0.2445927858352661,
          -0.41906923055648804,
          -0.6056187152862549,
          -0.20006586611270905,
          -0.0453081913292408,
          -0.5735026597976685,
          -0.5645660758018494,
          -0.8558234572410583
        ],
        [
          -0.131716787815094,
          -0.2685161232948303,
          -0.11530882865190506,
          -0.31229671835899353,
          -0.14729872345924377,
          -0.05752292275428772,
          0.18638814985752106,
          -0.4471234977245331,
          -0.16862039268016815,
          -0.4236640930175781,
          -0.31883111596107483,
          -0.22295637428760529,
          -0.20781205594539642,
          -0.2825857102870941,
          -0.5219153761863708,
          -0.5752401947975159
        ],
        [
          -0.0020292813424021006,
          0.05040581151843071,
          -0.2651183009147644,
          -0.13024182617664337,
          -0.13690590858459473,
          -0.11096960306167603,
          0.22742781043052673,
          -0.2709009051322937,
          -0.2793906331062317,
          -0.29268911480903625,
          -0.5762508511543274,
          -0.2593096196651459,
          -0.30240151286125183,
          -0.5145381689071655,
          -0.33196982741355896,
          -0.6683368682861328
        ],
        [
          -0.1908666491508484,
          -0.18566085398197174,
          -0.35503751039505005,
          -0.0036118351854383945,
          -0.2781175971031189,
          -0.24777734279632568,
          -0.019446494057774544,
          -0.3815649747848511,
          -0.13595548272132874,
          -0.3118443489074707,
          -0.5576117038726807,
          -0.1879078894853592,
          -0.1931605041027069,
          -0.24642692506313324,
          -0.2528829574584961,
          -0.6400055885314941
        ],
        [
          -0.022443965077400208,
          -0.016692398115992546,
          -0.2594061493873596,
          -0.08183424919843674,
          -0.3445981442928314,
          -0.141987144947052,
          0.22595280408859253,
          -0.2119893729686737,
          -0.4451633393764496,
          -0.4398006796836853,
          -0.533655047416687,
          0.006434730254113674,
          -0.2501054108142853,
          -0.33821341395378113,
          -0.5125858187675476,
          -0.6939929127693176
        ],
        [
          -0.2868652045726776,
          -0.1366286277770996,
          -0.15930770337581635,
          -0.050850410014390945,
          -0.17363007366657257,
          -0.18760979175567627,
          0.25168177485466003,
          -0.4101812541484833,
          -0.1604580283164978,
          -0.45233672857284546,
          -0.6345968842506409,
          -0.1687585562467575,
          -0.1635609120130539,
          -0.3104793429374695,
          -0.2338973581790924,
          -0.6000041961669922
        ],
        [
          -0.0885826051235199,
          -0.19160982966423035,
          -0.23540380597114563,
          -0.06718109548091888,
          -0.09040680527687073,
          -0.37081798911094666,
          0.1003352627158165,
          -0.43209755420684814,
          -0.21853433549404144,
          -0.5157544612884521,
          -0.4900314509868622,
          -0.16305556893348694,
          -0.4374029040336609,
          -0.21631121635437012,
          -0.23865412175655365,
          -0.5211681127548218
        ],
        [
          -0.11140060424804688,
          0.07555077224969864,
          -0.18685823678970337,
          -0.17061781883239746,
          -0.3809206485748291,
          -0.15032632648944855,
          0.14042232930660248,
          -0.3820894956588745,
          -0.2277955859899521,
          -0.43175774812698364,
          -0.6551370620727539,
          -0.07015359401702881,
          -0.19218553602695465,
          -0.5315165519714355,
          -0.559466540813446,
          -0.7063086628913879
        ],
        [
          -0.08130531013011932,
          0.12389473617076874,
          0.09150564670562744,
          -0.26333391666412354,
          -0.1455410122871399,
          -0.40506285429000854,
          0.6179425716400146,
          -0.38249945640563965,
          -0.46316441893577576,
          -0.7269109487533569,
          -0.7387270331382751,
          -0.13457471132278442,
          -0.29177096486091614,
          -0.4674665629863739,
          -0.5712618827819824,
          -0.9352524280548096
        ]
      ],
      "biases": [
        0.21390119194984436,
        -0.04054867476224899,
        -0.1581396609544754,
        -0.1712295562028885,
        0.48189577460289,
        -0.26026928424835205,
        -0.10647986829280853,
        0.2201913446187973,
        -0.13244128227233887,
        -0.19076794385910034,
        -0.059290457516908646,
        -0.05519336089491844,
        -0.17318816483020782,
        -0.0339743010699749,
        0.30914732813835144,
        0.647597074508667
      ]
    },
    {
      "weights": [
        [
          1.0052326917648315,
          0.9307054877281189,
          0.981977641582489,
          0.6570948362350464,
          1.4742119312286377,
          0.413093626499176,
          0.7663702368736267,
          1.3585823774337769,
          0.8229441046714783,
          0.9386580586433411,
          0.8295741677284241,
          1.0723906755447388,
          0.8635737895965576,
          0.8642668128013611,
          1.1923415660858154,
          1.6993705034255981
        ]
      ],
      "biases": [
        -4.31251335144043
      ]
    }
  ],
  "inputLookup": {
    "totalClouds[0]": 0,
    "lowClouds[0]": 1,
    "mediumClouds[0]": 2,
    "highClouds[0]": 3,
    "rainChance[0]": 4,
    "rainAmount[0]": 5,
    "windSpeed[0]": 6,
    "temperature[0]": 7,
    "totalClouds[1]": 8,
    "lowClouds[1]": 9,
    "mediumClouds[1]": 10,
    "highClouds[1]": 11,
    "rainChance[1]": 12,
    "rainAmount[1]": 13,
    "windSpeed[1]": 14,
    "temperature[1]": 15,
    "totalClouds[2]": 16,
    "lowClouds[2]": 17,
    "mediumClouds[2]": 18,
    "highClouds[2]": 19,
    "rainChance[2]": 20,
    "rainAmount[2]": 21,
    "windSpeed[2]": 22,
    "temperature[2]": 23,
    "totalClouds[3]": 24,
    "lowClouds[3]": 25,
    "mediumClouds[3]": 26,
    "highClouds[3]": 27,
    "rainChance[3]": 28,
    "rainAmount[3]": 29,
    "windSpeed[3]": 30,
    "temperature[3]": 31,
    "totalClouds[4]": 32,
    "lowClouds[4]": 33,
    "mediumClouds[4]": 34,
    "highClouds[4]": 35,
    "rainChance[4]": 36,
    "rainAmount[4]": 37,
    "windSpeed[4]": 38,
    "temperature[4]": 39,
    "exposureLength": 40,
    "totalClouds[5]": 41,
    "lowClouds[5]": 42,
    "mediumClouds[5]": 43,
    "highClouds[5]": 44,
    "rainChance[5]": 45,
    "rainAmount[5]": 46,
    "windSpeed[5]": 47,
    "temperature[5]": 48
  },
  "inputLookupLength": 49,
  "outputLookup": {
    "totalImagingTime": 0
  },
  "outputLookupLength": 1,
  "options": {
    "inputSize": 0,
    "outputSize": 0,
    "binaryThresh": 0.5,
    "hiddenLayers": [
      16,
      16,
      16
    ]
  },
  "trainOpts": {
    "activation": "sigmoid",
    "iterations": 20000,
    "errorThresh": 0.005,
    "log": false,
    "logPeriod": 10,
    "leakyReluAlpha": 0.01,
    "learningRate": 0.3,
    "momentum": 0.1,
    "callbackPeriod": 10,
    "timeout": "Infinity",
    "beta1": 0.9,
    "beta2": 0.999,
    "epsilon": 1e-8
  }
}