{
  "type": "NeuralNetworkGPU",
  "sizes": [
    49,
    16,
    16,
    16,
    1
  ],
  "layers": [
    {
      "weights": [],
      "biases": []
    },
    {
      "weights": [
        [
          -0.6874663829803467,
          -1.0002801418304443,
          -0.9641250967979431,
          0.38318273425102234,
          -0.8391798734664917,
          -0.046857621520757675,
          0.22994691133499146,
          0.4566129148006439,
          -1.3391152620315552,
          -1.39413583278656,
          -0.9363265037536621,
          -0.5290809869766235,
          -0.36718833446502686,
          -0.0977337583899498,
          -0.011936808936297894,
          0.2736342251300812,
          -0.3373181223869324,
          -0.10927661508321762,
          -0.023683836683630943,
          0.282932847738266,
          -0.323591947555542,
          0.11349852383136749,
          -0.14108110964298248,
          0.2999342978000641,
          -0.15299634635448456,
          0.126981720328331,
          -0.09583839029073715,
          0.2609279453754425,
          -0.2825261354446411,
          -0.040121134370565414,
          0.0680496022105217,
          0.4851101338863373,
          -0.3438771963119507,
          0.033671796321868896,
          -0.037762027233839035,
          0.16500595211982727,
          -0.21458552777767181,
          0.005855709780007601,
          -0.04204614832997322,
          0.40529152750968933,
          -0.22011618316173553,
          -0.019168632104992867,
          -0.07602619379758835,
          0.28948524594306946,
          -0.2211112231016159,
          -0.0709022805094719,
          -0.06529069691896439,
          0.21364519000053406,
          -0.21713949739933014
        ],
        [
          0.08147143572568893,
          0.29155007004737854,
          0.026576051488518715,
          -0.10835036635398865,
          0.08704740554094315,
          -0.006224215496331453,
          0.1438106894493103,
          -0.17434194684028625,
          0.5385502576828003,
          0.32584112882614136,
          0.3300836682319641,
          0.26033836603164673,
          0.24878636002540588,
          0.17673268914222717,
          -0.0049215927720069885,
          -0.1660691201686859,
          0.08393736928701401,
          -0.15052884817123413,
          -0.2065999060869217,
          -0.08061135560274124,
          0.21281658113002777,
          0.15629780292510986,
          0.0012455650139600039,
          -0.012763623148202896,
          -0.06555099040269852,
          -0.11189036816358566,
          0.04940085485577583,
          -0.03726757690310478,
          -0.07137776166200638,
          -0.17067401111125946,
          -0.1640530675649643,
          -0.24033936858177185,
          0.1735377311706543,
          0.15712158381938934,
          0.12599845230579376,
          0.026428578421473503,
          -0.07854392379522324,
          0.11058314889669418,
          0.08319473266601562,
          -0.1972154676914215,
          0.1308029592037201,
          -0.17102104425430298,
          0.09524902701377869,
          -0.0379498265683651,
          0.008349783718585968,
          0.06752027571201324,
          -0.08672283589839935,
          -0.03798752650618553,
          0.24388960003852844
        ],
        [
          0.010492801666259766,
          -0.005997160915285349,
          -0.018033234402537346,
          -0.06069406121969223,
          0.319217711687088,
          -0.08554533869028091,
          0.011746667325496674,
          -0.11964288353919983,
          0.3487265110015869,
          0.32624560594558716,
          0.2995644807815552,
          0.1563834846019745,
          0.22707751393318176,
          -0.17288072407245636,
          0.05265412479639053,
          -0.16898894309997559,
          -0.10028557479381561,
          0.12734617292881012,
          0.0044919694773852825,
          -0.11581836640834808,
          0.10611440241336823,
          -0.03859100118279457,
          0.07925396412611008,
          -0.1035279929637909,
          0.19363486766815186,
          0.1819765716791153,
          0.1205429956316948,
          -0.033055346459150314,
          0.11782705783843994,
          0.1683271825313568,
          0.03635890781879425,
          0.009227065369486809,
          0.22548606991767883,
          -0.17384861409664154,
          0.09938161820173264,
          -0.040216293185949326,
          0.02148619294166565,
          0.1877274066209793,
          0.04576224833726883,
          -0.210478276014328,
          -0.06595121324062347,
          0.1094026193022728,
          -0.03454389050602913,
          -0.1426977515220642,
          -0.07769475877285004,
          0.038903336971998215,
          0.1285184621810913,
          0.08849628269672394,
          -0.006746554281562567
        ],
        [
          0.23560984432697296,
          0.2564884424209595,
          0.28066107630729675,
          0.13205038011074066,
          0.09045868366956711,
          0.0915827825665474,
          0.1106102392077446,
          -0.06606042385101318,
          0.34054580330848694,
          0.1877388060092926,
          0.3311493396759033,
          0.19348487257957458,
          0.13518957793712616,
          -0.12302104383707047,
          -0.1360057145357132,
          0.02665473334491253,
          0.20776695013046265,
          -0.19778582453727722,
          -0.059918999671936035,
          0.08004601299762726,
          0.14990568161010742,
          -0.10789009183645248,
          -0.10453817248344421,
          -0.06904590129852295,
          0.038262657821178436,
          0.045354146510362625,
          0.17119193077087402,
          -0.23493266105651855,
          0.023306168615818024,
          0.09996344149112701,
          -0.06780388951301575,
          -0.13669773936271667,
          0.24010099470615387,
          -0.06985314190387726,
          0.11069564521312714,
          -0.2008276879787445,
          0.09211494773626328,
          0.03462394326925278,
          -0.12755538523197174,
          -0.03558521345257759,
          0.22134257853031158,
          -0.1542539745569229,
          0.022792482748627663,
          -0.11480830609798431,
          0.21511854231357574,
          -0.13473007082939148,
          -0.022798707708716393,
          -0.20516040921211243,
          0.18006233870983124
        ],
        [
          0.2930597960948944,
          -0.06361117959022522,
          0.033064063638448715,
          0.10388446599245071,
          0.02347911335527897,
          0.08728411793708801,
          -0.13603879511356354,
          0.024140439927577972,
          0.10291432589292526,
          0.2720504701137543,
          0.33027490973472595,
          0.1287941336631775,
          -0.07699495553970337,
          0.14332571625709534,
          0.08487753570079803,
          -0.15358036756515503,
          0.14358623325824738,
          -0.06459414213895798,
          -0.16558678448200226,
          -0.21345524489879608,
          -0.05699790269136429,
          0.07183840125799179,
          -0.027010580524802208,
          -0.13130530714988708,
          0.05708515644073486,
          0.17322929203510284,
          -0.054198019206523895,
          -0.1719554215669632,
          0.04382803291082382,
          0.030478738248348236,
          -0.08915208280086517,
          -0.00550727779045701,
          0.09815505146980286,
          0.07539208233356476,
          0.16991202533245087,
          -0.16813074052333832,
          0.1478663831949234,
          -0.19322669506072998,
          -0.05249233543872833,
          0.1411827653646469,
          0.013936344534158707,
          -0.0736282467842102,
          0.07966552674770355,
          -0.057319868355989456,
          0.23298810422420502,
          -0.04385778307914734,
          0.14349593222141266,
          -0.2457631379365921,
          0.033201612532138824
        ],
        [
          0.011192895472049713,
          -0.27582821249961853,
          0.08222509920597076,
          -0.029150227084755898,
          0.05486738681793213,
          0.05944453924894333,
          0.18576951324939728,
          -0.032928988337516785,
          -0.13025504350662231,
          -0.14704349637031555,
          -0.16901999711990356,
          -0.10188844054937363,
          0.2047252655029297,
          0.011975137516856194,
          0.09334506094455719,
          0.05282102897763252,
          0.17003804445266724,
          -0.18706241250038147,
          0.13334354758262634,
          -0.055302251130342484,
          -0.03763978183269501,
          -0.06481841951608658,
          0.14563587307929993,
          0.11923783272504807,
          0.1659862995147705,
          0.05697788670659065,
          -0.1677853763103485,
          0.0954476073384285,
          0.16429036855697632,
          -0.017696203663945198,
          -0.13964951038360596,
          0.03672177717089653,
          -0.1698908507823944,
          -0.027982588857412338,
          -0.02632700279355049,
          -0.04676222428679466,
          0.057024694979190826,
          0.09644744545221329,
          -0.11406725645065308,
          -0.013369784690439701,
          -0.10722675174474716,
          -0.013408957049250603,
          0.14548227190971375,
          -0.09594515711069107,
          -0.0900859609246254,
          0.01002383604645729,
          0.07449227571487427,
          0.14771303534507751,
          -0.06786107271909714
        ],
        [
          -0.010480615310370922,
          -0.10952997952699661,
          -0.07380153983831406,
          0.2814564108848572,
          0.08587135374546051,
          0.13336846232414246,
          -0.014939418062567711,
          0.19052408635616302,
          -0.013518564403057098,
          -0.09032263606786728,
          0.006320680491626263,
          -0.1510225087404251,
          -0.051393263041973114,
          0.1313835084438324,
          0.13743215799331665,
          -0.01658608391880989,
          0.16099506616592407,
          -0.12521901726722717,
          0.1573863923549652,
          0.01752374693751335,
          -0.09657662361860275,
          0.09910742938518524,
          -0.014472595416009426,
          0.12908850610256195,
          -0.05252142250537872,
          -0.09429635107517242,
          -0.0735328197479248,
          0.15386457741260529,
          0.1774725615978241,
          0.004133870825171471,
          -0.022418664768338203,
          -0.09753446280956268,
          0.02917039580643177,
          0.1690066009759903,
          -0.0696023553609848,
          0.18255527317523956,
          0.09863091260194778,
          0.168345108628273,
          0.07449077069759369,
          -0.006156756076961756,
          -0.04481307417154312,
          -0.08083010464906693,
          -0.011492162011563778,
          -0.15340493619441986,
          0.026844529435038567,
          0.07633183151483536,
          -0.0373578742146492,
          -0.18448902666568756,
          0.18159016966819763
        ],
        [
          0.3471998870372772,
          0.3039523661136627,
          0.15394720435142517,
          -0.10350220650434494,
          0.10371142625808716,
          0.12072224169969559,
          -0.1826198399066925,
          -0.060720499604940414,
          0.740237295627594,
          0.4577222168445587,
          0.5488125681877136,
          0.26394325494766235,
          0.058969978243112564,
          0.0229733157902956,
          0.06021194905042648,
          -0.26431775093078613,
          0.2738964557647705,
          0.14322341978549957,
          -0.21287427842617035,
          -0.24309232831001282,
          0.16927316784858704,
          -0.04663297161459923,
          -0.2136269360780716,
          -0.16897457838058472,
          0.11705664545297623,
          -0.15318141877651215,
          -0.09690535068511963,
          -0.1525297462940216,
          0.01509279478341341,
          0.08816750347614288,
          0.11914284527301788,
          -0.33475762605667114,
          0.04748717322945595,
          0.07458902150392532,
          0.13023494184017181,
          0.032906655222177505,
          0.14034441113471985,
          -0.06539738923311234,
          0.07769888639450073,
          -0.22184321284294128,
          0.3143616318702698,
          -0.0005132369115017354,
          -0.08447127044200897,
          -0.11526346951723099,
          0.0016897591995075345,
          -0.13348959386348724,
          0.15679289400577545,
          -0.1964327096939087,
          -0.01439619716256857
        ],
        [
          0.1823553442955017,
          0.22915945947170258,
          0.4583267569541931,
          0.061101168394088745,
          0.20336966216564178,
          -0.05350090190768242,
          0.04210103675723076,
          0.007059319876134396,
          0.6709163188934326,
          0.4083591401576996,
          0.27655738592147827,
          0.2926478385925293,
          0.14771492779254913,
          -0.12720003724098206,
          0.18400342762470245,
          -0.31598764657974243,
          0.1296008676290512,
          0.1379615068435669,
          -0.08292870223522186,
          -0.01583794131875038,
          0.3353380560874939,
          -0.16825008392333984,
          0.11684095859527588,
          0.02873886190354824,
          0.07193341851234436,
          0.05190281197428703,
          -0.17126111686229706,
          -0.08588671684265137,
          -0.018145285546779633,
          0.13844361901283264,
          0.14200468361377716,
          -0.27325648069381714,
          0.0664283037185669,
          0.14255009591579437,
          -0.06415359675884247,
          -0.18770058453083038,
          0.310696005821228,
          -0.16568104922771454,
          -0.17056967318058014,
          -0.23936249315738678,
          0.26535624265670776,
          -0.11889077723026276,
          -0.19555415213108063,
          0.007217492442578077,
          0.28332656621932983,
          0.16114820539951324,
          -0.11124064028263092,
          -0.2836454510688782,
          0.14367149770259857
        ],
        [
          0.20840081572532654,
          0.3991924524307251,
          0.419137567281723,
          -0.19406016170978546,
          0.19561681151390076,
          -0.13245171308517456,
          -0.21137455105781555,
          -0.18681283295154572,
          0.8311054706573486,
          0.4311378598213196,
          0.42015525698661804,
          0.3825366497039795,
          0.12088264524936676,
          0.05928054451942444,
          0.02659938484430313,
          -0.09408818185329437,
          0.03784232586622238,
          -0.1590871512889862,
          0.0985657125711441,
          -0.2347594052553177,
          0.038667887449264526,
          0.027058295905590057,
          -0.19909635186195374,
          -0.2747119963169098,
          0.03644669055938721,
          -0.1981337070465088,
          0.06955158710479736,
          -0.10310143232345581,
          0.3584742248058319,
          -0.10752919316291809,
          0.03924717381596565,
          -0.13222099840641022,
          0.32122573256492615,
          -0.09707106649875641,
          0.1097659319639206,
          -0.32399073243141174,
          0.32153013348579407,
          0.05073525756597519,
          -0.1751074194908142,
          -0.05094084516167641,
          0.028670068830251694,
          -0.17335480451583862,
          0.09181289374828339,
          -0.2517037093639374,
          0.3507697284221649,
          0.10120251029729843,
          -0.10539886355400085,
          -0.08519864082336426,
          0.044953860342502594
        ],
        [
          -0.05932577699422836,
          -0.5398079752922058,
          -0.6294226050376892,
          0.30805402994155884,
          -0.36749356985092163,
          0.028982464224100113,
          0.05259033292531967,
          0.12867705523967743,
          -0.6937574744224548,
          -0.34206587076187134,
          -0.48332443833351135,
          -0.12197284400463104,
          -0.2102356106042862,
          0.10390850156545639,
          0.16988837718963623,
          0.22428423166275024,
          -0.020559608936309814,
          -0.1231694221496582,
          0.12246204912662506,
          0.0464470311999321,
          -0.2592303454875946,
          -0.14347882568836212,
          -0.1497831642627716,
          0.08583792299032211,
          0.07539911568164825,
          0.06942278146743774,
          0.0356997475028038,
          0.04825989902019501,
          0.021874606609344482,
          -0.08102528750896454,
          0.013017416931688786,
          0.01958458125591278,
          0.03134797140955925,
          -0.15791359543800354,
          0.06923709809780121,
          0.09351777285337448,
          0.029462862759828568,
          -0.06441446393728256,
          0.09019677340984344,
          0.06002214550971985,
          -0.2656491696834564,
          0.18441374599933624,
          -0.1250404715538025,
          0.17180153727531433,
          -0.12061972916126251,
          -0.002122272038832307,
          0.03795010596513748,
          0.11790475994348526,
          -0.2674550414085388
        ],
        [
          -0.2812334895133972,
          -0.4276290833950043,
          -0.2798350751399994,
          0.3577209413051605,
          -0.35902735590934753,
          -0.18074829876422882,
          -0.053398966789245605,
          0.17169678211212158,
          -0.4218047559261322,
          -0.37485793232917786,
          -0.2177685648202896,
          -0.2642793655395508,
          -0.21941380202770233,
          -0.17036212980747223,
          0.007090160623192787,
          0.06324838846921921,
          0.01856888458132744,
          -0.1599859744310379,
          -0.006845586933195591,
          -0.08264245092868805,
          -0.2591537833213806,
          -0.1152462363243103,
          -0.0503632016479969,
          0.18579575419425964,
          -0.0618966706097126,
          0.12368623912334442,
          0.12018652260303497,
          -0.032399825751781464,
          -0.20472939312458038,
          -0.02204808220267296,
          0.07631571590900421,
          0.12848341464996338,
          -0.21956603229045868,
          -0.16248218715190887,
          -0.0510910339653492,
          0.08431370556354523,
          0.02916017547249794,
          0.04039148613810539,
          0.20021122694015503,
          0.008799638599157333,
          0.005829897243529558,
          0.1289442628622055,
          0.1112077385187149,
          0.21913084387779236,
          0.04687431827187538,
          -0.1912728250026703,
          0.11789123713970184,
          0.033588387072086334,
          0.08570406585931778
        ],
        [
          0.7570267915725708,
          0.9998177289962769,
          0.8801358342170715,
          -0.38318008184432983,
          0.8502410054206848,
          0.19662438333034515,
          -0.09370680898427963,
          -0.3588411509990692,
          1.9458104372024536,
          1.6121693849563599,
          0.9963623881340027,
          0.6299521923065186,
          0.35464808344841003,
          -0.10315010696649551,
          -0.22790248692035675,
          -0.22292056679725647,
          0.16883955895900726,
          0.10562173277139664,
          -0.12162726372480392,
          -0.3201460540294647,
          0.28564974665641785,
          0.04383344203233719,
          0.06012507528066635,
          -0.3410221040248871,
          0.25584372878074646,
          0.19467350840568542,
          -0.22882427275180817,
          -0.3508003056049347,
          0.3071012794971466,
          -0.0446716733276844,
          0.09307815879583359,
          -0.15352752804756165,
          0.20332588255405426,
          0.1391763538122177,
          -0.1732422262430191,
          -0.368002325296402,
          0.4773654639720917,
          0.005716338753700256,
          -0.05250024050474167,
          -0.4800654947757721,
          0.3776106536388397,
          -0.1877744197845459,
          -0.23783104121685028,
          -0.506877601146698,
          0.2638322412967682,
          -0.048215027898550034,
          -0.1666211634874344,
          -0.1785355508327484,
          0.20841838419437408
        ],
        [
          0.45549678802490234,
          0.5856420397758484,
          0.5128523111343384,
          -0.015819687396287918,
          0.1808621883392334,
          -0.09669332951307297,
          0.07869721949100494,
          -0.14867164194583893,
          0.8721097707748413,
          0.4308900535106659,
          0.4337078630924225,
          0.26088446378707886,
          0.257711261510849,
          -0.08198342472314835,
          0.08045562356710434,
          -0.16518524289131165,
          0.2673623561859131,
          0.07182931900024414,
          -0.05882933735847473,
          -0.029751215130090714,
          0.01985003799200058,
          -0.11121528595685959,
          -0.0984756126999855,
          -0.3626263439655304,
          -0.007646976038813591,
          -0.030384929850697517,
          -0.10982338339090347,
          -0.12691433727741241,
          0.19044360518455505,
          0.18284381926059723,
          0.1520269811153412,
          -0.14660954475402832,
          0.01846574991941452,
          -0.17300888895988464,
          0.0008163500460796058,
          -0.2318224310874939,
          0.23995432257652283,
          -0.15587741136550903,
          -0.134780615568161,
          -0.23454126715660095,
          0.13872447609901428,
          -0.11484009772539139,
          -0.09307863563299179,
          -0.2821706235408783,
          0.365832656621933,
          -0.12294071912765503,
          -0.000018236998585052788,
          -0.03291810676455498,
          0.3078218102455139
        ],
        [
          0.14256909489631653,
          -0.11734951287508011,
          0.23250417411327362,
          -0.11260367929935455,
          0.2268056422472,
          0.12639181315898895,
          -0.15308356285095215,
          -0.16349482536315918,
          0.10724498331546783,
          0.0529329888522625,
          0.27240097522735596,
          0.2680087983608246,
          0.1837865710258484,
          0.17448410391807556,
          0.10111894458532333,
          -0.1820647418498993,
          0.24921496212482452,
          0.03778523951768875,
          -0.1179305836558342,
          -0.0470738559961319,
          -0.00535957794636488,
          0.002368946559727192,
          -0.10206419229507446,
          -0.14562129974365234,
          0.2256726622581482,
          -0.15022091567516327,
          0.056681618094444275,
          -0.1507793664932251,
          0.20953378081321716,
          0.0782514289021492,
          -0.06085312366485596,
          0.09266114979982376,
          -0.09020673483610153,
          -0.0480923056602478,
          -0.19940754771232605,
          0.10483144968748093,
          0.17931583523750305,
          0.12609386444091797,
          0.06844605505466461,
          0.12062758952379227,
          0.023075604811310768,
          -0.12220507115125656,
          0.11306089162826538,
          -0.1629282832145691,
          0.0709221363067627,
          0.14198534190654755,
          -0.01126919500529766,
          -0.2547462284564972,
          -0.12799957394599915
        ],
        [
          0.5275707840919495,
          0.47942331433296204,
          0.6351443529129028,
          -0.005685002077370882,
          0.5359044671058655,
          0.0932760238647461,
          0.006191120482981205,
          -0.06651289761066437,
          1.0041526556015015,
          0.5093064904212952,
          0.3178357779979706,
          0.09519461542367935,
          -0.009012633934617043,
          -0.03304756060242653,
          0.11204300075769424,
          -0.32334351539611816,
          0.1316957324743271,
          0.027924174442887306,
          -0.19262360036373138,
          -0.1775841861963272,
          0.05393562465906143,
          0.08683250844478607,
          -0.18923582136631012,
          -0.025756893679499626,
          0.2345646768808365,
          -0.03494247421622276,
          -0.07876300066709518,
          -0.06761779636144638,
          0.26999518275260925,
          0.05356239154934883,
          -0.039971981197595596,
          -0.17180217802524567,
          0.18223746120929718,
          -0.12391358613967896,
          0.08847624808549881,
          -0.16970275342464447,
          0.17269422113895416,
          0.08143340051174164,
          -0.20256094634532928,
          -0.15858013927936554,
          0.27947506308555603,
          0.17413151264190674,
          0.08242497593164444,
          -0.24404089152812958,
          0.22518287599086761,
          0.1597265750169754,
          -0.07218947261571884,
          -0.34806156158447266,
          0.09609469026327133
        ]
      ],
      "biases": [
        0.5053521990776062,
        -0.17304395139217377,
        -0.0641169473528862,
        -0.2853342890739441,
        0.02625269815325737,
        -0.05967050790786743,
        0.08751535415649414,
        -0.04387436807155609,
        -0.26113560795783997,
        -0.09887269884347916,
        0.23678670823574066,
        0.3460786044597626,
        -0.7398586273193359,
        -0.3550911843776703,
        0.06564278900623322,
        -0.4051651060581207
      ]
    },
    {
      "weights": [
        [
          -0.5084430575370789,
          -0.003387645585462451,
          -0.08210765570402145,
          0.0027105133049190044,
          -0.09838932007551193,
          -0.16898377239704132,
          -0.054240141063928604,
          0.20372021198272705,
          0.03777614235877991,
          0.33339715003967285,
          -0.13074518740177155,
          -0.23703783750534058,
          0.5702961087226868,
          0.05805493891239166,
          -0.02418176829814911,
          0.09826112538576126
        ],
        [
          -0.08070165663957596,
          -0.09724000841379166,
          0.18902546167373657,
          -0.013921973295509815,
          -0.0951005071401596,
          0.1126677542924881,
          0.09948234260082245,
          0.03270706534385681,
          -0.17535115778446198,
          -0.1575392335653305,
          0.07695569097995758,
          -0.10036098957061768,
          -0.049920037388801575,
          -0.12765629589557648,
          -0.09215986728668213,
          -0.14217951893806458
        ],
        [
          -1.070791482925415,
          0.05429109185934067,
          0.12540587782859802,
          0.03753263130784035,
          -0.25648778676986694,
          -0.11344755440950394,
          -0.0343596488237381,
          0.20845693349838257,
          0.3287731111049652,
          0.24269060790538788,
          -0.3069639205932617,
          -0.254499226808548,
          0.6985816359519958,
          0.37044408917427063,
          -0.12145230919122696,
          0.3761918544769287
        ],
        [
          -0.48753535747528076,
          -0.10519852489233017,
          -0.024531014263629913,
          0.2456934005022049,
          -0.1661204993724823,
          0.12461678683757782,
          -0.04149546101689339,
          0.07648943364620209,
          0.08858874440193176,
          -0.023792006075382233,
          -0.26405319571495056,
          -0.24666263163089752,
          0.4781375825405121,
          0.07547079026699066,
          0.18640658259391785,
          0.18757116794586182
        ],
        [
          -0.6074435710906982,
          0.09634415060281754,
          -0.051181111484766006,
          -0.0402059406042099,
          -0.10990184545516968,
          0.07530736178159714,
          -0.0992264524102211,
          0.2461700737476349,
          -0.013926029205322266,
          0.022940445691347122,
          -0.2467678040266037,
          -0.14007697999477386,
          0.7697866559028625,
          0.29471835494041443,
          -0.13810528814792633,
          0.2873610258102417
        ],
        [
          -0.11395272612571716,
          0.19063256680965424,
          0.2447037249803543,
          0.1286282241344452,
          0.05842633172869682,
          0.04129787161946297,
          -0.1445585936307907,
          0.23501795530319214,
          0.12235043942928314,
          0.04723459482192993,
          0.14622880518436432,
          -0.03230763226747513,
          0.013374056667089462,
          -0.015097958967089653,
          0.13357412815093994,
          0.0038844249211251736
        ],
        [
          -1.206268072128296,
          0.22779926657676697,
          0.17089881002902985,
          0.03240704536437988,
          0.10375266522169113,
          -0.3679960072040558,
          -0.12023518234491348,
          0.3669234812259674,
          0.42137202620506287,
          0.10390075296163559,
          -0.6666058897972107,
          -0.5645247101783752,
          1.2860095500946045,
          0.32680562138557434,
          -0.017045656219124794,
          0.47066134214401245
        ],
        [
          -0.6306527853012085,
          -0.03735296055674553,
          -0.07293534278869629,
          0.178859680891037,
          0.00492867361754179,
          0.05260270833969116,
          -0.23603104054927826,
          0.06900404393672943,
          0.03254200518131256,
          0.2704486548900604,
          -0.38192054629325867,
          -0.08387620002031326,
          0.8005200028419495,
          0.18016862869262695,
          -0.11202358454465866,
          0.2019205540418625
        ],
        [
          -0.7653447389602661,
          0.09777690470218658,
          0.1559160202741623,
          -0.026921838521957397,
          0.02309047430753708,
          -0.03367844223976135,
          -0.1732797771692276,
          0.16913019120693207,
          0.2843885123729706,
          0.11643953621387482,
          -0.17319919168949127,
          -0.4604445993900299,
          0.6175142526626587,
          0.31028759479522705,
          0.21883060038089752,
          0.07192976027727127
        ],
        [
          -0.9743896722793579,
          -0.10018785297870636,
          -0.04733503609895706,
          0.1128619834780693,
          0.0006742925615981221,
          -0.32364940643310547,
          0.015910228714346886,
          0.23216278851032257,
          0.13936401903629303,
          0.28694263100624084,
          -0.5154434442520142,
          -0.33811450004577637,
          1.031531810760498,
          0.38651254773139954,
          0.16793736815452576,
          0.1793845146894455
        ],
        [
          -0.8915410041809082,
          0.17921830713748932,
          -0.15376950800418854,
          0.31705567240715027,
          0.07273943722248077,
          -0.16082893311977386,
          -0.2194393128156662,
          0.10805786401033401,
          0.138944610953331,
          0.33248913288116455,
          -0.3123365342617035,
          -0.46583884954452515,
          0.851671040058136,
          0.09809117764234543,
          -0.025015095248818398,
          0.4404663145542145
        ],
        [
          -1.7308170795440674,
          0.3295542299747467,
          0.15880127251148224,
          0.22167053818702698,
          0.09799005836248398,
          -0.47575974464416504,
          -0.22175034880638123,
          0.3056602478027344,
          0.4715092182159424,
          0.49967193603515625,
          -0.9375684857368469,
          -0.6535736918449402,
          1.5564961433410645,
          0.6744381785392761,
          -0.06208135187625885,
          0.7018281817436218
        ],
        [
          -0.6509762406349182,
          0.20103858411312103,
          0.15196408331394196,
          0.20282696187496185,
          -0.06312588602304459,
          -0.06819740682840347,
          -0.15789644420146942,
          0.12505002319812775,
          -0.027141276746988297,
          0.21407444775104523,
          -0.3352704644203186,
          -0.31992480158805847,
          0.5277910828590393,
          0.2503834664821625,
          0.13805924355983734,
          0.23394106328487396
        ],
        [
          -0.9192976355552673,
          -0.030789345502853394,
          -0.11347268521785736,
          0.08138684183359146,
          0.09948133677244186,
          -0.10293849557638168,
          -0.19515228271484375,
          0.03587665408849716,
          0.22906483709812164,
          0.3863985538482666,
          -0.45349934697151184,
          -0.31219327449798584,
          0.8096564412117004,
          0.15636251866817474,
          0.18149128556251526,
          0.3386470377445221
        ],
        [
          -1.7324273586273193,
          0.1616886407136917,
          0.15814369916915894,
          0.2079520970582962,
          0.05357291176915169,
          -0.13128210604190826,
          -0.3490556478500366,
          0.45849037170410156,
          0.34389743208885193,
          0.5501775145530701,
          -0.9101150035858154,
          -0.7889569401741028,
          1.5029155015945435,
          0.6216813921928406,
          -0.04913603886961937,
          0.7074214816093445
        ],
        [
          -0.004668175708502531,
          0.16900061070919037,
          0.004908076487481594,
          -0.011457111686468124,
          0.021548934280872345,
          -0.06159745901823044,
          -0.05402980372309685,
          0.06272516399621964,
          0.16892722249031067,
          -0.05122086778283119,
          -0.12664486467838287,
          0.0535087026655674,
          0.16304278373718262,
          0.25151532888412476,
          0.1544666886329651,
          0.053779810667037964
        ]
      ],
      "biases": [
        -0.14466573297977448,
        -0.011524803005158901,
        -0.41016337275505066,
        -0.032240234315395355,
        -0.18100857734680176,
        0.1912817656993866,
        -0.6402003765106201,
        -0.15786197781562805,
        -0.27784934639930725,
        -0.45797935128211975,
        -0.39326682686805725,
        -0.6746501922607422,
        -0.20811794698238373,
        -0.3419416546821594,
        -0.6072940826416016,
        -0.11320227384567261
      ]
    },
    {
      "weights": [
        [
          0.04915996640920639,
          0.2600671947002411,
          -0.3822452127933502,
          -0.06505259871482849,
          -0.06770540028810501,
          0.20920775830745697,
          -0.6750574111938477,
          -0.2855461835861206,
          -0.09989110380411148,
          -0.5240502953529358,
          -0.40872031450271606,
          -0.8717270493507385,
          -0.06152113899588585,
          -0.43381863832473755,
          -0.7597052454948425,
          -0.04459720104932785
        ],
        [
          -0.3022521734237671,
          -0.173207089304924,
          -0.2628525495529175,
          -0.2009662240743637,
          -0.27770406007766724,
          -0.07817083597183228,
          -0.21648991107940674,
          -0.31561213731765747,
          -0.3367142677307129,
          -0.0871906653046608,
          -0.09851855039596558,
          -0.47829669713974,
          -0.2754475474357605,
          -0.38994327187538147,
          -0.4690384566783905,
          -0.10173135250806808
        ],
        [
          -0.029123397544026375,
          0.2086380571126938,
          -0.35592660307884216,
          -0.14234477281570435,
          -0.31186774373054504,
          0.08588800579309464,
          -0.5530966520309448,
          -0.3926481008529663,
          -0.07534446567296982,
          -0.3327421247959137,
          -0.33468738198280334,
          -0.45139065384864807,
          -0.2546504735946655,
          -0.47111275792121887,
          -0.6992300748825073,
          0.11567915976047516
        ],
        [
          -0.06438557803630829,
          0.16518469154834747,
          -0.4983672499656677,
          -0.1581450253725052,
          -0.20197004079818726,
          -0.06153508275747299,
          -0.41272303462028503,
          -0.09715915471315384,
          -0.20004364848136902,
          -0.28206682205200195,
          -0.47792690992355347,
          -0.4278917908668518,
          -0.07033169269561768,
          -0.3136248290538788,
          -0.5292872786521912,
          -0.22704462707042694
        ],
        [
          -0.28624579310417175,
          -0.08506425470113754,
          -0.11726773530244827,
          -0.059623878449201584,
          -0.25761905312538147,
          -0.10513246059417725,
          -0.24776796996593475,
          -0.41689571738243103,
          -0.24770182371139526,
          -0.36084097623825073,
          -0.33462393283843994,
          -0.5305966138839722,
          -0.32520997524261475,
          -0.08375080674886703,
          -0.31624993681907654,
          -0.30199936032295227
        ],
        [
          -0.1707824468612671,
          0.005128713324666023,
          -0.25263527035713196,
          -0.11005724221467972,
          -0.20576024055480957,
          0.04871274530887604,
          -0.4998038709163666,
          -0.3413688838481903,
          -0.284519761800766,
          -0.45406609773635864,
          -0.2639217674732208,
          -0.5198215842247009,
          -0.3856254816055298,
          -0.20944982767105103,
          -0.43191686272621155,
          -0.0914633572101593
        ],
        [
          -0.17418675124645233,
          -0.1678357869386673,
          -0.27630263566970825,
          -0.23357495665550232,
          -0.20214642584323883,
          0.002338584279641509,
          -0.37112730741500854,
          -0.04304519668221474,
          -0.24986185133457184,
          -0.17936217784881592,
          -0.38116154074668884,
          -0.5444446206092834,
          -0.2657129168510437,
          -0.44192394614219666,
          -0.36530885100364685,
          -0.12639710307121277
        ],
        [
          0.02327066659927368,
          -0.01592172496020794,
          -0.2810554802417755,
          -0.13524529337882996,
          -0.38544490933418274,
          -0.30148011445999146,
          -0.13052822649478912,
          -0.2554061710834503,
          -0.29219257831573486,
          -0.119028739631176,
          -0.3837297856807709,
          -0.5029628872871399,
          -0.3974185883998871,
          -0.12103437632322311,
          -0.412799209356308,
          0.053372517228126526
        ],
        [
          -0.24796652793884277,
          0.03128437697887421,
          -0.2844396233558655,
          0.08635234087705612,
          -0.26948827505111694,
          0.3378586173057556,
          -0.6030535697937012,
          -0.14147108793258667,
          -0.27411210536956787,
          -0.31686413288116455,
          -0.2712923586368561,
          -0.9099458456039429,
          -0.11362244188785553,
          -0.3603951334953308,
          -0.8576430082321167,
          0.26272261142730713
        ],
        [
          -0.0530378594994545,
          0.3375479280948639,
          -0.22954484820365906,
          -0.1055581346154213,
          -0.269329309463501,
          0.03340158239006996,
          -0.6254214644432068,
          -0.23425979912281036,
          -0.30462881922721863,
          -0.4141632914543152,
          -0.40500327944755554,
          -0.6808784604072571,
          -0.23817305266857147,
          -0.29427194595336914,
          -0.7871230840682983,
          0.24706055223941803
        ],
        [
          -0.23344917595386505,
          0.3173407316207886,
          -0.5345624089241028,
          -0.14681106805801392,
          -0.15066152811050415,
          0.19619439542293549,
          -0.4237237870693207,
          -0.087546706199646,
          -0.08751854300498962,
          -0.41517192125320435,
          -0.23167283833026886,
          -0.8640115857124329,
          -0.31183475255966187,
          -0.45288899540901184,
          -0.985802173614502,
          0.18062831461429596
        ],
        [
          -0.11800752580165863,
          -0.011326620355248451,
          -0.4024685323238373,
          -0.12318865954875946,
          -0.10074442625045776,
          0.3105349838733673,
          -0.5840635299682617,
          -0.29386106133461,
          -0.3150525391101837,
          -0.46122631430625916,
          -0.2569130063056946,
          -0.8115831017494202,
          -0.2314862161874771,
          -0.23430953919887543,
          -0.6949501037597656,
          -0.07024591416120529
        ],
        [
          -0.07369530200958252,
          -0.1720796674489975,
          -0.2348901331424713,
          -0.09462535381317139,
          -0.3039095997810364,
          -0.195633664727211,
          -0.5350890755653381,
          -0.29621291160583496,
          -0.33672043681144714,
          -0.40575724840164185,
          -0.23439839482307434,
          -0.3900955319404602,
          -0.03447004035115242,
          -0.13368378579616547,
          -0.4761633574962616,
          -0.04532765597105026
        ],
        [
          -0.16088449954986572,
          0.21275630593299866,
          -0.38100770115852356,
          -0.0700487494468689,
          -0.07267392426729202,
          -0.12040719389915466,
          -0.5008289813995361,
          -0.09523002058267593,
          -0.3688358962535858,
          -0.300369530916214,
          -0.20567108690738678,
          -0.8804121613502502,
          -0.0740954577922821,
          -0.39848124980926514,
          -0.8301146030426025,
          0.044233810156583786
        ],
        [
          -0.05838599056005478,
          0.20409828424453735,
          -0.16588035225868225,
          -0.2519480288028717,
          -0.2599376440048218,
          -0.13041117787361145,
          -0.48300835490226746,
          -0.14917290210723877,
          -0.2269548922777176,
          -0.20703336596488953,
          -0.33119630813598633,
          -0.7747608423233032,
          -0.2534565031528473,
          -0.21305027604103088,
          -0.7587487101554871,
          -0.10678545385599136
        ],
        [
          -0.27118614315986633,
          0.179854154586792,
          -0.1585870236158371,
          -0.12731629610061646,
          -0.08959610760211945,
          0.03223109617829323,
          -0.4505719840526581,
          -0.17525766789913177,
          -0.10363760590553284,
          -0.5433581471443176,
          -0.4369302988052368,
          -0.8228120803833008,
          -0.38455507159233093,
          -0.11772985756397247,
          -0.7383224368095398,
          0.07830613106489182
        ]
      ],
      "biases": [
        0.3401161730289459,
        -0.12284436821937561,
        0.08332963287830353,
        -0.15969765186309814,
        -0.0921558141708374,
        0.04459579661488533,
        -0.16310594975948334,
        -0.3072887361049652,
        0.1153525561094284,
        0.22116683423519135,
        0.4352684020996094,
        0.3565312623977661,
        -0.1749565750360489,
        0.3147185742855072,
        0.19599579274654388,
        0.20867668092250824
      ]
    },
    {
      "weights": [
        [
          1.456358790397644,
          0.6706167459487915,
          1.056758999824524,
          0.8538616895675659,
          0.65379798412323,
          0.903556227684021,
          0.7566863298416138,
          0.6051905155181885,
          1.402443766593933,
          1.3438185453414917,
          1.4963983297348022,
          1.3218395709991455,
          0.7354495525360107,
          1.3025935888290405,
          1.1521676778793335,
          1.2340186834335327
        ]
      ],
      "biases": [
        -4.434391498565674
      ]
    }
  ],
  "inputLookup": {
    "totalClouds[0]": 0,
    "lowClouds[0]": 1,
    "mediumClouds[0]": 2,
    "highClouds[0]": 3,
    "rainChance[0]": 4,
    "rainAmount[0]": 5,
    "windSpeed[0]": 6,
    "temperature[0]": 7,
    "totalClouds[1]": 8,
    "lowClouds[1]": 9,
    "mediumClouds[1]": 10,
    "highClouds[1]": 11,
    "rainChance[1]": 12,
    "rainAmount[1]": 13,
    "windSpeed[1]": 14,
    "temperature[1]": 15,
    "totalClouds[2]": 16,
    "lowClouds[2]": 17,
    "mediumClouds[2]": 18,
    "highClouds[2]": 19,
    "rainChance[2]": 20,
    "rainAmount[2]": 21,
    "windSpeed[2]": 22,
    "temperature[2]": 23,
    "totalClouds[3]": 24,
    "lowClouds[3]": 25,
    "mediumClouds[3]": 26,
    "highClouds[3]": 27,
    "rainChance[3]": 28,
    "rainAmount[3]": 29,
    "windSpeed[3]": 30,
    "temperature[3]": 31,
    "totalClouds[4]": 32,
    "lowClouds[4]": 33,
    "mediumClouds[4]": 34,
    "highClouds[4]": 35,
    "rainChance[4]": 36,
    "rainAmount[4]": 37,
    "windSpeed[4]": 38,
    "temperature[4]": 39,
    "exposureLength": 40,
    "totalClouds[5]": 41,
    "lowClouds[5]": 42,
    "mediumClouds[5]": 43,
    "highClouds[5]": 44,
    "rainChance[5]": 45,
    "rainAmount[5]": 46,
    "windSpeed[5]": 47,
    "temperature[5]": 48
  },
  "inputLookupLength": 49,
  "outputLookup": {
    "totalImagingTime": 0
  },
  "outputLookupLength": 1,
  "options": {
    "inputSize": 0,
    "outputSize": 0,
    "binaryThresh": 0.5,
    "hiddenLayers": [
      16,
      16,
      16
    ]
  },
  "trainOpts": {
    "activation": "sigmoid",
    "iterations": 20000,
    "errorThresh": 0.005,
    "log": false,
    "logPeriod": 10,
    "leakyReluAlpha": 0.01,
    "learningRate": 0.3,
    "momentum": 0.1,
    "callbackPeriod": 10,
    "timeout": "Infinity",
    "beta1": 0.9,
    "beta2": 0.999,
    "epsilon": 1e-8
  }
}