{
  "type": "NeuralNetworkGPU",
  "sizes": [
    49,
    16,
    16,
    16,
    1
  ],
  "layers": [
    {
      "weights": [],
      "biases": []
    },
    {
      "weights": [
        [
          -0.04428069666028023,
          -0.05851411074399948,
          -0.04189334809780121,
          0.06540606915950775,
          0.17025858163833618,
          0.1523662805557251,
          0.02492324635386467,
          0.020446479320526123,
          0.07989232987165451,
          0.17904148995876312,
          0.22882850468158722,
          -0.12375092506408691,
          -0.13691899180412292,
          0.07834804058074951,
          -0.19720511138439178,
          -0.06331489235162735,
          -0.10888773947954178,
          0.013243349269032478,
          -0.08429752290248871,
          0.06177521124482155,
          -0.14857369661331177,
          0.06857580691576004,
          0.014143452048301697,
          0.12486790865659714,
          0.13894185423851013,
          -0.146615132689476,
          -0.1547793298959732,
          -0.16851072013378143,
          0.2006050944328308,
          0.1415351778268814,
          0.10201667994260788,
          -0.15435399115085602,
          0.102435402572155,
          0.11782737821340561,
          0.15942801535129547,
          -0.10947827249765396,
          0.006436282768845558,
          0.049448397010564804,
          0.14293426275253296,
          -0.11463070660829544,
          0.02944629080593586,
          -0.08777254074811935,
          0.019645608961582184,
          -0.024570370092988014,
          -0.04991355538368225,
          -0.17209726572036743,
          -0.05608700215816498,
          -0.0014764060033485293,
          0.18086886405944824
        ],
        [
          -0.12999294698238373,
          -0.18349048495292664,
          0.029482634738087654,
          0.19535453617572784,
          -0.23581542074680328,
          -0.11554685235023499,
          0.07842376083135605,
          0.11605843156576157,
          -0.21213260293006897,
          -0.2763040363788605,
          -0.0034599059727042913,
          -0.23215995728969574,
          -0.060291729867458344,
          0.09749497473239899,
          0.10823574662208557,
          0.14638687670230865,
          -0.11830241978168488,
          -0.06904813647270203,
          -0.1230248212814331,
          -0.023048022761940956,
          0.026935677975416183,
          0.06282178312540054,
          0.17580483853816986,
          -0.08983255922794342,
          -0.09100734442472458,
          -0.06824798136949539,
          -0.1548641175031662,
          -0.06548255681991577,
          -0.14433158934116364,
          0.13717396557331085,
          -0.15591661632061005,
          -0.14513106644153595,
          0.10112481564283371,
          0.19012761116027832,
          -0.08682411909103394,
          -0.014686773531138897,
          -0.1706351786851883,
          -0.1863875389099121,
          -0.18291406333446503,
          -0.05895257368683815,
          0.0505056232213974,
          -0.10101515054702759,
          -0.08646947145462036,
          0.14982633292675018,
          -0.08726466447114944,
          -0.08949557691812515,
          -0.11255849897861481,
          0.18171368539333344,
          0.08553782850503922
        ],
        [
          0.18917973339557648,
          0.10802066326141357,
          0.09398945420980453,
          0.07465191930532455,
          0.40171578526496887,
          0.12293197959661484,
          0.13697531819343567,
          -0.09350083768367767,
          0.525578498840332,
          0.2940925061702728,
          0.1920861154794693,
          0.044076912105083466,
          -0.0008933856734074652,
          0.10589686781167984,
          -0.04448239505290985,
          -0.13730284571647644,
          0.29866576194763184,
          -0.03943329304456711,
          0.007519066333770752,
          -0.14268219470977783,
          0.0484587624669075,
          -0.11658593267202377,
          0.1748969852924347,
          -0.08062156289815903,
          0.22070665657520294,
          -0.14410871267318726,
          0.00840840209275484,
          -0.02089882455766201,
          -0.05583270639181137,
          -0.026006095111370087,
          0.046773895621299744,
          -0.246292382478714,
          0.06174018979072571,
          -0.19011303782463074,
          -0.056229010224342346,
          -0.270841121673584,
          0.2210128754377365,
          -0.0341610424220562,
          -0.07597345858812332,
          -0.0429358072578907,
          0.10247024148702621,
          -0.026912620291113853,
          0.09543488174676895,
          0.007972195744514465,
          0.1220158264040947,
          0.15976551175117493,
          -0.05744633823633194,
          0.05968419089913368,
          -0.07551342993974686
        ],
        [
          -0.12864597141742706,
          -0.06179824471473694,
          -0.2610468864440918,
          0.28318580985069275,
          -0.125823512673378,
          -0.12873396277427673,
          0.1210642158985138,
          0.10485281050205231,
          -0.28028252720832825,
          -0.2910422384738922,
          -0.019708402454853058,
          -0.14163561165332794,
          0.05455383285880089,
          -0.11354314535856247,
          0.04300181567668915,
          0.048061687499284744,
          -0.12060700356960297,
          -0.12713541090488434,
          0.0013202279806137085,
          -0.10452713072299957,
          0.16376575827598572,
          0.10704798251390457,
          0.04092597961425781,
          0.15809983015060425,
          0.1426897943019867,
          0.1897880733013153,
          0.036922067403793335,
          -0.13956087827682495,
          0.1677999198436737,
          0.03018517792224884,
          0.056430257856845856,
          0.1960076093673706,
          -0.057052019983530045,
          -0.08057185262441635,
          0.028647571802139282,
          0.007500204723328352,
          -0.14450421929359436,
          0.04172077775001526,
          0.08428145200014114,
          -0.06190556287765503,
          -0.11176860332489014,
          -0.17613179981708527,
          -0.00023544458963442594,
          -0.11146679520606995,
          0.04853222891688347,
          0.1222841814160347,
          0.1694314330816269,
          -0.09268184006214142,
          -0.1347941905260086
        ],
        [
          -0.5009025931358337,
          -0.6840366721153259,
          -0.6133551001548767,
          0.23981089890003204,
          -0.5398445129394531,
          -0.0555969700217247,
          -0.06690280139446259,
          0.20432282984256744,
          -1.1726157665252686,
          -0.8970828652381897,
          -0.7125424742698669,
          -0.29529789090156555,
          -0.13087153434753418,
          -0.013659109361469746,
          -0.03743775561451912,
          0.28658273816108704,
          -0.07291455566883087,
          -0.17487335205078125,
          0.09488488733768463,
          0.21906080842018127,
          -0.3336506187915802,
          0.1229434534907341,
          0.1152886152267456,
          0.15057781338691711,
          -0.2530384957790375,
          -0.1699977070093155,
          0.04375161603093147,
          0.35902443528175354,
          -0.3274818956851959,
          -0.12447980791330338,
          -0.04982132092118263,
          0.16965696215629578,
          -0.36637505888938904,
          -0.06758248805999756,
          -0.14867088198661804,
          0.4041104018688202,
          -0.3525981605052948,
          0.06277178972959518,
          -0.005121313501149416,
          0.1498444676399231,
          -0.32968106865882874,
          0.04635864123702049,
          -0.06466250121593475,
          0.16083386540412903,
          -0.05992143973708153,
          -0.18438486754894257,
          -0.053948987275362015,
          0.23054611682891846,
          0.0100757647305727
        ],
        [
          0.30951961874961853,
          0.3462500274181366,
          0.5738012790679932,
          -0.15637776255607605,
          0.3853902220726013,
          0.0381617434322834,
          -0.22506660223007202,
          -0.05366222932934761,
          1.0615404844284058,
          0.8923222422599792,
          0.37730664014816284,
          0.47495338320732117,
          0.29445964097976685,
          -0.16042253375053406,
          -0.005785048007965088,
          -0.35126417875289917,
          0.006448243744671345,
          0.032170139253139496,
          -0.002486346522346139,
          -0.3482814431190491,
          0.3028319478034973,
          0.12370330840349197,
          0.1588638722896576,
          -0.28470396995544434,
          0.29825469851493835,
          -0.10441722720861435,
          0.15560364723205566,
          -0.017885694280266762,
          0.06148095056414604,
          0.18161548674106598,
          -0.1479978859424591,
          -0.0903811827301979,
          0.071849025785923,
          0.18989308178424835,
          -0.17285442352294922,
          -0.1642839014530182,
          0.3522372841835022,
          -0.027942590415477753,
          -0.17869126796722412,
          -0.2974075675010681,
          0.3315076231956482,
          -0.05655861273407936,
          -0.12830129265785217,
          -0.01921626552939415,
          0.05305714160203934,
          0.15219277143478394,
          -0.19318771362304688,
          0.00045753546874038875,
          0.003838884411379695
        ],
        [
          -0.1540076732635498,
          -0.5080050826072693,
          -0.4378184676170349,
          0.0709000751376152,
          -0.12095571309328079,
          0.05918755754828453,
          0.15507487952709198,
          0.2352178990840912,
          -0.3870413899421692,
          -0.24691155552864075,
          -0.46429911255836487,
          -0.19259683787822723,
          -0.1161084845662117,
          -0.14847491681575775,
          0.1598089188337326,
          0.2397126853466034,
          -0.21451584994792938,
          0.1317119002342224,
          -0.03827805444598198,
          -0.02835741825401783,
          -0.129434272646904,
          -0.014115248806774616,
          0.14153452217578888,
          -0.11169512569904327,
          -0.07745871692895889,
          -0.16178007423877716,
          -0.0049833571538329124,
          -0.08718179166316986,
          -0.3198525607585907,
          0.003775948192924261,
          -0.017789017409086227,
          0.17140716314315796,
          -0.0448717325925827,
          0.09406538307666779,
          0.11282900720834732,
          0.0830223560333252,
          0.025129567831754684,
          -0.06938488781452179,
          0.03885725513100624,
          0.03758493810892105,
          -0.04078090190887451,
          0.09945271909236908,
          0.0587516687810421,
          0.08719372749328613,
          -0.23537610471248627,
          0.006775358226150274,
          0.04256901144981384,
          0.2720489203929901,
          -0.10376545041799545
        ],
        [
          0.5211277008056641,
          0.7434664368629456,
          0.7469872832298279,
          -0.3526868522167206,
          0.6346744298934937,
          -0.13112804293632507,
          0.03333790600299835,
          -0.219587042927742,
          0.874851644039154,
          0.7002866864204407,
          0.7923795580863953,
          0.22902552783489227,
          0.16667190194129944,
          0.1997305303812027,
          0.16401875019073486,
          -0.4016192555427551,
          0.118759885430336,
          -0.15269967913627625,
          0.03259449824690819,
          -0.19766217470169067,
          0.2821139395236969,
          0.07110326737165451,
          -0.11621958762407303,
          -0.151025652885437,
          0.05958172306418419,
          -0.016712944954633713,
          0.07174306362867355,
          -0.3718186020851135,
          0.2644490897655487,
          0.15512216091156006,
          -0.06499499827623367,
          -0.1642143428325653,
          0.0895598828792572,
          0.11740849167108536,
          0.09881400316953659,
          -0.27088791131973267,
          0.18833115696907043,
          0.09064120054244995,
          0.1670246720314026,
          -0.05500646308064461,
          0.2780850827693939,
          0.05717851221561432,
          0.1316269040107727,
          -0.2968733310699463,
          0.2878055274486542,
          -0.042734816670417786,
          -0.04197528585791588,
          -0.07571164518594742,
          0.3683358132839203
        ],
        [
          0.13024064898490906,
          0.2618855834007263,
          0.24997162818908691,
          -0.14049257338047028,
          0.08559706807136536,
          0.1998550444841385,
          -0.0492984801530838,
          0.007203364744782448,
          0.3927929401397705,
          0.3650132715702057,
          0.05955681949853897,
          0.1164889708161354,
          -0.05449676513671875,
          0.1854267120361328,
          0.17810826003551483,
          -0.07506316900253296,
          0.24234820902347565,
          -0.06287594884634018,
          0.16134123504161835,
          -0.18193475902080536,
          -0.09521056711673737,
          -0.08890645951032639,
          0.016663560643792152,
          -0.027442792430520058,
          0.12014700472354889,
          0.0944356769323349,
          -0.17414690554141998,
          -0.009390804916620255,
          0.04296194761991501,
          0.021061059087514877,
          0.18711505830287933,
          0.012891551479697227,
          0.0016201924299821258,
          0.025829235091805458,
          0.18052516877651215,
          -0.0651790052652359,
          -0.03315817564725876,
          0.041693974286317825,
          0.082808718085289,
          -0.08382020890712738,
          0.21751965582370758,
          0.11260282248258591,
          0.16782180964946747,
          -0.11848339438438416,
          0.09871333837509155,
          -0.013986293226480484,
          -0.08683434128761292,
          0.041234247386455536,
          0.10116922855377197
        ],
        [
          0.3433707356452942,
          0.6775596737861633,
          0.501421332359314,
          -0.13107842206954956,
          0.6389564275741577,
          0.08018338680267334,
          0.06480436027050018,
          -0.28074049949645996,
          1.2858220338821411,
          0.8906317353248596,
          0.8300397992134094,
          0.18820355832576752,
          0.18898779153823853,
          -0.07253974676132202,
          -0.1190016120672226,
          -0.2403511255979538,
          0.34975466132164,
          0.028552357107400894,
          -0.19061051309108734,
          -0.05443049967288971,
          0.01609579101204872,
          -0.0015334065537899733,
          0.013197368010878563,
          -0.04561220854520798,
          0.01680184155702591,
          0.05404355376958847,
          0.16119961440563202,
          -0.3135184049606323,
          0.07592298090457916,
          0.04683414101600647,
          -0.008323034271597862,
          -0.3219560384750366,
          0.3473898470401764,
          -0.05763792246580124,
          -0.14876247942447662,
          -0.20473794639110565,
          0.37872669100761414,
          -0.1498418003320694,
          -0.0623486153781414,
          -0.16020537912845612,
          0.37567129731178284,
          0.16195344924926758,
          -0.22575314342975616,
          -0.3080989718437195,
          0.19378995895385742,
          0.09251013398170471,
          0.1031222939491272,
          -0.36953622102737427,
          0.3422199785709381
        ],
        [
          -0.11959274858236313,
          -0.10411544889211655,
          -0.33344370126724243,
          0.3190639913082123,
          -0.3101023733615875,
          -0.1953817754983902,
          0.06636948138475418,
          0.19596272706985474,
          -0.41220226883888245,
          -0.435189425945282,
          -0.29412269592285156,
          -0.26475805044174194,
          0.03837371990084648,
          -0.14553920924663544,
          -0.12486922740936279,
          0.06249960511922836,
          -0.13144809007644653,
          0.1962137669324875,
          0.03310009837150574,
          0.06317133456468582,
          -0.22136516869068146,
          0.09670889377593994,
          0.14504654705524445,
          0.04522455483675003,
          0.0754295215010643,
          0.1049887165427208,
          0.20672507584095,
          0.16882221400737762,
          -0.09598124772310257,
          0.15556393563747406,
          -0.11659249663352966,
          -0.1355031281709671,
          -0.00888389814645052,
          -0.1000274047255516,
          -0.03145007789134979,
          0.034006886184215546,
          0.002283551963046193,
          0.047217290848493576,
          -0.10956700146198273,
          -0.0235586017370224,
          0.04864972457289696,
          -0.061478666961193085,
          -0.08656257390975952,
          -0.062009040266275406,
          -0.05214754119515419,
          -0.0992814153432846,
          -0.1564653366804123,
          0.062041275203228,
          -0.2608151137828827
        ],
        [
          -0.353466272354126,
          -0.39450445771217346,
          -0.5509659647941589,
          0.15470567345619202,
          -0.3770095407962799,
          0.06880910694599152,
          -0.16846463084220886,
          0.17730164527893066,
          -0.7334028482437134,
          -0.4050056040287018,
          -0.4935495853424072,
          -0.03542226180434227,
          -0.2826644480228424,
          0.0530938096344471,
          -0.034480806440114975,
          0.07029145210981369,
          -0.2965598404407501,
          -0.02467627450823784,
          -0.05501755699515343,
          0.14637766778469086,
          -0.25432124733924866,
          0.002243171213194728,
          0.14833801984786987,
          -0.0014122704742476344,
          0.089808389544487,
          -0.16656669974327087,
          0.152334064245224,
          0.1349114328622818,
          -0.09330086410045624,
          -0.09409743547439575,
          0.05382716283202171,
          0.3215317726135254,
          -0.0012554540298879147,
          0.1260969638824463,
          -0.0016035629669204354,
          0.126736119389534,
          -0.22724752128124237,
          0.1787601262331009,
          0.033919062465429306,
          0.12890924513339996,
          -0.24798208475112915,
          0.12166546285152435,
          0.15350332856178284,
          -0.0030939371790736914,
          -0.2829192578792572,
          -0.19934868812561035,
          -0.1646917760372162,
          0.15807031095027924,
          -0.1885957270860672
        ],
        [
          0.28551292419433594,
          0.30183571577072144,
          0.4294759929180145,
          0.10417278110980988,
          0.05277916416525841,
          -0.19277258217334747,
          -0.13869524002075195,
          0.0017095485236495733,
          0.5217427611351013,
          0.1905912309885025,
          0.116660937666893,
          -0.03393622487783432,
          0.23937448859214783,
          0.06452718377113342,
          -0.021116454154253006,
          0.0063736578449606895,
          -0.013466968201100826,
          0.05467620864510536,
          0.05164764076471329,
          -0.2003047615289688,
          0.12804162502288818,
          -0.10735730081796646,
          0.015372521243989468,
          -0.014671998098492622,
          0.3006060719490051,
          0.1659717708826065,
          0.16269177198410034,
          0.012293431907892227,
          0.14296168088912964,
          -0.17560052871704102,
          0.08692146092653275,
          -0.09883928298950195,
          0.09591470658779144,
          -0.19098703563213348,
          0.08739947527647018,
          0.02138100378215313,
          -0.03211134299635887,
          0.06853942573070526,
          -0.08863941580057144,
          -0.14057014882564545,
          0.09691175818443298,
          0.058174360543489456,
          -0.1364685595035553,
          -0.20214895904064178,
          0.05675799772143364,
          -0.12554416060447693,
          -0.17354848980903625,
          -0.03001236729323864,
          0.22121670842170715
        ],
        [
          0.20301693677902222,
          0.09880991280078888,
          -0.07578838616609573,
          0.12040891498327255,
          -0.1362074464559555,
          0.18388013541698456,
          0.022481968626379967,
          0.0220662672072649,
          0.16793297231197357,
          0.003436918603256345,
          -0.02871905453503132,
          -0.066889688372612,
          -0.08700485527515411,
          0.16423754394054413,
          -0.19901660084724426,
          -0.00679828692227602,
          0.018221400678157806,
          -0.0031048846431076527,
          -0.17315809428691864,
          0.17552559077739716,
          0.1270936280488968,
          0.1698148250579834,
          -0.1633150577545166,
          0.15708737075328827,
          0.031230727210640907,
          0.16456864774227142,
          0.10058575123548508,
          -0.014413224533200264,
          -0.12221197038888931,
          0.0035702509339898825,
          -0.11931809037923813,
          -0.0004754068504553288,
          0.0027955046389251947,
          -0.11473975330591202,
          0.04245723783969879,
          -0.1668260246515274,
          0.18058063089847565,
          -0.08222142606973648,
          -0.15621864795684814,
          0.13224704563617706,
          0.10595983266830444,
          -0.10415351390838623,
          -0.189895361661911,
          -0.026466120034456253,
          0.06162815913558006,
          -0.10298261046409607,
          -0.09542133659124374,
          -0.2127963751554489,
          0.0416620709002018
        ],
        [
          -0.6003041863441467,
          -1.026832938194275,
          -0.7364087104797363,
          0.4405474364757538,
          -0.6178816556930542,
          0.1462140828371048,
          -0.03195234760642052,
          0.15463437139987946,
          -1.4222192764282227,
          -1.144883632659912,
          -0.8382589817047119,
          -0.32340461015701294,
          -0.2364858090877533,
          0.10091465711593628,
          0.18907767534255981,
          0.12131915986537933,
          -0.1367599368095398,
          -0.11432532221078873,
          0.09324576705694199,
          0.432640016078949,
          -0.17233988642692566,
          0.1852208524942398,
          0.1222308799624443,
          0.1616031676530838,
          -0.25925400853157043,
          -0.14346373081207275,
          0.03453769162297249,
          0.14226536452770233,
          -0.3849853575229645,
          0.03531049191951752,
          -0.04115394130349159,
          0.3619551658630371,
          -0.1768486201763153,
          0.14305849373340607,
          0.19222161173820496,
          0.3627774715423584,
          -0.3928907811641693,
          -0.18243466317653656,
          0.22505205869674683,
          0.23244185745716095,
          -0.11657603830099106,
          0.08714517951011658,
          0.04141908511519432,
          0.2982240915298462,
          -0.23696810007095337,
          0.07502788305282593,
          -0.051962245255708694,
          0.4130542278289795,
          -0.20338603854179382
        ],
        [
          0.3076302111148834,
          0.4955751299858093,
          0.6062077879905701,
          -0.20810361206531525,
          0.37783491611480713,
          -0.1389496773481369,
          -0.02752017416059971,
          -0.20333760976791382,
          0.8124606013298035,
          0.5787330269813538,
          0.5380923748016357,
          0.1266530454158783,
          0.12161317467689514,
          -0.13587284088134766,
          -0.15510664880275726,
          -0.07669062167406082,
          0.3418721556663513,
          -0.12110242992639542,
          -0.19727759063243866,
          -0.2634762227535248,
          0.27762192487716675,
          -0.06779883801937103,
          -0.20328150689601898,
          -0.12670527398586273,
          0.21950732171535492,
          0.18099801242351532,
          -0.0923110693693161,
          0.011952797882258892,
          -0.02439102903008461,
          0.004928883630782366,
          -0.02625035122036934,
          -0.19028882682323456,
          0.06027793139219284,
          0.1362917721271515,
          0.08116626739501953,
          0.005960280541330576,
          -0.006519103888422251,
          -0.17153632640838623,
          0.0721147209405899,
          -0.29061588644981384,
          -0.0295957513153553,
          -0.1585579514503479,
          -0.025894518941640854,
          -0.02452506497502327,
          0.11677853763103485,
          -0.16494181752204895,
          -0.13502727448940277,
          -0.15138547122478485,
          0.20444224774837494
        ]
      ],
      "biases": [
        -0.19939470291137695,
        0.1428171843290329,
        0.015216773375868797,
        0.17837899923324585,
        0.3928031623363495,
        -0.4316236972808838,
        0.10028717666864395,
        -0.24737729132175446,
        -0.20435133576393127,
        -0.38940930366516113,
        0.25478360056877136,
        0.3027389943599701,
        -0.18719451129436493,
        -0.17889751493930817,
        0.4805717170238495,
        -0.3076011836528778
      ]
    },
    {
      "weights": [
        [
          -0.034512367099523544,
          -0.2513870298862457,
          0.15393733978271484,
          -0.08928664773702621,
          -0.5962570309638977,
          0.1551811397075653,
          -0.39946430921554565,
          0.13754090666770935,
          0.2258232682943344,
          0.5547154545783997,
          -0.18106447160243988,
          -0.3130693733692169,
          0.2023596614599228,
          0.0033562860917299986,
          -0.6443775296211243,
          0.08885899931192398
        ],
        [
          0.10282605141401291,
          -0.12924577295780182,
          0.17881980538368225,
          -0.23303253948688507,
          -0.5503854155540466,
          0.3691711723804474,
          -0.28891226649284363,
          0.3520982563495636,
          0.08604253828525543,
          0.15674372017383575,
          -0.25793060660362244,
          -0.35242390632629395,
          0.004698201548308134,
          -0.14859183132648468,
          -0.30346134305000305,
          0.2015594094991684
        ],
        [
          -0.04040246829390526,
          0.13913090527057648,
          0.22337482869625092,
          0.1824408769607544,
          -0.2930649220943451,
          0.022991981357336044,
          -0.12935306131839752,
          0.1689818799495697,
          -0.0484304241836071,
          -0.059590939432382584,
          0.03356446325778961,
          -0.1587478518486023,
          -0.07407315075397491,
          0.08849755674600601,
          0.016822481527924538,
          0.2606457471847534
        ],
        [
          0.0013243879657238722,
          -0.23468665778636932,
          0.27317574620246887,
          -0.36731860041618347,
          -0.6558926105499268,
          0.34220659732818604,
          -0.4603974223136902,
          0.5418954491615295,
          0.28887805342674255,
          0.7026881575584412,
          -0.22321780025959015,
          -0.6338293552398682,
          0.3167443871498108,
          -0.1806572675704956,
          -0.9709041118621826,
          0.5097254514694214
        ],
        [
          0.14678354561328888,
          -0.118235282599926,
          0.02200123853981495,
          -0.3842613995075226,
          -0.8757444620132446,
          0.6362057328224182,
          -0.29576346278190613,
          0.7100211381912231,
          0.16507135331630707,
          0.5427812933921814,
          -0.36523768305778503,
          -0.41694962978363037,
          0.10698211938142776,
          -0.15750016272068024,
          -0.9072188138961792,
          0.5593111515045166
        ],
        [
          0.08306967467069626,
          -0.051083121448755264,
          -0.1329076737165451,
          0.10302940011024475,
          -0.09308783710002899,
          0.10182221978902817,
          -0.22430424392223358,
          -0.03175222501158714,
          0.14657127857208252,
          -0.0261811763048172,
          -0.21485073864459991,
          -0.22605325281620026,
          0.19374047219753265,
          0.032607611268758774,
          -0.1410638391971588,
          -0.1166369765996933
        ],
        [
          -0.18726076185703278,
          -0.2266935557126999,
          0.15582482516765594,
          -0.07189005613327026,
          -0.8887113332748413,
          0.3502958118915558,
          -0.4122368097305298,
          0.5858238339424133,
          0.26468124985694885,
          0.7456440925598145,
          -0.30415186285972595,
          -0.6390169262886047,
          0.23140735924243927,
          0.005150096490979195,
          -0.8734451532363892,
          0.184431254863739
        ],
        [
          0.1084563136100769,
          -0.17323391139507294,
          0.28099116683006287,
          -0.3363425135612488,
          -1.0054097175598145,
          0.643714964389801,
          -0.46333345770835876,
          0.7417120337486267,
          0.028645502403378487,
          0.8595243096351624,
          -0.33444318175315857,
          -0.606411337852478,
          0.14196503162384033,
          -0.05392409861087799,
          -1.0906776189804077,
          0.6429687738418579
        ],
        [
          -0.15856881439685822,
          0.20495711266994476,
          -0.05496549606323242,
          0.040258195251226425,
          0.2296048253774643,
          -0.13983960449695587,
          0.2552207410335541,
          -0.015106742270290852,
          0.01733795925974846,
          -0.15415820479393005,
          0.07013818621635437,
          0.0630691796541214,
          -0.14541177451610565,
          -0.06647833436727524,
          0.2635716497898102,
          -0.08171868324279785
        ],
        [
          0.10781026631593704,
          -0.2106115072965622,
          0.1492655873298645,
          0.00041348644299432635,
          -0.4636014401912689,
          0.394313246011734,
          -0.35495874285697937,
          0.43715059757232666,
          -0.03655494749546051,
          0.29476073384284973,
          -0.37307578325271606,
          -0.43134433031082153,
          0.07843296974897385,
          0.07029183954000473,
          -0.47674793004989624,
          0.29160451889038086
        ],
        [
          -0.19342006742954254,
          -0.11113927513360977,
          0.1880708485841751,
          -0.012503453530371189,
          -0.29975569248199463,
          0.24560609459877014,
          -0.230285182595253,
          0.44569242000579834,
          -0.11178117990493774,
          0.45290660858154297,
          -0.09977325797080994,
          -0.23335009813308716,
          0.10756545513868332,
          -0.03674427047371864,
          -0.6065087914466858,
          0.07308803498744965
        ],
        [
          0.17183957993984222,
          -0.42729881405830383,
          0.11589400470256805,
          -0.2750459313392639,
          -0.841274619102478,
          0.5555043816566467,
          -0.49459928274154663,
          0.6774031519889832,
          0.10848463326692581,
          0.744428277015686,
          -0.2846183478832245,
          -0.4210347831249237,
          0.18544858694076538,
          -0.0005691526457667351,
          -1.0266461372375488,
          0.42532849311828613
        ],
        [
          -0.12522631883621216,
          -0.25016865134239197,
          0.0073547763749957085,
          -0.08531372249126434,
          -0.591713547706604,
          0.5176001191139221,
          -0.4659278690814972,
          0.6381144523620605,
          0.09877090156078339,
          0.4635135233402252,
          -0.3921888768672943,
          -0.5982335805892944,
          0.23183497786521912,
          -0.020187925547361374,
          -0.9566686749458313,
          0.4822086691856384
        ],
        [
          -0.04190114140510559,
          -0.1546444147825241,
          0.1659848541021347,
          -0.23946592211723328,
          -0.7217267751693726,
          0.6017212271690369,
          -0.33292460441589355,
          0.7042685747146606,
          0.14179222285747528,
          0.7269760370254517,
          -0.6063252091407776,
          -0.457790344953537,
          0.06400007754564285,
          -0.06346964836120605,
          -1.234135389328003,
          0.5133973956108093
        ],
        [
          -0.0898052453994751,
          -0.11398196220397949,
          -0.13303500413894653,
          -0.10222282260656357,
          -0.329802006483078,
          0.17052212357521057,
          -0.2409224510192871,
          0.10160908102989197,
          -0.0362979881465435,
          0.3376605212688446,
          -0.06266718357801437,
          -0.17054206132888794,
          0.22343729436397552,
          -0.010783198289573193,
          -0.4089673161506653,
          0.18761548399925232
        ],
        [
          -0.1741389036178589,
          -0.13254721462726593,
          0.31985652446746826,
          -0.2760196030139923,
          -1.0624350309371948,
          0.7412931323051453,
          -0.22193774580955505,
          0.6447203159332275,
          0.25062063336372375,
          0.8255869150161743,
          -0.397115558385849,
          -0.7006292343139648,
          0.2521001398563385,
          0.05899052321910858,
          -1.151935338973999,
          0.423130065202713
        ]
      ],
      "biases": [
        0.0000975762159214355,
        -0.04520319402217865,
        -0.21468991041183472,
        -0.3053259551525116,
        -0.30995306372642517,
        0.020658185705542564,
        -0.15215608477592468,
        -0.3144795000553131,
        0.13607023656368256,
        -0.1620032638311386,
        -0.13003085553646088,
        -0.25205299258232117,
        -0.15437261760234833,
        -0.175619438290596,
        0.032255254685878754,
        -0.3547414243221283
      ]
    },
    {
      "weights": [
        [
          -0.20489369332790375,
          -0.3004823923110962,
          -0.044269319623708725,
          -0.2555404007434845,
          -0.5464207530021667,
          0.1107768714427948,
          -0.45678550004959106,
          -0.6447527408599854,
          0.06456656008958817,
          -0.37328821420669556,
          -0.2393416464328766,
          -0.49952393770217896,
          -0.2534806430339813,
          -0.5123482942581177,
          0.00614751223474741,
          -0.41371291875839233
        ],
        [
          0.006158474832773209,
          -0.24471412599086761,
          -0.23780234158039093,
          -0.37259188294410706,
          -0.31436067819595337,
          0.038631729781627655,
          -0.16338637471199036,
          -0.4358859658241272,
          -0.051487695425748825,
          -0.36711084842681885,
          -0.369167298078537,
          -0.31574326753616333,
          -0.2635872960090637,
          -0.46743735671043396,
          -0.05094726011157036,
          -0.5324491858482361
        ],
        [
          -0.26261937618255615,
          -0.14689411222934723,
          -0.2716434895992279,
          -0.1731511950492859,
          -0.24904027581214905,
          -0.0017030304297804832,
          -0.16018670797348022,
          -0.21027597784996033,
          0.05952543392777443,
          -0.09814020991325378,
          -0.3298695981502533,
          -0.434551864862442,
          -0.28538456559181213,
          -0.3051190674304962,
          -0.3124096691608429,
          -0.3253498673439026
        ],
        [
          -0.3589619994163513,
          -0.29166173934936523,
          -0.0015227867988869548,
          -0.5142042636871338,
          -0.3222786486148834,
          0.16685691475868225,
          -0.421958863735199,
          -0.45380786061286926,
          0.33138078451156616,
          -0.1342504620552063,
          -0.022387385368347168,
          -0.6443814039230347,
          -0.5875809788703918,
          -0.4321605861186981,
          -0.034079186618328094,
          -0.5817024111747742
        ],
        [
          -0.10568774491548538,
          -0.24533449113368988,
          -0.07469476759433746,
          -0.3699325621128082,
          -0.1855948120355606,
          -0.2627135217189789,
          -0.29149553179740906,
          -0.4705039858818054,
          -0.04562393203377724,
          -0.16137167811393738,
          -0.29062652587890625,
          -0.2625561058521271,
          -0.238861545920372,
          -0.31992337107658386,
          -0.3470706641674042,
          -0.41210201382637024
        ],
        [
          -0.24598120152950287,
          -0.102120041847229,
          -0.05630084127187729,
          -0.4998774528503418,
          -0.2798800468444824,
          -0.13127629458904266,
          -0.48793748021125793,
          -0.34678149223327637,
          0.31679102778434753,
          -0.2412462681531906,
          -0.07232055068016052,
          -0.5893473029136658,
          -0.5904684066772461,
          -0.6656703352928162,
          0.07479819655418396,
          -0.653834342956543
        ],
        [
          -0.11255667358636856,
          -0.27766355872154236,
          0.1923612356185913,
          -0.32714876532554626,
          -0.410065233707428,
          -0.05146875977516174,
          -0.5755749940872192,
          -0.5878499746322632,
          0.11863705515861511,
          -0.14514118432998657,
          -0.10834693163633347,
          -0.46654874086380005,
          -0.42234006524086,
          -0.5205180644989014,
          0.03568563982844353,
          -0.6457611322402954
        ],
        [
          -0.29403749108314514,
          -0.09053286164999008,
          -0.04446958377957344,
          -0.496273398399353,
          -0.4921104609966278,
          0.1118854209780693,
          -0.5730872750282288,
          -0.5062962770462036,
          -0.051260173320770264,
          -0.13600338995456696,
          -0.11618882417678833,
          -0.5483539700508118,
          -0.3682021498680115,
          -0.4266442060470581,
          -0.0561637356877327,
          -0.33296510577201843
        ],
        [
          -0.043383318930864334,
          -0.25425177812576294,
          -0.09050340205430984,
          -0.3477931320667267,
          -0.4124254882335663,
          0.049853261560201645,
          -0.33701229095458984,
          -0.4361981749534607,
          0.3375808000564575,
          -0.25662723183631897,
          -0.3708881735801697,
          -0.5942341685295105,
          -0.5352305173873901,
          -0.5145848393440247,
          -0.22075502574443817,
          -0.3120952546596527
        ],
        [
          -0.36897480487823486,
          -0.20214085280895233,
          0.06463871896266937,
          -0.5563763976097107,
          -0.4816766083240509,
          0.08503158390522003,
          -0.3917861580848694,
          -0.6310742497444153,
          0.13826127350330353,
          -0.14760324358940125,
          -0.0832984670996666,
          -0.4446062743663788,
          -0.20806479454040527,
          -0.2549145221710205,
          -0.2963648736476898,
          -0.4955805540084839
        ],
        [
          -0.17302709817886353,
          -0.2666033208370209,
          0.07674684375524521,
          -0.3805800974369049,
          -0.5466265678405762,
          -0.15678861737251282,
          -0.6020252108573914,
          -0.6994847059249878,
          0.297278493642807,
          -0.28907549381256104,
          -0.04288577660918236,
          -0.3283841609954834,
          -0.3108401596546173,
          -0.5552101135253906,
          -0.025969436392188072,
          -0.670356810092926
        ],
        [
          -0.34678593277931213,
          -0.10775282233953476,
          0.006566563155502081,
          -0.26806846261024475,
          -0.4894653260707855,
          -0.11369967460632324,
          -0.1386663019657135,
          -0.5286944508552551,
          0.05832758545875549,
          -0.38307908177375793,
          -0.28188279271125793,
          -0.31975194811820984,
          -0.18035796284675598,
          -0.37642961740493774,
          -0.20755986869335175,
          -0.3061138391494751
        ],
        [
          -0.15050458908081055,
          -0.19981391727924347,
          -0.05574415996670723,
          -0.39510977268218994,
          -0.41230309009552,
          0.05920859053730965,
          -0.24843350052833557,
          -0.4791716933250427,
          0.2678643763065338,
          -0.2207401543855667,
          -0.35329070687294006,
          -0.5449450612068176,
          -0.17103546857833862,
          -0.3627413809299469,
          -0.3315232992172241,
          -0.4805413484573364
        ],
        [
          -0.3147657513618469,
          -0.1645081490278244,
          -0.09824199974536896,
          -0.4179370403289795,
          -0.3758305013179779,
          0.17655271291732788,
          -0.28210732340812683,
          -0.45530927181243896,
          0.28212109208106995,
          -0.12941928207874298,
          -0.2951161563396454,
          -0.2600169777870178,
          -0.4907832145690918,
          -0.572806179523468,
          -0.025166809558868408,
          -0.5781515836715698
        ],
        [
          -0.2462298423051834,
          0.017959874123334885,
          0.1373264044523239,
          -0.496831476688385,
          -0.48346754908561707,
          -0.1364520788192749,
          -0.19269107282161713,
          -0.5683183670043945,
          0.2137811779975891,
          -0.2585979402065277,
          -0.05304805561900139,
          -0.3424708843231201,
          -0.3654477894306183,
          -0.5932260155677795,
          -0.2215849906206131,
          -0.5593327879905701
        ],
        [
          -0.35732632875442505,
          0.028284646570682526,
          0.16315120458602905,
          -0.26341670751571655,
          -0.39715221524238586,
          0.00804233830422163,
          -0.4560868740081787,
          -0.5607092380523682,
          0.14925897121429443,
          -0.2568618953227997,
          -0.2548101246356964,
          -0.28906190395355225,
          -0.3781922161579132,
          -0.3300916850566864,
          -0.22645746171474457,
          -0.6351380348205566
        ]
      ],
      "biases": [
        0.2544323205947876,
        -0.09625925123691559,
        -0.34704065322875977,
        0.13781526684761047,
        -0.13843485713005066,
        0.2995026111602783,
        0.096344955265522,
        0.14040426909923553,
        0.08140308409929276,
        0.012343714945018291,
        0.37405750155448914,
        -0.20455771684646606,
        -0.09632404148578644,
        -0.10452970862388611,
        -0.04871146008372307,
        -0.12371829152107239
      ]
    },
    {
      "weights": [
        [
          1.0655367374420166,
          0.7234658002853394,
          0.3924171030521393,
          1.2223803997039795,
          0.5786024332046509,
          1.2363172769546509,
          1.157700538635254,
          0.9813610911369324,
          1.0512558221817017,
          1.053063988685608,
          1.294795036315918,
          0.6940852403640747,
          0.8917705416679382,
          0.9900351762771606,
          1.0734695196151733,
          0.9819293022155762
        ]
      ],
      "biases": [
        -4.2957282066345215
      ]
    }
  ],
  "inputLookup": {
    "totalClouds[0]": 0,
    "lowClouds[0]": 1,
    "mediumClouds[0]": 2,
    "highClouds[0]": 3,
    "rainChance[0]": 4,
    "rainAmount[0]": 5,
    "windSpeed[0]": 6,
    "temperature[0]": 7,
    "totalClouds[1]": 8,
    "lowClouds[1]": 9,
    "mediumClouds[1]": 10,
    "highClouds[1]": 11,
    "rainChance[1]": 12,
    "rainAmount[1]": 13,
    "windSpeed[1]": 14,
    "temperature[1]": 15,
    "totalClouds[2]": 16,
    "lowClouds[2]": 17,
    "mediumClouds[2]": 18,
    "highClouds[2]": 19,
    "rainChance[2]": 20,
    "rainAmount[2]": 21,
    "windSpeed[2]": 22,
    "temperature[2]": 23,
    "totalClouds[3]": 24,
    "lowClouds[3]": 25,
    "mediumClouds[3]": 26,
    "highClouds[3]": 27,
    "rainChance[3]": 28,
    "rainAmount[3]": 29,
    "windSpeed[3]": 30,
    "temperature[3]": 31,
    "totalClouds[4]": 32,
    "lowClouds[4]": 33,
    "mediumClouds[4]": 34,
    "highClouds[4]": 35,
    "rainChance[4]": 36,
    "rainAmount[4]": 37,
    "windSpeed[4]": 38,
    "temperature[4]": 39,
    "exposureLength": 40,
    "totalClouds[5]": 41,
    "lowClouds[5]": 42,
    "mediumClouds[5]": 43,
    "highClouds[5]": 44,
    "rainChance[5]": 45,
    "rainAmount[5]": 46,
    "windSpeed[5]": 47,
    "temperature[5]": 48
  },
  "inputLookupLength": 49,
  "outputLookup": {
    "totalImagingTime": 0
  },
  "outputLookupLength": 1,
  "options": {
    "inputSize": 0,
    "outputSize": 0,
    "binaryThresh": 0.5,
    "hiddenLayers": [
      16,
      16,
      16
    ]
  },
  "trainOpts": {
    "activation": "sigmoid",
    "iterations": 20000,
    "errorThresh": 0.005,
    "log": false,
    "logPeriod": 10,
    "leakyReluAlpha": 0.01,
    "learningRate": 0.3,
    "momentum": 0.1,
    "callbackPeriod": 10,
    "timeout": "Infinity",
    "beta1": 0.9,
    "beta2": 0.999,
    "epsilon": 1e-8
  }
}