{
  "type": "NeuralNetworkGPU",
  "sizes": [
    41,
    16,
    16,
    16,
    1
  ],
  "layers": [
    {
      "weights": [],
      "biases": []
    },
    {
      "weights": [
        [
          0.6801366209983826,
          1.0125106573104858,
          -0.4266432821750641,
          0.09559441357851028,
          0.3673308789730072,
          -0.19300594925880432,
          0.20649170875549316,
          -0.2691374123096466,
          1.0910964012145996,
          1.1013137102127075,
          -0.062506303191185,
          0.09235403686761856,
          0.08172432333230972,
          0.14709678292274475,
          0.2214425951242447,
          -0.36107495427131653,
          0.08634082227945328,
          -0.07270288467407227,
          -0.06658172607421875,
          -0.2495444118976593,
          0.08148793131113052,
          -0.12531274557113647,
          0.09188037365674973,
          -0.35752907395362854,
          0.13528823852539062,
          -0.07222361117601395,
          0.05824671685695648,
          -0.3591993749141693,
          0.3424210250377655,
          -0.10641132295131683,
          0.24502338469028473,
          -0.010099430568516254,
          0.23699350655078888,
          -0.13597142696380615,
          -0.04997004568576813,
          0.018127599731087685,
          0.255327433347702,
          0.16196312010288239,
          -0.0923568606376648,
          -0.005465304479002953,
          0.07328351587057114
        ],
        [
          -0.4197712242603302,
          -0.3637603223323822,
          -0.05056856945157051,
          -0.1840391755104065,
          -0.17774489521980286,
          0.12844765186309814,
          -0.18354956805706024,
          0.09112824499607086,
          -0.38364383578300476,
          -0.6160799264907837,
          -0.11043740063905716,
          0.03995809331536293,
          0.11637894809246063,
          -0.19124500453472137,
          -0.11564851552248001,
          0.13606368005275726,
          -0.11931277066469193,
          -0.09403244405984879,
          -0.13051912188529968,
          0.25583621859550476,
          -0.2591758072376251,
          0.043284621089696884,
          0.14700427651405334,
          0.12391567975282669,
          -0.11479788273572922,
          -0.16733761131763458,
          -0.05296870321035385,
          0.31033846735954285,
          -0.1151299849152565,
          -0.05835987254977226,
          -0.20354023575782776,
          0.19795255362987518,
          -0.05685457959771156,
          0.07016056030988693,
          0.0462338924407959,
          0.2404748648405075,
          -0.2588856816291809,
          -0.18829265236854553,
          -0.0607183501124382,
          0.04237529635429382,
          -0.13512353599071503
        ],
        [
          -0.11231616884469986,
          0.28336018323898315,
          0.11222374439239502,
          -0.08245470374822617,
          0.2024346888065338,
          -0.14135238528251648,
          -0.185662642121315,
          0.15683101117610931,
          -0.0047525279223918915,
          0.2433927059173584,
          -0.02302229404449463,
          -0.07876110076904297,
          -0.0474831648170948,
          0.07734058797359467,
          -0.1730913370847702,
          -0.01152093056589365,
          -0.12096261978149414,
          -0.17208276689052582,
          -0.17574119567871094,
          -0.05854465067386627,
          -0.12416423112154007,
          -0.02420920319855213,
          -0.14310160279273987,
          -0.15677016973495483,
          0.17039327323436737,
          -0.07696730643510818,
          0.11940181255340576,
          -0.0847790390253067,
          0.16986212134361267,
          0.1532561033964157,
          0.008679896593093872,
          -0.1572447121143341,
          0.04224542900919914,
          -0.04447680711746216,
          0.14847439527511597,
          -0.06979358941316605,
          -0.074344202876091,
          -0.16625237464904785,
          -0.11142627894878387,
          -0.1311083734035492,
          -0.1773984730243683
        ],
        [
          0.9269090890884399,
          0.920721173286438,
          -0.20583119988441467,
          -0.11558487266302109,
          0.4523019790649414,
          0.09396353363990784,
          0.022332994267344475,
          -0.20325516164302826,
          0.988576352596283,
          1.4670873880386353,
          -0.18630337715148926,
          0.13460193574428558,
          0.21865837275981903,
          -0.0531613789498806,
          0.14297720789909363,
          -0.34325969219207764,
          0.08068981766700745,
          0.13493984937667847,
          0.08826518803834915,
          -0.3074050545692444,
          0.2783017158508301,
          0.024014854803681374,
          0.16428858041763306,
          -0.21939192712306976,
          0.04399053379893303,
          0.09737449139356613,
          0.010268542915582657,
          -0.19714273512363434,
          0.34695151448249817,
          -0.17519418895244598,
          0.02697155810892582,
          -0.32310551404953003,
          0.28700289130210876,
          -0.15442144870758057,
          0.1029294803738594,
          -0.37185758352279663,
          0.33933934569358826,
          0.0628184974193573,
          0.15760642290115356,
          -0.1649620085954666,
          0.24567453563213348
        ],
        [
          0.0935419499874115,
          0.20099027454853058,
          -0.133717879652977,
          0.044357627630233765,
          0.22585445642471313,
          0.1649896651506424,
          0.20226025581359863,
          -0.17556539177894592,
          0.3784630596637726,
          0.3559066653251648,
          -0.18025633692741394,
          0.007584516424685717,
          0.05566105619072914,
          -0.032935645431280136,
          0.056784532964229584,
          0.10722088813781738,
          0.070630744099617,
          -0.03227385878562927,
          -0.02663659118115902,
          -0.08450256288051605,
          0.045902419835329056,
          0.12608323991298676,
          -0.14542154967784882,
          -0.09712107479572296,
          -0.046258002519607544,
          0.153367280960083,
          0.032423317432403564,
          0.042068250477313995,
          0.16197647154331207,
          -0.11728458106517792,
          -0.05834666267037392,
          -0.14775678515434265,
          -0.03605077788233757,
          0.055221498012542725,
          0.21495720744132996,
          0.0037039814051240683,
          0.1370985358953476,
          -0.002097347052767873,
          0.1671631932258606,
          -0.14516714215278625,
          0.2431647926568985
        ],
        [
          -0.22723226249217987,
          -0.12533703446388245,
          -0.1395450383424759,
          -0.1829850822687149,
          -0.11294589191675186,
          -0.17930400371551514,
          0.10025371611118317,
          0.13684359192848206,
          -0.17421381175518036,
          -0.12080728262662888,
          0.10336894541978836,
          -0.11548346281051636,
          -0.0693226084113121,
          -0.14271394908428192,
          0.17901711165905,
          -0.06347382068634033,
          -0.03413695842027664,
          0.0857757031917572,
          -0.16366137564182281,
          0.12283439934253693,
          -0.1444648802280426,
          -0.06070013716816902,
          0.0030186737421900034,
          -0.05113304778933525,
          -0.0609804131090641,
          0.11173079907894135,
          0.1563991755247116,
          0.003381686983630061,
          0.14465957880020142,
          -0.013123204931616783,
          -0.09460175037384033,
          -0.024739298969507217,
          -0.12050855904817581,
          0.010509153828024864,
          0.1755552589893341,
          0.11523452401161194,
          -0.07362961024045944,
          0.055361807346343994,
          0.10282954573631287,
          0.22251370549201965,
          -0.129147008061409
        ],
        [
          0.15469232201576233,
          0.5134626030921936,
          0.008014430291950703,
          0.11272215098142624,
          0.3326142728328705,
          -0.01751144789159298,
          0.07010862976312637,
          -0.09674300253391266,
          0.5967311859130859,
          0.37358739972114563,
          0.015700258314609528,
          -0.13849693536758423,
          0.10327211022377014,
          0.006479035597294569,
          0.2108725607395172,
          -0.010858183726668358,
          -0.022796206176280975,
          0.1738949567079544,
          -0.033600568771362305,
          -0.17526642978191376,
          0.20983058214187622,
          -0.048393115401268005,
          -0.08360690623521805,
          -0.307629257440567,
          0.049940746277570724,
          -0.11442144960165024,
          -0.13601967692375183,
          -0.24037180840969086,
          -0.048693232238292694,
          -0.10985173285007477,
          0.1051853820681572,
          0.012044960632920265,
          0.151860773563385,
          -0.0071811131201684475,
          -0.147152379155159,
          -0.1335851401090622,
          0.15000653266906738,
          0.05903990566730499,
          0.15598668158054352,
          -0.042377032339572906,
          0.0873415619134903
        ],
        [
          -0.1723712980747223,
          -0.5658375024795532,
          0.027489161118865013,
          -0.08803238719701767,
          -0.3003721237182617,
          0.0626186728477478,
          0.14277762174606323,
          0.09729797393083572,
          -0.4048614203929901,
          -0.5905657410621643,
          -0.19138236343860626,
          0.11316332221031189,
          -0.007124540861696005,
          -0.08688468486070633,
          0.11477978527545929,
          0.0670565739274025,
          -0.22916528582572937,
          0.06438736617565155,
          -0.02447374165058136,
          0.27143943309783936,
          -0.16701176762580872,
          -0.13546496629714966,
          -0.1328020542860031,
          0.04018006846308708,
          0.0516197606921196,
          0.06473590433597565,
          -0.11787731945514679,
          0.11131179332733154,
          -0.024180088192224503,
          -0.15202727913856506,
          0.03237496316432953,
          0.2690558433532715,
          -0.22993986308574677,
          -0.06021225079894066,
          -0.04790325462818146,
          0.2558573782444,
          -0.17318573594093323,
          -0.16341735422611237,
          0.08871994912624359,
          0.05190885439515114,
          0.02916013076901436
        ],
        [
          0.13645243644714355,
          0.255683034658432,
          0.0007080658688209951,
          -0.14977173507213593,
          0.25355684757232666,
          -0.10874676704406738,
          0.10558930784463882,
          -0.14669950306415558,
          0.05338755249977112,
          0.2977539598941803,
          0.11984344571828842,
          0.17871244251728058,
          0.21088020503520966,
          0.0610555000603199,
          0.1305990368127823,
          -0.1741996556520462,
          -0.13494780659675598,
          -0.05605638399720192,
          0.08729837834835052,
          -0.13129611313343048,
          0.13425852358341217,
          -0.09367796033620834,
          0.1407180279493332,
          0.10791666060686111,
          0.004844821058213711,
          0.034806203097105026,
          0.11487316340208054,
          0.072337307035923,
          -0.07325629889965057,
          0.18418247997760773,
          0.2086060494184494,
          -0.10664483159780502,
          0.19750261306762695,
          0.10675422847270966,
          -0.14348278939723969,
          0.03803782910108566,
          0.20859718322753906,
          -0.1678227186203003,
          -0.03656903654336929,
          -0.1725013107061386,
          -0.1160832867026329
        ],
        [
          0.02741270698606968,
          0.0029959743842482567,
          0.11110682785511017,
          0.14219233393669128,
          -0.11085135489702225,
          0.009053441695868969,
          -0.10402248799800873,
          -0.14178432524204254,
          0.129512220621109,
          0.014821801334619522,
          0.03825456276535988,
          -0.11217156052589417,
          0.05709308013319969,
          -0.0065801674500107765,
          0.1928270161151886,
          -0.020140763372182846,
          0.1195860505104065,
          -0.09070692956447601,
          0.05521040037274361,
          -0.10667133331298828,
          -0.018188223242759705,
          0.0655665397644043,
          0.18412601947784424,
          -0.13095207512378693,
          -0.18070988357067108,
          -0.1910589635372162,
          -0.11822734028100967,
          0.07144665718078613,
          0.007938546128571033,
          0.18156147003173828,
          -0.029507316648960114,
          0.06302613019943237,
          -0.04053759202361107,
          -0.15023846924304962,
          0.14210085570812225,
          0.13769081234931946,
          -0.0710180327296257,
          0.00919981300830841,
          0.03866459056735039,
          0.1430901437997818,
          0.18699178099632263
        ],
        [
          0.33895087242126465,
          0.4067547023296356,
          0.09383493661880493,
          0.10346175730228424,
          0.35326382517814636,
          -0.08644048869609833,
          -0.011986242607235909,
          -0.26854512095451355,
          0.26770567893981934,
          0.6373963356018066,
          -0.09903161227703094,
          0.10059825330972672,
          0.24690860509872437,
          0.16158728301525116,
          -0.10229466110467911,
          -0.14638446271419525,
          -0.022515790536999702,
          0.07946551591157913,
          0.043984945863485336,
          -0.10292790085077286,
          0.11354391276836395,
          0.1222202405333519,
          0.12630067765712738,
          -0.26508909463882446,
          0.11016711592674255,
          0.027499964460730553,
          0.04296237602829933,
          -0.18510927259922028,
          0.23890799283981323,
          0.017567792907357216,
          0.14875610172748566,
          -0.0942390188574791,
          0.035482995212078094,
          0.13688544929027557,
          -0.08256842941045761,
          -0.2597089111804962,
          0.08817240595817566,
          0.16785180568695068,
          -0.09233047813177109,
          0.06757717579603195,
          0.15234152972698212
        ],
        [
          0.09259261935949326,
          0.22894665598869324,
          -0.20823894441127777,
          0.10832428187131882,
          0.08458264172077179,
          -0.02282886952161789,
          0.12172684818506241,
          -0.15991756319999695,
          0.3432063162326813,
          0.6352257132530212,
          -0.1309175193309784,
          -0.06494462490081787,
          0.25591787695884705,
          -0.19256512820720673,
          -0.00233942037448287,
          -0.0787586197257042,
          0.1241452768445015,
          0.08776190131902695,
          0.04332073777914047,
          -0.26156333088874817,
          0.09459193050861359,
          0.14144359529018402,
          -0.12382045388221741,
          -0.15967868268489838,
          -0.028540346771478653,
          -0.08837851136922836,
          0.09148194640874863,
          -0.16143034398555756,
          -0.022543087601661682,
          -0.011787154711782932,
          -0.03073153644800186,
          -0.11465802043676376,
          0.17366714775562286,
          0.16289831697940826,
          0.11773350089788437,
          -0.16299928724765778,
          -0.03691073879599571,
          0.17090077698230743,
          -0.10116681456565857,
          -0.16870172321796417,
          -0.0962706059217453
        ],
        [
          0.7893439531326294,
          0.9921413660049438,
          -0.1459079384803772,
          0.020586658269166946,
          0.40369004011154175,
          -0.12480754405260086,
          0.033816393464803696,
          -0.0984342023730278,
          0.9749127626419067,
          1.3059102296829224,
          -0.16474922001361847,
          -0.17037168145179749,
          0.21818536520004272,
          -0.041606198996305466,
          -0.00024091557133942842,
          -0.10610093921422958,
          -0.004058373626321554,
          0.12696467339992523,
          0.0562191903591156,
          -0.3291856646537781,
          -0.012305986136198044,
          0.1913163959980011,
          0.22331877052783966,
          -0.30703669786453247,
          0.2197319120168686,
          -0.1317993700504303,
          0.035540103912353516,
          -0.3444674015045166,
          0.2750166952610016,
          -0.09625541418790817,
          0.13345691561698914,
          -0.13540105521678925,
          0.22038020193576813,
          -0.1510501205921173,
          0.0030235808808356524,
          -0.3466584086418152,
          0.27806439995765686,
          0.0674028992652893,
          0.06427227705717087,
          -0.15665487945079803,
          0.23321102559566498
        ],
        [
          0.5863659381866455,
          0.8150424361228943,
          -0.14990444481372833,
          0.08985771983861923,
          0.35660043358802795,
          -0.1211082860827446,
          0.0802217423915863,
          -0.18108658492565155,
          0.7144649624824524,
          0.6126636862754822,
          -0.125110924243927,
          0.11321648955345154,
          -0.04948943480849266,
          0.08967773616313934,
          0.13958856463432312,
          -0.3401101529598236,
          0.07810387760400772,
          -0.06568460166454315,
          -0.06814208626747131,
          -0.12986227869987488,
          0.08363830298185349,
          0.11775052547454834,
          0.17044033110141754,
          -0.19958755373954773,
          0.1006038561463356,
          0.06968776136636734,
          0.014753258787095547,
          -0.14844784140586853,
          0.05385647341609001,
          -0.08468786627054214,
          0.17441855370998383,
          -0.26636484265327454,
          0.2601874768733978,
          0.18788902461528778,
          -0.15799696743488312,
          -0.19637349247932434,
          0.24677233397960663,
          0.17598474025726318,
          0.06094631552696228,
          -0.033210936933755875,
          -0.04271992668509483
        ],
        [
          -0.16281746327877045,
          -0.17687596380710602,
          0.026229705661535263,
          -0.12018444389104843,
          0.16207008063793182,
          0.18089766800403595,
          -0.00801023282110691,
          0.2066526859998703,
          -0.15965121984481812,
          -0.08387549966573715,
          -0.03566187247633934,
          0.015817290171980858,
          -0.1096576675772667,
          0.14729472994804382,
          -0.023378068581223488,
          -0.02437083050608635,
          -0.14060653746128082,
          0.140845388174057,
          0.099604032933712,
          0.08939570933580399,
          -0.12379276007413864,
          -0.022169601172208786,
          0.17587757110595703,
          0.1506100744009018,
          -0.14801712334156036,
          -0.03355899080634117,
          0.04796719178557396,
          0.23590530455112457,
          0.1357363909482956,
          -0.16398724913597107,
          -0.19273585081100464,
          0.17476685345172882,
          0.07882223278284073,
          0.19489440321922302,
          0.14475011825561523,
          -0.02768571302294731,
          0.0030519976280629635,
          -0.12677766382694244,
          -0.19315962493419647,
          0.08706434816122055,
          0.03138814494013786
        ],
        [
          0.5970313549041748,
          0.8951183557510376,
          -0.10618706047534943,
          -0.04445778951048851,
          0.4820684492588043,
          0.060164183378219604,
          0.16572582721710205,
          -0.3849746882915497,
          1.171829342842102,
          1.2750428915023804,
          -0.16037453711032867,
          0.02268257550895214,
          0.14675304293632507,
          0.17736640572547913,
          0.1655837595462799,
          -0.19927729666233063,
          0.24335956573486328,
          -0.13170242309570312,
          0.13040901720523834,
          -0.10170753300189972,
          0.15940779447555542,
          -0.14290983974933624,
          0.00720438314601779,
          -0.20700104534626007,
          0.33131277561187744,
          -0.05363601818680763,
          0.2132737636566162,
          -0.15875478088855743,
          0.30683624744415283,
          -0.01642727293074131,
          0.014816291630268097,
          -0.317465603351593,
          0.07026927918195724,
          -0.07381175458431244,
          0.2021867036819458,
          -0.10625839233398438,
          0.013333727605640888,
          -0.1922709047794342,
          0.10498505085706711,
          -0.04260862618684769,
          -0.014134872704744339
        ]
      ],
      "biases": [
        -0.30640709400177,
        0.15768204629421234,
        0.007802252657711506,
        -0.08606408536434174,
        -0.22304095327854156,
        0.06871451437473297,
        -0.09468504041433334,
        0.18518652021884918,
        -0.10151833295822144,
        0.13371779024600983,
        -0.11282803118228912,
        0.03055807389318943,
        -0.21044029295444489,
        -0.08687452226877213,
        0.1104288324713707,
        -0.41879090666770935
      ]
    },
    {
      "weights": [
        [
          0.803136944770813,
          -0.6308850049972534,
          -0.05478369817137718,
          0.751708447933197,
          0.16805408895015717,
          -0.4587266743183136,
          0.3306444585323334,
          -0.7262517809867859,
          -0.07080724835395813,
          -0.25595325231552124,
          0.10336531698703766,
          0.0078808618709445,
          0.8963543176651001,
          0.36963555216789246,
          -0.3059896230697632,
          0.8246583938598633
        ],
        [
          0.6006549596786499,
          -0.4527750611305237,
          -0.1178903803229332,
          0.7278213500976562,
          0.17833054065704346,
          -0.32184910774230957,
          0.006976239383220673,
          -0.46184876561164856,
          -0.13263794779777527,
          -0.25175413489341736,
          0.3588483929634094,
          -0.009981358423829079,
          0.8281497359275818,
          0.3886229991912842,
          -0.14652568101882935,
          0.6474663019180298
        ],
        [
          0.2766738831996918,
          -0.5993448495864868,
          -0.06581557542085648,
          0.6337701082229614,
          0.16580700874328613,
          -0.20951421558856964,
          0.29516077041625977,
          -0.4379664361476898,
          0.1792910099029541,
          0.04133951663970947,
          0.04842527210712433,
          0.23870885372161865,
          0.35282912850379944,
          0.2424400895833969,
          -0.2912842035293579,
          0.41372230648994446
        ],
        [
          0.6415268778800964,
          -0.6377667188644409,
          -0.009271584451198578,
          0.7281379699707031,
          -0.12036760151386261,
          -0.045028381049633026,
          0.12418203055858612,
          -0.36005204916000366,
          0.0636352151632309,
          -0.1490243822336197,
          0.23328404128551483,
          0.14764584600925446,
          0.5040630102157593,
          0.08301588892936707,
          -0.3745291829109192,
          0.5105738043785095
        ],
        [
          -0.07749905437231064,
          -0.09627186506986618,
          0.1017402708530426,
          -0.027237826958298683,
          -0.07780206948518753,
          0.019164355471730232,
          -0.06172345578670502,
          -0.16792114078998566,
          -0.15292669832706451,
          -0.08835838735103607,
          0.18304085731506348,
          0.19852469861507416,
          0.0606197752058506,
          -0.16883769631385803,
          -0.1769159436225891,
          0.1802859902381897
        ],
        [
          0.2885289192199707,
          -0.2277221977710724,
          -0.05166981369256973,
          0.47766244411468506,
          -0.0454481802880764,
          -0.2901580035686493,
          0.31679558753967285,
          -0.10842811316251755,
          -0.12516507506370544,
          -0.07827521115541458,
          0.2677121162414551,
          0.18955570459365845,
          0.37961772084236145,
          0.06446780264377594,
          -0.19280381500720978,
          0.47009530663490295
        ],
        [
          0.451661616563797,
          -0.24641387164592743,
          0.04271361976861954,
          0.4196978807449341,
          -0.1003740131855011,
          -0.0470401756465435,
          0.07528707385063171,
          -0.426250159740448,
          -0.07262570410966873,
          -0.010612421669065952,
          0.3180677592754364,
          0.14885827898979187,
          0.47801318764686584,
          0.43113836646080017,
          -0.27064836025238037,
          0.3059018552303314
        ],
        [
          0.44947758316993713,
          -0.37263023853302,
          -0.02449803799390793,
          0.6349638104438782,
          0.1231909915804863,
          -0.14920136332511902,
          -0.014570271596312523,
          -0.2517336905002594,
          0.030927063897252083,
          -0.14863161742687225,
          0.08672256767749786,
          0.2853313088417053,
          0.5060461759567261,
          0.19892293214797974,
          -0.4455952048301697,
          0.5973269939422607
        ],
        [
          0.6413462162017822,
          -0.46411651372909546,
          0.002088018227368593,
          0.7838030457496643,
          0.11360270529985428,
          -0.41565173864364624,
          0.2766997516155243,
          -0.7455592155456543,
          0.14164374768733978,
          -0.34366172552108765,
          0.06671097874641418,
          0.239296555519104,
          0.5166097283363342,
          0.3680468201637268,
          -0.2763829231262207,
          0.6601145267486572
        ],
        [
          0.618020236492157,
          -0.6272948980331421,
          0.0036341638769954443,
          0.5863495469093323,
          0.07381806522607803,
          -0.410047709941864,
          -0.01156064122915268,
          -0.5888620615005493,
          0.11441976577043533,
          -0.20022627711296082,
          0.3128628730773926,
          0.05507679656147957,
          0.4890173077583313,
          0.44373390078544617,
          -0.3016678988933563,
          0.6521930694580078
        ],
        [
          0.11230374872684479,
          -0.08720903098583221,
          -0.1507950872182846,
          0.15987934172153473,
          0.06685025990009308,
          0.12295442074537277,
          -0.034138962626457214,
          0.004768515005707741,
          0.21430863440036774,
          -0.14637167751789093,
          -0.024978309869766235,
          0.11080361157655716,
          0.11828065663576126,
          0.03772604465484619,
          0.10297366976737976,
          0.25392115116119385
        ],
        [
          0.16450096666812897,
          -0.040394388139247894,
          -0.18924851715564728,
          0.30595648288726807,
          -0.035149045288562775,
          -0.17817719280719757,
          -0.018257861956954002,
          -0.15227380394935608,
          0.09953883290290833,
          0.10565278679132462,
          0.2602483332157135,
          0.20498934388160706,
          0.34322938323020935,
          0.3497461676597595,
          -0.13002409040927887,
          0.16790300607681274
        ],
        [
          0.43273016810417175,
          -0.19834931194782257,
          0.1615026891231537,
          0.41440603137016296,
          0.2246437519788742,
          -0.16580355167388916,
          0.02922038547694683,
          -0.4494122266769409,
          0.04589012637734413,
          0.02993682399392128,
          0.19040100276470184,
          -0.000725668272934854,
          0.3931770920753479,
          0.014554963447153568,
          -0.15835297107696533,
          0.41643598675727844
        ],
        [
          0.6482802629470825,
          -0.545170783996582,
          -0.23379011452198029,
          0.4467145502567291,
          0.012901467271149158,
          -0.043750859797000885,
          0.20718039572238922,
          -0.3998970091342926,
          -0.12539035081863403,
          0.03231117129325867,
          0.016475163400173187,
          -0.035542260855436325,
          0.6502684950828552,
          0.47854676842689514,
          -0.17604339122772217,
          0.5429773926734924
        ],
        [
          -0.17958539724349976,
          0.38467463850975037,
          -0.10748486965894699,
          -0.3971734642982483,
          -0.0770566463470459,
          0.017042716965079308,
          -0.12881062924861908,
          0.03992960602045059,
          0.16918602585792542,
          0.05812538415193558,
          0.06420976668596268,
          -0.1195996031165123,
          -0.23003143072128296,
          -0.2859783470630646,
          -0.07194539159536362,
          -0.09882063418626785
        ],
        [
          0.22426055371761322,
          -0.41300663352012634,
          -0.10272883623838425,
          0.46703410148620605,
          -0.04382734000682831,
          -0.14453153312206268,
          0.2020050287246704,
          -0.36569228768348694,
          0.08568627387285233,
          0.05800862982869148,
          0.03360291197896004,
          -0.01044832356274128,
          0.2135842740535736,
          0.39547252655029297,
          0.02773279696702957,
          0.41428032517433167
        ]
      ],
      "biases": [
        -0.5075359344482422,
        -0.6328147649765015,
        -0.2436610460281372,
        -0.32151955366134644,
        -0.018875759094953537,
        -0.3187149167060852,
        -0.37897807359695435,
        -0.415942519903183,
        -0.42978590726852417,
        -0.24433796107769012,
        -0.16141679883003235,
        -0.06319805979728699,
        -0.40732911229133606,
        -0.4777684509754181,
        0.08660682290792465,
        -0.19684918224811554
      ]
    },
    {
      "weights": [
        [
          -0.5011524558067322,
          -0.5286750197410583,
          -0.26786914467811584,
          -0.30193355679512024,
          0.058276668190956116,
          -0.012203390710055828,
          -0.31985408067703247,
          -0.3740549683570862,
          -0.4312121570110321,
          -0.3318692743778229,
          0.06714698672294617,
          -0.0905880406498909,
          -0.08504340797662735,
          -0.1702372431755066,
          -0.021014761179685593,
          -0.3306925892829895
        ],
        [
          -0.3642553389072418,
          -0.22283555567264557,
          -0.3969220221042633,
          -0.3597441017627716,
          0.07618173956871033,
          -0.2273171991109848,
          -0.38035526871681213,
          -0.29331085085868835,
          -0.37324008345603943,
          -0.26804274320602417,
          0.005606004036962986,
          -0.0954677015542984,
          -0.0857156440615654,
          -0.23065690696239471,
          0.08795106410980225,
          -0.055212173610925674
        ],
        [
          -0.4203384518623352,
          -0.45840874314308167,
          -0.14250439405441284,
          -0.43539056181907654,
          0.009992178529500961,
          -0.03818109259009361,
          -0.19686424732208252,
          -0.4706762433052063,
          -0.33894413709640503,
          -0.21570272743701935,
          0.07341034710407257,
          -0.16786465048789978,
          -0.09970414638519287,
          -0.4330817461013794,
          0.3760168254375458,
          -0.36132651567459106
        ],
        [
          -0.3472788333892822,
          -0.516531229019165,
          -0.2605498731136322,
          -0.32923054695129395,
          0.12614130973815918,
          -0.09361819177865982,
          -0.35285982489585876,
          -0.3245220184326172,
          -0.3870215117931366,
          -0.2995617389678955,
          -0.09811145812273026,
          -0.22169697284698486,
          -0.3377626836299896,
          -0.0808325707912445,
          0.3240492045879364,
          -0.33352190256118774
        ],
        [
          -0.3686820864677429,
          -0.3774991035461426,
          -0.1935456097126007,
          -0.49317970871925354,
          -0.025218471884727478,
          -0.3489187955856323,
          -0.3115053176879883,
          -0.3317107558250427,
          -0.2811259925365448,
          -0.4962971806526184,
          -0.11221081763505936,
          -0.24481011927127838,
          -0.08449149131774902,
          -0.18320609629154205,
          0.25423166155815125,
          0.011577731929719448
        ],
        [
          -0.5908336043357849,
          -0.364457905292511,
          -0.22511537373065948,
          -0.4902598261833191,
          0.06694905459880829,
          -0.036725662648677826,
          -0.22866462171077728,
          -0.3925362825393677,
          -0.5514957904815674,
          -0.45717886090278625,
          0.09423787146806717,
          -0.00010106631089001894,
          -0.14107714593410492,
          -0.37329816818237305,
          0.4494571387767792,
          -0.26994073390960693
        ],
        [
          -0.6598775386810303,
          -0.32749253511428833,
          -0.4155615568161011,
          -0.13910426199436188,
          0.128400057554245,
          -0.3597811460494995,
          -0.33191436529159546,
          -0.18905150890350342,
          -0.5407847166061401,
          -0.30267414450645447,
          0.17254646122455597,
          0.05220559239387512,
          -0.39042139053344727,
          -0.20053793489933014,
          0.09070008248090744,
          -0.13818372786045074
        ],
        [
          -0.6568540334701538,
          -0.60516756772995,
          -0.43821069598197937,
          -0.18065470457077026,
          0.21867790818214417,
          -0.22569064795970917,
          -0.12749731540679932,
          -0.32057344913482666,
          -0.572930097579956,
          -0.3038475215435028,
          0.22098904848098755,
          0.1033022552728653,
          -0.2405620664358139,
          -0.4093046188354492,
          0.4305746853351593,
          -0.027828646823763847
        ],
        [
          -0.26210516691207886,
          -0.3789275586605072,
          -0.46429285407066345,
          -0.12874150276184082,
          0.0721203163266182,
          -0.15472076833248138,
          -0.42592811584472656,
          -0.19748523831367493,
          -0.23501452803611755,
          -0.45234036445617676,
          -0.2177548110485077,
          -0.12993717193603516,
          -0.21155603229999542,
          -0.15615792572498322,
          0.24477368593215942,
          -0.31752675771713257
        ],
        [
          -0.6134545803070068,
          -0.30359387397766113,
          -0.1006980612874031,
          -0.3373667299747467,
          0.1462736427783966,
          -0.028047120198607445,
          -0.20376716554164886,
          -0.3679715394973755,
          -0.47554922103881836,
          -0.40958523750305176,
          -0.16957420110702515,
          -0.09852881729602814,
          -0.12116670608520508,
          -0.3091026544570923,
          0.3201245367527008,
          -0.016008108854293823
        ],
        [
          -0.34923988580703735,
          -0.4399476945400238,
          -0.23426313698291779,
          -0.48523592948913574,
          0.006854858249425888,
          -0.2286694198846817,
          -0.313323050737381,
          -0.10434868931770325,
          -0.27090564370155334,
          -0.5123773217201233,
          -0.22032718360424042,
          -0.010607816278934479,
          -0.31951966881752014,
          -0.12003131955862045,
          0.05008009448647499,
          -0.07105466723442078
        ],
        [
          -0.5327009558677673,
          -0.40187788009643555,
          -0.26418206095695496,
          -0.13359451293945312,
          0.2012316733598709,
          -0.33222654461860657,
          -0.042461443692445755,
          -0.13845473527908325,
          -0.4876580238342285,
          -0.2061917781829834,
          -0.1087045669555664,
          -0.19305871427059174,
          -0.3003501892089844,
          -0.4549711346626282,
          0.3395548462867737,
          -0.22782866656780243
        ],
        [
          -0.340849369764328,
          -0.31995686888694763,
          -0.3797290623188019,
          -0.36889785528182983,
          0.008535959757864475,
          -0.24336859583854675,
          -0.28583455085754395,
          -0.18593549728393555,
          -0.24450801312923431,
          -0.4346598982810974,
          -0.010083422064781189,
          -0.01431532297283411,
          -0.10963719338178635,
          -0.2943978011608124,
          0.07133442163467407,
          -0.15789653360843658
        ],
        [
          -0.6248514652252197,
          -0.28060683608055115,
          -0.283832848072052,
          -0.34532371163368225,
          -0.05479281768202782,
          -0.28922516107559204,
          -0.019741181284189224,
          -0.17027486860752106,
          -0.43138256669044495,
          -0.3380271792411804,
          0.09974615275859833,
          -0.28514134883880615,
          -0.03219125047326088,
          -0.4848898947238922,
          0.3602067232131958,
          -0.001985587179660797
        ],
        [
          -0.2779417335987091,
          -0.3860022723674774,
          -0.1221248134970665,
          -0.3810427188873291,
          -0.14882777631282806,
          -0.19112183153629303,
          -0.285107284784317,
          -0.28810378909111023,
          -0.46391984820365906,
          -0.47022324800491333,
          0.05388469994068146,
          0.012598858214914799,
          -0.07631723582744598,
          -0.45998403429985046,
          0.28654852509498596,
          -0.029553009197115898
        ],
        [
          -0.5274079442024231,
          -0.22330927848815918,
          -0.1709710955619812,
          -0.18732409179210663,
          0.017694029957056046,
          -0.11106867343187332,
          -0.29708972573280334,
          -0.37653079628944397,
          -0.24825671315193176,
          -0.3064406216144562,
          -0.1507713943719864,
          -0.30627626180648804,
          -0.05926721170544624,
          -0.4244448244571686,
          -0.009552007541060448,
          -0.30170607566833496
        ]
      ],
      "biases": [
        0.12818406522274017,
        -0.25599396228790283,
        0.026402411982417107,
        0.17787766456604004,
        0.13378320634365082,
        0.32677918672561646,
        0.14835979044437408,
        0.09253671020269394,
        -0.03719440847635269,
        -0.14892195165157318,
        0.027625814080238342,
        -0.0005498366663232446,
        -0.2060232311487198,
        -0.08996360003948212,
        -0.1446414738893509,
        0.05066744610667229
      ]
    },
    {
      "weights": [
        [
          1.0692471265792847,
          0.8604854941368103,
          1.1717795133590698,
          1.1179922819137573,
          1.09518301486969,
          1.4154369831085205,
          1.2110873460769653,
          1.4123550653457642,
          0.9136003255844116,
          1.0899237394332886,
          0.9750072360038757,
          1.1506019830703735,
          0.9048593640327454,
          1.1354182958602905,
          1.017295002937317,
          0.9215551614761353
        ]
      ],
      "biases": [
        -3.138730764389038
      ]
    }
  ],
  "inputLookup": {
    "totalClouds[0]": 0,
    "lowClouds[0]": 1,
    "mediumClouds[0]": 2,
    "highClouds[0]": 3,
    "rainChance[0]": 4,
    "rainAmount[0]": 5,
    "windSpeed[0]": 6,
    "temperature[0]": 7,
    "totalClouds[1]": 8,
    "lowClouds[1]": 9,
    "mediumClouds[1]": 10,
    "highClouds[1]": 11,
    "rainChance[1]": 12,
    "rainAmount[1]": 13,
    "windSpeed[1]": 14,
    "temperature[1]": 15,
    "totalClouds[2]": 16,
    "lowClouds[2]": 17,
    "mediumClouds[2]": 18,
    "highClouds[2]": 19,
    "rainChance[2]": 20,
    "rainAmount[2]": 21,
    "windSpeed[2]": 22,
    "temperature[2]": 23,
    "totalClouds[3]": 24,
    "lowClouds[3]": 25,
    "mediumClouds[3]": 26,
    "highClouds[3]": 27,
    "rainChance[3]": 28,
    "rainAmount[3]": 29,
    "windSpeed[3]": 30,
    "temperature[3]": 31,
    "totalClouds[4]": 32,
    "lowClouds[4]": 33,
    "mediumClouds[4]": 34,
    "highClouds[4]": 35,
    "rainChance[4]": 36,
    "rainAmount[4]": 37,
    "windSpeed[4]": 38,
    "temperature[4]": 39,
    "exposureLength": 40
  },
  "inputLookupLength": 41,
  "outputLookup": {
    "totalImagingTime": 0
  },
  "outputLookupLength": 1,
  "options": {
    "inputSize": 0,
    "outputSize": 0,
    "binaryThresh": 0.5,
    "hiddenLayers": [
      16,
      16,
      16
    ]
  },
  "trainOpts": {
    "activation": "sigmoid",
    "iterations": 20000,
    "errorThresh": 0.005,
    "log": false,
    "logPeriod": 10,
    "leakyReluAlpha": 0.01,
    "learningRate": 0.3,
    "momentum": 0.1,
    "callbackPeriod": 10,
    "timeout": "Infinity",
    "beta1": 0.9,
    "beta2": 0.999,
    "epsilon": 1e-8
  }
}