{
  "type": "NeuralNetworkGPU",
  "sizes": [
    41,
    16,
    16,
    16,
    1
  ],
  "layers": [
    {
      "weights": [],
      "biases": []
    },
    {
      "weights": [
        [
          0.25859764218330383,
          0.7669473886489868,
          0.4850633144378662,
          -0.36916646361351013,
          0.28226238489151,
          0.16047464311122894,
          0.19091226160526276,
          -0.15085451304912567,
          1.0800613164901733,
          0.8495063781738281,
          0.5084359049797058,
          0.5590323209762573,
          0.1375613957643509,
          0.1087934821844101,
          0.09450360387563705,
          -0.2429560422897339,
          0.3601398766040802,
          0.08546905219554901,
          0.19817297160625458,
          -0.3621350824832916,
          0.15578009188175201,
          0.0930849090218544,
          -0.1269354671239853,
          -0.32985010743141174,
          0.22289632260799408,
          -0.14886274933815002,
          -0.0968436673283577,
          -0.1418139934539795,
          0.40215864777565,
          0.005673597566783428,
          0.11359693855047226,
          -0.2733329236507416,
          0.4317140281200409,
          -0.12339720875024796,
          0.14238469302654266,
          -0.20729279518127441,
          0.21766260266304016,
          -0.16326576471328735,
          -0.1524745672941208,
          -0.1603926718235016,
          0.4117274880409241
        ],
        [
          -0.05606430396437645,
          0.1174633577466011,
          0.12579599022865295,
          0.12760384380817413,
          -0.15769699215888977,
          0.1682591736316681,
          0.12703001499176025,
          -0.11778721958398819,
          -0.13093726336956024,
          0.1304350346326828,
          -0.1084885373711586,
          0.017302146181464195,
          -0.035804733633995056,
          0.09545232355594635,
          0.1133422777056694,
          -0.17052224278450012,
          -0.007505293004214764,
          -0.1834985762834549,
          0.05627059191465378,
          0.19434884190559387,
          0.0051369257271289825,
          -0.15385612845420837,
          -0.176843523979187,
          -0.10346390306949615,
          -0.06723596900701523,
          0.14069963991641998,
          -0.052764520049095154,
          -0.08936060965061188,
          0.10358771681785583,
          0.02914067730307579,
          0.1444898545742035,
          -0.06411555409431458,
          -0.0760820060968399,
          -0.02137807197868824,
          -0.11672162264585495,
          0.13945230841636658,
          0.14767494797706604,
          0.15634195506572723,
          0.14295367896556854,
          -0.052871085703372955,
          -0.10691135376691818
        ],
        [
          0.21229884028434753,
          0.047687746584415436,
          -0.0398012138903141,
          0.0053438483737409115,
          0.03283081203699112,
          -0.15782679617404938,
          -0.0783056989312172,
          -0.10291168093681335,
          0.4722835123538971,
          0.4112759828567505,
          0.35006752610206604,
          0.35979828238487244,
          0.3129538297653198,
          0.17351184785366058,
          -0.17252428829669952,
          -0.07647617906332016,
          0.28255143761634827,
          0.17879067361354828,
          -0.19455087184906006,
          -0.1652139127254486,
          0.07495027780532837,
          0.1051519587635994,
          -0.14083151519298553,
          -0.28330370783805847,
          -0.05167417973279953,
          0.015791581943631172,
          0.18682096898555756,
          -0.16616076231002808,
          0.31851205229759216,
          0.1933097243309021,
          0.036896102130413055,
          -0.11169544607400894,
          0.06782356649637222,
          0.19489780068397522,
          -0.07563211023807526,
          -0.1782311499118805,
          0.2922893762588501,
          0.1394055187702179,
          0.0800640732049942,
          -0.15032795071601868,
          0.12723536789417267
        ],
        [
          0.26719164848327637,
          0.19438908994197845,
          0.09062232822179794,
          -0.1341741979122162,
          0.36208266019821167,
          0.1371004283428192,
          -0.04839916154742241,
          -0.3057668209075928,
          0.7426943182945251,
          0.5498502254486084,
          0.3304048180580139,
          0.1385963410139084,
          0.3070363402366638,
          0.1771831065416336,
          0.06820450723171234,
          -0.077825166285038,
          0.08760181069374084,
          0.19038505852222443,
          -0.19618098437786102,
          -0.21412497758865356,
          -0.021831996738910675,
          0.04161570593714714,
          -0.08880007266998291,
          -0.12039116770029068,
          0.05945340543985367,
          -0.06772053241729736,
          0.12821777164936066,
          -0.0420069582760334,
          0.2553766667842865,
          0.0756419375538826,
          -0.0949440449476242,
          -0.23838406801223755,
          0.3261760175228119,
          -0.19591929018497467,
          0.1617535501718521,
          -0.23782235383987427,
          0.34555163979530334,
          -0.1517706960439682,
          -0.1822376251220703,
          -0.029179031029343605,
          -0.016302242875099182
        ],
        [
          -0.030920129269361496,
          0.21036146581172943,
          0.11483445763587952,
          0.060645025223493576,
          0.1586727350950241,
          0.16036878526210785,
          -0.004873452242463827,
          -0.14438869059085846,
          0.3191835284233093,
          -0.0024413245264440775,
          0.039264436811208725,
          0.05457470938563347,
          0.15737469494342804,
          -0.1807558685541153,
          -0.18146294355392456,
          0.0007600016542710364,
          -0.014429514296352863,
          0.022197548300027847,
          -0.03799005225300789,
          -0.05222470313310623,
          -0.04850168153643608,
          0.16519276797771454,
          -0.003712288336828351,
          0.09581509977579117,
          0.027502773329615593,
          -0.004287802614271641,
          -0.08951913565397263,
          0.11718964576721191,
          -0.10065013915300369,
          0.024854926392436028,
          -0.16340798139572144,
          -0.1298777014017105,
          0.19321982562541962,
          0.051908526569604874,
          -0.1328655183315277,
          0.13599592447280884,
          0.08756647258996964,
          0.004537879955023527,
          0.14813172817230225,
          -0.03920833766460419,
          0.2685832679271698
        ],
        [
          0.27972421050071716,
          0.6299906373023987,
          0.4929376244544983,
          -0.2549489140510559,
          0.5023748278617859,
          -0.026322750374674797,
          -0.06240053474903107,
          -0.27302196621894836,
          1.0885366201400757,
          0.898301899433136,
          0.5496448278427124,
          0.44536304473876953,
          0.1939208060503006,
          -0.13240745663642883,
          -0.18389596045017242,
          -0.16502563655376434,
          0.20832806825637817,
          -0.034906428307294846,
          -0.06454159319400787,
          0.041802629828453064,
          0.35630515217781067,
          0.045813918113708496,
          -0.05446067452430725,
          -0.1483297199010849,
          0.20379096269607544,
          0.052329644560813904,
          -0.19311080873012543,
          -0.34951522946357727,
          0.3286795914173126,
          0.12511824071407318,
          0.01771647483110428,
          -0.13380108773708344,
          0.3870158791542053,
          0.035518430173397064,
          -0.15426994860172272,
          -0.33472391963005066,
          0.32565686106681824,
          0.04470314458012581,
          0.14574937522411346,
          -0.28072455525398254,
          0.32815343141555786
        ],
        [
          0.33261340856552124,
          0.4721907079219818,
          0.31846192479133606,
          -0.06617843359708786,
          0.43787744641304016,
          0.12569715082645416,
          0.031547095626592636,
          -0.29865625500679016,
          0.8184629082679749,
          0.5536472201347351,
          0.42812177538871765,
          0.22744238376617432,
          0.07208526879549026,
          -0.18823488056659698,
          -0.03390096500515938,
          -0.19848574697971344,
          0.17774027585983276,
          0.09583946317434311,
          -0.08910183608531952,
          -0.0962139293551445,
          0.15969811379909515,
          0.05363988131284714,
          0.09963777661323547,
          -0.1633923202753067,
          0.11753391474485397,
          0.1437428742647171,
          0.007204090245068073,
          -0.2909752428531647,
          0.33601114153862,
          0.034894511103630066,
          -0.1375911831855774,
          -0.08861919492483139,
          0.18930988013744354,
          0.13563115894794464,
          -0.04300015792250633,
          -0.17353715002536774,
          0.40732893347740173,
          -0.04898682236671448,
          0.025553470477461815,
          -0.18984182178974152,
          0.19133678078651428
        ],
        [
          0.26240968704223633,
          -0.09995115548372269,
          -0.01454308070242405,
          0.011747997254133224,
          0.20609153807163239,
          -0.15648381412029266,
          0.03418916091322899,
          -0.03537673503160477,
          -0.0885014533996582,
          0.1216081976890564,
          0.2536282539367676,
          -0.015065453015267849,
          -0.12961892783641815,
          -0.16172845661640167,
          0.027232162654399872,
          0.12005623430013657,
          0.0970362201333046,
          -0.09528836607933044,
          0.17410527169704437,
          0.11699844151735306,
          0.08553005754947662,
          0.0905182808637619,
          -0.056388016790151596,
          -0.022692475467920303,
          -0.09297915548086166,
          0.14790847897529602,
          -0.14716216921806335,
          0.044839851558208466,
          0.23746086657047272,
          -0.01340512651950121,
          -0.08796868473291397,
          0.12232997268438339,
          0.09534860402345657,
          -0.17090900242328644,
          -0.17875412106513977,
          -0.13150078058242798,
          0.15816427767276764,
          0.0441962406039238,
          0.1827423870563507,
          -0.0223652683198452,
          0.1928417980670929
        ],
        [
          0.07390916347503662,
          -0.3044358193874359,
          -0.15898506343364716,
          0.24167554080486298,
          -0.41005629301071167,
          -0.02087876945734024,
          0.1424686312675476,
          0.2918391823768616,
          -0.6925217509269714,
          -0.7494611740112305,
          -0.4522514343261719,
          -0.12215831875801086,
          -0.3689754009246826,
          0.08866427093744278,
          0.035879191011190414,
          0.12051697075366974,
          -0.29177045822143555,
          0.1780112385749817,
          -0.1421479433774948,
          0.25534847378730774,
          -0.36149105429649353,
          0.07182247936725616,
          -0.055483777076005936,
          -0.03213664889335632,
          -0.22272074222564697,
          0.11075075715780258,
          -0.011860101483762264,
          0.2866258919239044,
          -0.2718481719493866,
          -0.04489189758896828,
          -0.0389636866748333,
          0.2708357870578766,
          -0.15940769016742706,
          -0.09743276238441467,
          0.188924178481102,
          -0.05401069298386574,
          -0.029916757717728615,
          0.15287093818187714,
          0.08303236216306686,
          0.0370669923722744,
          -0.2611072063446045
        ],
        [
          0.19717492163181305,
          0.6368350982666016,
          0.5104800462722778,
          -0.13796447217464447,
          0.5285971164703369,
          0.025645378977060318,
          -0.023490851745009422,
          -0.2875051498413086,
          0.9231327772140503,
          0.8487314581871033,
          0.33696219325065613,
          0.484174519777298,
          0.3719125986099243,
          -0.08635652810335159,
          -0.011560571379959583,
          -0.3559248447418213,
          0.18421609699726105,
          -0.009595672599971294,
          0.014093487523496151,
          -0.2917543053627014,
          0.4123326241970062,
          0.04262249544262886,
          0.10418524593114853,
          -0.1976020336151123,
          0.3813098967075348,
          -0.02399194985628128,
          -0.07771673053503036,
          -0.1402137577533722,
          0.09161297231912613,
          0.16710279881954193,
          0.17336122691631317,
          -0.09336739778518677,
          0.06484342366456985,
          -0.07112015783786774,
          -0.09905140846967697,
          -0.05008654668927193,
          0.3487761914730072,
          0.16105395555496216,
          0.10109329968690872,
          -0.2579851746559143,
          0.36562061309814453
        ],
        [
          -0.07483170926570892,
          -0.20489157736301422,
          -0.05940432474017143,
          0.07963147014379501,
          -0.2615824341773987,
          0.023991255089640617,
          0.02257421985268593,
          0.06059115007519722,
          -0.19080965220928192,
          -0.15608593821525574,
          0.05253991484642029,
          -0.25919777154922485,
          -0.11626598984003067,
          -0.02223539724946022,
          -0.1437266767024994,
          0.1280342936515808,
          -0.20894451439380646,
          -0.00234919018112123,
          0.07940519601106644,
          0.26526397466659546,
          -0.19990107417106628,
          0.09213073551654816,
          -0.05419198423624039,
          0.17942221462726593,
          0.08427141606807709,
          -0.0319598987698555,
          0.04052557796239853,
          -0.05855630710721016,
          -0.09175939857959747,
          -0.1250089555978775,
          -0.14767450094223022,
          0.17219196259975433,
          0.07746865600347519,
          0.09472832828760147,
          0.18801072239875793,
          -0.02067497745156288,
          -0.1427682638168335,
          0.010361829772591591,
          0.025261009112000465,
          0.15074120461940765,
          0.10629453510046005
        ],
        [
          0.37347474694252014,
          0.7679352164268494,
          0.2695838510990143,
          -0.42512065172195435,
          0.5169290900230408,
          0.1391059011220932,
          0.15181821584701538,
          -0.31379103660583496,
          1.3988362550735474,
          0.9966790080070496,
          0.7031204104423523,
          0.4935471713542938,
          0.3179568648338318,
          0.03932914510369301,
          0.143442764878273,
          -0.08084078133106232,
          0.5035087466239929,
          0.1075553223490715,
          -0.060119789093732834,
          -0.2023279368877411,
          0.23607447743415833,
          -0.07756803184747696,
          -0.10504215210676193,
          -0.16259199380874634,
          0.40692490339279175,
          -0.016628721728920937,
          -0.13290412724018097,
          -0.2105327546596527,
          0.1123785451054573,
          -0.18678677082061768,
          -0.11942403763532639,
          -0.32529371976852417,
          0.49294528365135193,
          0.1598658263683319,
          -0.16609616577625275,
          -0.13099908828735352,
          0.3822923004627228,
          -0.03296196088194847,
          -0.12875446677207947,
          -0.3876091241836548,
          0.43208014965057373
        ],
        [
          0.005884923972189426,
          -0.11643815040588379,
          -0.12233354896306992,
          0.007515718694776297,
          0.0510985292494297,
          -0.1470481902360916,
          0.048900339752435684,
          0.18629831075668335,
          0.10825502872467041,
          0.021974317729473114,
          0.23191073536872864,
          0.17489273846149445,
          -0.09366215020418167,
          -0.18679481744766235,
          0.014089766889810562,
          -0.06992772966623306,
          0.1704203337430954,
          0.024478530511260033,
          0.15149684250354767,
          0.17344288527965546,
          -0.0033442701678723097,
          -0.17455679178237915,
          0.15726667642593384,
          -0.05219505727291107,
          0.23632729053497314,
          -0.011957187205553055,
          -0.1710636466741562,
          -0.041102878749370575,
          0.09664420038461685,
          -0.03458241745829582,
          0.13427694141864777,
          -0.045063316822052,
          0.08096729218959808,
          -0.12406700849533081,
          -0.12869414687156677,
          0.1484544426202774,
          -0.1362430304288864,
          0.0598900206387043,
          -0.08928907662630081,
          -0.1825137436389923,
          -0.012373236939311028
        ],
        [
          -0.036591339856386185,
          -0.2808400094509125,
          -0.17662061750888824,
          0.44807034730911255,
          -0.2978721559047699,
          -0.11674574762582779,
          -0.04470853880047798,
          -0.05131397396326065,
          -0.7839205861091614,
          -0.5694676637649536,
          -0.40222272276878357,
          -0.15669021010398865,
          -0.0480710044503212,
          0.07427766174077988,
          -0.1886608898639679,
          0.11289090663194656,
          -0.08798981457948685,
          -0.055706534534692764,
          -0.1638818383216858,
          0.007484825793653727,
          -0.33171913027763367,
          0.09931063652038574,
          0.012812064960598946,
          0.16019508242607117,
          -0.29851943254470825,
          0.09096869081258774,
          -0.1580454558134079,
          0.0293169766664505,
          -0.3319886028766632,
          0.12920698523521423,
          0.11278405040502548,
          0.20589381456375122,
          -0.19003833830356598,
          0.19288775324821472,
          0.1542818695306778,
          0.28433722257614136,
          -0.3556329905986786,
          -0.16045811772346497,
          -0.040998902171850204,
          0.284943163394928,
          -0.0423254556953907
        ],
        [
          0.046839579939842224,
          -0.06534525752067566,
          0.12037936598062515,
          0.08184117823839188,
          -0.11640803515911102,
          0.017191171646118164,
          -0.03961211070418358,
          0.2039559781551361,
          -0.22353902459144592,
          -0.048659294843673706,
          -0.11478786170482635,
          0.06089703366160393,
          -0.12128662317991257,
          -0.026830226182937622,
          0.14807702600955963,
          0.20484867691993713,
          -0.038760825991630554,
          0.01810133457183838,
          -0.12512309849262238,
          -0.0902957022190094,
          0.09989061206579208,
          -0.1395273506641388,
          0.06737930327653885,
          0.04462941735982895,
          0.07332377880811691,
          0.11113838106393814,
          0.024529263377189636,
          0.2334534227848053,
          -0.06644169986248016,
          -0.12982577085494995,
          0.05840614065527916,
          0.1895231306552887,
          0.19996172189712524,
          0.03320698440074921,
          -0.1357211321592331,
          0.09574399888515472,
          0.10411865264177322,
          -0.1663936823606491,
          0.16253866255283356,
          -0.10850048065185547,
          -0.022555360570549965
        ],
        [
          -0.12170732766389847,
          -0.2378268837928772,
          0.03470282629132271,
          0.183976948261261,
          -0.1944705843925476,
          -0.18000207841396332,
          -0.0656690001487732,
          0.0044715492986142635,
          -0.03483838587999344,
          -0.2194022685289383,
          -0.10572900623083115,
          -0.0007515818579122424,
          -0.1466047614812851,
          0.015181400813162327,
          -0.14467914402484894,
          -0.007789090741425753,
          0.14717118442058563,
          0.05178013816475868,
          0.10065259784460068,
          0.20349924266338348,
          -0.10076035559177399,
          0.15718141198158264,
          -0.02069123089313507,
          0.12874148786067963,
          -0.05087520182132721,
          0.15153221786022186,
          -0.009955928660929203,
          0.19264714419841766,
          -0.11962476372718811,
          -0.10114399343729019,
          0.06326563656330109,
          0.1800624281167984,
          0.019915267825126648,
          0.17939168214797974,
          -0.17113494873046875,
          -0.07926168292760849,
          -0.21170011162757874,
          -0.0970173180103302,
          -0.13977642357349396,
          0.0887453630566597,
          0.12784147262573242
        ]
      ],
      "biases": [
        -0.09320981800556183,
        0.013875425793230534,
        -0.1503320187330246,
        -0.1385709047317505,
        0.11627313494682312,
        -0.30733487010002136,
        -0.2866275906562805,
        -0.020440198481082916,
        0.080902598798275,
        -0.21468976140022278,
        0.027828507125377655,
        -0.31653711199760437,
        0.17333999276161194,
        0.10328644514083862,
        0.049001969397068024,
        -0.08718431740999222
      ]
    },
    {
      "weights": [
        [
          0.36343619227409363,
          -0.3032834827899933,
          0.015223892405629158,
          0.33368825912475586,
          0.037878237664699554,
          0.4986620247364044,
          0.4422752857208252,
          -0.09308547526597977,
          -0.373972624540329,
          0.44485732913017273,
          -0.18106305599212646,
          0.5689364075660706,
          -0.16784493625164032,
          -0.5044180154800415,
          0.028293611481785774,
          -0.28006014227867126
        ],
        [
          0.4060317575931549,
          0.06819247454404831,
          0.050935111939907074,
          0.35367828607559204,
          -0.20861634612083435,
          0.4609476923942566,
          0.27173396944999695,
          -0.2630934417247772,
          -0.4842846691608429,
          0.45254984498023987,
          -0.2107239067554474,
          0.6072942614555359,
          -0.271291047334671,
          -0.2647726833820343,
          -0.12324681133031845,
          -0.027751633897423744
        ],
        [
          0.31777942180633545,
          -0.026804717257618904,
          0.3004838228225708,
          0.18381312489509583,
          0.06811127066612244,
          0.6307640671730042,
          0.3114338219165802,
          -0.20943975448608398,
          -0.597435712814331,
          0.5848099589347839,
          -0.3243073523044586,
          0.7374288439750671,
          -0.2982481122016907,
          -0.42409294843673706,
          -0.1351335495710373,
          -0.22420985996723175
        ],
        [
          0.6169420480728149,
          -0.21459174156188965,
          0.06993339955806732,
          0.237043097615242,
          -0.006644148845225573,
          0.619695246219635,
          0.48290836811065674,
          -0.06449863314628601,
          -0.4862493872642517,
          0.36033934354782104,
          -0.07733628153800964,
          0.5931792259216309,
          0.010117482393980026,
          -0.4000718295574188,
          -0.10888053476810455,
          -0.3942863345146179
        ],
        [
          0.17457550764083862,
          -0.09766528755426407,
          -0.031102998182177544,
          -0.17807582020759583,
          -0.17033688724040985,
          -0.17035998404026031,
          -0.13288423418998718,
          -0.15367279946804047,
          0.1642754226922989,
          0.02336891181766987,
          0.011529671959578991,
          -0.011562613770365715,
          0.15905675292015076,
          0.022517448291182518,
          0.18328434228897095,
          -0.13608524203300476
        ],
        [
          0.6877638697624207,
          -0.14128464460372925,
          0.0676615759730339,
          0.37114325165748596,
          0.05257623270153999,
          0.8011052012443542,
          0.3713116943836212,
          -0.15894871950149536,
          -0.7013681530952454,
          0.6693187355995178,
          -0.29754167795181274,
          1.008676290512085,
          -0.08195824921131134,
          -0.6156646609306335,
          -0.4042143225669861,
          -0.2800505757331848
        ],
        [
          0.8692768216133118,
          -0.10717678815126419,
          0.38873225450515747,
          0.2586083710193634,
          0.1762545257806778,
          0.7624945044517517,
          0.40737178921699524,
          -0.06765960156917572,
          -0.6680167317390442,
          0.7008200883865356,
          -0.4110562205314636,
          0.6625640988349915,
          0.03613639995455742,
          -0.7205142378807068,
          -0.38330212235450745,
          -0.3437096178531647
        ],
        [
          -0.010383957996964455,
          0.13387523591518402,
          -0.18930496275424957,
          0.01333845779299736,
          -0.03491148352622986,
          0.0717260092496872,
          -0.100128173828125,
          -0.10489291697740555,
          0.1474943459033966,
          -0.004441299010068178,
          0.045190878212451935,
          -0.14591462910175323,
          -0.04905376210808754,
          -0.005667183082550764,
          -0.02944856882095337,
          -0.07517661154270172
        ],
        [
          0.155847430229187,
          -0.10027041286230087,
          0.24845373630523682,
          -0.0504593551158905,
          0.00853164866566658,
          0.1296689212322235,
          0.06551524251699448,
          0.003229560097679496,
          0.1337909698486328,
          0.10930382460355759,
          -0.0045610577799379826,
          0.08271954953670502,
          -0.03395148739218712,
          -0.010012537240982056,
          -0.04347842186689377,
          0.06456156075000763
        ],
        [
          0.7560358643531799,
          -0.026468651369214058,
          0.28259944915771484,
          0.36316201090812683,
          0.009974616579711437,
          0.5471706986427307,
          0.5623196959495544,
          -0.14154815673828125,
          -0.5862423777580261,
          0.42522886395454407,
          -0.30771926045417786,
          0.9723401069641113,
          0.013956703245639801,
          -0.774093747138977,
          -0.2809887230396271,
          -0.21727882325649261
        ],
        [
          0.8575600385665894,
          -0.17351405322551727,
          0.15034261345863342,
          0.34541818499565125,
          -0.012887861579656601,
          0.5860971808433533,
          0.5064747929573059,
          0.01978742703795433,
          -0.8827122449874878,
          0.8432899713516235,
          -0.19863981008529663,
          1.1166908740997314,
          -0.19104890525341034,
          -0.9262929558753967,
          -0.09723851084709167,
          -0.3497505486011505
        ],
        [
          -0.10690271854400635,
          0.038531724363565445,
          0.07483617961406708,
          0.14360977709293365,
          0.15408094227313995,
          0.07506552338600159,
          -0.0525546595454216,
          0.24560782313346863,
          -0.08664661645889282,
          0.019805973395705223,
          0.024182943627238274,
          -0.0414876826107502,
          -0.11019130051136017,
          0.22302129864692688,
          0.2106013298034668,
          0.23841528594493866
        ],
        [
          0.4557438790798187,
          -0.022156335413455963,
          0.17508457601070404,
          0.24687325954437256,
          -0.13929657638072968,
          0.5809903144836426,
          0.40895429253578186,
          0.1437140703201294,
          -0.6476382613182068,
          0.40974920988082886,
          -0.4526453912258148,
          0.6954431533813477,
          0.10570309311151505,
          -0.3739318549633026,
          -0.1871352195739746,
          -0.27686458826065063
        ],
        [
          0.2043486088514328,
          0.09994533658027649,
          0.20245222747325897,
          -0.06916075944900513,
          -0.13368365168571472,
          0.18241950869560242,
          0.08912711590528488,
          0.0985267236828804,
          -0.3042562007904053,
          0.2184627205133438,
          -0.19745999574661255,
          0.0640101507306099,
          0.14984411001205444,
          -0.2792440354824066,
          -0.2145429104566574,
          0.07815719395875931
        ],
        [
          0.4086451232433319,
          -0.3056575059890747,
          0.2870887219905853,
          0.13057759404182434,
          -0.19305220246315002,
          0.5775747299194336,
          0.23693928122520447,
          0.008595306426286697,
          -0.3579752743244171,
          0.2643187344074249,
          -0.37191250920295715,
          0.5880334377288818,
          -0.03502768650650978,
          -0.34608224034309387,
          -0.11220899224281311,
          -0.010713820345699787
        ],
        [
          0.24642960727214813,
          0.13220524787902832,
          0.0901493951678276,
          0.30369290709495544,
          -0.0009944860357791185,
          0.27507296204566956,
          -0.005313772242516279,
          0.11657045036554337,
          -0.3219873607158661,
          0.17156264185905457,
          -0.08317966014146805,
          0.03654484078288078,
          -0.184078648686409,
          -0.2631482183933258,
          -0.11086591333150864,
          0.10533557832241058
        ]
      ],
      "biases": [
        -0.290061891078949,
        -0.1430286020040512,
        -0.23411627113819122,
        -0.4967612028121948,
        0.2280501425266266,
        -0.44456303119659424,
        -0.5471174716949463,
        0.23253056406974792,
        -0.18058991432189941,
        -0.5856093764305115,
        -0.5373575091362,
        0.1930447220802307,
        -0.42001625895500183,
        -0.1927042454481125,
        -0.19929610192775726,
        -0.1780017465353012
      ]
    },
    {
      "weights": [
        [
          -0.18126161396503448,
          -0.1646779477596283,
          -0.21388709545135498,
          -0.3908920884132385,
          0.18543009459972382,
          -0.43086355924606323,
          -0.44553640484809875,
          -0.08877730369567871,
          0.10567310452461243,
          -0.4621829390525818,
          -0.6115127801895142,
          0.12750795483589172,
          -0.20013032853603363,
          0.030143404379487038,
          -0.4447769820690155,
          -0.064239002764225
        ],
        [
          -0.46912139654159546,
          -0.32577767968177795,
          -0.49202606081962585,
          -0.21528847515583038,
          0.17743100225925446,
          -0.4354592263698578,
          -0.3939092457294464,
          -0.1676178127527237,
          0.05146893858909607,
          -0.23434554040431976,
          -0.6330941915512085,
          -0.09341892600059509,
          -0.22223131358623505,
          0.03972071409225464,
          -0.11824752390384674,
          -0.08898080140352249
        ],
        [
          -0.2883165776729584,
          -0.21246619522571564,
          -0.3106496334075928,
          -0.3960902988910675,
          0.03863367810845375,
          -0.30067917704582214,
          -0.4456624686717987,
          0.18600298464298248,
          -0.04864073544740677,
          -0.31085824966430664,
          -0.41976413130760193,
          -0.06900892406702042,
          -0.35233423113822937,
          -0.1773751974105835,
          -0.2705640494823456,
          -0.1226445659995079
        ],
        [
          -0.1469426453113556,
          -0.20611286163330078,
          -0.32584404945373535,
          -0.4301174581050873,
          0.09213900566101074,
          -0.5776188373565674,
          -0.5532852411270142,
          0.07056134194135666,
          0.2069169133901596,
          -0.5718689560890198,
          -0.6932551264762878,
          0.31266871094703674,
          -0.5034335851669312,
          -0.04450469836592674,
          -0.2306385040283203,
          -0.04450208693742752
        ],
        [
          -0.11453833431005478,
          -0.2632972300052643,
          -0.3081660866737366,
          -0.186181902885437,
          -0.14905580878257751,
          -0.08248870819807053,
          -0.1685304045677185,
          -0.24373170733451843,
          -0.2939138114452362,
          -0.18918700516223907,
          -0.14105160534381866,
          -0.3512841463088989,
          -0.07956435531377792,
          0.0075135743245482445,
          -0.1148962453007698,
          -0.1324598491191864
        ],
        [
          -0.1593388468027115,
          -0.08147981017827988,
          -0.36670395731925964,
          -0.5271297693252563,
          0.05286514759063721,
          -0.5557913184165955,
          -0.3200593888759613,
          0.2637311816215515,
          0.058317460119724274,
          -0.5800266265869141,
          -0.6149413585662842,
          0.1103152260184288,
          -0.502036988735199,
          -0.007067471276968718,
          -0.36626744270324707,
          0.11644275486469269
        ],
        [
          -0.21804550290107727,
          -0.2754153907299042,
          -0.3885771334171295,
          -0.2666873037815094,
          -0.019340045750141144,
          -0.30572131276130676,
          -0.47197225689888,
          -0.0026214709505438805,
          -0.06237741932272911,
          -0.4680609405040741,
          -0.4847373068332672,
          0.05272583290934563,
          -0.20803934335708618,
          -0.10002310574054718,
          -0.20261162519454956,
          -0.027148112654685974
        ],
        [
          -0.18983305990695953,
          -0.3757897913455963,
          -0.42715978622436523,
          -0.3852565586566925,
          0.07748069614171982,
          -0.5720317959785461,
          -0.6158591508865356,
          0.35672685503959656,
          -0.029388727620244026,
          -0.4756408929824829,
          -0.6834080815315247,
          0.01909051276743412,
          -0.15381258726119995,
          -0.05250058323144913,
          -0.010857447050511837,
          -0.05065058171749115
        ],
        [
          -0.40544721484184265,
          -0.47552627325057983,
          -0.219626322388649,
          -0.41274237632751465,
          -0.03066115640103817,
          -0.26281291246414185,
          -0.48370206356048584,
          -0.028028961271047592,
          -0.14045561850070953,
          -0.2321842759847641,
          -0.3405309021472931,
          -0.058054469525814056,
          -0.15014098584651947,
          0.007512753829360008,
          -0.4376774728298187,
          -0.12306628376245499
        ],
        [
          -0.3458441197872162,
          -0.21886511147022247,
          -0.4619099199771881,
          -0.3922711908817291,
          0.06307161599397659,
          -0.4243929088115692,
          -0.3010314702987671,
          -0.035125307738780975,
          -0.1128256767988205,
          -0.4117668569087982,
          -0.39368677139282227,
          -0.026272332295775414,
          -0.2714120149612427,
          -0.008007671684026718,
          -0.3796517550945282,
          0.012215719558298588
        ],
        [
          -0.4025786221027374,
          -0.15034188330173492,
          -0.2995935380458832,
          -0.32486042380332947,
          0.331134557723999,
          -0.598371148109436,
          -0.5090528130531311,
          0.3402440845966339,
          -0.07050890475511551,
          -0.5179030299186707,
          -0.8490874767303467,
          0.3437952697277069,
          -0.5306969285011292,
          -0.008742292411625385,
          -0.1263178288936615,
          -0.2749273180961609
        ],
        [
          -0.2747132182121277,
          -0.17658962309360504,
          -0.34073537588119507,
          -0.21845227479934692,
          0.17373494803905487,
          -0.474132239818573,
          -0.3980730473995209,
          0.03641647472977638,
          -0.02544521726667881,
          -0.5475285053253174,
          -0.5539842247962952,
          -0.030065489932894707,
          -0.24595504999160767,
          -0.0301563311368227,
          -0.2515926659107208,
          0.049671951681375504
        ],
        [
          -0.2583615183830261,
          -0.18267638981342316,
          -0.4416016638278961,
          -0.21515046060085297,
          -0.08505038172006607,
          -0.2992194592952728,
          -0.4413769841194153,
          -0.2005050927400589,
          -0.0012352087069302797,
          -0.5230944156646729,
          -0.29284724593162537,
          0.04152757674455643,
          -0.4194371700286865,
          -0.24121232330799103,
          -0.07137690484523773,
          -0.01304968073964119
        ],
        [
          -0.11928775161504745,
          -0.27308210730552673,
          -0.2834275960922241,
          -0.44404757022857666,
          0.26900380849838257,
          -0.5634525418281555,
          -0.6541324853897095,
          0.1572541892528534,
          -0.07164867967367172,
          -0.619229257106781,
          -0.50752854347229,
          0.26032766699790955,
          -0.46638697385787964,
          0.05214609205722809,
          -0.4252680838108063,
          -0.1499803364276886
        ],
        [
          -0.3993552029132843,
          -0.3059711158275604,
          -0.46593326330184937,
          -0.33309274911880493,
          0.1842283308506012,
          -0.7051699161529541,
          -0.7180439233779907,
          0.3805886209011078,
          0.2672432065010071,
          -0.47192615270614624,
          -0.7869067788124084,
          0.415474534034729,
          -0.475987046957016,
          -0.1328999400138855,
          -0.27916043996810913,
          0.11671106517314911
        ],
        [
          -0.4334588646888733,
          -0.40953996777534485,
          -0.22111764550209045,
          -0.1371932476758957,
          0.22117666900157928,
          -0.5837955474853516,
          -0.5107174515724182,
          0.2598390579223633,
          0.0640423521399498,
          -0.517290472984314,
          -0.45945507287979126,
          -0.11708103865385056,
          -0.2604033350944519,
          0.010106626898050308,
          -0.2819708585739136,
          -0.21536903083324432
        ]
      ],
      "biases": [
        -0.23296253383159637,
        -0.00022392833488993347,
        -0.1471547931432724,
        0.16269920766353607,
        -0.48700836300849915,
        0.03657999262213707,
        -0.20347607135772705,
        0.102540023624897,
        0.028251171112060547,
        0.022490546107292175,
        0.23858508467674255,
        -0.19598893821239471,
        -0.1400330662727356,
        0.3270188271999359,
        0.34910932183265686,
        0.08793497830629349
      ]
    },
    {
      "weights": [
        [
          0.9974830746650696,
          0.9674490094184875,
          0.9122004508972168,
          1.3944238424301147,
          0.14707839488983154,
          1.2593584060668945,
          0.903573215007782,
          1.2925175428390503,
          0.8334931135177612,
          0.9586792588233948,
          1.5152335166931152,
          1.0035195350646973,
          0.8050647974014282,
          1.3926626443862915,
          1.6851478815078735,
          1.1631790399551392
        ]
      ],
      "biases": [
        -3.760955333709717
      ]
    }
  ],
  "inputLookup": {
    "totalClouds[0]": 0,
    "lowClouds[0]": 1,
    "mediumClouds[0]": 2,
    "highClouds[0]": 3,
    "rainChance[0]": 4,
    "rainAmount[0]": 5,
    "windSpeed[0]": 6,
    "temperature[0]": 7,
    "totalClouds[1]": 8,
    "lowClouds[1]": 9,
    "mediumClouds[1]": 10,
    "highClouds[1]": 11,
    "rainChance[1]": 12,
    "rainAmount[1]": 13,
    "windSpeed[1]": 14,
    "temperature[1]": 15,
    "totalClouds[2]": 16,
    "lowClouds[2]": 17,
    "mediumClouds[2]": 18,
    "highClouds[2]": 19,
    "rainChance[2]": 20,
    "rainAmount[2]": 21,
    "windSpeed[2]": 22,
    "temperature[2]": 23,
    "totalClouds[3]": 24,
    "lowClouds[3]": 25,
    "mediumClouds[3]": 26,
    "highClouds[3]": 27,
    "rainChance[3]": 28,
    "rainAmount[3]": 29,
    "windSpeed[3]": 30,
    "temperature[3]": 31,
    "totalClouds[4]": 32,
    "lowClouds[4]": 33,
    "mediumClouds[4]": 34,
    "highClouds[4]": 35,
    "rainChance[4]": 36,
    "rainAmount[4]": 37,
    "windSpeed[4]": 38,
    "temperature[4]": 39,
    "exposureLength": 40
  },
  "inputLookupLength": 41,
  "outputLookup": {
    "totalImagingTime": 0
  },
  "outputLookupLength": 1,
  "options": {
    "inputSize": 0,
    "outputSize": 0,
    "binaryThresh": 0.5,
    "hiddenLayers": [
      16,
      16,
      16
    ]
  },
  "trainOpts": {
    "activation": "sigmoid",
    "iterations": 20000,
    "errorThresh": 0.005,
    "log": false,
    "logPeriod": 10,
    "leakyReluAlpha": 0.01,
    "learningRate": 0.3,
    "momentum": 0.1,
    "callbackPeriod": 10,
    "timeout": "Infinity",
    "beta1": 0.9,
    "beta2": 0.999,
    "epsilon": 1e-8
  }
}