{
  "type": "NeuralNetworkGPU",
  "sizes": [
    41,
    16,
    16,
    16,
    1
  ],
  "layers": [
    {
      "weights": [],
      "biases": []
    },
    {
      "weights": [
        [
          -0.28890398144721985,
          -0.7379307746887207,
          -0.16496595740318298,
          0.11668605357408524,
          -0.3200436234474182,
          0.1914055347442627,
          -0.16436685621738434,
          0.04312450811266899,
          -0.5498001575469971,
          -0.6783040761947632,
          -0.24587668478488922,
          0.09185254573822021,
          -0.4047362208366394,
          -0.057617995887994766,
          0.15814028680324554,
          0.1368180364370346,
          -0.3462332487106323,
          -0.16314925253391266,
          0.040241438895463943,
          0.23146726191043854,
          -0.24540433287620544,
          0.0456824004650116,
          0.03316443786025047,
          0.18473128974437714,
          -0.1505097597837448,
          -0.11935582011938095,
          0.12943296134471893,
          -0.06341520696878433,
          -0.3467510938644409,
          -0.17428457736968994,
          0.09256104379892349,
          0.20128951966762543,
          -0.2831363081932068,
          -0.2001107782125473,
          -0.13192416727542877,
          0.23661305010318756,
          -0.40839171409606934,
          -0.16545338928699493,
          -0.14681603014469147,
          -0.0008990548667497933,
          -0.40590667724609375
        ],
        [
          0.06795565783977509,
          -0.11963383108377457,
          0.05829385668039322,
          0.11879540979862213,
          -0.2621557414531708,
          0.1814384013414383,
          0.03420531377196312,
          -0.15608026087284088,
          -0.016314448788762093,
          -0.196808323264122,
          -0.20980218052864075,
          0.09841826558113098,
          0.13459134101867676,
          0.03860057517886162,
          -0.03484606742858887,
          0.11023328453302383,
          0.030434440821409225,
          0.08282723277807236,
          -0.07922540605068207,
          0.15231989324092865,
          -0.15697695314884186,
          -0.01502997800707817,
          0.11257031559944153,
          0.15178249776363373,
          0.06265344470739365,
          -0.11414039880037308,
          -0.009523606859147549,
          -0.17287681996822357,
          -0.20973357558250427,
          0.0981665551662445,
          0.04703908413648605,
          0.0451158806681633,
          -0.10154090076684952,
          -0.13171568512916565,
          -0.09531647711992264,
          -0.1597587615251541,
          -0.08869697898626328,
          0.013109525665640831,
          0.1672235131263733,
          -0.15365980565547943,
          0.026056602597236633
        ],
        [
          -0.05874911695718765,
          -0.005544582381844521,
          -0.15485608577728271,
          0.038270823657512665,
          0.0931590348482132,
          0.16237947344779968,
          -0.18960760533809662,
          -0.15767356753349304,
          -0.04615894705057144,
          -0.11069165915250778,
          0.009753742255270481,
          -0.018746236339211464,
          -0.16792047023773193,
          0.14957880973815918,
          -0.15953011810779572,
          0.12716224789619446,
          -0.1255020946264267,
          -0.1788543462753296,
          0.003612091299146414,
          -0.2056570053100586,
          -0.12531274557113647,
          -0.04890797287225723,
          0.04869933798909187,
          0.01732567325234413,
          -0.07954215258359909,
          -0.13057571649551392,
          -0.07039819657802582,
          0.019433800131082535,
          -0.02599906362593174,
          -0.13177737593650818,
          0.08921484649181366,
          0.07371043413877487,
          -0.05707424506545067,
          0.07190519571304321,
          -0.20226766169071198,
          -0.08007856458425522,
          0.10105814039707184,
          -0.17112523317337036,
          -0.167555034160614,
          0.09933651238679886,
          -0.1763066202402115
        ],
        [
          -0.26950809359550476,
          -0.7497633695602417,
          -0.05033625662326813,
          0.15210571885108948,
          -0.43800848722457886,
          0.05583186820149422,
          0.03639854118227959,
          -0.0007474634912796319,
          -0.5562604069709778,
          -0.6159895062446594,
          -0.13296760618686676,
          0.12432531267404556,
          -0.4538303315639496,
          0.03150032088160515,
          0.12480367720127106,
          0.23265299201011658,
          -0.3888183534145355,
          0.11874744296073914,
          0.15717825293540955,
          0.2369672954082489,
          -0.41779568791389465,
          0.14629089832305908,
          0.08533741533756256,
          0.26068297028541565,
          -0.33817777037620544,
          -0.034518055617809296,
          -0.045588936656713486,
          -0.06868448108434677,
          -0.4655873477458954,
          -0.15218409895896912,
          -0.055388886481523514,
          0.2302035093307495,
          -0.08250794559717178,
          0.15954819321632385,
          -0.019689209759235382,
          0.17926958203315735,
          -0.2619961202144623,
          -0.011889992281794548,
          0.18184593319892883,
          -0.04816044494509697,
          -0.4617927372455597
        ],
        [
          -0.30568742752075195,
          -0.8135912418365479,
          -0.04069359228014946,
          0.2664058208465576,
          -0.2711915969848633,
          -0.021648187190294266,
          -0.114682137966156,
          0.2525903880596161,
          -0.5771744847297668,
          -0.7774695158004761,
          0.0022236392833292484,
          -0.029770145192742348,
          -0.47932857275009155,
          -0.05304306000471115,
          0.18378591537475586,
          0.0842646136879921,
          -0.47720474004745483,
          -0.04298117384314537,
          -0.13318641483783722,
          -0.02273350954055786,
          -0.37873101234436035,
          -0.1819937378168106,
          0.16930466890335083,
          0.10777013748884201,
          -0.4009247422218323,
          -0.172659769654274,
          -0.21270501613616943,
          0.11490198224782944,
          -0.4187832474708557,
          -0.11478835344314575,
          0.01969759352505207,
          0.18789160251617432,
          -0.24779969453811646,
          -0.1463250070810318,
          0.10498069226741791,
          -0.03341978043317795,
          -0.45163148641586304,
          0.009824502281844616,
          -0.061385877430438995,
          0.14714425802230835,
          -0.48355069756507874
        ],
        [
          0.2636762261390686,
          0.25216197967529297,
          0.040317658334970474,
          -0.2393990159034729,
          0.054555851966142654,
          0.084699347615242,
          0.10272534936666489,
          -0.14581438899040222,
          0.28551942110061646,
          0.3094799220561981,
          -0.08503062278032303,
          -0.07870589941740036,
          0.08339184522628784,
          -0.07497767359018326,
          0.09113144129514694,
          -0.16037382185459137,
          0.2521628737449646,
          0.023864619433879852,
          0.15447205305099487,
          0.12022404372692108,
          -0.06209864839911461,
          -0.09832974523305893,
          0.08159743249416351,
          0.16710059344768524,
          0.2604967951774597,
          0.03609349578619003,
          0.02348259463906288,
          -0.13755129277706146,
          0.104823037981987,
          0.06816030293703079,
          0.19079676270484924,
          -0.1753949373960495,
          -0.02277609333395958,
          -0.05585569515824318,
          0.019676227122545242,
          0.1613503247499466,
          -0.02556869201362133,
          -0.19209368526935577,
          0.09135375171899796,
          0.17085565626621246,
          0.008354072459042072
        ],
        [
          0.2720835208892822,
          0.40916088223457336,
          -0.2141730636358261,
          -0.30299052596092224,
          0.31354349851608276,
          0.15906186401844025,
          -0.13242314755916595,
          -0.08746505528688431,
          0.24797967076301575,
          0.5630316734313965,
          0.13753120601177216,
          0.04121233895421028,
          0.15608875453472137,
          -0.022952958941459656,
          0.1260104775428772,
          0.03426652029156685,
          0.24161086976528168,
          -0.1489384025335312,
          0.09431376308202744,
          -0.11829211562871933,
          0.2363395243883133,
          -0.09216903150081635,
          0.07673956453800201,
          -0.08977030962705612,
          0.2165387123823166,
          0.07832857966423035,
          0.16347984969615936,
          0.03733481094241142,
          0.3152766227722168,
          0.16041435301303864,
          0.09572509676218033,
          -0.25310537219047546,
          0.4223259687423706,
          0.005767907481640577,
          0.008089595474302769,
          0.040696125477552414,
          0.2972373962402344,
          0.11252287030220032,
          0.0827515497803688,
          -0.18535976111888885,
          0.38153353333473206
        ],
        [
          0.36966150999069214,
          0.7006720304489136,
          -0.2190888673067093,
          -0.35822296142578125,
          0.5093543529510498,
          0.06649412214756012,
          -0.03167382627725601,
          -0.29143810272216797,
          0.6813629865646362,
          0.8920177817344666,
          -0.06860282272100449,
          0.15308541059494019,
          0.49355804920196533,
          -0.12446318566799164,
          0.19172318279743195,
          -0.23828843235969543,
          0.5083688497543335,
          -0.11284209787845612,
          -0.052096374332904816,
          0.002545180730521679,
          0.44258278608322144,
          0.022096367552876472,
          -0.11670336127281189,
          0.021265802904963493,
          0.45114248991012573,
          0.18297666311264038,
          -0.09809297323226929,
          -0.26137372851371765,
          0.2004794478416443,
          -0.18960514664649963,
          0.06935128569602966,
          -0.2156059741973877,
          0.39123082160949707,
          0.18365564942359924,
          0.005735283717513084,
          -0.2750798761844635,
          0.28404122591018677,
          0.031222820281982422,
          -0.10117064416408539,
          0.04293730854988098,
          0.2628328204154968
        ],
        [
          -0.2419048398733139,
          -0.3738824129104614,
          0.049919791519641876,
          -0.02201090380549431,
          -0.1794571429491043,
          0.1668456494808197,
          -0.11822763830423355,
          0.055505480617284775,
          -0.2766346335411072,
          -0.5006728768348694,
          0.0997232124209404,
          0.13602742552757263,
          -0.29840826988220215,
          0.05019440874457359,
          0.022615091875195503,
          -0.041382163763046265,
          -0.3732483983039856,
          0.1510118693113327,
          -0.01763044483959675,
          -0.05705704540014267,
          -0.35941940546035767,
          0.07782681286334991,
          -0.05856402963399887,
          0.16198097169399261,
          -0.0354432612657547,
          -0.09387869387865067,
          0.050037361681461334,
          0.21830616891384125,
          -0.2843101918697357,
          -0.09345070272684097,
          -0.17607688903808594,
          -0.05481909215450287,
          -0.07607752829790115,
          0.1438947170972824,
          -0.0013479456538334489,
          0.054352015256881714,
          -0.15212097764015198,
          0.15050654113292694,
          0.06521392613649368,
          0.034147389233112335,
          -0.3335718512535095
        ],
        [
          -0.38181552290916443,
          -0.6678632497787476,
          -0.06618762016296387,
          0.3699043095111847,
          -0.5517124533653259,
          -0.16978676617145538,
          0.02850865200161934,
          0.18604952096939087,
          -0.7899319529533386,
          -0.8892152905464172,
          0.037214938551187515,
          0.021771356463432312,
          -0.3587696850299835,
          -0.01147676445543766,
          0.01629886031150818,
          -0.027048645541071892,
          -0.43021929264068604,
          0.1955014169216156,
          0.09379801899194717,
          0.11436459422111511,
          -0.36510899662971497,
          -0.19468149542808533,
          0.1230861097574234,
          0.29796892404556274,
          -0.4811263084411621,
          -0.17540650069713593,
          0.12823472917079926,
          0.11797747015953064,
          -0.5296574234962463,
          -0.07347570359706879,
          0.17353348433971405,
          0.14979860186576843,
          -0.22689107060432434,
          -0.1196880117058754,
          -0.15338797867298126,
          0.2998100519180298,
          -0.4635229706764221,
          0.09044861793518066,
          0.06967217475175858,
          0.0712587982416153,
          -0.20674565434455872
        ],
        [
          -0.15350185334682465,
          -0.04469820857048035,
          0.06856261193752289,
          0.15496425330638885,
          -0.01655689813196659,
          -0.00895524863153696,
          0.12119352072477341,
          -0.12993255257606506,
          -0.1782291680574417,
          0.14810848236083984,
          -0.047557346522808075,
          -0.19589902460575104,
          -0.14077270030975342,
          0.09185721725225449,
          -0.12148664891719818,
          -0.145398810505867,
          0.0981522649526596,
          -0.13291966915130615,
          -0.07755578309297562,
          0.009685281664133072,
          0.13950155675411224,
          -0.05114137381315231,
          -0.17228935658931732,
          0.09645923972129822,
          0.13192179799079895,
          0.031837522983551025,
          0.15110793709754944,
          -0.16048885881900787,
          -0.02192871831357479,
          0.06291242688894272,
          0.08422408998012543,
          -0.05751935765147209,
          -0.11567042768001556,
          0.1630401909351349,
          -0.027139700949192047,
          0.0740351676940918,
          -0.2189912647008896,
          -0.14708246290683746,
          -0.17432595789432526,
          -0.19620727002620697,
          0.10807351768016815
        ],
        [
          -0.023594984784722328,
          0.4162926971912384,
          -0.1924290806055069,
          -0.1338125616312027,
          0.3883468210697174,
          0.09165544807910919,
          -0.033803071826696396,
          -0.18682271242141724,
          0.62738037109375,
          0.6290701627731323,
          0.23653821647167206,
          -0.10039088875055313,
          0.30654460191726685,
          -0.16228075325489044,
          0.023473594337701797,
          0.0071336994878947735,
          0.4205823838710785,
          -0.12431230396032333,
          -0.008868163451552391,
          -0.15346649289131165,
          0.15038235485553741,
          0.15689067542552948,
          0.19975464046001434,
          -0.056232303380966187,
          0.11566157639026642,
          0.15809454023838043,
          0.14027900993824005,
          -0.015670031309127808,
          0.32359999418258667,
          0.11730621755123138,
          0.0666595846414566,
          -0.01865236647427082,
          0.2265576869249344,
          -0.14221711456775665,
          0.09362824261188507,
          -0.09398974478244781,
          0.42958566546440125,
          -0.13414007425308228,
          -0.15586553514003754,
          -0.08447276055812836,
          0.07378803193569183
        ],
        [
          -0.18770776689052582,
          -0.06973734498023987,
          0.14495868980884552,
          -0.08073869347572327,
          0.05131125450134277,
          0.06467719376087189,
          0.15520405769348145,
          0.03323844447731972,
          0.07414066791534424,
          -0.1948108822107315,
          -0.033001646399497986,
          -0.053333766758441925,
          -0.20128054916858673,
          -0.04499785602092743,
          -0.007503750268369913,
          -0.07925072312355042,
          -0.06587836891412735,
          -0.04322849214076996,
          -0.11718568205833435,
          0.17987681925296783,
          -0.08090461045503616,
          -0.12247934192419052,
          -0.18606042861938477,
          0.013350456021726131,
          -0.11593712121248245,
          -0.04923767223954201,
          0.1937098503112793,
          0.012141126208007336,
          0.12830674648284912,
          0.17842243611812592,
          -0.06338624656200409,
          0.09780888259410858,
          -0.010964229702949524,
          -0.029711095616221428,
          0.02554805390536785,
          0.06336511671543121,
          -0.016376813873648643,
          -0.11250174790620804,
          0.11697471886873245,
          -0.12642015516757965,
          -0.014257844537496567
        ],
        [
          -0.006925079505890608,
          -0.5128756165504456,
          0.20278742909431458,
          0.038799408823251724,
          -0.40553975105285645,
          0.18653203547000885,
          0.04321102425456047,
          0.21473807096481323,
          -0.4175197184085846,
          -0.6107916831970215,
          -0.04626317694783211,
          -0.2002285122871399,
          -0.09450352191925049,
          -0.020369291305541992,
          -0.18027837574481964,
          0.12704135477542877,
          -0.20536430180072784,
          0.16373313963413239,
          -0.08862723410129547,
          -0.02560647577047348,
          -0.4176620841026306,
          -0.16131819784641266,
          -0.19473515450954437,
          0.14782314002513885,
          -0.10014226287603378,
          0.1904842108488083,
          -0.12464208900928497,
          -0.004923811182379723,
          -0.1503036618232727,
          0.14833207428455353,
          -0.13247057795524597,
          0.02092745527625084,
          -0.3783201575279236,
          0.12443317472934723,
          0.09029151499271393,
          0.04215986281633377,
          -0.12537884712219238,
          -0.052126701921224594,
          0.05791294947266579,
          0.19215421378612518,
          -0.23704573512077332
        ],
        [
          0.30496054887771606,
          0.3862364888191223,
          -0.15053509175777435,
          0.05407123267650604,
          0.13631951808929443,
          -0.014656773768365383,
          -0.0775180533528328,
          -0.15857355296611786,
          0.33822253346443176,
          0.22417837381362915,
          0.24523328244686127,
          -0.03940068185329437,
          0.27157679200172424,
          -0.18017302453517914,
          -0.10814248770475388,
          0.027470754459500313,
          0.05260201171040535,
          -0.050825756043195724,
          -0.14485794305801392,
          -0.06462979316711426,
          0.26045557856559753,
          0.14171184599399567,
          -0.08199461549520493,
          -0.05884232744574547,
          0.3396388292312622,
          -0.020208198577165604,
          -0.038520850241184235,
          0.03905260190367699,
          0.10174347460269928,
          0.012319718487560749,
          0.15552695095539093,
          -0.20249025523662567,
          0.03958766162395477,
          -0.09416019916534424,
          -0.10853584110736847,
          -0.14734871685504913,
          0.24545209109783173,
          -0.08887434005737305,
          0.1547793596982956,
          -0.010756133124232292,
          0.10828272998332977
        ],
        [
          -0.11245547235012054,
          0.22604070603847504,
          0.14901983737945557,
          -0.005125739146023989,
          0.36268484592437744,
          -0.19491082429885864,
          -0.0003887433558702469,
          0.08804110437631607,
          0.007305705454200506,
          0.29064297676086426,
          0.06616033613681793,
          -0.06751829385757446,
          0.0017377367476001382,
          0.1597634106874466,
          -0.18496449291706085,
          -0.15295323729515076,
          0.06491925567388535,
          -0.11509791016578674,
          0.07964573055505753,
          -0.056605264544487,
          0.01085679605603218,
          0.010066061280667782,
          0.14203858375549316,
          -0.1387980580329895,
          0.1620740294456482,
          0.1548323631286621,
          -0.0688771978020668,
          -0.05891859531402588,
          0.12509073317050934,
          -0.0285060852766037,
          -0.09708588570356369,
          0.030898328870534897,
          -0.04081893712282181,
          0.028864188119769096,
          0.11620433628559113,
          0.08732625842094421,
          -0.045210231095552444,
          -0.189009889960289,
          0.06962469965219498,
          0.17156371474266052,
          0.30234476923942566
        ]
      ],
      "biases": [
        0.07682904601097107,
        -0.060896631330251694,
        -0.10209841281175613,
        0.023063061758875847,
        0.25358453392982483,
        -0.1955205202102661,
        -0.021811384707689285,
        -0.01463313214480877,
        0.044624730944633484,
        0.036058459430933,
        0.15249601006507874,
        -0.11683973670005798,
        -0.189686581492424,
        -0.018642324954271317,
        0.11273453384637833,
        -0.15577560663223267
      ]
    },
    {
      "weights": [
        [
          -0.24868467450141907,
          0.08581764996051788,
          -0.12988589704036713,
          -0.4730214476585388,
          -0.1934002786874771,
          0.051532771438360214,
          0.38616180419921875,
          0.16761185228824615,
          -0.27811285853385925,
          -0.42816469073295593,
          0.18770839273929596,
          0.08585137128829956,
          -0.012099800631403923,
          -0.1864243745803833,
          -0.06699120998382568,
          -0.07940740138292313
        ],
        [
          -0.38819462060928345,
          0.11960384994745255,
          0.029423927888274193,
          -0.30281776189804077,
          -0.466394305229187,
          0.11211539059877396,
          0.013618463650345802,
          0.37924855947494507,
          -0.33976683020591736,
          -0.3169964551925659,
          -0.2099856436252594,
          0.031331777572631836,
          -0.0021732260938733816,
          -0.4378509819507599,
          0.10009529441595078,
          0.20761698484420776
        ],
        [
          -0.46103551983833313,
          -0.1542462259531021,
          -0.03997170180082321,
          -0.41467005014419556,
          -0.6849053502082825,
          0.240464985370636,
          0.4743427634239197,
          0.4778125584125519,
          -0.32711803913116455,
          -0.7196775674819946,
          -0.10179299116134644,
          0.4878256618976593,
          -0.07250849157571793,
          -0.45135003328323364,
          0.06475830078125,
          0.09769885241985321
        ],
        [
          -0.0789027288556099,
          0.17050175368785858,
          -0.02638750709593296,
          0.0476844348013401,
          0.11171664297580719,
          0.18121907114982605,
          0.11267226934432983,
          0.11537831276655197,
          0.092979796230793,
          -0.16968673467636108,
          0.1697414219379425,
          0.030798258259892464,
          -0.028453681617975235,
          0.03944014757871628,
          0.0636807456612587,
          0.17688186466693878
        ],
        [
          -0.009839257225394249,
          -0.16263222694396973,
          -0.08786310255527496,
          -0.06575845181941986,
          0.007499804720282555,
          0.03104000724852085,
          0.022901365533471107,
          0.1556822508573532,
          -0.22553028166294098,
          -0.2803753912448883,
          -0.16776369512081146,
          0.016008280217647552,
          -0.14805245399475098,
          -0.13435521721839905,
          0.027346637099981308,
          0.18136808276176453
        ],
        [
          -0.8435136079788208,
          -0.13956016302108765,
          -0.0985085517168045,
          -0.7660296559333801,
          -0.9536928534507751,
          0.41617223620414734,
          0.4546588361263275,
          0.9683478474617004,
          -0.42191895842552185,
          -0.9323225617408752,
          0.13888898491859436,
          0.7730808258056641,
          -0.03509117290377617,
          -0.6541231870651245,
          0.5067213177680969,
          0.12280400842428207
        ],
        [
          -0.6933034658432007,
          -0.1756078153848648,
          -0.13272812962532043,
          -0.46693339943885803,
          -0.4840375483036041,
          0.0768609270453453,
          0.4085239768028259,
          0.48462602496147156,
          -0.4051666557788849,
          -0.5870962738990784,
          0.09707211703062057,
          0.31316837668418884,
          0.05748096853494644,
          -0.3095000386238098,
          0.24855653941631317,
          0.19981695711612701
        ],
        [
          -0.2292059361934662,
          -0.08004111051559448,
          -0.1008148118853569,
          -0.39983561635017395,
          -0.4060237407684326,
          -0.10487660020589828,
          0.3807050883769989,
          0.2916223108768463,
          -0.025174103677272797,
          -0.2757008671760559,
          -0.06098379194736481,
          0.1035805493593216,
          -0.1464129388332367,
          -0.03720521181821823,
          0.032174549996852875,
          -0.014646276831626892
        ],
        [
          0.08021393418312073,
          -0.009660694748163223,
          -0.1635352224111557,
          0.0923091322183609,
          -0.13326841592788696,
          0.2391478419303894,
          0.2734749913215637,
          0.04685322195291519,
          -0.03039325587451458,
          -0.19716410338878632,
          -0.09829757362604141,
          0.02348194271326065,
          -0.048065993934869766,
          0.020310672000050545,
          0.06897447258234024,
          -0.022610239684581757
        ],
        [
          -0.30142664909362793,
          -0.27155983448028564,
          0.13283243775367737,
          -0.6592631340026855,
          -0.34557852149009705,
          0.18860353529453278,
          0.36104676127433777,
          0.6349291205406189,
          -0.20149925351142883,
          -0.6887387037277222,
          -0.20960478484630585,
          0.2916613519191742,
          -0.20332074165344238,
          -0.3509604036808014,
          0.3575240671634674,
          0.14533495903015137
        ],
        [
          -0.010794077068567276,
          -0.01647055894136429,
          -0.2006009817123413,
          -0.20025411248207092,
          -0.02547166310250759,
          0.18780137598514557,
          0.19250072538852692,
          0.35898786783218384,
          -0.17263047397136688,
          -0.11341878771781921,
          -0.19711507856845856,
          0.01731801964342594,
          0.10854187607765198,
          -0.014871698804199696,
          -0.08551821112632751,
          0.05371338874101639
        ],
        [
          0.013375379145145416,
          -0.022244440391659737,
          -0.10395308583974838,
          -0.02512655407190323,
          -0.30071577429771423,
          -0.009568873792886734,
          0.13592451810836792,
          0.31661078333854675,
          -0.053658951073884964,
          -0.2795287072658539,
          0.10770174115896225,
          0.20699426531791687,
          -0.13999274373054504,
          -0.05146832764148712,
          0.05774634703993797,
          0.13535594940185547
        ],
        [
          -0.19797439873218536,
          0.03260405361652374,
          -0.17195364832878113,
          0.020703859627246857,
          -0.02277073636651039,
          0.0889059528708458,
          0.014540526084601879,
          -0.10096761584281921,
          0.16702885925769806,
          0.1137014776468277,
          -0.04314775764942169,
          -0.12799054384231567,
          0.19229917228221893,
          0.13113988935947418,
          -0.16018766164779663,
          -0.10894183814525604
        ],
        [
          -0.7613508105278015,
          -0.1802978515625,
          -0.012047064490616322,
          -0.4661236107349396,
          -0.8025804758071899,
          0.1632571518421173,
          0.6746262907981873,
          0.8215482831001282,
          -0.5061141848564148,
          -0.7916635274887085,
          -0.1304139941930771,
          0.44527724385261536,
          -0.22260038554668427,
          -0.38035011291503906,
          0.1726161241531372,
          0.2175045907497406
        ],
        [
          -0.6074001789093018,
          0.06631466001272202,
          -0.16144271194934845,
          -0.8464717864990234,
          -0.8748759031295776,
          0.23701442778110504,
          0.4419540464878082,
          0.899071991443634,
          -0.5134216547012329,
          -0.9342231154441833,
          -0.019917311146855354,
          0.6128408908843994,
          0.09468996524810791,
          -0.444484144449234,
          0.47738733887672424,
          0.20625028014183044
        ],
        [
          -0.4980195164680481,
          -0.143621563911438,
          -0.049689505249261856,
          -0.6715570092201233,
          -0.6037501096725464,
          0.014624700881540775,
          0.3919018805027008,
          0.7670235633850098,
          -0.12332821637392044,
          -0.6598356366157532,
          -0.03213352710008621,
          0.5776511430740356,
          -0.021395210176706314,
          -0.44320693612098694,
          0.31003573536872864,
          0.08024045825004578
        ]
      ],
      "biases": [
        -0.17584936320781708,
        0.1302088350057602,
        0.1270410716533661,
        0.12038838863372803,
        0.10428016632795334,
        0.14565423130989075,
        0.06392376124858856,
        -0.15859849750995636,
        -0.137901172041893,
        -0.16758103668689728,
        0.10965919494628906,
        -0.16644270718097687,
        0.02676846645772457,
        0.21711626648902893,
        0.09054649621248245,
        -0.11490314453840256
      ]
    },
    {
      "weights": [
        [
          0.002551257610321045,
          -0.16020795702934265,
          -0.30870556831359863,
          -0.11589187383651733,
          -0.07978561520576477,
          -0.29427725076675415,
          -0.25326046347618103,
          -0.29448577761650085,
          -0.2152765989303589,
          -0.018489357084035873,
          -0.1363685429096222,
          -0.3329513967037201,
          0.06901203840970993,
          -0.28504419326782227,
          -0.23842324316501617,
          -0.09491560608148575
        ],
        [
          -0.21761909127235413,
          -0.27173352241516113,
          -0.27254870533943176,
          0.023951565846800804,
          -0.04712551832199097,
          -0.6079638004302979,
          -0.3582637906074524,
          -0.23400673270225525,
          -0.2155969738960266,
          -0.1398034691810608,
          0.03898567333817482,
          0.032347310334444046,
          -0.03982791304588318,
          -0.4236097037792206,
          -0.37355130910873413,
          -0.4245809018611908
        ],
        [
          -0.17383159697055817,
          -0.21085992455482483,
          -0.11417140066623688,
          -0.22570431232452393,
          0.06337287276983261,
          -0.3150521516799927,
          -0.23210473358631134,
          -0.2616482079029083,
          -0.07908831536769867,
          -0.18920861184597015,
          -0.08485844731330872,
          -0.21199947595596313,
          -0.002782338997349143,
          -0.4433453381061554,
          -0.5728872418403625,
          -0.4840110242366791
        ],
        [
          -0.15160973370075226,
          -0.12214845418930054,
          -0.2523711919784546,
          -0.10946647077798843,
          -0.21010203659534454,
          -0.5294237732887268,
          -0.4399169683456421,
          -0.17912942171096802,
          0.05669202655553818,
          -0.21370165050029755,
          -0.07400529831647873,
          -0.1989186555147171,
          0.03394231200218201,
          -0.324640691280365,
          -0.49641481041908264,
          -0.4661044776439667
        ],
        [
          0.030911985784769058,
          -0.09177841991186142,
          -0.3301314413547516,
          -0.17791347205638885,
          -0.1067236140370369,
          -0.43075206875801086,
          -0.4537662863731384,
          -0.19052201509475708,
          -0.04249836876988411,
          -0.3474693298339844,
          -0.18440499901771545,
          0.04865783825516701,
          0.09367772191762924,
          -0.19836728274822235,
          -0.5334511399269104,
          -0.3386078476905823
        ],
        [
          -0.3619195818901062,
          -0.054738081991672516,
          -0.23587854206562042,
          -0.08090519905090332,
          0.023744437843561172,
          -0.5868188738822937,
          -0.45328813791275024,
          -0.1555488109588623,
          -0.1223941370844841,
          -0.2263476401567459,
          0.019107749685645103,
          -0.11021486669778824,
          0.1016819179058075,
          -0.5685038566589355,
          -0.3940684497356415,
          -0.5055184960365295
        ],
        [
          0.0022811724338680506,
          -0.26718464493751526,
          -0.6534821391105652,
          0.4387149214744568,
          -0.0037613967433571815,
          -1.0266259908676147,
          -0.48855331540107727,
          -0.009457074105739594,
          0.21554680168628693,
          -0.5857480764389038,
          0.13755950331687927,
          0.08318410813808441,
          0.40202826261520386,
          -0.8259468078613281,
          -0.9246528744697571,
          -0.6402751803398132
        ],
        [
          -0.24091699719429016,
          -0.18772627413272858,
          -0.509173572063446,
          -0.1298052966594696,
          -0.07862377166748047,
          -0.5778765678405762,
          -0.36106106638908386,
          -0.17188677191734314,
          0.0012761035468429327,
          -0.15998515486717224,
          -0.11615990102291107,
          -0.010511933825910091,
          0.004482585936784744,
          -0.5548121333122253,
          -0.3502658009529114,
          -0.4562351405620575
        ],
        [
          -0.2357189655303955,
          -0.1250522881746292,
          -0.344411164522171,
          -0.29609885811805725,
          -0.17500633001327515,
          -0.3828466534614563,
          -0.37122994661331177,
          -0.08803097903728485,
          -0.2434983104467392,
          0.024764206260442734,
          -0.2054322361946106,
          -0.30533599853515625,
          -0.1822032779455185,
          -0.12370621412992477,
          -0.4120617210865021,
          -0.12654611468315125
        ],
        [
          -0.2978481948375702,
          -0.08182449638843536,
          -0.48465222120285034,
          0.2478225976228714,
          0.05327986553311348,
          -0.8470168113708496,
          -0.16924796998500824,
          -0.3008546233177185,
          0.17554613947868347,
          -0.3428598642349243,
          -0.03357398882508278,
          -0.013440662063658237,
          0.049868788570165634,
          -0.649383008480072,
          -0.6710859537124634,
          -0.3664760887622833
        ],
        [
          -0.28394967317581177,
          -0.35798928141593933,
          -0.25895097851753235,
          0.03053767792880535,
          -0.09464156627655029,
          -0.7046683430671692,
          -0.1921168863773346,
          -0.09540791064500809,
          -0.03179784119129181,
          -0.5235442519187927,
          -0.03529393672943115,
          -0.07434039562940598,
          0.17562071979045868,
          -0.3186459243297577,
          -0.7284022569656372,
          -0.296475887298584
        ],
        [
          -0.27221375703811646,
          -0.2707603871822357,
          -0.5170128345489502,
          0.2851099967956543,
          -0.08773528039455414,
          -0.8395155668258667,
          -0.40531057119369507,
          -0.18135683238506317,
          0.17610934376716614,
          -0.23139441013336182,
          -0.04766816273331642,
          -0.14914385974407196,
          0.147604301571846,
          -0.6071337461471558,
          -0.7855225801467896,
          -0.3621557950973511
        ],
        [
          -0.2317550778388977,
          -0.07173572480678558,
          -0.220323383808136,
          -0.24347138404846191,
          -0.22138406336307526,
          -0.30392149090766907,
          -0.4040408432483673,
          -0.2246587723493576,
          -0.18516452610492706,
          -0.23707367479801178,
          -0.023636218160390854,
          -0.24077679216861725,
          0.056172896176576614,
          -0.1868041306734085,
          -0.5029877424240112,
          -0.16838125884532928
        ],
        [
          -0.1262063980102539,
          -0.04466823861002922,
          -0.11832910031080246,
          -0.13913759589195251,
          -0.08754934370517731,
          -0.23303259909152985,
          -0.09675004333257675,
          -0.025454241782426834,
          -0.2434287965297699,
          -0.2724502682685852,
          -0.3536708652973175,
          -0.3260814845561981,
          -0.2013312727212906,
          -0.399148166179657,
          -0.5488038063049316,
          -0.16086749732494354
        ],
        [
          -0.03828715160489082,
          -0.23863226175308228,
          -0.29109859466552734,
          0.07295755296945572,
          0.15288978815078735,
          -0.7581954002380371,
          -0.36648428440093994,
          -0.1815294325351715,
          0.0429462268948555,
          -0.4762301743030548,
          0.11971031874418259,
          -0.011957996524870396,
          0.1887543499469757,
          -0.6081777215003967,
          -0.6219996213912964,
          -0.5530206561088562
        ],
        [
          0.037082917988300323,
          -0.23945128917694092,
          -0.39484265446662903,
          -0.07450465857982635,
          0.08866391330957413,
          -0.7228883504867554,
          -0.43950846791267395,
          -0.1486022025346756,
          -0.05284714698791504,
          -0.502764105796814,
          -0.08486022800207138,
          0.034627679735422134,
          -0.10373508185148239,
          -0.4863620698451996,
          -0.4761348068714142,
          -0.447298139333725
        ]
      ],
      "biases": [
        -0.38747766613960266,
        -0.2400982677936554,
        -0.2509423792362213,
        -0.11153518408536911,
        -0.27897772192955017,
        -0.08833342790603638,
        0.4767554998397827,
        0.032430343329906464,
        0.0022506683599203825,
        0.011041560210287571,
        0.009554133750498295,
        0.31626564264297485,
        -0.14641790091991425,
        -0.1909763664007187,
        -0.03580935299396515,
        0.16709522902965546
      ]
    },
    {
      "weights": [
        [
          0.2721794843673706,
          0.8141276836395264,
          0.7292730808258057,
          0.842573881149292,
          0.6632843017578125,
          0.9812245965003967,
          2.010082960128784,
          0.9650591611862183,
          0.3748173713684082,
          1.339888572692871,
          1.0928245782852173,
          1.452706217765808,
          0.4837154150009155,
          0.4305584728717804,
          1.3117477893829346,
          1.133891224861145
        ]
      ],
      "biases": [
        -3.239008903503418
      ]
    }
  ],
  "inputLookup": {
    "totalClouds[0]": 0,
    "lowClouds[0]": 1,
    "mediumClouds[0]": 2,
    "highClouds[0]": 3,
    "rainChance[0]": 4,
    "rainAmount[0]": 5,
    "windSpeed[0]": 6,
    "temperature[0]": 7,
    "totalClouds[1]": 8,
    "lowClouds[1]": 9,
    "mediumClouds[1]": 10,
    "highClouds[1]": 11,
    "rainChance[1]": 12,
    "rainAmount[1]": 13,
    "windSpeed[1]": 14,
    "temperature[1]": 15,
    "totalClouds[2]": 16,
    "lowClouds[2]": 17,
    "mediumClouds[2]": 18,
    "highClouds[2]": 19,
    "rainChance[2]": 20,
    "rainAmount[2]": 21,
    "windSpeed[2]": 22,
    "temperature[2]": 23,
    "totalClouds[3]": 24,
    "lowClouds[3]": 25,
    "mediumClouds[3]": 26,
    "highClouds[3]": 27,
    "rainChance[3]": 28,
    "rainAmount[3]": 29,
    "windSpeed[3]": 30,
    "temperature[3]": 31,
    "totalClouds[4]": 32,
    "lowClouds[4]": 33,
    "mediumClouds[4]": 34,
    "highClouds[4]": 35,
    "rainChance[4]": 36,
    "rainAmount[4]": 37,
    "windSpeed[4]": 38,
    "temperature[4]": 39,
    "exposureLength": 40
  },
  "inputLookupLength": 41,
  "outputLookup": {
    "totalImagingTime": 0
  },
  "outputLookupLength": 1,
  "options": {
    "inputSize": 0,
    "outputSize": 0,
    "binaryThresh": 0.5,
    "hiddenLayers": [
      16,
      16,
      16
    ]
  },
  "trainOpts": {
    "activation": "sigmoid",
    "iterations": 20000,
    "errorThresh": 0.005,
    "log": false,
    "logPeriod": 10,
    "leakyReluAlpha": 0.01,
    "learningRate": 0.3,
    "momentum": 0.1,
    "callbackPeriod": 10,
    "timeout": "Infinity",
    "beta1": 0.9,
    "beta2": 0.999,
    "epsilon": 1e-8
  }
}