{
  "type": "NeuralNetworkGPU",
  "sizes": [
    41,
    16,
    16,
    16,
    1
  ],
  "layers": [
    {
      "weights": [],
      "biases": []
    },
    {
      "weights": [
        [
          0.5769296288490295,
          0.588656485080719,
          0.0011289549292996526,
          0.19037015736103058,
          0.3083508312702179,
          -0.11828506737947464,
          -0.0746128261089325,
          -0.19353161752223969,
          0.6735286116600037,
          0.9115220904350281,
          0.26330652832984924,
          -0.08410616964101791,
          0.4469957649707794,
          -0.14491836726665497,
          0.05101325362920761,
          0.06474130600690842,
          0.3982866108417511,
          -0.15524467825889587,
          0.11620558798313141,
          -0.10340701788663864,
          0.27282410860061646,
          0.04310373216867447,
          0.17979474365711212,
          -0.25708141922950745,
          0.3330879211425781,
          -0.0680263563990593,
          -0.059401221573352814,
          -0.25785571336746216,
          0.10405861586332321,
          -0.13202320039272308,
          0.14469049870967865,
          -0.09649046510457993,
          0.20763716101646423,
          0.12330237030982971,
          0.20218950510025024,
          0.05524900183081627,
          0.3488466143608093,
          -0.140242800116539,
          0.16207876801490784,
          -0.21987660229206085,
          0.3014222979545593
        ],
        [
          -0.46424174308776855,
          -0.25787976384162903,
          0.19652917981147766,
          -0.05725282430648804,
          -0.07911387830972672,
          0.10242092609405518,
          -0.0007462826906703413,
          0.06265925616025925,
          -0.37293899059295654,
          -0.3878181278705597,
          -0.056504953652620316,
          0.07426967471837997,
          -0.25441691279411316,
          -0.03476935997605324,
          -0.20677872002124786,
          -0.09725724160671234,
          -0.20346762239933014,
          0.017019011080265045,
          0.1691512018442154,
          0.025657154619693756,
          -0.07826688885688782,
          -0.04135763272643089,
          -0.22089283168315887,
          -0.07806773483753204,
          -0.40590158104896545,
          -0.18717548251152039,
          0.09231482446193695,
          -0.06883829832077026,
          -0.11439812183380127,
          0.1728995144367218,
          0.16775964200496674,
          0.15513975918293,
          -0.18720801174640656,
          0.09211356192827225,
          -0.1171727180480957,
          0.13315178453922272,
          -0.36676672101020813,
          0.028107432648539543,
          0.06923530995845795,
          0.0896771103143692,
          -0.368044376373291
        ],
        [
          -0.43755409121513367,
          -0.6448534727096558,
          0.13134074211120605,
          -0.11634004861116409,
          -0.6733399629592896,
          0.007877000607550144,
          -0.06625416874885559,
          0.0747937560081482,
          -0.8350850939750671,
          -1.0793105363845825,
          -0.06550110131502151,
          -0.21752744913101196,
          -0.5139174461364746,
          -0.09768334031105042,
          0.04078076407313347,
          0.2952437102794647,
          -0.2560052275657654,
          -0.17082694172859192,
          -0.18588943779468536,
          0.12850432097911835,
          -0.4310257136821747,
          -0.08461354672908783,
          -0.14297395944595337,
          0.23336325585842133,
          -0.439739465713501,
          0.07043728977441788,
          0.10700184106826782,
          0.3004741966724396,
          -0.1560954451560974,
          0.18858642876148224,
          -0.16604642570018768,
          0.15669523179531097,
          -0.3190576434135437,
          0.19750332832336426,
          0.10789777338504791,
          0.178640678524971,
          -0.4580884873867035,
          0.08661556243896484,
          -0.22384734451770782,
          0.049227405339479446,
          -0.42333555221557617
        ],
        [
          0.029925979673862457,
          -0.21455438435077667,
          0.17166124284267426,
          0.12008385360240936,
          0.030084501951932907,
          -0.038804154843091965,
          0.15247884392738342,
          0.010196181945502758,
          0.0646296963095665,
          0.09730149805545807,
          -0.08814050257205963,
          -0.2157662957906723,
          0.018405774608254433,
          -0.05100278928875923,
          -0.005955426022410393,
          -0.08794723451137543,
          -0.2247127741575241,
          0.05790958181023598,
          0.10743840783834457,
          -0.1986524909734726,
          -0.0901312604546547,
          -0.025719739496707916,
          0.05028294026851654,
          0.024623239412903786,
          -0.06026294827461243,
          -0.11418536305427551,
          0.1229146420955658,
          0.16762538254261017,
          -0.17488716542720795,
          -0.11096838116645813,
          -0.036231450736522675,
          0.012046605348587036,
          0.13787853717803955,
          -0.07884441316127777,
          0.006379720754921436,
          0.06303423643112183,
          -0.2112818956375122,
          0.005235691554844379,
          0.18902362883090973,
          -0.19024325907230377,
          0.06526260823011398
        ],
        [
          -0.527268648147583,
          -0.5904961228370667,
          0.005005250219255686,
          -0.14489850401878357,
          -0.386209636926651,
          -0.15674960613250732,
          -0.22498971223831177,
          0.21291828155517578,
          -0.5537624955177307,
          -0.3766413629055023,
          -0.20562900602817535,
          0.054966334253549576,
          -0.29879599809646606,
          0.02662450261414051,
          -0.15643872320652008,
          0.16507488489151,
          -0.13962142169475555,
          -0.18927381932735443,
          -0.09704873710870743,
          0.1687837839126587,
          -0.11565916240215302,
          -0.15805134177207947,
          0.01896124891936779,
          0.08153851330280304,
          -0.1323634535074234,
          -0.15809233486652374,
          0.16218020021915436,
          -0.02769230678677559,
          -0.23630425333976746,
          -0.04713023081421852,
          0.004390606191009283,
          0.05064769834280014,
          -0.21455234289169312,
          0.025921959429979324,
          0.07757086306810379,
          -0.035033322870731354,
          -0.33470913767814636,
          -0.1378617137670517,
          0.06781304627656937,
          0.08760692179203033,
          -0.3856031000614166
        ],
        [
          0.27752768993377686,
          0.2833206057548523,
          0.09889041632413864,
          0.17632104456424713,
          0.26832619309425354,
          0.1629578322172165,
          0.171992689371109,
          -0.024189773947000504,
          0.5177631378173828,
          0.6884210109710693,
          0.28539565205574036,
          0.12998098134994507,
          0.16054226458072662,
          0.003077098401263356,
          -0.051872238516807556,
          -0.13670919835567474,
          0.361069917678833,
          -0.047544412314891815,
          -0.053904689848423004,
          -0.10121618956327438,
          0.4014057517051697,
          0.0015721189556643367,
          0.07426491379737854,
          0.03328026458621025,
          0.0797807052731514,
          0.016559401527047157,
          0.027263052761554718,
          -0.14431940019130707,
          0.23765647411346436,
          -0.17253972589969635,
          0.21965256333351135,
          0.11947482079267502,
          0.10185720771551132,
          0.0774688869714737,
          -0.05017566680908203,
          -0.07575278729200363,
          0.21525296568870544,
          0.1893296241760254,
          -0.13507136702537537,
          -0.048848021775484085,
          0.1728999763727188
        ],
        [
          -0.39026927947998047,
          -0.49524497985839844,
          -0.04329824820160866,
          0.09961512684822083,
          -0.30224376916885376,
          0.13359087705612183,
          -0.16534964740276337,
          0.22262054681777954,
          -0.38638195395469666,
          -0.42939117550849915,
          0.030228877440094948,
          -0.25518012046813965,
          -0.07296063005924225,
          0.0654420405626297,
          0.03421799838542938,
          -0.12201164662837982,
          -0.018636314198374748,
          -0.012550686486065388,
          -0.1283182054758072,
          -0.021161694079637527,
          -0.2526707053184509,
          -0.00006344951543724164,
          -0.021561000496149063,
          -0.11684350669384003,
          -0.32573333382606506,
          0.12296846508979797,
          0.029051702469587326,
          0.09457184374332428,
          -0.36853939294815063,
          0.17305265367031097,
          -0.06121286749839783,
          0.06705179810523987,
          -0.12758396565914154,
          -0.053700994700193405,
          0.0020151715725660324,
          0.2281523048877716,
          -0.3058711886405945,
          -0.1277979612350464,
          0.11795210093259811,
          -0.12671637535095215,
          -0.06633824110031128
        ],
        [
          0.1972038745880127,
          0.16493697464466095,
          0.14118869602680206,
          -0.12511973083019257,
          0.013014604337513447,
          0.09784190356731415,
          0.0029646989423781633,
          0.16686852276325226,
          0.3378233015537262,
          0.08074193447828293,
          0.07395714521408081,
          -0.028045596554875374,
          0.10134436935186386,
          0.004031564109027386,
          -0.01692778803408146,
          -0.12523961067199707,
          -0.06405588239431381,
          -0.14570090174674988,
          -0.17883513867855072,
          0.031354185193777084,
          0.042722560465335846,
          -0.15556690096855164,
          0.07625678181648254,
          -0.08898899704217911,
          0.12667128443717957,
          -0.09966184198856354,
          -0.10801650583744049,
          -0.10762890428304672,
          -0.026687797158956528,
          0.11896365135908127,
          -0.05489687621593475,
          -0.08296123892068863,
          0.2615641951560974,
          0.19067677855491638,
          0.09683716297149658,
          0.15604013204574585,
          -0.035996709018945694,
          0.15536879003047943,
          0.18503962457180023,
          0.20342019200325012,
          -0.028230857104063034
        ],
        [
          -0.27347370982170105,
          -0.25725510716438293,
          0.11078999936580658,
          -0.25635066628456116,
          -0.15343834459781647,
          0.0631314367055893,
          0.15957079827785492,
          0.1901395618915558,
          -0.28221726417541504,
          -0.19099785387516022,
          -0.10729561746120453,
          -0.07359448820352554,
          -0.3497210741043091,
          0.0378338024020195,
          -0.20831862092018127,
          -0.1140855923295021,
          -0.03714901953935623,
          0.0122350649908185,
          -0.05229857936501503,
          0.054371461272239685,
          -0.08395825326442719,
          0.1926371157169342,
          0.15456080436706543,
          0.11295244842767715,
          -0.029580820351839066,
          -0.17831780016422272,
          0.03525345399975777,
          -0.07611013203859329,
          -0.3416534662246704,
          -0.17705389857292175,
          0.06666451692581177,
          -0.1053096279501915,
          -0.204808309674263,
          0.12556160986423492,
          -0.20699913799762726,
          -0.08240262418985367,
          -0.24353714287281036,
          -0.04373191297054291,
          -0.214353546500206,
          -0.0007822284824214876,
          -0.007610009983181953
        ],
        [
          -0.4510922431945801,
          -0.2293422669172287,
          0.13465183973312378,
          -0.15399135649204254,
          -0.49829259514808655,
          0.01354251429438591,
          -0.12553319334983826,
          0.10793551802635193,
          -0.33850589394569397,
          -0.5846933126449585,
          -0.26154181361198425,
          0.0737822949886322,
          -0.13514401018619537,
          0.04072297364473343,
          0.0068451291881501675,
          0.2010781615972519,
          -0.2461089789867401,
          -0.11735916882753372,
          0.03452739119529724,
          0.16940639913082123,
          -0.10693808645009995,
          -0.16709116101264954,
          -0.12245824187994003,
          0.048487450927495956,
          -0.41216811537742615,
          0.07157402485609055,
          -0.11790476739406586,
          -0.03126981481909752,
          -0.1114143505692482,
          -0.15227185189723969,
          -0.027935774996876717,
          0.1546483188867569,
          -0.18713733553886414,
          0.06931019574403763,
          -0.22413603961467743,
          -0.025135723873972893,
          -0.3612842857837677,
          -0.016248393803834915,
          0.12522731721401215,
          0.01868436671793461,
          -0.1843392699956894
        ],
        [
          -0.13742759823799133,
          -0.2544766962528229,
          -0.01919272541999817,
          -0.1819387823343277,
          -0.13824543356895447,
          0.06547082215547562,
          0.030346401035785675,
          0.014079088345170021,
          0.07261582463979721,
          -0.2732192873954773,
          0.1373586356639862,
          0.0020565593149513006,
          0.011023697443306446,
          0.16976559162139893,
          -0.14551976323127747,
          -0.1597900241613388,
          -0.11239494383335114,
          -0.1532270312309265,
          0.184458389878273,
          -0.06465481221675873,
          0.0950324684381485,
          -0.10540496557950974,
          -0.14151807129383087,
          -0.1451319009065628,
          -0.20633357763290405,
          0.19068554043769836,
          -0.16970787942409515,
          0.07886731624603271,
          -0.1647573709487915,
          -0.1501525640487671,
          0.052208200097084045,
          -0.08666768670082092,
          -0.06646372377872467,
          -0.05405623838305473,
          -0.15030264854431152,
          0.10148105025291443,
          0.01839836686849594,
          0.06484216451644897,
          -0.1076802909374237,
          0.12895165383815765,
          -0.05238615348935127
        ],
        [
          0.06649985909461975,
          0.1475856453180313,
          -0.049101002514362335,
          0.052069343626499176,
          0.2631155550479889,
          -0.03898599371314049,
          -0.13431128859519958,
          -0.05242059752345085,
          0.31439682841300964,
          0.2198564112186432,
          -0.06542674452066422,
          0.18347635865211487,
          0.22630158066749573,
          -0.15787185728549957,
          0.09231690317392349,
          -0.06180868670344353,
          0.045154232531785965,
          0.02923077531158924,
          -0.09944559633731842,
          -0.18614502251148224,
          0.050965871661901474,
          -0.036018017679452896,
          -0.013515076600015163,
          -0.02083098143339157,
          0.03902975097298622,
          -0.028636958450078964,
          0.030170071870088577,
          0.028455447405576706,
          -0.06800618022680283,
          0.12040340155363083,
          -0.0078801978379488,
          0.19283391535282135,
          0.25211048126220703,
          0.12778781354427338,
          0.008440045639872551,
          0.19679109752178192,
          0.13594694435596466,
          0.13810588419437408,
          0.10743007808923721,
          -0.026957731693983078,
          0.20579509437084198
        ],
        [
          0.578992486000061,
          0.7132262587547302,
          -0.1823931634426117,
          0.3145217001438141,
          0.5974341034889221,
          -0.002256812294945121,
          -0.04523438960313797,
          -0.26882290840148926,
          0.8201079964637756,
          0.9743614196777344,
          0.06047620251774788,
          0.25348562002182007,
          0.3448095917701721,
          0.09522458910942078,
          -0.00839172676205635,
          -0.16580580174922943,
          0.2947274446487427,
          -0.18755140900611877,
          0.06752369552850723,
          -0.1323208063840866,
          0.2823488712310791,
          -0.12400902807712555,
          -0.14017567038536072,
          -0.09865618497133255,
          0.3973621129989624,
          -0.14456413686275482,
          -0.036480702459812164,
          -0.038418374955654144,
          0.2980731725692749,
          -0.04166081175208092,
          0.16538700461387634,
          -0.10398305207490921,
          0.26220667362213135,
          0.06016681715846062,
          0.11814414709806442,
          -0.3232412040233612,
          0.39866143465042114,
          -0.03437156602740288,
          0.09812299907207489,
          -0.0027917171828448772,
          0.46859946846961975
        ],
        [
          0.5131056904792786,
          0.3286849856376648,
          -0.13586243987083435,
          0.03203897550702095,
          0.3393113911151886,
          -0.1655142903327942,
          -0.12336233258247375,
          -0.024190137162804604,
          0.5223832130432129,
          0.598321259021759,
          0.3216976225376129,
          0.016857275739312172,
          0.10484452545642853,
          -0.08508948981761932,
          0.22596614062786102,
          0.000513982493430376,
          0.38962191343307495,
          0.17074476182460785,
          0.17529119551181793,
          0.022968193516135216,
          0.1403345912694931,
          -0.1061091274023056,
          0.06819576025009155,
          -0.12048428505659103,
          0.10276426374912262,
          0.04881845414638519,
          -0.16676819324493408,
          -0.1588965803384781,
          0.13027772307395935,
          0.07748578488826752,
          -0.10912194103002548,
          0.16065706312656403,
          0.35394200682640076,
          0.1723519116640091,
          -0.0695863589644432,
          -0.12117674201726913,
          0.10763027518987656,
          0.02373654767870903,
          0.1925533413887024,
          -0.1074938252568245,
          0.1373034417629242
        ],
        [
          -0.03568923473358154,
          -0.11294548958539963,
          0.1944146305322647,
          0.09909921139478683,
          -0.3775540292263031,
          -0.14673924446105957,
          -0.2021097093820572,
          -0.19234929978847504,
          -0.3074887990951538,
          -0.23186233639717102,
          0.03537211939692497,
          -0.05319146066904068,
          -0.11172783374786377,
          -0.04875968024134636,
          -0.01109296828508377,
          0.10342776775360107,
          -0.34116891026496887,
          0.013058783486485481,
          0.07558482140302658,
          -0.08386598527431488,
          -0.25966864824295044,
          0.16715069115161896,
          -0.12364158779382706,
          -0.021417802199721336,
          0.0052690994925796986,
          -0.11916911602020264,
          0.16192051768302917,
          0.04319426044821739,
          -0.3662031888961792,
          -0.15276242792606354,
          0.14247360825538635,
          -0.10260643064975739,
          -0.23792321979999542,
          -0.1441485583782196,
          -0.008425741456449032,
          -0.07480944693088531,
          0.019833622500300407,
          -0.14806151390075684,
          0.013900930993258953,
          0.11254872381687164,
          -0.17673714458942413
        ],
        [
          -0.33371877670288086,
          -0.11259952932596207,
          0.005408250726759434,
          -0.23472630977630615,
          -0.2491418719291687,
          0.06526672840118408,
          -0.0991298109292984,
          0.15244659781455994,
          -0.47224101424217224,
          -0.3465103209018707,
          -0.2498713582754135,
          -0.01568777859210968,
          -0.07077990472316742,
          -0.033875204622745514,
          -0.21444445848464966,
          0.036322470754384995,
          -0.0003086554352194071,
          0.12268785387277603,
          -0.12200959026813507,
          0.05580609664320946,
          -0.1642521172761917,
          0.10415884107351303,
          -0.17822200059890747,
          0.09600415825843811,
          0.011884317733347416,
          -0.18018557131290436,
          0.006752905901521444,
          -0.0675637423992157,
          -0.1622014194726944,
          0.044632621109485626,
          -0.05176156386733055,
          -0.12797236442565918,
          -0.10976570099592209,
          -0.1346665322780609,
          -0.005944045726209879,
          -0.09834583103656769,
          -0.28926268219947815,
          -0.15361501276493073,
          0.11558564752340317,
          -0.13488835096359253,
          -0.09523533284664154
        ]
      ],
      "biases": [
        -0.025993866845965385,
        0.038973886519670486,
        -0.06951655447483063,
        -0.06680772453546524,
        -0.04815338924527168,
        -0.12636108696460724,
        0.02493596449494362,
        -0.10611914843320847,
        -0.038826730102300644,
        -0.13974910974502563,
        -0.10052292793989182,
        -0.09733376652002335,
        -0.09479124844074249,
        -0.14059297740459442,
        0.16442933678627014,
        -0.025699645280838013
      ]
    },
    {
      "weights": [
        [
          -0.5300169587135315,
          0.3020187020301819,
          0.42432084679603577,
          0.07147964090108871,
          0.001364442054182291,
          -0.45367956161499023,
          0.3147698938846588,
          -0.07453996688127518,
          -0.03203278407454491,
          0.26818954944610596,
          -0.011200299486517906,
          -0.2116389274597168,
          -0.4143179655075073,
          -0.05686214566230774,
          0.02421116828918457,
          0.2776559591293335
        ],
        [
          0.026845475658774376,
          -0.0887923538684845,
          0.20244647562503815,
          -0.13970431685447693,
          0.052766766399145126,
          -0.008549929596483707,
          -0.017467642202973366,
          0.006730266381055117,
          0.24555979669094086,
          -0.09161146730184555,
          -0.05741601809859276,
          -0.13169842958450317,
          -0.0992572084069252,
          0.07506643980741501,
          0.008093348704278469,
          0.023030638694763184
        ],
        [
          -0.4886794686317444,
          0.21441935002803802,
          0.33487361669540405,
          -0.06618570536375046,
          0.4277479350566864,
          -0.23875421285629272,
          0.12022663652896881,
          0.05519009009003639,
          0.142740398645401,
          0.42520812153816223,
          0.14481043815612793,
          -0.1507021188735962,
          -0.5657923817634583,
          -0.43437904119491577,
          0.17407621443271637,
          0.052148111164569855
        ],
        [
          -0.7206904292106628,
          0.46171876788139343,
          0.8969727754592896,
          0.10655789077281952,
          0.30631116032600403,
          -0.5565093755722046,
          0.5265414714813232,
          -0.18748530745506287,
          0.3511788547039032,
          0.3103950023651123,
          0.24525897204875946,
          -0.2799345552921295,
          -0.906430184841156,
          -0.5655139088630676,
          0.1320028156042099,
          0.19056186079978943
        ],
        [
          -0.7639813423156738,
          0.3114260137081146,
          0.5381170511245728,
          -0.03780203312635422,
          0.5102611184120178,
          -0.2835633456707001,
          0.4500614404678345,
          -0.10189927369356155,
          0.36664366722106934,
          0.33720794320106506,
          0.0604645200073719,
          -0.30871808528900146,
          -0.8910202980041504,
          -0.5940843820571899,
          0.27970850467681885,
          0.16606758534908295
        ],
        [
          0.028754280880093575,
          0.06277412921190262,
          0.13882695138454437,
          0.15063408017158508,
          0.003082206705585122,
          -0.17786216735839844,
          -0.0017521725967526436,
          0.011259450577199459,
          -0.001924954354763031,
          -0.018464600667357445,
          -0.00044579306268133223,
          0.13881434500217438,
          -0.2169838547706604,
          0.07420756667852402,
          0.2495037466287613,
          -0.007433080580085516
        ],
        [
          -0.17450298368930817,
          0.30984053015708923,
          0.4714171290397644,
          -0.037737395614385605,
          -0.04454717040061951,
          -0.40008485317230225,
          0.0860450491309166,
          -0.03028138540685177,
          0.03806524723768234,
          0.08486131578683853,
          0.128851056098938,
          -0.07054445147514343,
          -0.4295161962509155,
          -0.12641504406929016,
          0.017670612782239914,
          0.12321208417415619
        ],
        [
          -0.6712322235107422,
          0.2613820731639862,
          0.7340563535690308,
          -0.0565858855843544,
          0.5416212677955627,
          -0.5638628005981445,
          0.1843547224998474,
          -0.06543999910354614,
          0.31151172518730164,
          0.4327561855316162,
          -0.021726198494434357,
          -0.24116766452789307,
          -0.768920361995697,
          -0.25598639249801636,
          0.09725288301706314,
          0.3495144546031952
        ],
        [
          -0.5958950519561768,
          0.14675810933113098,
          0.5000779032707214,
          0.11443109810352325,
          0.27751874923706055,
          -0.3575727343559265,
          0.13111770153045654,
          -0.18660740554332733,
          0.15715552866458893,
          0.3205673396587372,
          0.03849582001566887,
          -0.25887224078178406,
          -0.4406207203865051,
          -0.40593841671943665,
          0.3174160420894623,
          0.27068910002708435
        ],
        [
          -0.6005979776382446,
          0.2076531946659088,
          0.9288895726203918,
          -0.062123578041791916,
          0.4354669153690338,
          -0.37993255257606506,
          0.45639047026634216,
          -0.3302522301673889,
          0.18428140878677368,
          0.415052592754364,
          -0.06407319009304047,
          -0.3808755874633789,
          -0.9220746159553528,
          -0.548477828502655,
          0.3387870788574219,
          0.4345709979534149
        ],
        [
          -0.5962395071983337,
          0.33025211095809937,
          0.6675350069999695,
          -0.1923632174730301,
          0.43124648928642273,
          -0.4317811131477356,
          0.2677655518054962,
          -0.32297345995903015,
          0.2893138527870178,
          0.17860721051692963,
          0.025762522593140602,
          -0.04437781497836113,
          -0.7258564233779907,
          -0.5772064924240112,
          0.23996567726135254,
          0.39120733737945557
        ],
        [
          -0.5701931715011597,
          0.18840694427490234,
          0.29766589403152466,
          0.16188830137252808,
          0.23953388631343842,
          -0.1859167069196701,
          0.26795607805252075,
          -0.25610312819480896,
          -0.010713374242186546,
          0.33715182542800903,
          0.01438309345394373,
          -0.04437250643968582,
          -0.4686332046985626,
          -0.16293811798095703,
          -0.10734789818525314,
          0.1082131415605545
        ],
        [
          -0.16059823334217072,
          0.12899738550186157,
          0.2785917818546295,
          -0.16829434037208557,
          0.35655850172042847,
          -0.015558694489300251,
          0.05056842416524887,
          0.08641752600669861,
          0.10295242071151733,
          0.10703261196613312,
          0.018527936190366745,
          -0.013433306477963924,
          -0.23408062756061554,
          -0.008893776684999466,
          0.16142800450325012,
          -0.0595073401927948
        ],
        [
          -0.8164851069450378,
          0.37349626421928406,
          0.8288218379020691,
          0.13487550616264343,
          0.5787526369094849,
          -0.686377227306366,
          0.3350347578525543,
          -0.10618840903043747,
          0.06382458657026291,
          0.5568891763687134,
          0.12820543348789215,
          -0.25898927450180054,
          -1.0430965423583984,
          -0.599391520023346,
          0.17762811481952667,
          0.14304032921791077
        ],
        [
          -0.43165338039398193,
          0.03126249462366104,
          0.5088350176811218,
          -0.10212987661361694,
          0.0711933895945549,
          -0.2591919004917145,
          0.1555393785238266,
          -0.1897692084312439,
          0.14079228043556213,
          0.04459315165877342,
          0.03443517908453941,
          -0.11571991443634033,
          -0.22534030675888062,
          -0.35415756702423096,
          -0.07574925571680069,
          -0.0003469885850790888
        ],
        [
          -0.3115187883377075,
          -0.07304584980010986,
          0.1639755666255951,
          -0.04924427717924118,
          -0.023671528324484825,
          -0.02141917310655117,
          -0.010206001810729504,
          0.0650089681148529,
          0.06891219317913055,
          0.17099909484386444,
          0.15357306599617004,
          -0.18481679260730743,
          -0.3639529049396515,
          -0.005438555032014847,
          0.1099034994840622,
          -0.0010296542895957828
        ]
      ],
      "biases": [
        -0.03739575669169426,
        0.11809027194976807,
        -0.2133863866329193,
        -0.10414929687976837,
        -0.05241684243083,
        -0.07097699493169785,
        -0.2676171660423279,
        -0.20542730391025543,
        -0.21051420271396637,
        -0.051722776144742966,
        -0.03268412500619888,
        0.02850196324288845,
        -0.10791995376348495,
        0.12375814467668533,
        -0.09394834190607071,
        -0.11758553981781006
      ]
    },
    {
      "weights": [
        [
          -0.301288366317749,
          -0.18001101911067963,
          -0.3823244869709015,
          -0.22893908619880676,
          -0.43741098046302795,
          -0.30865198373794556,
          -0.05399655923247337,
          -0.2576635479927063,
          -0.12594255805015564,
          -0.18498976528644562,
          -0.2306821495294571,
          -0.22681593894958496,
          -0.35374733805656433,
          -0.1959483027458191,
          -0.13583295047283173,
          0.0030240174382925034
        ],
        [
          -0.22310304641723633,
          -0.1998267024755478,
          -0.2850469946861267,
          -0.2453237771987915,
          -0.21772165596485138,
          -0.014981557615101337,
          -0.20577716827392578,
          -0.37205010652542114,
          -0.2401205599308014,
          -0.4294789433479309,
          -0.4559827148914337,
          -0.13579654693603516,
          -0.18565475940704346,
          -0.1349143385887146,
          0.04508327320218086,
          -0.06477463245391846
        ],
        [
          -0.048419028520584106,
          -0.041588351130485535,
          -0.34841248393058777,
          -0.6337068676948547,
          -0.48598408699035645,
          0.26267075538635254,
          -0.06108285114169121,
          -0.528659462928772,
          -0.24008171260356903,
          -0.6243380904197693,
          -0.42394256591796875,
          0.03276681900024414,
          0.029218584299087524,
          -0.6975606679916382,
          -0.06198035925626755,
          0.006701929494738579
        ],
        [
          -0.18968889117240906,
          -0.04698815196752548,
          -0.10071229189634323,
          -0.45742395520210266,
          -0.30737850069999695,
          -0.11909983307123184,
          -0.18770889937877655,
          -0.35758352279663086,
          -0.24197448790073395,
          -0.48731207847595215,
          -0.4822562038898468,
          -0.3794645667076111,
          0.08771216124296188,
          -0.3054715692996979,
          -0.17052030563354492,
          -0.09703648835420609
        ],
        [
          -0.01855708844959736,
          0.22024206817150116,
          -0.18017293512821198,
          -0.4469403624534607,
          -0.3871806859970093,
          0.037895336747169495,
          -0.027577878907322884,
          -0.3484884202480316,
          -0.32635146379470825,
          -0.5717262029647827,
          -0.26387056708335876,
          -0.3298708498477936,
          -0.1171916127204895,
          -0.5931392312049866,
          -0.25126051902770996,
          0.1278347223997116
        ],
        [
          -0.1827821433544159,
          -0.044263824820518494,
          -0.26102590560913086,
          -0.42147719860076904,
          -0.4849534034729004,
          -0.13311150670051575,
          -0.0838133916258812,
          -0.31634896993637085,
          -0.24535825848579407,
          -0.20803585648536682,
          -0.2883070409297943,
          -0.16005535423755646,
          -0.23503360152244568,
          -0.19546912610530853,
          -0.04520959407091141,
          -0.17212378978729248
        ],
        [
          -0.12851814925670624,
          -0.13924317061901093,
          -0.3800811767578125,
          -0.18663273751735687,
          -0.31539440155029297,
          0.08094552904367447,
          0.0033682803623378277,
          -0.09798556566238403,
          -0.39815211296081543,
          -0.49138516187667847,
          -0.3926846981048584,
          -0.1701708883047104,
          -0.10913749784231186,
          -0.4926084876060486,
          -0.1692449450492859,
          -0.18048733472824097
        ],
        [
          0.2299143522977829,
          -0.1533299833536148,
          0.18523673713207245,
          0.3632165193557739,
          -0.0371582955121994,
          -0.12615640461444855,
          0.20723217725753784,
          0.33444368839263916,
          0.20803998410701752,
          0.13638798892498016,
          -0.002575399586930871,
          -0.0021436612587422132,
          -0.0656358078122139,
          0.32010072469711304,
          0.15439046919345856,
          0.004886559676378965
        ],
        [
          -0.21719421446323395,
          0.07818098366260529,
          -0.2655007243156433,
          -0.690556526184082,
          -0.2679053544998169,
          0.17722204327583313,
          -0.08098118007183075,
          -0.33036133646965027,
          -0.266683965921402,
          -0.3258988559246063,
          -0.46748465299606323,
          -0.26509708166122437,
          0.005334002897143364,
          -0.5978773236274719,
          -0.1575971394777298,
          -0.15829293429851532
        ],
        [
          -0.07536023110151291,
          0.2155405879020691,
          -0.41746026277542114,
          -0.3288794457912445,
          -0.5510377287864685,
          0.18690022826194763,
          -0.31982848048210144,
          -0.41372746229171753,
          -0.2566378116607666,
          -0.46416670083999634,
          -0.40999823808670044,
          -0.27593863010406494,
          -0.1830335110425949,
          -0.49825337529182434,
          0.03956935554742813,
          -0.25704848766326904
        ],
        [
          -0.22779281437397003,
          0.17833659052848816,
          -0.32826292514801025,
          -0.38055574893951416,
          -0.47048261761665344,
          -0.131145641207695,
          -0.04326886683702469,
          -0.2572478950023651,
          -0.3654189705848694,
          -0.4938467741012573,
          -0.35747262835502625,
          -0.05867236107587814,
          -0.14070084691047668,
          -0.5070667862892151,
          -0.2763369679450989,
          0.08390592038631439
        ],
        [
          -0.4089369773864746,
          0.08956470340490341,
          -0.08076316863298416,
          -0.20865844190120697,
          -0.3502599895000458,
          -0.09453745186328888,
          -0.03539472445845604,
          -0.5042571425437927,
          -0.11212729662656784,
          -0.4886263906955719,
          -0.4150948226451874,
          -0.27572593092918396,
          -0.10276663303375244,
          -0.5455277562141418,
          -0.19035887718200684,
          0.02592293918132782
        ],
        [
          -0.4212017059326172,
          -0.03861694782972336,
          -0.09112416207790375,
          -0.577876091003418,
          -0.2536816895008087,
          0.011583466082811356,
          -0.27660056948661804,
          -0.38222309947013855,
          -0.15664778649806976,
          -0.5360401272773743,
          -0.20836593210697174,
          -0.11663701385259628,
          0.1841365247964859,
          -0.47116902470588684,
          -0.27394652366638184,
          -0.009288802742958069
        ],
        [
          -0.06471971422433853,
          0.10468225181102753,
          -0.1764986366033554,
          -0.49559807777404785,
          -0.5068197846412659,
          0.14825530350208282,
          -0.0572182834148407,
          -0.5010215044021606,
          -0.35117602348327637,
          -0.5026444792747498,
          -0.3595806062221527,
          -0.03608572110533714,
          -0.03415168821811676,
          -0.6222212910652161,
          -0.10588733851909637,
          0.12187934666872025
        ],
        [
          -0.06870785355567932,
          0.09574414789676666,
          -0.21496139466762543,
          -0.5888153910636902,
          -0.49382805824279785,
          -0.1065024584531784,
          -0.0555984303355217,
          -0.19670253992080688,
          -0.20110662281513214,
          -0.21108467876911163,
          -0.22672680020332336,
          -0.17684796452522278,
          -0.21159276366233826,
          -0.5502345561981201,
          -0.223176509141922,
          0.06643600761890411
        ],
        [
          -0.16144680976867676,
          -0.0035514887422323227,
          -0.07697734981775284,
          -0.4342827796936035,
          -0.462056964635849,
          -0.13575954735279083,
          -0.28371408581733704,
          -0.38960590958595276,
          -0.3164898157119751,
          -0.43141335248947144,
          -0.45596781373023987,
          -0.16413885354995728,
          0.06606043130159378,
          -0.5588253736495972,
          0.009369348175823689,
          -0.2095538079738617
        ]
      ],
      "biases": [
        -0.01853087916970253,
        -0.20451702177524567,
        0.3228471875190735,
        0.07590734958648682,
        -0.03600402921438217,
        -0.20017260313034058,
        -0.05243873596191406,
        -0.23876512050628662,
        0.17413102090358734,
        0.30168598890304565,
        0.10357038676738739,
        0.057868849486112595,
        -0.09142880141735077,
        -0.02029857411980629,
        -0.18362592160701752,
        0.2440783530473709
      ]
    },
    {
      "weights": [
        [
          -0.591740071773529,
          -0.6863151788711548,
          -1.5042510032653809,
          -1.0524801015853882,
          -1.1400938034057617,
          -0.7602524161338806,
          -0.8177357316017151,
          0.9008319973945618,
          -1.2592220306396484,
          -1.2357263565063477,
          -1.1429619789123535,
          -1.0467168092727661,
          -1.1479558944702148,
          -1.2690575122833252,
          -0.9198038578033447,
          -1.1849738359451294
        ]
      ],
      "biases": [
        2.5193212032318115
      ]
    }
  ],
  "inputLookup": {
    "totalClouds[0]": 0,
    "lowClouds[0]": 1,
    "mediumClouds[0]": 2,
    "highClouds[0]": 3,
    "rainChance[0]": 4,
    "rainAmount[0]": 5,
    "windSpeed[0]": 6,
    "temperature[0]": 7,
    "totalClouds[1]": 8,
    "lowClouds[1]": 9,
    "mediumClouds[1]": 10,
    "highClouds[1]": 11,
    "rainChance[1]": 12,
    "rainAmount[1]": 13,
    "windSpeed[1]": 14,
    "temperature[1]": 15,
    "totalClouds[2]": 16,
    "lowClouds[2]": 17,
    "mediumClouds[2]": 18,
    "highClouds[2]": 19,
    "rainChance[2]": 20,
    "rainAmount[2]": 21,
    "windSpeed[2]": 22,
    "temperature[2]": 23,
    "totalClouds[3]": 24,
    "lowClouds[3]": 25,
    "mediumClouds[3]": 26,
    "highClouds[3]": 27,
    "rainChance[3]": 28,
    "rainAmount[3]": 29,
    "windSpeed[3]": 30,
    "temperature[3]": 31,
    "totalClouds[4]": 32,
    "lowClouds[4]": 33,
    "mediumClouds[4]": 34,
    "highClouds[4]": 35,
    "rainChance[4]": 36,
    "rainAmount[4]": 37,
    "windSpeed[4]": 38,
    "temperature[4]": 39,
    "exposureLength": 40
  },
  "inputLookupLength": 41,
  "outputLookup": {
    "totalImagingTime": 0
  },
  "outputLookupLength": 1,
  "options": {
    "inputSize": 0,
    "outputSize": 0,
    "binaryThresh": 0.5,
    "hiddenLayers": [
      16,
      16,
      16
    ]
  },
  "trainOpts": {
    "activation": "sigmoid",
    "iterations": 20000,
    "errorThresh": 0.005,
    "log": false,
    "logPeriod": 10,
    "leakyReluAlpha": 0.01,
    "learningRate": 0.3,
    "momentum": 0.1,
    "callbackPeriod": 10,
    "timeout": "Infinity",
    "beta1": 0.9,
    "beta2": 0.999,
    "epsilon": 1e-8
  }
}