{
  "type": "NeuralNetworkGPU",
  "sizes": [
    49,
    16,
    16,
    16,
    1
  ],
  "layers": [
    {
      "weights": [],
      "biases": []
    },
    {
      "weights": [
        [
          -0.032572776079177856,
          -0.11554133892059326,
          0.17893411219120026,
          0.12340786308050156,
          -0.06853583455085754,
          0.14878219366073608,
          -0.12857678532600403,
          -0.09933234006166458,
          0.14318345487117767,
          0.04900408536195755,
          -0.008257492445409298,
          -0.11898422986268997,
          0.1400303840637207,
          0.028324341401457787,
          0.19410525262355804,
          -0.06655074656009674,
          0.1508828103542328,
          0.0800522118806839,
          0.060966093093156815,
          -0.18237407505512238,
          0.06164202094078064,
          -0.1107400432229042,
          -0.06298105418682098,
          -0.09057708084583282,
          -0.17615774273872375,
          -0.13303352892398834,
          0.15893881022930145,
          -0.19772036373615265,
          0.06531680375337601,
          -0.017139818519353867,
          -0.15854036808013916,
          0.1516777127981186,
          -0.12690460681915283,
          0.05944172665476799,
          0.11829552054405212,
          -0.007097245659679174,
          -0.002627735026180744,
          -0.09147286415100098,
          0.03323023393750191,
          0.07053738087415695,
          0.04427212104201317,
          -0.07321726530790329,
          0.13226726651191711,
          0.10652857273817062,
          0.12066949903964996,
          0.04073937237262726,
          -0.08704163134098053,
          0.15980395674705505,
          0.11123375594615936
        ],
        [
          0.18466714024543762,
          -0.1374094933271408,
          -0.13746803998947144,
          0.0504973828792572,
          -0.12980778515338898,
          0.018059464171528816,
          -0.04569140076637268,
          0.0324632003903389,
          -0.19347117841243744,
          -0.17559634149074554,
          -0.030174801126122475,
          -0.12313810735940933,
          -0.18946689367294312,
          0.09706220030784607,
          -0.16555503010749817,
          -0.032563868910074234,
          0.006676101125776768,
          -0.001187494141049683,
          0.14248794317245483,
          0.05629298463463783,
          -0.10004884004592896,
          0.19538059830665588,
          -0.1301223188638687,
          -0.12967847287654877,
          0.12118278443813324,
          -0.07037768512964249,
          -0.030227750539779663,
          -0.02225148119032383,
          -0.06034225970506668,
          0.11653877794742584,
          -0.13921263813972473,
          0.07677264511585236,
          0.09467941522598267,
          0.03176888823509216,
          -0.15778036415576935,
          -0.0703498125076294,
          0.040136661380529404,
          0.009547660127282143,
          0.18890106678009033,
          0.053785812109708786,
          -0.152042955160141,
          -0.07101534307003021,
          0.10222741216421127,
          -0.051733244210481644,
          -0.1858886480331421,
          0.1350109875202179,
          -0.08925727754831314,
          0.052075836807489395,
          0.15813151001930237
        ],
        [
          -0.39452338218688965,
          -0.5282576084136963,
          -0.28978481888771057,
          0.059389378875494,
          -0.3652218282222748,
          -0.19491344690322876,
          -0.17965134978294373,
          0.0854443684220314,
          -0.8212077021598816,
          -0.8176080584526062,
          -0.32913491129875183,
          -0.2607685923576355,
          -0.0951986089348793,
          -0.08843952417373657,
          0.11851067841053009,
          0.29759910702705383,
          -0.1740979105234146,
          -0.08613268285989761,
          -0.19153478741645813,
          0.162904754281044,
          -0.4084697961807251,
          0.08850540965795517,
          -0.08567316830158234,
          0.030858227983117104,
          -0.36102986335754395,
          -0.07182245701551437,
          0.14822231233119965,
          0.02715771086513996,
          -0.23955829441547394,
          0.1679639369249344,
          0.1593504399061203,
          0.06944769620895386,
          -0.3680419921875,
          0.14193594455718994,
          0.032019589096307755,
          -0.026597505435347557,
          -0.07373816519975662,
          -0.07460566610097885,
          -0.15209054946899414,
          0.30495718121528625,
          -0.11118011921644211,
          -0.1916554868221283,
          -0.13772332668304443,
          0.17242099344730377,
          -0.1794721931219101,
          -0.0024713885504752398,
          0.17627114057540894,
          0.2981893718242645,
          -0.18658654391765594
        ],
        [
          0.09056904911994934,
          -0.15814019739627838,
          0.0830666571855545,
          0.1347246617078781,
          -0.09495686739683151,
          -0.19571445882320404,
          -0.1867939531803131,
          0.12629052996635437,
          -0.019171306863427162,
          0.021241972222924232,
          -0.2183576077222824,
          -0.18637509644031525,
          0.18817034363746643,
          -0.0515395849943161,
          -0.1324111670255661,
          0.12111341208219528,
          0.03711706027388573,
          0.1755056083202362,
          -0.08914848417043686,
          -0.019510112702846527,
          0.06924786418676376,
          0.08363217115402222,
          -0.14697851240634918,
          0.18490709364414215,
          0.002352318959310651,
          -0.09420683234930038,
          -0.1104772761464119,
          0.02729937434196472,
          -0.042264603078365326,
          -0.024608442559838295,
          -0.05083486810326576,
          0.013897962868213654,
          -0.1835096776485443,
          -0.06528915464878082,
          0.14022819697856903,
          -0.1231493279337883,
          -0.17417383193969727,
          -0.1831984966993332,
          -0.12918509542942047,
          -0.18962068855762482,
          -0.03778163716197014,
          0.057708390057086945,
          -0.09938738495111465,
          -0.04836861416697502,
          0.17785528302192688,
          -0.19099576771259308,
          0.029972363263368607,
          -0.10383618623018265,
          -0.19223786890506744
        ],
        [
          0.09951752424240112,
          -0.244264155626297,
          -0.045957885682582855,
          0.1710464507341385,
          0.08086840063333511,
          -0.14444395899772644,
          0.1809462308883667,
          0.05460215359926224,
          -0.3394261300563812,
          -0.08111657202243805,
          -0.12867425382137299,
          -0.0529182069003582,
          -0.21844391524791718,
          0.1575849950313568,
          0.09972833842039108,
          0.0036306276451796293,
          0.020148323848843575,
          -0.19237831234931946,
          0.12382396310567856,
          0.11966057121753693,
          -0.11091417819261551,
          -0.11705748736858368,
          -0.06826945394277573,
          -0.13995490968227386,
          0.15582551062107086,
          0.06160159409046173,
          0.052024297416210175,
          0.20406128466129303,
          -0.05665877088904381,
          -0.04205181449651718,
          -0.17757773399353027,
          -0.17602993547916412,
          -0.1750856190919876,
          0.03318854793906212,
          -0.12254772335290909,
          0.12791188061237335,
          0.03269202262163162,
          -0.014935721643269062,
          -0.09193878620862961,
          -0.0218318160623312,
          0.050284240394830704,
          0.08141776919364929,
          0.032939158380031586,
          -0.0652603805065155,
          -0.02312258630990982,
          0.14983169734477997,
          0.03162749111652374,
          0.13829515874385834,
          -0.03748765587806702
        ],
        [
          -0.08002541214227676,
          -0.15253759920597076,
          -0.029884975403547287,
          0.07726240903139114,
          -0.18859055638313293,
          -0.07033834606409073,
          0.01628313772380352,
          0.20012851059436798,
          -0.12767598032951355,
          0.09823000431060791,
          0.03690984100103378,
          0.011838037520647049,
          -0.1517491340637207,
          0.19094231724739075,
          -0.09671977162361145,
          0.06690827757120132,
          0.0963735356926918,
          0.015108120627701283,
          -0.17442120611667633,
          0.1188974604010582,
          -0.18725307285785675,
          0.10506365448236465,
          -0.16805890202522278,
          -0.12991653382778168,
          0.0851220190525055,
          -0.18987807631492615,
          -0.07449768483638763,
          -0.13352377712726593,
          0.10985010117292404,
          -0.04436114430427551,
          -0.12264817953109741,
          -0.17871297895908356,
          0.027007658034563065,
          0.19340212643146515,
          -0.12312965095043182,
          0.1544162482023239,
          -0.1985822170972824,
          -0.12066715955734253,
          0.15077772736549377,
          0.17694227397441864,
          -0.024669479578733444,
          0.011305149644613266,
          0.14335647225379944,
          -0.08925236016511917,
          -0.05678192898631096,
          0.07811082899570465,
          0.15812237560749054,
          0.1825665682554245,
          -0.008519480004906654
        ],
        [
          0.1840665191411972,
          0.5664176344871521,
          0.13991081714630127,
          -0.1881626397371292,
          0.31807851791381836,
          -0.1349746733903885,
          -0.08665332198143005,
          -0.10311160981655121,
          0.9671606421470642,
          0.6513456106185913,
          0.5244877338409424,
          0.26996827125549316,
          0.4217109978199005,
          0.18448859453201294,
          0.17735454440116882,
          -0.1782124638557434,
          0.32107993960380554,
          -0.15570694208145142,
          -0.09356994926929474,
          -0.29822051525115967,
          0.048400428146123886,
          0.15812844038009644,
          -0.005776857025921345,
          -0.1274891197681427,
          0.21179968118667603,
          0.0003617824404500425,
          -0.023986734449863434,
          -0.19808423519134521,
          0.14947150647640228,
          -0.04411289468407631,
          0.1151762455701828,
          -0.05640778690576553,
          0.16549226641654968,
          0.015219386667013168,
          0.08787180483341217,
          -0.030895203351974487,
          0.3797970116138458,
          0.10739516466856003,
          0.049434542655944824,
          -0.07802684605121613,
          0.374859482049942,
          0.11458458006381989,
          0.1903972327709198,
          0.01997806876897812,
          0.0710078775882721,
          -0.12284213304519653,
          0.1428150236606598,
          -0.19999566674232483,
          0.3808892071247101
        ],
        [
          0.12327073514461517,
          0.07543240487575531,
          -0.026003235951066017,
          -0.03285375237464905,
          0.1299823671579361,
          0.07834487408399582,
          0.06158485263586044,
          0.02665874920785427,
          0.17902371287345886,
          0.10620282590389252,
          0.028182141482830048,
          0.12224218249320984,
          0.06472162902355194,
          -0.06404437124729156,
          -0.1926928013563156,
          0.11430640518665314,
          0.019826143980026245,
          -0.18287798762321472,
          0.16266228258609772,
          0.05784761905670166,
          0.1712336540222168,
          -0.13816802203655243,
          0.059598617255687714,
          0.14924955368041992,
          -0.021800152957439423,
          0.0558839850127697,
          -0.020619574934244156,
          -0.093027763068676,
          0.0329483337700367,
          0.11439748108386993,
          0.18233941495418549,
          0.12951958179473877,
          -0.09760826081037521,
          -0.18172873556613922,
          -0.08250464498996735,
          -0.07224926352500916,
          -0.18466061353683472,
          -0.155523419380188,
          0.045521341264247894,
          -0.16047754883766174,
          -0.07922329008579254,
          -0.1266150176525116,
          -0.053771283477544785,
          0.002027135342359543,
          -0.10065639019012451,
          0.07149176299571991,
          -0.07513053715229034,
          0.14008399844169617,
          -0.06484364718198776
        ],
        [
          0.3810831308364868,
          0.47086313366889954,
          0.09118637442588806,
          -0.1478978544473648,
          0.17116284370422363,
          0.10806189477443695,
          -0.19764035940170288,
          -0.21349968016147614,
          1.0114848613739014,
          0.6002317070960999,
          0.6089304089546204,
          0.2785702645778656,
          0.2336711287498474,
          0.10085956007242203,
          -0.018731003627181053,
          -0.04995841160416603,
          0.3083953261375427,
          -0.1571982502937317,
          -0.06196150556206703,
          -0.2530863285064697,
          0.3112148642539978,
          0.08326619118452072,
          0.1954600214958191,
          -0.0694904699921608,
          0.38220858573913574,
          -0.17421621084213257,
          -0.18780231475830078,
          0.04201832786202431,
          0.13931523263454437,
          0.0723198801279068,
          0.02568233571946621,
          -0.03697671368718147,
          0.1981506198644638,
          0.06820076704025269,
          -0.17351260781288147,
          -0.03719209507107735,
          0.2955598831176758,
          -0.16668152809143066,
          0.04590312018990517,
          -0.30322641134262085,
          0.29490262269973755,
          0.021885044872760773,
          -0.16036686301231384,
          -0.15410944819450378,
          0.18176783621311188,
          0.13126948475837708,
          0.1702265441417694,
          -0.2950512766838074,
          0.26338285207748413
        ],
        [
          -0.3256344497203827,
          -0.6451319456100464,
          -0.37480342388153076,
          0.3433617651462555,
          -0.5681487321853638,
          0.17575564980506897,
          -0.025128036737442017,
          0.2308444082736969,
          -1.3092834949493408,
          -1.1785558462142944,
          -0.7120568156242371,
          -0.4254895746707916,
          -0.35650748014450073,
          -0.004313950426876545,
          -0.11100302636623383,
          0.40414202213287354,
          -0.37830013036727905,
          0.0691523402929306,
          -0.118156298995018,
          0.12930642068386078,
          -0.4412832260131836,
          0.1529906690120697,
          0.1859787553548813,
          0.15814842283725739,
          -0.27600306272506714,
          0.11172445863485336,
          0.03573697805404663,
          0.03229554742574692,
          -0.3701815605163574,
          -0.15056021511554718,
          -0.0322311632335186,
          0.1760679930448532,
          -0.29104888439178467,
          -0.07848549634218216,
          0.05812816694378853,
          0.040255945175886154,
          -0.4581700563430786,
          -0.07007475197315216,
          -0.007480438333004713,
          0.3489454984664917,
          -0.4845280647277832,
          -0.12568531930446625,
          0.10855990648269653,
          0.22859017550945282,
          -0.13909700512886047,
          0.1424887627363205,
          -0.11676229536533356,
          0.060767170041799545,
          -0.4098915457725525
        ],
        [
          -0.16561664640903473,
          0.15021786093711853,
          0.06486747413873672,
          0.15091441571712494,
          -0.053907621651887894,
          -0.12160975486040115,
          -0.1373186558485031,
          0.12617097795009613,
          -0.15176883339881897,
          0.07437954843044281,
          -0.1861860454082489,
          0.029365720227360725,
          -0.08591686189174652,
          0.15119484066963196,
          -0.19864095747470856,
          0.0564156174659729,
          0.15110477805137634,
          -0.183863565325737,
          -0.17793086171150208,
          -0.19215472042560577,
          0.029895523563027382,
          0.17745451629161835,
          0.1596885323524475,
          0.04721773415803909,
          -0.08765973150730133,
          0.08066023886203766,
          -0.07640312612056732,
          -0.02912169136106968,
          0.11128675192594528,
          0.13914164900779724,
          -0.004183002281934023,
          -0.008587010204792023,
          -0.029438188299536705,
          -0.1911655217409134,
          0.0029652409721165895,
          0.07578951865434647,
          -0.12697526812553406,
          0.03545450046658516,
          -0.1623988002538681,
          -0.1501341313123703,
          0.020339665934443474,
          -0.05565449967980385,
          -0.15012767910957336,
          -0.07941334694623947,
          0.034032732248306274,
          0.01878197118639946,
          0.1544104367494583,
          0.15837045013904572,
          0.018751079216599464
        ],
        [
          0.16245299577713013,
          0.5677883625030518,
          0.4749729037284851,
          -0.19314898550510406,
          0.4761720597743988,
          -0.0972331091761589,
          0.17933687567710876,
          -0.1940273940563202,
          0.7264943718910217,
          0.4775851368904114,
          0.24204254150390625,
          0.4720454812049866,
          0.36493048071861267,
          -0.16389170289039612,
          0.09707876294851303,
          -0.32635751366615295,
          0.21322108805179596,
          0.08192577958106995,
          0.07204391807317734,
          -0.17113888263702393,
          0.0966959074139595,
          0.17814190685749054,
          0.11521229892969131,
          -0.04716159403324127,
          0.25481125712394714,
          -0.07306773960590363,
          -0.15971554815769196,
          -0.016899921000003815,
          0.2554669976234436,
          0.07400438189506531,
          0.08571451157331467,
          -0.004294377285987139,
          0.3796077370643616,
          -0.1331055760383606,
          -0.14542852342128754,
          -0.24517402052879333,
          0.06105083227157593,
          -0.15258455276489258,
          -0.07807835191488266,
          -0.13996562361717224,
          0.028266439214348793,
          0.18881385028362274,
          0.06602127104997635,
          -0.08469536155462265,
          0.24377679824829102,
          0.04003012552857399,
          -0.16513691842556,
          0.008478649891912937,
          0.2797253727912903
        ],
        [
          0.026834212243556976,
          0.09584475308656693,
          0.16316653788089752,
          -0.1086655780673027,
          -0.01917608641088009,
          -0.019910497590899467,
          -0.1756935715675354,
          -0.06189534813165665,
          0.08988216519355774,
          0.08509960025548935,
          -0.12273049354553223,
          0.18394050002098083,
          0.15008831024169922,
          -0.1844787299633026,
          0.14544129371643066,
          -0.08621137589216232,
          -0.14188626408576965,
          -0.17363806068897247,
          0.007103963289409876,
          -0.04843178391456604,
          -0.13515077531337738,
          0.16912204027175903,
          -0.13853636384010315,
          -0.08277124166488647,
          -0.031748272478580475,
          0.11962080001831055,
          0.016165653243660927,
          0.1742243766784668,
          -0.13248708844184875,
          0.1471482664346695,
          0.17821326851844788,
          -0.11308985948562622,
          0.1957051306962967,
          -0.0622880719602108,
          -0.1511591523885727,
          0.19706374406814575,
          0.12861374020576477,
          -0.18434086441993713,
          0.06243254989385605,
          0.010089789517223835,
          0.10916611552238464,
          -0.05069754645228386,
          0.018685396760702133,
          -0.11124011874198914,
          0.03243741765618324,
          0.07213803380727768,
          0.18180765211582184,
          -0.02367040514945984,
          -0.057899244129657745
        ],
        [
          -0.16886882483959198,
          0.027772167697548866,
          0.06473556160926819,
          0.1822223961353302,
          -0.19786493480205536,
          -0.19260583817958832,
          0.1957133561372757,
          0.09368855506181717,
          0.03091890923678875,
          0.13521702587604523,
          0.06957120448350906,
          -0.047580037266016006,
          -0.060397956520318985,
          0.02903505228459835,
          -0.04554810747504234,
          -0.11883034557104111,
          -0.08226338028907776,
          0.0003670178120955825,
          0.0955716148018837,
          0.15921519696712494,
          -0.043507128953933716,
          0.07814129441976547,
          0.19704924523830414,
          -0.17429274320602417,
          0.18485815823078156,
          0.02258715219795704,
          -0.12900955975055695,
          0.04522894322872162,
          -0.031070860102772713,
          0.12917189300060272,
          -0.05046899989247322,
          -0.022325024008750916,
          0.12966153025627136,
          -0.19569575786590576,
          0.019191836938261986,
          0.02163216844201088,
          0.13123780488967896,
          0.015378082171082497,
          0.03297486901283264,
          0.07111788541078568,
          -0.1248839944601059,
          -0.1565624475479126,
          0.13228106498718262,
          0.18131114542484283,
          -0.10712870955467224,
          -0.15678808093070984,
          -0.02970195561647415,
          0.05627415329217911,
          -0.19999288022518158
        ],
        [
          -0.3182770609855652,
          -0.5189574360847473,
          -0.1058487668633461,
          0.22597555816173553,
          -0.29360145330429077,
          -0.10614281892776489,
          -0.13958486914634705,
          0.000349742011167109,
          -0.7056779861450195,
          -0.6060481667518616,
          -0.15820683538913727,
          -0.29521888494491577,
          -0.06201609596610069,
          -0.08022280782461166,
          -0.04560934007167816,
          0.007878388278186321,
          -0.09122810512781143,
          0.11883750557899475,
          -0.006800978910177946,
          0.17426490783691406,
          -0.06689438968896866,
          -0.036297235637903214,
          0.12370818853378296,
          0.18561643362045288,
          -0.006598688196390867,
          0.13274194300174713,
          -0.06069318950176239,
          -0.09028036147356033,
          0.009585798718035221,
          -0.05119818076491356,
          -0.05207052826881409,
          -0.05321221426129341,
          -0.32067421078681946,
          0.05447222292423248,
          0.011667607352137566,
          -0.04381907358765602,
          -0.2960549592971802,
          -0.18521052598953247,
          0.12309600412845612,
          0.1311454176902771,
          -0.09041956812143326,
          -0.16520768404006958,
          -0.014783922582864761,
          0.13054940104484558,
          -0.37864047288894653,
          0.11898794770240784,
          0.06326897442340851,
          0.1901734173297882,
          -0.38699162006378174
        ],
        [
          0.34398990869522095,
          0.41805708408355713,
          0.46954911947250366,
          -0.1819719672203064,
          0.3754185140132904,
          0.11954524368047714,
          -0.12340006977319717,
          0.0027354140765964985,
          0.6811257600784302,
          0.6149439215660095,
          0.567660391330719,
          0.3666619658470154,
          0.23743687570095062,
          0.09639476984739304,
          -0.18249645829200745,
          -0.2743116319179535,
          0.2929602861404419,
          0.1750776171684265,
          0.19007748365402222,
          -0.27728191018104553,
          0.3009445071220398,
          0.17771276831626892,
          -0.16135060787200928,
          -0.13188399374485016,
          0.3933216333389282,
          0.1540573537349701,
          -0.06775273382663727,
          -0.10792428255081177,
          0.10555088520050049,
          0.040187183767557144,
          -0.16354990005493164,
          -0.23016946017742157,
          0.3081763982772827,
          0.09080909192562103,
          -0.05571184307336807,
          -0.19408594071865082,
          0.34970176219940186,
          -0.19524192810058594,
          -0.19270101189613342,
          0.0197086613625288,
          0.1521083265542984,
          0.07080177962779999,
          -0.04654763638973236,
          -0.08758971095085144,
          0.1420888900756836,
          -0.11320490390062332,
          0.02144690975546837,
          0.015061807818710804,
          0.22897952795028687
        ]
      ],
      "biases": [
        -0.06914667040109634,
        0.13510194420814514,
        0.13924185931682587,
        0.08705095946788788,
        -0.14622008800506592,
        -0.06234155222773552,
        -0.18524526059627533,
        0.11875981092453003,
        -0.2048691213130951,
        0.19868458807468414,
        -0.09934941679239273,
        -0.04854307323694229,
        -0.07954089343547821,
        -0.05126212537288666,
        0.33844199776649475,
        -0.16143080592155457
      ]
    },
    {
      "weights": [
        [
          0.07657130807638168,
          -0.27483201026916504,
          -0.48425576090812683,
          -0.026992307975888252,
          -0.1311701238155365,
          -0.14470571279525757,
          0.6666775345802307,
          0.017234086990356445,
          0.38701701164245605,
          -0.9818985462188721,
          -0.14890865981578827,
          0.6230568885803223,
          0.08860737085342407,
          -0.09628115594387054,
          -0.6220632195472717,
          0.4392763376235962
        ],
        [
          0.09686077386140823,
          -0.016323663294315338,
          -0.250625878572464,
          -0.1714857667684555,
          -0.12236949801445007,
          0.0874386578798294,
          0.230979323387146,
          -0.049926359206438065,
          0.19098439812660217,
          -0.6324490308761597,
          -0.051363032311201096,
          0.04926515743136406,
          0.17834505438804626,
          0.012138733640313148,
          -0.3269347846508026,
          0.1781201958656311
        ],
        [
          -0.16473598778247833,
          -0.29894325137138367,
          -0.699541449546814,
          0.027048157528042793,
          0.020604532212018967,
          -0.18501241505146027,
          0.5193426609039307,
          -0.1423659324645996,
          0.7289592623710632,
          -1.0870039463043213,
          0.04975862428545952,
          0.523315966129303,
          -0.031178446486592293,
          0.015627922490239143,
          -0.4614690840244293,
          0.7148464918136597
        ],
        [
          -0.11303652822971344,
          0.07845214009284973,
          -0.3083886206150055,
          -0.02283502370119095,
          -0.19247032701969147,
          -0.08293373137712479,
          0.06517735868692398,
          0.09878820925951004,
          0.3987770080566406,
          -0.4485061466693878,
          0.035694025456905365,
          0.12648285925388336,
          -0.15518401563167572,
          -0.17207439243793488,
          -0.26767346262931824,
          0.1587638258934021
        ],
        [
          0.15431177616119385,
          -0.0454290546476841,
          -0.7506572008132935,
          -0.21656706929206848,
          -0.22471857070922852,
          0.041927460581064224,
          0.5057311654090881,
          -0.08558382838964462,
          0.5370673537254333,
          -1.126843810081482,
          0.0229045357555151,
          0.4637395441532135,
          0.06572659313678741,
          0.011143733747303486,
          -0.5430564284324646,
          0.4878716468811035
        ],
        [
          -0.09690756350755692,
          -0.18356405198574066,
          -0.08974280208349228,
          0.06571236997842789,
          -0.19635513424873352,
          -0.11760900169610977,
          0.3502807319164276,
          0.05608959496021271,
          0.3146568834781647,
          -0.20452727377414703,
          -0.0825497955083847,
          0.03407007083296776,
          0.15907055139541626,
          -0.16944827139377594,
          -0.02530614659190178,
          -0.018311426043510437
        ],
        [
          0.014142630621790886,
          -0.044709160923957825,
          -0.004966078791767359,
          -0.08460193127393723,
          -0.20203521847724915,
          0.2108384072780609,
          0.20706938207149506,
          0.006274263374507427,
          0.012759734876453876,
          -0.15481317043304443,
          0.15837545692920685,
          0.28646621108055115,
          0.05610702186822891,
          -0.0889945700764656,
          0.008811441250145435,
          0.04303140193223953
        ],
        [
          -0.07571880519390106,
          -0.005568639375269413,
          0.5040407180786133,
          0.18967534601688385,
          0.21060916781425476,
          0.15580962598323822,
          -0.4916331470012665,
          -0.13555149734020233,
          -0.42618808150291443,
          0.7103490233421326,
          0.1474517583847046,
          -0.38413161039352417,
          0.04449312388896942,
          0.06411205232143402,
          0.34279510378837585,
          -0.45737332105636597
        ],
        [
          0.024916887283325195,
          -0.029536990448832512,
          -0.17857211828231812,
          0.03621429577469826,
          0.13830219209194183,
          0.06692951172590256,
          0.3314051628112793,
          -0.017782529816031456,
          0.13868963718414307,
          -0.39577165246009827,
          0.03700246661901474,
          0.27396658062934875,
          -0.08685509860515594,
          -0.141607403755188,
          -0.06698336452245712,
          0.18143171072006226
        ],
        [
          0.015793034806847572,
          -0.14149872958660126,
          -0.3032762408256531,
          0.09290242195129395,
          -0.17625215649604797,
          -0.09271784871816635,
          0.02783777564764023,
          0.1412898749113083,
          0.09847602248191833,
          -0.2717131972312927,
          -0.0904916375875473,
          0.287515252828598,
          0.22272005677223206,
          -0.06792822480201721,
          -0.3373061418533325,
          0.06026144325733185
        ],
        [
          0.05432650074362755,
          -0.15951047837734222,
          -0.5934123396873474,
          -0.051313892006874084,
          -0.2543806731700897,
          -0.21891383826732635,
          0.5371363162994385,
          0.03121454268693924,
          0.4636828899383545,
          -0.678150475025177,
          -0.07115866243839264,
          0.5061628222465515,
          -0.01985473372042179,
          0.11235882341861725,
          -0.47415727376937866,
          0.5298605561256409
        ],
        [
          -0.16230200231075287,
          -0.0032047247514128685,
          -0.7462413311004639,
          -0.3061237633228302,
          0.0006049475050531328,
          -0.1228579431772232,
          0.5269721746444702,
          0.1354949176311493,
          0.7513108849525452,
          -1.138387680053711,
          -0.0018469826318323612,
          0.6270394325256348,
          -0.07528526335954666,
          0.1270451545715332,
          -0.36086753010749817,
          0.5510857701301575
        ],
        [
          0.06045519933104515,
          -0.05336710065603256,
          -0.13164475560188293,
          0.16668234765529633,
          -0.20650111138820648,
          0.16601921617984772,
          0.40207523107528687,
          0.033511869609355927,
          0.11194618791341782,
          -0.23933514952659607,
          0.05506020039319992,
          0.2787898778915405,
          -0.10302069038152695,
          -0.1154155284166336,
          -0.20433984696865082,
          0.10626572370529175
        ],
        [
          0.05619774013757706,
          0.0403607115149498,
          0.03989121690392494,
          0.022192666307091713,
          0.17055529356002808,
          0.004104250110685825,
          -0.07586315274238586,
          0.20319074392318726,
          0.0657600462436676,
          0.04356164112687111,
          0.014073698781430721,
          0.1411323994398117,
          0.13215777277946472,
          0.07362034171819687,
          -0.15203987061977386,
          0.024307364597916603
        ],
        [
          0.01607695035636425,
          -0.21185685694217682,
          -0.5717058777809143,
          -0.2423664778470993,
          -0.1690434217453003,
          -0.1424456238746643,
          0.7235578894615173,
          0.026685189455747604,
          0.4887763261795044,
          -1.0351669788360596,
          -0.07283684611320496,
          0.4765182435512543,
          0.010034746490418911,
          -0.22059859335422516,
          -0.5769193172454834,
          0.6601731181144714
        ],
        [
          -0.04179243743419647,
          -0.11327946186065674,
          -0.8091917037963867,
          0.07830777764320374,
          -0.16921117901802063,
          -0.1289149671792984,
          0.7141196727752686,
          -0.03574421629309654,
          0.8966357707977295,
          -1.2686858177185059,
          -0.23237095773220062,
          0.5309188961982727,
          0.050433199852705,
          -0.07882659137248993,
          -0.5596920847892761,
          0.8106330037117004
        ]
      ],
      "biases": [
        -0.03150666877627373,
        -0.07864820957183838,
        -0.07862377166748047,
        0.12209337204694748,
        0.018011458218097687,
        -0.07100053131580353,
        0.18141411244869232,
        0.18123853206634521,
        -0.13265347480773926,
        0.17594699561595917,
        -0.2444322109222412,
        -0.24739407002925873,
        -0.020034432411193848,
        0.09542504698038101,
        0.1010860800743103,
        -0.1292882114648819
      ]
    },
    {
      "weights": [
        [
          -0.38248565793037415,
          -0.15242181718349457,
          -0.30223655700683594,
          -0.11372984200716019,
          -0.18091250956058502,
          -0.21865595877170563,
          -0.03647700697183609,
          0.09454893320798874,
          -0.31102797389030457,
          -0.3676297068595886,
          -0.20304933190345764,
          -0.49575334787368774,
          -0.18801985681056976,
          -0.1140141487121582,
          -0.23720763623714447,
          -0.29932352900505066
        ],
        [
          -0.041764043271541595,
          0.02471299283206463,
          -0.06867542117834091,
          0.004898506216704845,
          0.0541708841919899,
          -0.21410198509693146,
          -0.35138988494873047,
          -0.25498878955841064,
          -0.33270958065986633,
          -0.19024720788002014,
          0.03970189020037651,
          -0.13823001086711884,
          -0.29553860425949097,
          -0.37753698229789734,
          -0.06273569911718369,
          -0.24929609894752502
        ],
        [
          -0.4434155523777008,
          -0.252157986164093,
          -0.40886324644088745,
          -0.07634041458368301,
          -0.40301498770713806,
          -0.2167629599571228,
          -0.08289254456758499,
          0.10495669394731522,
          -0.15847046673297882,
          -0.03137080743908882,
          -0.1004159152507782,
          -0.25939637422561646,
          -0.1928543746471405,
          -0.24035145342350006,
          -0.4613848626613617,
          -0.3805418312549591
        ],
        [
          -0.4746352732181549,
          -0.17470841109752655,
          -0.23022706806659698,
          -0.1484815776348114,
          -0.25458917021751404,
          -0.2888379693031311,
          -0.2824702262878418,
          0.1548222303390503,
          -0.30575862526893616,
          -0.20608215034008026,
          -0.38883861899375916,
          -0.32327866554260254,
          -0.003999869339168072,
          0.01391388475894928,
          -0.3910953402519226,
          -0.19071055948734283
        ],
        [
          0.039102453738451004,
          -0.233566015958786,
          -0.2516355514526367,
          0.015847615897655487,
          0.06058557331562042,
          -0.21747711300849915,
          -0.15426483750343323,
          -0.28761470317840576,
          0.006948532070964575,
          -0.2732398211956024,
          -0.14553552865982056,
          0.048882778733968735,
          -0.26562178134918213,
          -0.1419825404882431,
          -0.06565739959478378,
          0.034029874950647354
        ],
        [
          -0.548349916934967,
          -0.184173122048378,
          -0.7777348160743713,
          0.07264383882284164,
          -0.6497259140014648,
          -0.0600164495408535,
          0.14982867240905762,
          0.8542666435241699,
          0.07598339766263962,
          0.08502164483070374,
          -0.4882979393005371,
          -0.6829877495765686,
          -0.04378174990415573,
          0.3758699595928192,
          -0.5330444574356079,
          -0.9111327528953552
        ],
        [
          -0.16397294402122498,
          -0.10773862153291702,
          -0.07044272869825363,
          -0.20470768213272095,
          -0.36553511023521423,
          -0.15969474613666534,
          -0.33196595311164856,
          0.11635009944438934,
          -0.1165103018283844,
          -0.022575873881578445,
          -0.06867533177137375,
          -0.2950902581214905,
          -0.3747554123401642,
          -0.06693587452173233,
          -0.3965108394622803,
          -0.36110788583755493
        ],
        [
          -0.324124276638031,
          -0.2269015908241272,
          -0.3668367266654968,
          -0.37201493978500366,
          -0.5105010271072388,
          -0.22759506106376648,
          -0.05561533570289612,
          0.2983365058898926,
          -0.26718923449516296,
          -0.05092160403728485,
          -0.2577987313270569,
          -0.3077121675014496,
          -0.2979404032230377,
          -0.18920710682868958,
          -0.23921215534210205,
          -0.3094840943813324
        ],
        [
          -0.37052246928215027,
          -0.12780028581619263,
          -0.5214176177978516,
          -0.07371708005666733,
          -0.4816545248031616,
          0.03605027496814728,
          0.05172909051179886,
          0.4856395125389099,
          -0.01805439591407776,
          -0.10371094197034836,
          -0.37586817145347595,
          -0.5986883044242859,
          0.014329480938613415,
          0.12178200483322144,
          -0.5776445865631104,
          -0.7459467053413391
        ],
        [
          -0.45906028151512146,
          -0.1455671489238739,
          -0.6305609345436096,
          -0.17600886523723602,
          -0.363389790058136,
          0.09755998104810715,
          -0.027698788791894913,
          0.4368453621864319,
          0.0638388991355896,
          -0.23676466941833496,
          -0.4842356741428375,
          -0.5155086517333984,
          -0.23426687717437744,
          0.12320950627326965,
          -0.5073246955871582,
          -0.5582106113433838
        ],
        [
          -0.2523847818374634,
          -0.3191877603530884,
          -0.5529965758323669,
          -0.0193400289863348,
          -0.3920198678970337,
          0.040696967393159866,
          -0.023187346756458282,
          0.41181614995002747,
          -0.2591998279094696,
          -0.24840036034584045,
          -0.3158280849456787,
          -0.4148845076560974,
          -0.29258739948272705,
          -0.05581766739487648,
          -0.46953830122947693,
          -0.5687108039855957
        ],
        [
          -0.41780799627304077,
          -0.18259911239147186,
          -0.4957192540168762,
          -0.24545830488204956,
          -0.5187562704086304,
          0.12147397547960281,
          -0.03594255819916725,
          0.55679851770401,
          -0.24136419594287872,
          0.061810240149497986,
          -0.3762456476688385,
          -0.5397040843963623,
          0.0802726075053215,
          0.09402801096439362,
          -0.5552946925163269,
          -0.7519852519035339
        ],
        [
          -0.4214925169944763,
          -0.1263468861579895,
          -0.42501217126846313,
          -0.16714733839035034,
          -0.43571004271507263,
          0.004368898458778858,
          -0.2440323680639267,
          0.2503136396408081,
          -0.21209995448589325,
          -0.18142849206924438,
          -0.39319148659706116,
          -0.37861907482147217,
          -0.004391507711261511,
          0.015397167764604092,
          -0.5253806710243225,
          -0.488525390625
        ],
        [
          -0.43335962295532227,
          -0.07492422312498093,
          -0.48769456148147583,
          -0.20292676985263824,
          -0.42316925525665283,
          -0.006056550890207291,
          -0.015137591399252415,
          0.32076844573020935,
          -0.0671759694814682,
          -0.20306937396526337,
          -0.23677168786525726,
          -0.34129419922828674,
          -0.14094793796539307,
          -0.08399774134159088,
          -0.41798678040504456,
          -0.3871183395385742
        ],
        [
          -0.6243770718574524,
          -0.306794673204422,
          -0.40367642045021057,
          -0.28714147210121155,
          -0.5519739389419556,
          -0.08995061367750168,
          0.06870533525943756,
          0.7163089513778687,
          -0.007979066111147404,
          0.0836934745311737,
          -0.5108664631843567,
          -0.5216978788375854,
          -0.078182652592659,
          0.1282689869403839,
          -0.6366252303123474,
          -0.7752526998519897
        ],
        [
          -0.40756672620773315,
          -0.01902076229453087,
          -0.47276484966278076,
          -0.12383867800235748,
          -0.528077244758606,
          -0.26262474060058594,
          0.06573276221752167,
          0.40453729033470154,
          -0.05356013402342796,
          -0.2271711379289627,
          -0.3409695029258728,
          -0.6250856518745422,
          0.017323771491646767,
          0.03192968666553497,
          -0.3258666396141052,
          -0.6945392489433289
        ]
      ],
      "biases": [
        -0.1590130627155304,
        -0.10629059374332428,
        -0.18109506368637085,
        -0.1950741708278656,
        -0.2966378331184387,
        0.07906700670719147,
        -0.4009856879711151,
        -0.04423196613788605,
        -0.06916770339012146,
        0.103919617831707,
        0.12481814622879028,
        0.051048800349235535,
        0.061202272772789,
        -0.27219006419181824,
        0.3125210702419281,
        0.026736697182059288
      ]
    },
    {
      "weights": [
        [
          0.5664963126182556,
          -0.14933103322982788,
          0.7120705246925354,
          0.5903593301773071,
          -0.25487220287323,
          1.7652252912521362,
          0.3794304132461548,
          0.7457674741744995,
          1.2863452434539795,
          1.2098008394241333,
          1.0292917490005493,
          1.3256875276565552,
          0.9773576259613037,
          0.811318576335907,
          1.5310769081115723,
          1.1747554540634155
        ]
      ],
      "biases": [
        -3.268740177154541
      ]
    }
  ],
  "inputLookup": {
    "totalClouds[0]": 0,
    "lowClouds[0]": 1,
    "mediumClouds[0]": 2,
    "highClouds[0]": 3,
    "rainChance[0]": 4,
    "rainAmount[0]": 5,
    "windSpeed[0]": 6,
    "temperature[0]": 7,
    "totalClouds[1]": 8,
    "lowClouds[1]": 9,
    "mediumClouds[1]": 10,
    "highClouds[1]": 11,
    "rainChance[1]": 12,
    "rainAmount[1]": 13,
    "windSpeed[1]": 14,
    "temperature[1]": 15,
    "totalClouds[2]": 16,
    "lowClouds[2]": 17,
    "mediumClouds[2]": 18,
    "highClouds[2]": 19,
    "rainChance[2]": 20,
    "rainAmount[2]": 21,
    "windSpeed[2]": 22,
    "temperature[2]": 23,
    "totalClouds[3]": 24,
    "lowClouds[3]": 25,
    "mediumClouds[3]": 26,
    "highClouds[3]": 27,
    "rainChance[3]": 28,
    "rainAmount[3]": 29,
    "windSpeed[3]": 30,
    "temperature[3]": 31,
    "totalClouds[4]": 32,
    "lowClouds[4]": 33,
    "mediumClouds[4]": 34,
    "highClouds[4]": 35,
    "rainChance[4]": 36,
    "rainAmount[4]": 37,
    "windSpeed[4]": 38,
    "temperature[4]": 39,
    "exposureLength": 40,
    "totalClouds[5]": 41,
    "lowClouds[5]": 42,
    "mediumClouds[5]": 43,
    "highClouds[5]": 44,
    "rainChance[5]": 45,
    "rainAmount[5]": 46,
    "windSpeed[5]": 47,
    "temperature[5]": 48
  },
  "inputLookupLength": 49,
  "outputLookup": {
    "totalImagingTime": 0
  },
  "outputLookupLength": 1,
  "options": {
    "inputSize": 0,
    "outputSize": 0,
    "binaryThresh": 0.5,
    "hiddenLayers": [
      16,
      16,
      16
    ]
  },
  "trainOpts": {
    "activation": "sigmoid",
    "iterations": 20000,
    "errorThresh": 0.005,
    "log": false,
    "logPeriod": 10,
    "leakyReluAlpha": 0.01,
    "learningRate": 0.3,
    "momentum": 0.1,
    "callbackPeriod": 10,
    "timeout": "Infinity",
    "beta1": 0.9,
    "beta2": 0.999,
    "epsilon": 1e-8
  }
}