{
  "type": "NeuralNetworkGPU",
  "sizes": [
    49,
    16,
    16,
    16,
    1
  ],
  "layers": [
    {
      "weights": [],
      "biases": []
    },
    {
      "weights": [
        [
          -0.12766186892986298,
          -0.10435342788696289,
          0.04686836898326874,
          -0.01600581407546997,
          0.15339329838752747,
          0.11959443986415863,
          0.06473150849342346,
          -0.010270004160702229,
          -0.0669812336564064,
          -0.05663865804672241,
          0.019926978275179863,
          -0.16734370589256287,
          0.06068354472517967,
          -0.05591729283332825,
          0.13361214101314545,
          -0.14611676335334778,
          -0.15795789659023285,
          -0.14469356834888458,
          0.10668715834617615,
          -0.06848108768463135,
          -0.04594220593571663,
          -0.04192829504609108,
          0.12766611576080322,
          -0.13194873929023743,
          0.07462458312511444,
          -0.05974062159657478,
          -0.08636075258255005,
          -0.09249542653560638,
          0.14706167578697205,
          -0.1526031643152237,
          -0.015602742321789265,
          0.18874576687812805,
          0.1317756325006485,
          -0.0613432377576828,
          0.15429148077964783,
          -0.12459562718868256,
          -0.2063400000333786,
          0.16642417013645172,
          0.1811269074678421,
          0.13466250896453857,
          0.08587014675140381,
          -0.10571455955505371,
          0.0976051539182663,
          -0.11097504198551178,
          -0.04913640394806862,
          -0.03807736560702324,
          -0.041005369275808334,
          -0.10484814643859863,
          -0.055511269718408585
        ],
        [
          0.2782738506793976,
          0.3148205578327179,
          0.37644702196121216,
          0.1294773668050766,
          0.3240850865840912,
          0.13395309448242188,
          -0.13921217620372772,
          -0.16408811509609222,
          0.2727656662464142,
          0.3645816445350647,
          0.1460416167974472,
          0.05614521726965904,
          0.16690072417259216,
          -0.1518159955739975,
          -0.11065258830785751,
          0.13987524807453156,
          -0.08628395944833755,
          0.0626470074057579,
          -0.14252358675003052,
          -0.23328213393688202,
          0.2708279490470886,
          -0.11660036444664001,
          0.1740809679031372,
          -0.060307424515485764,
          0.09541594237089157,
          0.15715746581554413,
          0.12374109774827957,
          -0.0059753358364105225,
          0.07465619593858719,
          0.15128640830516815,
          -0.15837347507476807,
          -0.19688735902309418,
          0.25403279066085815,
          -0.017296921461820602,
          0.17973369359970093,
          -0.01210073847323656,
          -0.01622300036251545,
          -0.049783531576395035,
          0.04745732247829437,
          -0.22438733279705048,
          0.237344890832901,
          -0.08531937748193741,
          0.04754311591386795,
          0.024859638884663582,
          0.1714853048324585,
          0.17727258801460266,
          0.031271230429410934,
          -0.21203477680683136,
          -0.015491863712668419
        ],
        [
          -0.07606908679008484,
          -0.5459375381469727,
          -0.45382699370384216,
          0.14019565284252167,
          -0.5052664875984192,
          0.04773887246847153,
          -0.12927034497261047,
          0.23670382797718048,
          -0.6687862277030945,
          -0.6094734072685242,
          -0.4902433156967163,
          -0.10632580518722534,
          -0.26590046286582947,
          -0.037062883377075195,
          -0.12327504903078079,
          -0.0356416329741478,
          0.04609871283173561,
          0.1634097844362259,
          0.04438311979174614,
          0.24221771955490112,
          -0.04178306832909584,
          -0.14708200097084045,
          0.03627825900912285,
          0.251666396856308,
          -0.21579726040363312,
          0.10347381234169006,
          0.12526485323905945,
          0.17704573273658752,
          -0.2383657842874527,
          0.06187889724969864,
          0.18584862351417542,
          0.19782394170761108,
          -0.2185484617948532,
          0.0322917215526104,
          -0.13573694229125977,
          -0.10945218801498413,
          -0.06340514868497849,
          0.14431780576705933,
          0.1552467942237854,
          -0.08892405033111572,
          -0.08492221683263779,
          -0.07711350172758102,
          -0.0799965113401413,
          0.27921444177627563,
          -0.03527249023318291,
          0.1394340693950653,
          0.02180451899766922,
          -0.0753268450498581,
          -0.09740472584962845
        ],
        [
          0.21524591743946075,
          0.14114592969417572,
          0.12233024090528488,
          0.0818527564406395,
          -0.0026389278937131166,
          -0.05205683037638664,
          -0.14411717653274536,
          -0.11191283166408539,
          0.012297557666897774,
          -0.12597927451133728,
          -0.021446138620376587,
          -0.0955696851015091,
          -0.11002350598573685,
          0.058559272438287735,
          0.1228460967540741,
          0.1851814091205597,
          -0.13296252489089966,
          0.11528463661670685,
          -0.09383898973464966,
          0.07373097538948059,
          0.12740062177181244,
          0.14274713397026062,
          0.009067932143807411,
          -0.17638501524925232,
          0.08183165639638901,
          0.07406454533338547,
          0.1618300974369049,
          -0.13095062971115112,
          0.03278448060154915,
          0.14915990829467773,
          0.09026408195495605,
          -0.052445944398641586,
          -0.15334565937519073,
          -0.02002040110528469,
          0.1261548399925232,
          -0.08650735020637512,
          0.12628091871738434,
          -0.17298206686973572,
          0.01600700430572033,
          -0.11381639540195465,
          -0.01070023700594902,
          -0.19351215660572052,
          0.028379740193486214,
          0.06492507457733154,
          -0.0014135352103039622,
          -0.0003378883411642164,
          -0.1211693063378334,
          -0.08910219371318817,
          0.07677983492612839
        ],
        [
          0.04005718603730202,
          0.0855344757437706,
          0.30776649713516235,
          0.15465892851352692,
          -0.10514985769987106,
          -0.13925138115882874,
          0.16621354222297668,
          0.010992071591317654,
          0.30598416924476624,
          0.11024144291877747,
          -0.044696904718875885,
          -0.09857714921236038,
          0.010368133895099163,
          -0.1388029158115387,
          -0.15895146131515503,
          0.13599121570587158,
          0.22624216973781586,
          0.14863836765289307,
          -0.1863289326429367,
          0.019694091752171516,
          -0.05013231188058853,
          0.15345224738121033,
          0.13695672154426575,
          0.025356849655508995,
          0.03928963094949722,
          -0.01225288212299347,
          0.15645183622837067,
          -0.19711315631866455,
          0.18814562261104584,
          -0.057704050093889236,
          0.14020290970802307,
          -0.21236103773117065,
          0.21304906904697418,
          -0.03863227739930153,
          0.11094482988119125,
          -0.02433447353541851,
          0.04939940571784973,
          0.13436102867126465,
          -0.06135329604148865,
          -0.19113868474960327,
          0.1688625067472458,
          0.14924538135528564,
          0.17811019718647003,
          0.08472194522619247,
          0.2184460610151291,
          0.05570179969072342,
          0.04716049134731293,
          -0.21081489324569702,
          -0.1197436973452568
        ],
        [
          -0.015466693788766861,
          0.06031576171517372,
          0.06933651864528656,
          0.08279600739479065,
          0.22456270456314087,
          0.11741392314434052,
          0.19267024099826813,
          -0.241283118724823,
          0.2586706876754761,
          0.27183735370635986,
          0.12853600084781647,
          0.10852449387311935,
          0.002186688594520092,
          -0.05940556153655052,
          0.08834206312894821,
          0.13402564823627472,
          0.11762380599975586,
          -0.07536802440881729,
          -0.03588990494608879,
          0.1144329085946083,
          0.1046493798494339,
          -0.1980530470609665,
          0.10681843012571335,
          -0.11309785395860672,
          0.24967411160469055,
          0.012339815497398376,
          -0.0836588516831398,
          -0.07759913057088852,
          0.21070095896720886,
          -0.09707647562026978,
          -0.00042856481741182506,
          -0.08821146935224533,
          0.012802663259208202,
          -0.0892866924405098,
          -0.20275308191776276,
          -0.13311968743801117,
          0.24362531304359436,
          -0.15673495829105377,
          -0.062380071729421616,
          -0.04009385406970978,
          0.1676226556301117,
          -0.07825063169002533,
          0.044679682701826096,
          -0.21218983829021454,
          -0.10583052039146423,
          0.10369966924190521,
          -0.17809872329235077,
          0.11443746834993362,
          0.10008782148361206
        ],
        [
          0.6544880867004395,
          0.9648100733757019,
          0.9503028392791748,
          -0.299407035112381,
          0.48177576065063477,
          0.15527819097042084,
          -0.11861615628004074,
          -0.4578849673271179,
          1.2302212715148926,
          1.0002753734588623,
          0.8285496830940247,
          0.30147382616996765,
          0.0659872367978096,
          -0.06506611406803131,
          0.04470690339803696,
          -0.3284289240837097,
          0.4035892188549042,
          -0.14693787693977356,
          0.04229174554347992,
          -0.20497581362724304,
          0.3801468014717102,
          -0.04771903157234192,
          -0.11376749724149704,
          -0.13745853304862976,
          0.29989293217658997,
          -0.07623821496963501,
          0.1359855830669403,
          -0.12156232446432114,
          0.24940013885498047,
          0.054080307483673096,
          -0.09571293741464615,
          -0.3318210244178772,
          0.22542613744735718,
          0.038692425936460495,
          -0.11996863037347794,
          -0.34629732370376587,
          0.16570201516151428,
          0.08217459917068481,
          0.08121732622385025,
          -0.1997433602809906,
          0.18646985292434692,
          -0.15156279504299164,
          0.11053109914064407,
          -0.22796204686164856,
          0.2549366354942322,
          0.17844466865062714,
          -0.017304813489317894,
          -0.21574151515960693,
          0.38272300362586975
        ],
        [
          -0.38295212388038635,
          -0.38936007022857666,
          -0.5960001349449158,
          0.09398837387561798,
          -0.45086175203323364,
          0.012731189839541912,
          -0.06538955122232437,
          0.18731103837490082,
          -0.6366987824440002,
          -0.481415331363678,
          -0.4269319176673889,
          -0.09265193343162537,
          -0.24322283267974854,
          -0.06198727712035179,
          -0.1405867040157318,
          0.2547346353530884,
          -0.12677742540836334,
          -0.14418195188045502,
          -0.03137938305735588,
          0.18452146649360657,
          -0.3400784730911255,
          -0.0555119588971138,
          -0.15938851237297058,
          -0.05497116595506668,
          -0.2677748203277588,
          0.009829575195908546,
          0.12373160570859909,
          0.2535470128059387,
          -0.3087269067764282,
          -0.07992463558912277,
          -0.05472872406244278,
          0.11010609567165375,
          -0.28318917751312256,
          -0.1299915462732315,
          -0.1106327697634697,
          0.218679279088974,
          -0.3179062604904175,
          0.14184647798538208,
          0.2043249011039734,
          0.15138885378837585,
          -0.1854344755411148,
          0.14652878046035767,
          -0.03249955177307129,
          -0.08655112981796265,
          -0.07233766466379166,
          0.12019151449203491,
          -0.13462746143341064,
          0.1157003790140152,
          -0.0426783412694931
        ],
        [
          0.33134081959724426,
          0.589630663394928,
          0.6627622246742249,
          -0.19482508301734924,
          0.1658397912979126,
          -0.10258923470973969,
          0.038677699863910675,
          -0.36658239364624023,
          0.6416009068489075,
          0.7479466199874878,
          0.6646824479103088,
          0.276443749666214,
          0.11278557032346725,
          0.18469904363155365,
          0.002524362178519368,
          -0.32684314250946045,
          0.030464813113212585,
          0.060622960329055786,
          -0.07475622743368149,
          -0.11033950746059418,
          -0.0020328552927821875,
          -0.056295495480298996,
          0.028001002967357635,
          -0.16379202902317047,
          0.23822790384292603,
          0.005747439339756966,
          -0.12337660044431686,
          -0.27580541372299194,
          0.3112165033817291,
          0.0063344272784888744,
          -0.0574614442884922,
          0.03948100656270981,
          0.20872873067855835,
          -0.07214740663766861,
          0.11475764960050583,
          -0.03330591693520546,
          0.18611907958984375,
          -0.08275555819272995,
          -0.04414508119225502,
          0.02656513825058937,
          0.22537538409233093,
          -0.022854935377836227,
          0.0548698715865612,
          -0.03339724242687225,
          0.03852439671754837,
          -0.07349491864442825,
          -0.17900508642196655,
          -0.12883150577545166,
          0.16260144114494324
        ],
        [
          0.1599079966545105,
          0.3814795911312103,
          0.7045024037361145,
          -0.35094109177589417,
          0.2994562089443207,
          -0.08232392370700836,
          -0.17039351165294647,
          -0.10689195990562439,
          0.7658517956733704,
          0.6788694858551025,
          0.6593755483627319,
          0.44021621346473694,
          0.28336861729621887,
          -0.18977709114551544,
          0.06597989797592163,
          -0.24037405848503113,
          0.23302790522575378,
          -0.0783291682600975,
          -0.10031208395957947,
          -0.2119956612586975,
          0.23843592405319214,
          -0.0468989834189415,
          -0.18269138038158417,
          -0.18073764443397522,
          0.10817325115203857,
          -0.04516778886318207,
          -0.2132752388715744,
          -0.24529463052749634,
          0.3157629668712616,
          -0.13409990072250366,
          0.08987486362457275,
          -0.21553081274032593,
          -0.039713528007268906,
          0.19583283364772797,
          0.0999002754688263,
          -0.16740843653678894,
          0.06614354252815247,
          0.07945165783166885,
          -0.21156653761863708,
          -0.09257300943136215,
          0.351220041513443,
          0.15277157723903656,
          -0.06316672265529633,
          -0.06476865708827972,
          0.23203063011169434,
          -0.18449930846691132,
          0.10416115820407867,
          -0.0419788658618927,
          0.013834979385137558
        ],
        [
          -0.09415283799171448,
          -0.19528377056121826,
          -0.46205151081085205,
          0.2623662054538727,
          -0.45769399404525757,
          0.19004498422145844,
          0.12225545197725296,
          0.06540410965681076,
          -0.6663567423820496,
          -0.5777474641799927,
          -0.38143080472946167,
          -0.2043699473142624,
          -0.04518570750951767,
          -0.0851278230547905,
          0.04546182602643967,
          0.27185726165771484,
          0.062221623957157135,
          0.022255590185523033,
          0.0902760699391365,
          0.08816578984260559,
          -0.2641865313053131,
          0.06808292120695114,
          0.015833811834454536,
          -0.020382463932037354,
          -0.033745139837265015,
          0.08060716092586517,
          -0.14827923476696014,
          0.056593574583530426,
          -0.14305709302425385,
          -0.09670157730579376,
          -0.024688659235835075,
          0.15028907358646393,
          0.03216496855020523,
          0.18015314638614655,
          0.15424464643001556,
          0.052869103848934174,
          -0.2703193128108978,
          0.023709051311016083,
          0.1415378600358963,
          -0.028680507093667984,
          -0.0056977043859660625,
          -0.05369490012526512,
          -0.08273371309041977,
          -0.0012307496508583426,
          -0.02648434415459633,
          0.08499883115291595,
          0.057246655225753784,
          -0.047639451920986176,
          -0.06733885407447815
        ],
        [
          -0.1796170473098755,
          -0.17028123140335083,
          -0.060848891735076904,
          0.20098602771759033,
          0.11729297041893005,
          -0.16601425409317017,
          -0.1354741007089615,
          -0.1978759467601776,
          0.00042146406485699117,
          0.09120699763298035,
          -0.12596647441387177,
          -0.07969189435243607,
          -0.16123418509960175,
          -0.06294921785593033,
          -0.10191655904054642,
          0.14092427492141724,
          -0.06735742092132568,
          0.059537917375564575,
          -0.08570082485675812,
          -0.17190423607826233,
          -0.09377006441354752,
          0.003095893422141671,
          0.10125928372144699,
          -0.18120720982551575,
          -0.035531241446733475,
          -0.052252545952796936,
          -0.15846307575702667,
          -0.012842122465372086,
          -0.07773435860872269,
          -0.05194598063826561,
          -0.11895795911550522,
          0.07158704847097397,
          0.14608508348464966,
          0.10724334418773651,
          -0.1867009401321411,
          -0.007016986142843962,
          0.04679104685783386,
          0.023740798234939575,
          -0.12023068219423294,
          -0.017042407765984535,
          -0.029820755124092102,
          -0.04834580793976784,
          0.09502088278532028,
          0.13830381631851196,
          0.007115010172128677,
          0.14757800102233887,
          0.0908089429140091,
          -0.07683230191469193,
          0.1910763829946518
        ],
        [
          0.15882901847362518,
          0.2959710359573364,
          0.35955116152763367,
          0.01987619884312153,
          0.027398625388741493,
          0.021980689838528633,
          -0.06981517374515533,
          -0.15386532247066498,
          0.09841373562812805,
          0.21475453674793243,
          0.03801245242357254,
          0.2876202464103699,
          0.20183460414409637,
          -0.11268271505832672,
          0.055805642157793045,
          -0.01643446460366249,
          0.23638926446437836,
          0.1341477930545807,
          0.0034999758936464787,
          -0.10684327781200409,
          0.15279550850391388,
          -0.1783512532711029,
          -0.11971762031316757,
          -0.016571473330259323,
          0.07763559371232986,
          -0.043243907392024994,
          0.190253347158432,
          0.09727561473846436,
          0.03352830931544304,
          0.08858553320169449,
          0.044007305055856705,
          0.06230021268129349,
          0.25924327969551086,
          -0.09969040751457214,
          -0.18141967058181763,
          0.0006708424771204591,
          0.13635419309139252,
          -0.06409880518913269,
          -0.06474883109331131,
          -0.03835466131567955,
          -0.05735396966338158,
          0.12828196585178375,
          -0.14981304109096527,
          -0.1514786034822464,
          0.044059354811906815,
          -0.0739794671535492,
          0.004005910828709602,
          -0.0548667274415493,
          -0.1071227565407753
        ],
        [
          0.11651066690683365,
          0.1073223426938057,
          0.13417671620845795,
          -0.1698758453130722,
          0.07610351592302322,
          0.07548552751541138,
          -0.09367934614419937,
          0.03725520893931389,
          0.14645063877105713,
          0.16125260293483734,
          0.4173748195171356,
          0.021957917138934135,
          -0.006894953083246946,
          -0.08510851114988327,
          0.16499659419059753,
          0.018423086032271385,
          -0.044766880571842194,
          0.035906899720430374,
          0.05701236054301262,
          -0.10472455620765686,
          0.22873449325561523,
          -0.003936835564672947,
          -0.11092101037502289,
          0.06429815292358398,
          0.24557670950889587,
          0.060780175030231476,
          0.0722760260105133,
          0.05908483266830444,
          0.06642720848321915,
          0.066552072763443,
          -0.01574035733938217,
          -0.09746518731117249,
          -0.05080512911081314,
          -0.147083580493927,
          0.18079215288162231,
          -0.060315825045108795,
          0.12735992670059204,
          0.04731477051973343,
          -0.19483870267868042,
          0.10319055616855621,
          0.25921258330345154,
          0.1133878156542778,
          0.17864586412906647,
          0.1445600539445877,
          0.135829895734787,
          -0.09125185012817383,
          0.005038979928940535,
          0.07511317729949951,
          -0.0002732951252255589
        ],
        [
          -0.30943232774734497,
          -0.8206327557563782,
          -0.5578221678733826,
          0.2509135603904724,
          -0.6613342761993408,
          -0.02136930264532566,
          0.15860024094581604,
          0.3763398826122284,
          -1.3431810140609741,
          -1.0424649715423584,
          -0.87907475233078,
          -0.36162668466567993,
          -0.25386953353881836,
          0.060549717396497726,
          -0.019791295751929283,
          0.09728281199932098,
          -0.04867536947131157,
          0.10156570374965668,
          -0.15674421191215515,
          0.04430728778243065,
          -0.14225172996520996,
          0.14922264218330383,
          -0.13298866152763367,
          0.15952898561954498,
          -0.22142699360847473,
          -0.08968489617109299,
          0.06690384447574615,
          0.3371822237968445,
          -0.33719855546951294,
          0.040573228150606155,
          0.01394585520029068,
          0.24037142097949982,
          -0.28942275047302246,
          0.14253313839435577,
          -0.07564647495746613,
          0.18182577192783356,
          -0.34097909927368164,
          0.1865183264017105,
          -0.10418610274791718,
          0.3795814514160156,
          -0.12271945923566818,
          0.12102320045232773,
          0.19057443737983704,
          0.3511999249458313,
          -0.03539324924349785,
          0.03460099920630455,
          0.21025028824806213,
          0.08332651853561401,
          -0.13337835669517517
        ],
        [
          -0.12044614553451538,
          -0.4971466064453125,
          -0.5674452781677246,
          0.24256491661071777,
          -0.20513150095939636,
          0.13636887073516846,
          0.14514842629432678,
          0.23862461745738983,
          -0.599417507648468,
          -0.6218006014823914,
          -0.386525422334671,
          -0.27245962619781494,
          -0.2922709882259369,
          -0.11063416302204132,
          0.16251398622989655,
          -0.038683582097291946,
          -0.23817892372608185,
          -0.05448293685913086,
          0.1257449984550476,
          0.19057545065879822,
          -0.2035648077726364,
          0.19845911860466003,
          0.03923346474766731,
          0.23939400911331177,
          -0.009873434901237488,
          0.03317148610949516,
          0.1557517796754837,
          -0.049608584493398666,
          -0.08029356598854065,
          -0.030334731563925743,
          0.01461261510848999,
          0.023056522011756897,
          -0.2690635919570923,
          -0.09460533410310745,
          0.018873967230319977,
          0.19338679313659668,
          -0.275491327047348,
          0.11331257969141006,
          0.09791935980319977,
          0.10791824758052826,
          -0.28847816586494446,
          0.13698537647724152,
          -0.08444999158382416,
          0.188909649848938,
          0.014182483777403831,
          -0.06600697338581085,
          -0.0458214245736599,
          0.05756296589970589,
          0.05812026560306549
        ]
      ],
      "biases": [
        -0.09388722479343414,
        -0.07657291740179062,
        0.3316168189048767,
        0.027255628257989883,
        -0.07934075593948364,
        0.09429867565631866,
        -0.4426771104335785,
        0.37757202982902527,
        -0.3797532618045807,
        -0.1006036326289177,
        0.3533376157283783,
        0.06548775732517242,
        -0.06716755777597427,
        -0.2243748903274536,
        0.4775993824005127,
        0.19693543016910553
      ]
    },
    {
      "weights": [
        [
          -0.1329571157693863,
          0.2500571310520172,
          -0.4924274981021881,
          -0.19103948771953583,
          0.0535997599363327,
          0.18345293402671814,
          1.0448143482208252,
          -0.635452151298523,
          0.3708272874355316,
          0.6591025590896606,
          -0.5692383050918579,
          0.007613970898091793,
          0.0833478644490242,
          0.19517768919467926,
          -1.069741129875183,
          -0.4713576138019562
        ],
        [
          0.06870044022798538,
          -0.01151315774768591,
          0.15856613218784332,
          -0.1737809181213379,
          -0.12347631901502609,
          0.11998571455478668,
          -0.36831754446029663,
          0.31527674198150635,
          -0.13978211581707,
          -0.13262690603733063,
          0.12402168661355972,
          -0.1467602252960205,
          -0.012081076391041279,
          0.12111708521842957,
          0.38752683997154236,
          0.2888554036617279
        ],
        [
          -0.09896788001060486,
          0.11234696954488754,
          -0.31138330698013306,
          0.0708673745393753,
          0.11602309346199036,
          -0.07563551515340805,
          0.32601889967918396,
          -0.3703371286392212,
          0.2564452588558197,
          0.27811992168426514,
          -0.23388047516345978,
          -0.12907199561595917,
          0.08990547060966492,
          0.10010509192943573,
          -0.32645896077156067,
          -0.23914667963981628
        ],
        [
          0.0710853710770607,
          0.04684019461274147,
          0.17738114297389984,
          0.09800712019205093,
          0.0467388778924942,
          -0.055244527757167816,
          -0.06352544575929642,
          0.13642676174640656,
          -0.10137895494699478,
          0.02742551639676094,
          0.12818503379821777,
          -0.15587705373764038,
          0.10103746503591537,
          -0.08292552083730698,
          0.13974344730377197,
          0.06711295247077942
        ],
        [
          0.01596684567630291,
          0.1987920105457306,
          -0.6709632873535156,
          0.05028610676527023,
          0.2128564864397049,
          0.19064432382583618,
          0.8377555012702942,
          -0.7022379040718079,
          0.6007257699966431,
          0.6486372947692871,
          -0.512997031211853,
          -0.15759606659412384,
          -0.06087447702884674,
          0.05610569193959236,
          -0.8222725987434387,
          -0.45121631026268005
        ],
        [
          -0.09691040217876434,
          -0.059634335339069366,
          -0.27056950330734253,
          -0.005868757143616676,
          0.10504190623760223,
          0.05075042322278023,
          0.4508523643016815,
          -0.34858396649360657,
          0.19353199005126953,
          0.040570858865976334,
          -0.07576457411050797,
          0.0014385390095412731,
          0.09467817097902298,
          0.04407782480120659,
          -0.09501539915800095,
          -0.26459449529647827
        ],
        [
          -0.008178637363016605,
          0.4687967300415039,
          -0.4891459047794342,
          0.08838681876659393,
          0.13803847134113312,
          -0.015181740745902061,
          1.1895959377288818,
          -0.7776513695716858,
          0.6231080293655396,
          0.5001083612442017,
          -0.6421183943748474,
          -0.2601845860481262,
          0.1749781221151352,
          0.14860668778419495,
          -1.2265315055847168,
          -0.49469974637031555
        ],
        [
          -0.2757728099822998,
          0.2768118679523468,
          -0.6796557307243347,
          -0.13297399878501892,
          -0.04972515255212784,
          0.1884842962026596,
          0.9469780921936035,
          -0.5180853605270386,
          0.5317094922065735,
          0.6019111275672913,
          -0.3967140316963196,
          -0.09191008657217026,
          0.14948758482933044,
          0.1867975890636444,
          -0.9882811903953552,
          -0.7886543273925781
        ],
        [
          -0.008501406759023666,
          -0.17441582679748535,
          0.5073885321617126,
          0.08215305954217911,
          -0.12108754366636276,
          0.10993590950965881,
          -0.6151865720748901,
          0.39346566796302795,
          -0.3800077438354492,
          -0.40973469614982605,
          0.41476917266845703,
          0.11609213799238205,
          -0.1479453295469284,
          -0.05453752353787422,
          0.7108985781669617,
          0.3082611560821533
        ],
        [
          0.10087889432907104,
          0.14641599357128143,
          -0.40008559823036194,
          -0.03910700976848602,
          0.1655261069536209,
          0.031178593635559082,
          0.7450212240219116,
          -0.6101181507110596,
          0.45156624913215637,
          0.3837277591228485,
          -0.5127977132797241,
          0.07828302681446075,
          0.2431003600358963,
          0.06565888971090317,
          -0.7956297993659973,
          -0.6385445594787598
        ],
        [
          -0.10319662094116211,
          0.13995753228664398,
          -0.6635119318962097,
          -0.0411069430410862,
          -0.07372431457042694,
          0.19896122813224792,
          0.8864918351173401,
          -0.47636374831199646,
          0.7502604126930237,
          0.6376573443412781,
          -0.5170133113861084,
          -0.18848179280757904,
          0.1714392453432083,
          0.10266696661710739,
          -1.0960328578948975,
          -0.7195660471916199
        ],
        [
          -0.1408238559961319,
          -0.13880766928195953,
          -0.10321742296218872,
          0.11988480389118195,
          0.154771625995636,
          -0.09528698027133942,
          -0.18754619359970093,
          0.19573520123958588,
          -0.1307092010974884,
          -0.08127878606319427,
          0.1561460793018341,
          0.0734054446220398,
          0.20782387256622314,
          0.17912869155406952,
          0.13475805521011353,
          0.2735692262649536
        ],
        [
          -0.15087008476257324,
          -0.13077393174171448,
          -0.17090502381324768,
          -0.041295576840639114,
          0.08546988666057587,
          -0.16224463284015656,
          0.12569387257099152,
          0.21939939260482788,
          -0.06656612455844879,
          0.03714722394943237,
          0.16770921647548676,
          0.04034346714615822,
          0.07746993005275726,
          -0.11515269428491592,
          0.1133406013250351,
          -0.15613248944282532
        ],
        [
          -0.09640438854694366,
          0.11139016598463058,
          -0.18887685239315033,
          -0.15013879537582397,
          0.05716518685221672,
          0.22502419352531433,
          0.3594765365123749,
          0.04953661188483238,
          -0.0516175702214241,
          0.10184986889362335,
          -0.07885114848613739,
          -0.20489728450775146,
          0.13976699113845825,
          0.04623366892337799,
          -0.21593986451625824,
          0.07719936221837997
        ],
        [
          -0.2470855414867401,
          0.06915094703435898,
          -0.5145092606544495,
          -0.20415838062763214,
          -0.11362989246845245,
          0.19094239175319672,
          0.6967036128044128,
          -0.5020778179168701,
          0.2531801164150238,
          0.47653502225875854,
          -0.4937856197357178,
          -0.028651991859078407,
          0.08819315582513809,
          0.217828169465065,
          -0.8113095760345459,
          -0.30678167939186096
        ],
        [
          0.02653874084353447,
          -0.04090958833694458,
          -0.21434447169303894,
          0.15042172372341156,
          -0.09810870885848999,
          0.011074766516685486,
          0.3987371027469635,
          -0.10525224357843399,
          0.2946834862232208,
          0.07613852620124817,
          0.005769575946033001,
          -0.18188421428203583,
          0.19216811656951904,
          -0.05887424573302269,
          -0.33632346987724304,
          -0.2744677662849426
        ]
      ],
      "biases": [
        -0.2539331912994385,
        0.025616148486733437,
        -0.02717294543981552,
        0.19818653166294098,
        -0.31440451741218567,
        -0.11724523454904556,
        -0.2861018478870392,
        -0.12788701057434082,
        0.17817629873752594,
        -0.20476293563842773,
        -0.10746721923351288,
        0.16632939875125885,
        0.09389248490333557,
        -0.10041516274213791,
        0.030646076425909996,
        0.08716096729040146
      ]
    },
    {
      "weights": [
        [
          0.190072700381279,
          -0.0951998382806778,
          0.12802012264728546,
          0.16858647763729095,
          0.15602725744247437,
          0.17937271296977997,
          0.3628082573413849,
          0.33340176939964294,
          -0.29189297556877136,
          0.27374267578125,
          0.4624793231487274,
          -0.04842476546764374,
          -0.10057200491428375,
          -0.04549248889088631,
          0.14353586733341217,
          0.03410534933209419
        ],
        [
          -0.7175829410552979,
          0.3129451870918274,
          -0.0376448892056942,
          0.3001713454723358,
          -0.5828702449798584,
          -0.040671996772289276,
          -0.5788618922233582,
          -0.6538962721824646,
          0.7498772740364075,
          -0.370633065700531,
          -0.7757470011711121,
          0.16370528936386108,
          0.22462382912635803,
          -0.09766048192977905,
          -0.5972381234169006,
          -0.28249591588974
        ],
        [
          0.2234235405921936,
          -0.2018813043832779,
          -0.04213641583919525,
          -0.09070936590433121,
          0.020970895886421204,
          0.04930736497044563,
          0.2077476680278778,
          -0.1498236209154129,
          -0.145811066031456,
          0.11804628372192383,
          0.1121596097946167,
          0.13061948120594025,
          0.022845180705189705,
          -0.07093963772058487,
          0.024085992947220802,
          0.03862595930695534
        ],
        [
          -0.20819693803787231,
          0.09760725498199463,
          -0.10144791752099991,
          0.0201912559568882,
          -0.2227928787469864,
          -0.14517219364643097,
          -0.4031757414340973,
          -0.47484666109085083,
          0.14539672434329987,
          -0.35777151584625244,
          -0.18649637699127197,
          -0.2616024911403656,
          -0.0801987573504448,
          -0.20668379962444305,
          -0.4745246171951294,
          -0.41017404198646545
        ],
        [
          -0.3143305480480194,
          -0.16848482191562653,
          -0.22557955980300903,
          -0.19283615052700043,
          -0.03373949974775314,
          -0.05105180665850639,
          -0.16163784265518188,
          -0.30136895179748535,
          -0.19046540558338165,
          -0.32422393560409546,
          -0.07890136539936066,
          0.0365549735724926,
          -0.20808443427085876,
          -0.23295152187347412,
          -0.2153898924589157,
          -0.25846946239471436
        ],
        [
          -0.3091470003128052,
          -0.02270849607884884,
          -0.11985940486192703,
          -0.025573082268238068,
          -0.38146212697029114,
          -0.10250931978225708,
          -0.20164315402507782,
          -0.26103055477142334,
          -0.1638941764831543,
          -0.13446955382823944,
          -0.31276795268058777,
          -0.23285990953445435,
          -0.22650514543056488,
          -0.2332344651222229,
          -0.09712613373994827,
          -0.08660160005092621
        ],
        [
          -0.3823701739311218,
          -0.005474855192005634,
          -0.11265438795089722,
          0.03134274110198021,
          -0.3502488136291504,
          -0.3332345187664032,
          -0.6082280278205872,
          -0.4408133327960968,
          0.1311631202697754,
          -0.45546552538871765,
          -0.4780611991882324,
          0.06850677728652954,
          0.15049044787883759,
          -0.2939207851886749,
          -0.16938671469688416,
          -0.09944580495357513
        ],
        [
          -0.7354079484939575,
          0.4489993751049042,
          -0.14201907813549042,
          0.2247936725616455,
          -0.5296748280525208,
          -0.1658630669116974,
          -0.9098615050315857,
          -0.7937674522399902,
          0.618733286857605,
          -0.4645260274410248,
          -0.7542715668678284,
          0.3985719680786133,
          0.25617924332618713,
          -0.025637546554207802,
          -0.324819415807724,
          -0.05042387917637825
        ],
        [
          -0.34184038639068604,
          0.11705610156059265,
          -0.40659645199775696,
          -0.14138588309288025,
          -0.3803509771823883,
          -0.19401079416275024,
          -0.42015379667282104,
          -0.2780090272426605,
          -0.031365297734737396,
          -0.38369640707969666,
          -0.2976606786251068,
          -0.12308402359485626,
          -0.09012769162654877,
          -0.025388069450855255,
          -0.3585784137248993,
          -0.12097513675689697
        ],
        [
          -0.7193525433540344,
          0.4807235896587372,
          -0.2952295243740082,
          0.2785189151763916,
          -0.6960453987121582,
          -0.023611154407262802,
          -0.7445481419563293,
          -0.7073761820793152,
          0.7093194723129272,
          -0.5374463796615601,
          -0.6123228669166565,
          0.4727945625782013,
          0.028313694521784782,
          0.05096454173326492,
          -0.5238454937934875,
          -0.004062049090862274
        ],
        [
          -0.5530303716659546,
          0.18696895241737366,
          -0.14334911108016968,
          0.12063785642385483,
          -0.6122806668281555,
          -0.15817025303840637,
          -0.6608403325080872,
          -0.5864046216011047,
          0.5450093150138855,
          -0.3129628598690033,
          -0.5567986369132996,
          0.303785502910614,
          -0.012066418305039406,
          -0.09395521134138107,
          -0.45833268761634827,
          -0.12211160361766815
        ],
        [
          -0.6551535725593567,
          0.2797296941280365,
          -0.13153521716594696,
          0.036138687282800674,
          -0.6055037975311279,
          0.039326105266809464,
          -0.4632808566093445,
          -0.43374958634376526,
          0.48257455229759216,
          -0.5791186690330505,
          -0.5941986441612244,
          0.17693312466144562,
          -0.05182701349258423,
          -0.08231113106012344,
          -0.37758150696754456,
          -0.030724715441465378
        ],
        [
          -0.6331149339675903,
          0.483977735042572,
          -0.1791910082101822,
          0.29591238498687744,
          -0.6222682595252991,
          -0.17590868473052979,
          -0.7691709995269775,
          -0.6231340765953064,
          0.5474826097488403,
          -0.48315510153770447,
          -0.5762834548950195,
          0.0752723217010498,
          0.24823834002017975,
          0.15735884010791779,
          -0.49208182096481323,
          -0.12798824906349182
        ],
        [
          -0.1836278885602951,
          0.13871677219867706,
          -0.38319826126098633,
          -0.020626846700906754,
          -0.460267573595047,
          0.00934633705765009,
          -0.480671763420105,
          -0.470694899559021,
          -0.03135670721530914,
          -0.3509933650493622,
          -0.49155208468437195,
          -0.17752958834171295,
          0.07679888606071472,
          -0.16857625544071198,
          -0.09551434218883514,
          -0.10647349059581757
        ],
        [
          -0.21022002398967743,
          -0.2452434003353119,
          -0.23111195862293243,
          -0.1379397213459015,
          -0.3080034852027893,
          -0.27844759821891785,
          -0.23540715873241425,
          -0.026117796078324318,
          -0.12406787276268005,
          -0.2058645635843277,
          -0.3253747820854187,
          -0.09851802885532379,
          0.07338917255401611,
          -0.14750288426876068,
          -0.19750931859016418,
          -0.30338096618652344
        ],
        [
          -0.2967075705528259,
          -0.034147970378398895,
          -0.3201291263103485,
          0.12696757912635803,
          -0.5457144379615784,
          -0.23522721230983734,
          -0.6366264224052429,
          -0.41680920124053955,
          0.3333059549331665,
          -0.45542198419570923,
          -0.555512547492981,
          0.09077668935060501,
          -0.14504876732826233,
          -0.13103671371936798,
          -0.24245001375675201,
          -0.051970478147268295
        ]
      ],
      "biases": [
        0.22698339819908142,
        0.15966419875621796,
        -0.11853548139333725,
        -0.1269235610961914,
        -0.3165128529071808,
        -0.08882154524326324,
        -0.14109350740909576,
        0.17527389526367188,
        -0.028308872133493423,
        0.10678514093160629,
        0.04242654889822006,
        -0.06386375427246094,
        0.05709608271718025,
        -0.25304827094078064,
        -0.24430204927921295,
        0.05043036863207817
      ]
    },
    {
      "weights": [
        [
          -1.438403606414795,
          1.4021852016448975,
          -0.7498182654380798,
          0.44157713651657104,
          0.060807447880506516,
          0.08395494520664215,
          0.7406485080718994,
          1.496686577796936,
          0.45949941873550415,
          1.5045857429504395,
          1.1695376634597778,
          1.0444642305374146,
          1.3480035066604614,
          0.5539003014564514,
          0.10165911912918091,
          0.8702107071876526
        ]
      ],
      "biases": [
        -3.2288877964019775
      ]
    }
  ],
  "inputLookup": {
    "totalClouds[0]": 0,
    "lowClouds[0]": 1,
    "mediumClouds[0]": 2,
    "highClouds[0]": 3,
    "rainChance[0]": 4,
    "rainAmount[0]": 5,
    "windSpeed[0]": 6,
    "temperature[0]": 7,
    "totalClouds[1]": 8,
    "lowClouds[1]": 9,
    "mediumClouds[1]": 10,
    "highClouds[1]": 11,
    "rainChance[1]": 12,
    "rainAmount[1]": 13,
    "windSpeed[1]": 14,
    "temperature[1]": 15,
    "totalClouds[2]": 16,
    "lowClouds[2]": 17,
    "mediumClouds[2]": 18,
    "highClouds[2]": 19,
    "rainChance[2]": 20,
    "rainAmount[2]": 21,
    "windSpeed[2]": 22,
    "temperature[2]": 23,
    "totalClouds[3]": 24,
    "lowClouds[3]": 25,
    "mediumClouds[3]": 26,
    "highClouds[3]": 27,
    "rainChance[3]": 28,
    "rainAmount[3]": 29,
    "windSpeed[3]": 30,
    "temperature[3]": 31,
    "totalClouds[4]": 32,
    "lowClouds[4]": 33,
    "mediumClouds[4]": 34,
    "highClouds[4]": 35,
    "rainChance[4]": 36,
    "rainAmount[4]": 37,
    "windSpeed[4]": 38,
    "temperature[4]": 39,
    "exposureLength": 40,
    "totalClouds[5]": 41,
    "lowClouds[5]": 42,
    "mediumClouds[5]": 43,
    "highClouds[5]": 44,
    "rainChance[5]": 45,
    "rainAmount[5]": 46,
    "windSpeed[5]": 47,
    "temperature[5]": 48
  },
  "inputLookupLength": 49,
  "outputLookup": {
    "totalImagingTime": 0
  },
  "outputLookupLength": 1,
  "options": {
    "inputSize": 0,
    "outputSize": 0,
    "binaryThresh": 0.5,
    "hiddenLayers": [
      16,
      16,
      16
    ]
  },
  "trainOpts": {
    "activation": "sigmoid",
    "iterations": 20000,
    "errorThresh": 0.005,
    "log": false,
    "logPeriod": 10,
    "leakyReluAlpha": 0.01,
    "learningRate": 0.3,
    "momentum": 0.1,
    "callbackPeriod": 10,
    "timeout": "Infinity",
    "beta1": 0.9,
    "beta2": 0.999,
    "epsilon": 1e-8
  }
}