{
  "type": "NeuralNetworkGPU",
  "sizes": [
    41,
    16,
    16,
    16,
    1
  ],
  "layers": [
    {
      "weights": [],
      "biases": []
    },
    {
      "weights": [
        [
          -0.04414670914411545,
          0.1598159372806549,
          -0.11047323048114777,
          0.17704614996910095,
          -0.13117341697216034,
          -0.05690070614218712,
          0.18133728206157684,
          0.11741342395544052,
          0.21096131205558777,
          0.19111931324005127,
          0.09380564093589783,
          -0.1557786464691162,
          0.010243978351354599,
          -0.0326358824968338,
          0.14521096646785736,
          0.11317222565412521,
          -0.1304861158132553,
          -0.18685080111026764,
          0.14603208005428314,
          0.041830237954854965,
          0.04666132107377052,
          0.1954527348279953,
          0.17168788611888885,
          0.10053148120641708,
          0.08024588227272034,
          0.022545985877513885,
          0.04272441193461418,
          -0.17450697720050812,
          -0.17142829298973083,
          -0.03399274870753288,
          0.03761468455195427,
          -0.056923758238554,
          -0.13782833516597748,
          0.1350489854812622,
          -0.19581149518489838,
          0.08377937227487564,
          -0.030910251662135124,
          -0.10239791870117188,
          -0.07950549572706223,
          -0.032348986715078354,
          -0.17876459658145905
        ],
        [
          0.04827183112502098,
          -0.04549718648195267,
          -0.06628718972206116,
          -0.1232682392001152,
          -0.17372293770313263,
          0.021347027271986008,
          -0.02036067470908165,
          0.01165641751140356,
          -0.17185641825199127,
          -0.31125763058662415,
          0.06395567953586578,
          -0.1194407194852829,
          -0.17884564399719238,
          -0.07172410935163498,
          -0.19126631319522858,
          0.13409438729286194,
          -0.1408502459526062,
          0.10692963749170303,
          0.1456616222858429,
          -0.049909353256225586,
          0.007820003665983677,
          -0.08564235270023346,
          -0.18433831632137299,
          0.07009890675544739,
          0.08849576860666275,
          0.009975315071642399,
          -0.1997043788433075,
          0.08042692393064499,
          0.11523455381393433,
          0.18212246894836426,
          -0.059370651841163635,
          -0.06220260262489319,
          0.05934097245335579,
          0.061861105263233185,
          -0.056679338216781616,
          0.07738575339317322,
          0.1733570098876953,
          0.03270037844777107,
          -0.03335842862725258,
          0.17110350728034973,
          -0.014604915864765644
        ],
        [
          0.3793407380580902,
          0.8566601872444153,
          -0.6979687213897705,
          0.1685393899679184,
          0.42657315731048584,
          -0.011152960360050201,
          0.07009407132863998,
          -0.10924723744392395,
          1.0841810703277588,
          1.2683100700378418,
          -0.016208158805966377,
          -0.07764163613319397,
          -0.10999482125043869,
          0.14580696821212769,
          -0.09847142547369003,
          -0.2712996304035187,
          0.07444127649068832,
          -0.09407606720924377,
          0.1199871078133583,
          -0.13773539662361145,
          -0.16905134916305542,
          -0.05393936112523079,
          0.06604679673910141,
          -0.17364490032196045,
          0.04520225524902344,
          0.19961696863174438,
          0.1160712018609047,
          -0.137993723154068,
          -0.13844898343086243,
          -0.08371639251708984,
          0.1701614260673523,
          -0.23583713173866272,
          0.09413103014230728,
          -0.189665287733078,
          0.15955409407615662,
          0.10395541042089462,
          0.2127005159854889,
          0.15100102126598358,
          -0.041223589330911636,
          -0.04125877842307091,
          0.05883553624153137
        ],
        [
          0.025068756192922592,
          -0.22691595554351807,
          0.09702489525079727,
          0.16140112280845642,
          -0.10548017919063568,
          0.07775455713272095,
          0.11280445009469986,
          0.11797574162483215,
          -0.3752090632915497,
          -0.23630677163600922,
          -0.048183731734752655,
          -0.05752822756767273,
          -0.05906149744987488,
          0.06354792416095734,
          -0.10140014439821243,
          -0.16708426177501678,
          0.07487373799085617,
          -0.08498459309339523,
          0.004656293895095587,
          0.049266111105680466,
          -0.04824097454547882,
          -0.11747661232948303,
          -0.05948731303215027,
          0.10484094172716141,
          0.10433075577020645,
          -0.09531696885824203,
          -0.00020812571165151894,
          -0.1750607043504715,
          0.05113036930561066,
          0.11843987554311752,
          0.10467252880334854,
          0.15177001059055328,
          -0.03367524966597557,
          -0.008030702359974384,
          0.13729360699653625,
          -0.13546733558177948,
          0.09541594237089157,
          0.03661973029375076,
          -0.14873045682907104,
          -0.05233893170952797,
          0.16215747594833374
        ],
        [
          0.42295464873313904,
          0.9322447776794434,
          -0.7060546278953552,
          0.14484906196594238,
          0.2701735198497772,
          -0.17520764470100403,
          -0.18351507186889648,
          -0.011854469776153564,
          0.9722384810447693,
          1.1412091255187988,
          -0.13982699811458588,
          -0.1762586385011673,
          0.061458274722099304,
          0.16464726626873016,
          -0.0001907508121803403,
          -0.039077531546354294,
          0.20805728435516357,
          0.09523823857307434,
          0.05002801865339279,
          -0.11092918366193771,
          0.004462263081222773,
          -0.010249443352222443,
          0.20410843193531036,
          -0.34525781869888306,
          0.10412537306547165,
          -0.04639917239546776,
          -0.13658662140369415,
          -0.28367453813552856,
          0.06627703458070755,
          -0.16546712815761566,
          -0.1036597415804863,
          0.01080111600458622,
          0.0071936058811843395,
          0.17298844456672668,
          -0.032127633690834045,
          -0.06211462244391441,
          -0.1715908646583557,
          0.08583822101354599,
          -0.03601215034723282,
          -0.10081397742033005,
          0.04276321083307266
        ],
        [
          0.08171048015356064,
          0.03186946362257004,
          0.16562053561210632,
          0.10275524854660034,
          -0.005541353020817041,
          0.06541580706834793,
          0.13442949950695038,
          -0.05815524980425835,
          0.08774244785308838,
          -0.13638855516910553,
          0.06465908885002136,
          0.0862758681178093,
          0.14585652947425842,
          0.0372038371860981,
          -0.0931604728102684,
          0.010086438618600368,
          0.07414042949676514,
          -0.19430741667747498,
          0.07068750262260437,
          0.15215849876403809,
          -0.18528267741203308,
          -0.15855006873607635,
          0.18070101737976074,
          0.17188233137130737,
          0.036397784948349,
          -0.05830968916416168,
          0.17441938817501068,
          -0.1687949299812317,
          -0.053557492792606354,
          0.12359597533941269,
          0.012505324557423592,
          0.020165910944342613,
          -0.1068873405456543,
          -0.0470765195786953,
          -0.048975054174661636,
          0.17082341015338898,
          -0.03552044555544853,
          0.12799713015556335,
          0.014979403465986252,
          -0.12465308606624603,
          -0.009517013095319271
        ],
        [
          -0.09794878214597702,
          -0.4300503134727478,
          0.24802377820014954,
          -0.1873510777950287,
          -0.1322324424982071,
          -0.010095885023474693,
          0.14555881917476654,
          -0.20289753377437592,
          -0.39023125171661377,
          -0.6365769505500793,
          0.10474086552858353,
          -0.1747221201658249,
          -0.15905426442623138,
          0.18028129637241364,
          -0.0793912261724472,
          -0.08840514719486237,
          0.05271746963262558,
          -0.12386975437402725,
          -0.0083666006103158,
          0.06110827997326851,
          -0.1755286008119583,
          -0.17189227044582367,
          -0.18906398117542267,
          0.08159774541854858,
          0.17378561198711395,
          0.16607508063316345,
          0.035340968519449234,
          0.13184037804603577,
          0.07194941490888596,
          0.10391166806221008,
          0.11324319243431091,
          -0.08426274359226227,
          -0.026393530890345573,
          0.18355430662631989,
          0.015530643984675407,
          0.14887285232543945,
          -0.21102549135684967,
          -0.058772481977939606,
          0.03128586336970329,
          0.11217372119426727,
          -0.1058039590716362
        ],
        [
          0.009533120319247246,
          -0.4973932206630707,
          0.049907296895980835,
          0.1868036538362503,
          -0.31172075867652893,
          0.07955590635538101,
          -0.13564643263816833,
          0.09631131589412689,
          -0.358622282743454,
          -0.7250403165817261,
          0.13900519907474518,
          0.08689004927873611,
          -0.18147122859954834,
          -0.16406522691249847,
          -0.1802622526884079,
          0.12151222676038742,
          0.02064409665763378,
          0.11073249578475952,
          -0.06430336833000183,
          0.11820735782384872,
          0.02655038796365261,
          -0.11635730415582657,
          -0.09677335619926453,
          0.11862016469240189,
          0.1676885485649109,
          0.10700153559446335,
          0.09247931838035583,
          -0.18264922499656677,
          0.0692056193947792,
          -0.07757936418056488,
          -0.00011480273678898811,
          -0.12567639350891113,
          0.003739128354936838,
          -0.08753301203250885,
          -0.17085210978984833,
          0.14526936411857605,
          0.14365410804748535,
          -0.07706034928560257,
          0.1273200958967209,
          0.1232634112238884,
          -0.16065257787704468
        ],
        [
          -0.2177564650774002,
          -0.06457129120826721,
          0.027806518599390984,
          0.12505292892456055,
          -0.16377556324005127,
          -0.08722792565822601,
          -0.15469415485858917,
          0.0606774166226387,
          0.026595400646328926,
          -0.2409338653087616,
          -0.10700111836194992,
          0.14647206664085388,
          0.02977774105966091,
          0.16123011708259583,
          0.12997783720493317,
          0.17837369441986084,
          -0.07433747500181198,
          0.13453571498394012,
          0.06499519944190979,
          -0.013513700105249882,
          0.15245376527309418,
          0.18282844126224518,
          -0.08009523153305054,
          -0.053681742399930954,
          -0.014909842982888222,
          -0.020963696762919426,
          -0.1666591465473175,
          -0.08466380089521408,
          0.1181124746799469,
          -0.002152400789782405,
          0.17927181720733643,
          0.04737866297364235,
          -0.021263044327497482,
          -0.11955900490283966,
          0.028362413868308067,
          0.1443035900592804,
          -0.0652366429567337,
          -0.028449639678001404,
          -0.12104564160108566,
          -0.06967756897211075,
          -0.11778326332569122
        ],
        [
          -0.3156208097934723,
          -0.7994324564933777,
          0.757313072681427,
          -0.05390853062272072,
          -0.2940586805343628,
          -0.1165885403752327,
          -0.11523282527923584,
          -0.01600295677781105,
          -0.752298891544342,
          -1.291375756263733,
          -0.07823392748832703,
          -0.14801184833049774,
          -0.0734885036945343,
          -0.058644432574510574,
          -0.04108607769012451,
          0.08017224073410034,
          0.004971061833202839,
          0.1901441067457199,
          0.05906594544649124,
          -0.04298302158713341,
          -0.20650562644004822,
          -0.18839944899082184,
          0.01712975464761257,
          0.21716183423995972,
          -0.19111543893814087,
          -0.18815089762210846,
          0.1093239113688469,
          -0.04220672324299812,
          0.04724530503153801,
          -0.000027141639293404296,
          -0.046912774443626404,
          0.09854760766029358,
          0.06213034316897392,
          -0.17248868942260742,
          0.06206899136304855,
          0.26277923583984375,
          -0.034665193408727646,
          0.006991678383201361,
          0.1542903482913971,
          0.26614701747894287,
          -0.06017496809363365
        ],
        [
          -0.010695111937820911,
          -0.4533346891403198,
          0.11506514251232147,
          -0.0822712853550911,
          -0.04259071499109268,
          0.006224839482456446,
          -0.16434332728385925,
          0.017161298543214798,
          -0.13124756515026093,
          -0.4883476793766022,
          0.1166682317852974,
          0.11381207406520844,
          -0.02648526057600975,
          0.17390844225883484,
          0.17957286536693573,
          -0.08742765337228775,
          -0.08902223408222198,
          0.008290220983326435,
          -0.18558339774608612,
          0.06142682209610939,
          -0.06194698438048363,
          0.15465757250785828,
          -0.19682547450065613,
          -0.033916812390089035,
          0.054344113916158676,
          -0.044444166123867035,
          -0.06033347174525261,
          0.1465478539466858,
          -0.0962878093123436,
          0.17074424028396606,
          -0.16291943192481995,
          -0.09021451324224472,
          -0.20270638167858124,
          -0.055508896708488464,
          -0.09635403007268906,
          0.08176200836896896,
          0.05934120714664459,
          -0.18878400325775146,
          0.11850938200950623,
          -0.22954753041267395,
          -0.15900222957134247
        ],
        [
          0.25577524304389954,
          0.43403568863868713,
          -0.599790096282959,
          0.07651418447494507,
          0.11055433750152588,
          -0.05393511801958084,
          -0.0267927385866642,
          0.0881987065076828,
          0.8562995195388794,
          0.9863470196723938,
          -0.015183902345597744,
          0.09962860494852066,
          0.13983818888664246,
          -0.15987156331539154,
          0.17920899391174316,
          -0.15044660866260529,
          0.0774092972278595,
          -0.1726021021604538,
          0.11564699560403824,
          0.015283207409083843,
          -0.1074896901845932,
          -0.14760610461235046,
          0.06313339620828629,
          0.09919700026512146,
          0.1390441358089447,
          -0.17224054038524628,
          0.1278424859046936,
          0.11116820573806763,
          0.15768857300281525,
          0.04066465049982071,
          -0.13312944769859314,
          -0.03720274940133095,
          -0.07710462808609009,
          0.11566827446222305,
          0.16299113631248474,
          -0.07808421552181244,
          -0.10956166684627533,
          -0.18281696736812592,
          0.14984872937202454,
          -0.1642954796552658,
          -0.06859889626502991
        ],
        [
          -0.05184118449687958,
          0.040159743279218674,
          0.19380664825439453,
          0.16492505371570587,
          -0.006536082364618778,
          -0.12106569856405258,
          -0.17292699217796326,
          0.01839340664446354,
          0.06216400861740112,
          -0.0851554200053215,
          -0.1978413462638855,
          0.19751831889152527,
          0.1330144852399826,
          -0.17430490255355835,
          -0.1926029622554779,
          -0.007983316667377949,
          0.031086545437574387,
          0.18596544861793518,
          0.11415845900774002,
          0.14184056222438812,
          -0.09810487926006317,
          0.10178620368242264,
          -0.17780661582946777,
          -0.11508248746395111,
          -0.12598197162151337,
          -0.04661806300282478,
          -0.11184267699718475,
          0.10934276878833771,
          0.14125198125839233,
          -0.012393170036375523,
          -0.035372402518987656,
          0.0921526849269867,
          -0.08940134942531586,
          0.1432020217180252,
          0.025727974250912666,
          -0.1521291881799698,
          0.16784663498401642,
          0.06014644354581833,
          -0.17568331956863403,
          0.030905824154615402,
          0.04211645573377609
        ],
        [
          -0.3181855380535126,
          -0.1553264856338501,
          0.28346148133277893,
          -0.17975357174873352,
          -0.04259476065635681,
          0.1382465660572052,
          0.10093843191862106,
          0.07955329865217209,
          -0.3719154894351959,
          -0.5764133930206299,
          -0.06766295433044434,
          0.0956290140748024,
          0.07166635990142822,
          -0.047553662210702896,
          -0.07539203017950058,
          0.15991149842739105,
          -0.07966318726539612,
          0.10354726016521454,
          0.08128071576356888,
          0.16926883161067963,
          0.041620731353759766,
          0.019342750310897827,
          0.1184503510594368,
          -0.020654641091823578,
          0.15206541121006012,
          0.015230230987071991,
          0.11559879034757614,
          -0.09801054745912552,
          -0.12585309147834778,
          0.05939783155918121,
          0.14683328568935394,
          -0.19349680840969086,
          0.054337531328201294,
          0.007044035941362381,
          -0.06982140988111496,
          0.1680065542459488,
          -0.14019516110420227,
          -0.1564260572195053,
          -0.004201697185635567,
          -0.12176229804754257,
          0.001762276515364647
        ],
        [
          -0.3761139512062073,
          -0.9896538257598877,
          0.6278946399688721,
          -0.06843622028827667,
          -0.4706234037876129,
          0.197744220495224,
          -0.1547384411096573,
          0.1563456505537033,
          -0.9925942420959473,
          -1.449851393699646,
          -0.06959277391433716,
          -0.1224505752325058,
          -0.0542382076382637,
          -0.08841409534215927,
          0.011034228838980198,
          -0.042805444449186325,
          0.05111895501613617,
          0.041663460433483124,
          -0.10359112173318863,
          0.27620911598205566,
          -0.1398831307888031,
          -0.19299374520778656,
          -0.15783259272575378,
          0.13052305579185486,
          -0.018580039963126183,
          0.017377832904458046,
          -0.14163090288639069,
          0.055399175733327866,
          0.11894714832305908,
          -0.1213168278336525,
          0.12504050135612488,
          0.09672638028860092,
          -0.21865683794021606,
          0.08384107053279877,
          -0.20965637266635895,
          0.06212328374385834,
          -0.12508682906627655,
          0.13309873640537262,
          0.054332755506038666,
          0.10780169814825058,
          -0.21086528897285461
        ],
        [
          -0.23694853484630585,
          -0.34025758504867554,
          -0.018987160176038742,
          0.03418463468551636,
          -0.1345207840204239,
          -0.09952355921268463,
          0.070870541036129,
          -0.0072168526239693165,
          -0.24112017452716827,
          -0.3983735740184784,
          0.13453465700149536,
          0.14972960948944092,
          0.1337474286556244,
          0.024706820026040077,
          0.04200242459774017,
          -0.08947093784809113,
          0.1368144154548645,
          0.0636179968714714,
          -0.172789067029953,
          -0.16675664484500885,
          -0.20994442701339722,
          -0.04777931049466133,
          0.05269230157136917,
          0.010458385571837425,
          -0.031695667654275894,
          -0.11008153855800629,
          0.0804242193698883,
          0.16416113078594208,
          0.18309786915779114,
          0.030608635395765305,
          -0.10476243495941162,
          0.012231240049004555,
          -0.12421748042106628,
          -0.18547159433364868,
          -0.04390911012887955,
          0.013015756383538246,
          -0.051887065172195435,
          -0.1602884829044342,
          -0.04150223731994629,
          -0.1427200585603714,
          -0.013119771145284176
        ]
      ],
      "biases": [
        0.2075849324464798,
        -0.031109994277358055,
        -0.07716354727745056,
        -0.16270241141319275,
        -0.01790451817214489,
        -0.20140007138252258,
        -0.05398428812623024,
        -0.1883758306503296,
        -0.13871867954730988,
        0.02217402309179306,
        0.08799314498901367,
        -0.26179659366607666,
        0.19932100176811218,
        -0.20898504555225372,
        0.3500383198261261,
        0.02259903959929943
      ]
    },
    {
      "weights": [
        [
          -0.028289956972002983,
          -0.1495693027973175,
          -0.29291832447052,
          -0.1314021795988083,
          -0.2272305190563202,
          -0.10328696668148041,
          0.1588280349969864,
          -0.12183988839387894,
          -0.12599392235279083,
          -0.06079331412911415,
          0.01224003080278635,
          0.039366215467453,
          0.1437234729528427,
          -0.12380967289209366,
          -0.005522587802261114,
          0.18579722940921783
        ],
        [
          -0.27381768822669983,
          0.18032126128673553,
          -0.6278373003005981,
          0.19088275730609894,
          -0.6744007468223572,
          -0.028410814702510834,
          0.22441089153289795,
          0.26832932233810425,
          0.051470834761857986,
          0.29469168186187744,
          -0.01916397549211979,
          -0.5411167144775391,
          -0.17871713638305664,
          0.12695547938346863,
          0.46702685952186584,
          0.11679191887378693
        ],
        [
          -0.27835172414779663,
          -0.12257695198059082,
          -0.6317796111106873,
          0.2915678322315216,
          -0.7197649478912354,
          0.05938645824790001,
          0.1536000669002533,
          0.18047194182872772,
          -0.027453135699033737,
          0.6397978663444519,
          0.14740827679634094,
          -0.48270827531814575,
          -0.07908160239458084,
          0.20368431508541107,
          0.7386001944541931,
          0.26405978202819824
        ],
        [
          -0.22297066450119019,
          0.06060994789004326,
          -0.4415549039840698,
          0.19336266815662384,
          -0.5534216165542603,
          -0.0846572145819664,
          -0.019522149115800858,
          0.3190627694129944,
          0.014899292029440403,
          0.23091892898082733,
          0.007883087731897831,
          -0.36116284132003784,
          0.10704976320266724,
          0.11114677786827087,
          0.4356550872325897,
          0.20186325907707214
        ],
        [
          0.04264644533395767,
          0.14973145723342896,
          -0.7016758918762207,
          0.17261438071727753,
          -0.5679762959480286,
          0.08876599371433258,
          0.23671333491802216,
          0.25457268953323364,
          -0.08262807875871658,
          0.38813817501068115,
          -0.06375143676996231,
          -0.3267628252506256,
          -0.2170255333185196,
          0.1123277023434639,
          0.591030478477478,
          -0.07505789399147034
        ],
        [
          -0.07297154515981674,
          -0.087211474776268,
          -0.24156661331653595,
          -0.09259113669395447,
          -0.014497172087430954,
          -0.17810729146003723,
          -0.09463603794574738,
          -0.09813980013132095,
          -0.0979386419057846,
          0.05697350576519966,
          0.1583213210105896,
          -0.23286296427249908,
          -0.08743973821401596,
          0.13897478580474854,
          0.22271931171417236,
          0.1858641803264618
        ],
        [
          -0.2515721321105957,
          0.13116511702537537,
          -0.7181819677352905,
          0.09399140626192093,
          -0.8330596089363098,
          -0.15949460864067078,
          0.18335379660129547,
          0.35398349165916443,
          -0.04550052061676979,
          0.6489483714103699,
          0.06962098926305771,
          -0.6667886972427368,
          0.057230133563280106,
          0.31690454483032227,
          0.813866376876831,
          0.027396755293011665
        ],
        [
          -0.08212347328662872,
          -0.06507638841867447,
          -0.8896805047988892,
          0.009001434780657291,
          -0.7447124719619751,
          0.1506277173757553,
          0.24715620279312134,
          0.2307312935590744,
          0.0434381328523159,
          0.6849097013473511,
          0.21951256692409515,
          -0.6095597743988037,
          0.03021976165473461,
          0.2401079386472702,
          0.8807370066642761,
          0.07112531363964081
        ],
        [
          -0.1477966606616974,
          -0.1444176584482193,
          -0.7579947113990784,
          0.006252753548324108,
          -0.7964953184127808,
          -0.02738403156399727,
          0.3433637320995331,
          0.20407962799072266,
          0.02645481750369072,
          0.7064960598945618,
          0.19768774509429932,
          -0.5554070472717285,
          0.03296775370836258,
          0.12450378388166428,
          0.6759310364723206,
          0.16637517511844635
        ],
        [
          -0.18942660093307495,
          -0.08979299664497375,
          -0.5156858563423157,
          0.0636080950498581,
          -0.3975140154361725,
          0.058224279433488846,
          0.26691070199012756,
          0.1458422988653183,
          -0.029531341046094894,
          0.1570168137550354,
          0.20031622052192688,
          -0.14516809582710266,
          0.006925112567842007,
          0.2044488787651062,
          0.3802523612976074,
          0.2343554049730301
        ],
        [
          -0.13466273248195648,
          0.19509729743003845,
          -0.8283296823501587,
          0.12312762439250946,
          -0.5711266994476318,
          -0.20549626648426056,
          0.1963864266872406,
          0.03744230791926384,
          0.21399925649166107,
          0.7086575627326965,
          0.029080474749207497,
          -0.6176716089248657,
          -0.17668874561786652,
          0.32589930295944214,
          0.7857761383056641,
          0.24068014323711395
        ],
        [
          0.03695346415042877,
          0.08138777315616608,
          -0.5439696311950684,
          -0.09418773651123047,
          -0.7044486403465271,
          -0.18080486357212067,
          0.25817185640335083,
          0.35803279280662537,
          0.06084427610039711,
          0.6170617341995239,
          0.2730461061000824,
          -0.6437720656394958,
          0.05155577510595322,
          0.13593579828739166,
          0.5158509016036987,
          0.10662241280078888
        ],
        [
          -0.1848699003458023,
          -0.10309967398643494,
          -0.21372085809707642,
          -0.1513376533985138,
          -0.36478790640830994,
          0.10299240052700043,
          -0.046546440571546555,
          0.2522544860839844,
          0.039590466767549515,
          0.2800426185131073,
          -0.01507596019655466,
          -0.38797757029533386,
          0.08365795016288757,
          -0.056291695684194565,
          0.17687653005123138,
          -0.05940724536776543
        ],
        [
          -0.12242650985717773,
          -0.11259189248085022,
          -0.2079150676727295,
          -0.01044029463082552,
          -0.19555410742759705,
          -0.14081807434558868,
          -0.12520819902420044,
          -0.10138428211212158,
          -0.0925808921456337,
          -0.004782422911375761,
          -0.13735051453113556,
          -0.1984155774116516,
          -0.016130708158016205,
          0.09640441834926605,
          -0.051855623722076416,
          -0.003538916353136301
        ],
        [
          -0.003260883968323469,
          0.0477905236184597,
          -0.6503408551216125,
          0.16304169595241547,
          -0.7776092290878296,
          -0.03922517970204353,
          0.3179772198200226,
          0.21596455574035645,
          -0.15817031264305115,
          0.4858667254447937,
          0.2526974081993103,
          -0.411702960729599,
          -0.025500895455479622,
          0.027696052566170692,
          0.57779860496521,
          0.22342094779014587
        ],
        [
          -0.13818585872650146,
          0.031008625403046608,
          -0.7938318848609924,
          0.11010532081127167,
          -0.39739686250686646,
          0.040107738226652145,
          0.19374100863933563,
          0.046929650008678436,
          0.1627471148967743,
          0.5314635038375854,
          0.253619909286499,
          -0.39210447669029236,
          -0.0717819556593895,
          0.17890459299087524,
          0.5717391967773438,
          -0.09751880913972855
        ]
      ],
      "biases": [
        -0.14374208450317383,
        0.0967835783958435,
        -0.20133870840072632,
        -0.15070797502994537,
        -0.06355027854442596,
        0.07663145661354065,
        -0.01837945729494095,
        -0.21840018033981323,
        -0.048650603741407394,
        -0.09098725765943527,
        -0.16742196679115295,
        -0.22575058043003082,
        0.08171278983354568,
        -0.030568961054086685,
        -0.15122750401496887,
        -0.20504263043403625
      ]
    },
    {
      "weights": [
        [
          0.1481911540031433,
          -0.45681264996528625,
          -0.40135493874549866,
          -0.015414618887007236,
          -0.3321611285209656,
          -0.07357483357191086,
          -0.48152732849121094,
          -0.5882940292358398,
          -0.4103231132030487,
          -0.08607958257198334,
          -0.3620048463344574,
          -0.11442575603723526,
          -0.22943097352981567,
          0.01573360338807106,
          -0.4299263060092926,
          -0.2281503975391388
        ],
        [
          0.1372736245393753,
          -0.39480677247047424,
          -0.2960713505744934,
          -0.0957852378487587,
          -0.25207263231277466,
          -0.2082558274269104,
          -0.3552539050579071,
          -0.3207063376903534,
          -0.4942021369934082,
          -0.16142021119594574,
          -0.41041475534439087,
          -0.18971262872219086,
          -0.08299573510885239,
          0.014987913891673088,
          -0.28866681456565857,
          -0.45648160576820374
        ],
        [
          0.11220258474349976,
          -0.40554511547088623,
          -0.5116775631904602,
          -0.19209162890911102,
          -0.20662829279899597,
          0.0125559251755476,
          -0.49191176891326904,
          -0.3285771906375885,
          -0.4984266459941864,
          -0.08555363863706589,
          -0.27302953600883484,
          -0.3674933910369873,
          0.06498435884714127,
          0.1820974498987198,
          -0.21209022402763367,
          -0.25273287296295166
        ],
        [
          -0.027939358726143837,
          -0.3895815908908844,
          -0.2500529885292053,
          -0.3311927914619446,
          -0.20931164920330048,
          -0.14939972758293152,
          -0.26154398918151855,
          -0.47549474239349365,
          -0.5001155734062195,
          -0.10829039663076401,
          -0.525895357131958,
          -0.2354716807603836,
          0.026332814246416092,
          -0.03336743637919426,
          -0.37595781683921814,
          -0.08070973306894302
        ],
        [
          0.11266788840293884,
          -0.09994727373123169,
          -0.32786768674850464,
          -0.08466648310422897,
          -0.3028129041194916,
          0.045058779418468475,
          -0.18886910378932953,
          -0.4201720654964447,
          -0.4418746531009674,
          -0.13997364044189453,
          -0.512920618057251,
          -0.41366279125213623,
          -0.09948936849832535,
          -0.0024192985147237778,
          -0.43204444646835327,
          -0.24338869750499725
        ],
        [
          0.14699441194534302,
          -0.16097217798233032,
          -0.28626513481140137,
          -0.21122805774211884,
          -0.09537462890148163,
          0.11388302594423294,
          -0.6046604514122009,
          -0.6132344007492065,
          -0.3806908428668976,
          -0.15816739201545715,
          -0.265179306268692,
          -0.460694819688797,
          0.04794759303331375,
          0.039886970072984695,
          -0.3451288640499115,
          -0.5168241858482361
        ],
        [
          -0.10263282805681229,
          -0.34473419189453125,
          -0.5592390894889832,
          -0.259242981672287,
          -0.262419193983078,
          0.1417735368013382,
          -0.5839933156967163,
          -0.5171827673912048,
          -0.41150516271591187,
          -0.033031366765499115,
          -0.5315625667572021,
          -0.19381292164325714,
          -0.12386828660964966,
          0.23122239112854004,
          -0.26466378569602966,
          -0.16360945999622345
        ],
        [
          -0.09345380961894989,
          -0.1317938268184662,
          -0.38647517561912537,
          -0.31543001532554626,
          -0.1296187937259674,
          -0.08084356784820557,
          -0.2589205503463745,
          -0.2260415256023407,
          -0.3262260854244232,
          -0.06626462936401367,
          -0.4684123396873474,
          -0.4367861747741699,
          0.07929720729589462,
          0.061674509197473526,
          -0.35688647627830505,
          -0.4578985571861267
        ],
        [
          -0.10111415386199951,
          -0.30318138003349304,
          -0.23066465556621552,
          -0.30340585112571716,
          -0.35200849175453186,
          0.049303632229566574,
          -0.39856261014938354,
          -0.2744356393814087,
          -0.12633100152015686,
          -0.050182655453681946,
          -0.31780898571014404,
          -0.3727375566959381,
          -0.2121586799621582,
          -0.09175504744052887,
          -0.42871347069740295,
          -0.07412062585353851
        ],
        [
          -0.13334102928638458,
          -0.11421658098697662,
          -0.3535235524177551,
          -0.1158127635717392,
          -0.14131410419940948,
          0.007671902887523174,
          -0.5302561521530151,
          -0.2409694641828537,
          -0.1977785974740982,
          -0.4135061502456665,
          -0.15687766671180725,
          -0.34624144434928894,
          -0.22623445093631744,
          -0.2053009569644928,
          -0.28471240401268005,
          -0.22763362526893616
        ],
        [
          -0.033385828137397766,
          -0.07725989073514938,
          -0.14037619531154633,
          -0.21174976229667664,
          -0.40614956617355347,
          -0.2518298923969269,
          -0.09304706752300262,
          -0.34685206413269043,
          -0.2039453685283661,
          -0.38272735476493835,
          -0.3710746169090271,
          -0.20616503059864044,
          0.05289289727807045,
          -0.18124625086784363,
          -0.19923162460327148,
          -0.16474314033985138
        ],
        [
          0.02077062986791134,
          -0.21675513684749603,
          -0.216318279504776,
          -0.2843431234359741,
          -0.4177747666835785,
          0.060889944434165955,
          -0.4522903263568878,
          -0.32823827862739563,
          -0.24922806024551392,
          -0.12843313813209534,
          -0.24114830791950226,
          -0.4357168972492218,
          -0.29735586047172546,
          -0.043705739080905914,
          -0.33144810795783997,
          -0.09434127062559128
        ],
        [
          -0.0973479300737381,
          -0.33194345235824585,
          -0.18825241923332214,
          -0.26676374673843384,
          -0.3370855748653412,
          -0.05549219250679016,
          -0.17963427305221558,
          -0.24674776196479797,
          -0.443509042263031,
          -0.305553674697876,
          -0.3600572943687439,
          -0.3351081311702728,
          -0.2549608647823334,
          0.053784728050231934,
          -0.2583729922771454,
          -0.268155962228775
        ],
        [
          -0.03930728882551193,
          -0.13211874663829803,
          -0.10700375586748123,
          -0.1996236890554428,
          -0.091033436357975,
          -0.08605904877185822,
          -0.3144818842411041,
          -0.29687628149986267,
          -0.19378207623958588,
          -0.3065212070941925,
          -0.5011958479881287,
          -0.3505602777004242,
          -0.16544559597969055,
          -0.06326860934495926,
          -0.13829408586025238,
          -0.2795025408267975
        ],
        [
          -0.19300822913646698,
          -0.2666841745376587,
          -0.3458350598812103,
          -0.1679641455411911,
          -0.3856735825538635,
          -0.08833452314138412,
          -0.353463351726532,
          -0.46340635418891907,
          -0.433856725692749,
          -0.10947491973638535,
          -0.14687231183052063,
          -0.4630119800567627,
          0.06582029163837433,
          -0.1775863617658615,
          -0.198556050658226,
          -0.15798363089561462
        ],
        [
          -0.09282626956701279,
          -0.13426296412944794,
          -0.46020087599754333,
          -0.1820460557937622,
          -0.23745280504226685,
          -0.07024744898080826,
          -0.3470892608165741,
          -0.5003657937049866,
          -0.2629204988479614,
          -0.32098883390426636,
          -0.17723672091960907,
          -0.2690502405166626,
          -0.08103851228952408,
          -0.21131575107574463,
          -0.2613805830478668,
          -0.3155321478843689
        ]
      ],
      "biases": [
        0.2663117051124573,
        0.0970768854022026,
        -0.05722780525684357,
        0.08401652425527573,
        -0.06500165164470673,
        0.1384257674217224,
        0.26981136202812195,
        -0.14467470347881317,
        -0.14540517330169678,
        -0.13462567329406738,
        -0.33882492780685425,
        -0.07652872800827026,
        0.04904432222247124,
        -0.3462093770503998,
        -0.0008031954639591277,
        0.012337860651314259
      ]
    },
    {
      "weights": [
        [
          -1.2535407543182373,
          -1.0726608037948608,
          -1.0685467720031738,
          -1.086045742034912,
          -1.0184605121612549,
          -1.2634127140045166,
          -1.3563480377197266,
          -0.9714835286140442,
          -0.7845027446746826,
          -0.7534583210945129,
          -0.5296054482460022,
          -0.8763170838356018,
          -0.899028480052948,
          -0.6691693067550659,
          -0.9240869283676147,
          -0.9144524335861206
        ]
      ],
      "biases": [
        2.340344190597534
      ]
    }
  ],
  "inputLookup": {
    "totalClouds[0]": 0,
    "lowClouds[0]": 1,
    "mediumClouds[0]": 2,
    "highClouds[0]": 3,
    "rainChance[0]": 4,
    "rainAmount[0]": 5,
    "windSpeed[0]": 6,
    "temperature[0]": 7,
    "totalClouds[1]": 8,
    "lowClouds[1]": 9,
    "mediumClouds[1]": 10,
    "highClouds[1]": 11,
    "rainChance[1]": 12,
    "rainAmount[1]": 13,
    "windSpeed[1]": 14,
    "temperature[1]": 15,
    "totalClouds[2]": 16,
    "lowClouds[2]": 17,
    "mediumClouds[2]": 18,
    "highClouds[2]": 19,
    "rainChance[2]": 20,
    "rainAmount[2]": 21,
    "windSpeed[2]": 22,
    "temperature[2]": 23,
    "totalClouds[3]": 24,
    "lowClouds[3]": 25,
    "mediumClouds[3]": 26,
    "highClouds[3]": 27,
    "rainChance[3]": 28,
    "rainAmount[3]": 29,
    "windSpeed[3]": 30,
    "temperature[3]": 31,
    "totalClouds[4]": 32,
    "lowClouds[4]": 33,
    "mediumClouds[4]": 34,
    "highClouds[4]": 35,
    "rainChance[4]": 36,
    "rainAmount[4]": 37,
    "windSpeed[4]": 38,
    "temperature[4]": 39,
    "exposureLength": 40
  },
  "inputLookupLength": 41,
  "outputLookup": {
    "totalImagingTime": 0
  },
  "outputLookupLength": 1,
  "options": {
    "inputSize": 0,
    "outputSize": 0,
    "binaryThresh": 0.5,
    "hiddenLayers": [
      16,
      16,
      16
    ]
  },
  "trainOpts": {
    "activation": "sigmoid",
    "iterations": 20000,
    "errorThresh": 0.005,
    "log": false,
    "logPeriod": 10,
    "leakyReluAlpha": 0.01,
    "learningRate": 0.3,
    "momentum": 0.1,
    "callbackPeriod": 10,
    "timeout": "Infinity",
    "beta1": 0.9,
    "beta2": 0.999,
    "epsilon": 1e-8
  }
}