{
  "type": "NeuralNetworkGPU",
  "sizes": [
    49,
    16,
    16,
    16,
    1
  ],
  "layers": [
    {
      "weights": [],
      "biases": []
    },
    {
      "weights": [
        [
          0.16988882422447205,
          0.3185296654701233,
          0.38068193197250366,
          -0.24327605962753296,
          0.3531302809715271,
          -0.06120380759239197,
          -0.1505301147699356,
          -0.046975284814834595,
          0.6880978345870972,
          0.5379189252853394,
          0.4467860162258148,
          0.13702984154224396,
          0.1916297972202301,
          0.14308974146842957,
          -0.20322272181510925,
          -0.14208760857582092,
          0.05800784006714821,
          -0.09222706407308578,
          -0.15569889545440674,
          0.03412169963121414,
          -0.01982911303639412,
          0.16252072155475616,
          0.11929704993963242,
          -0.05518115311861038,
          0.060752447694540024,
          -0.0015822573332116008,
          0.05513321980834007,
          -0.2195582091808319,
          0.2008022665977478,
          -0.1665501594543457,
          -0.09735788404941559,
          -0.17457672953605652,
          0.29520609974861145,
          0.026600126177072525,
          -0.14823424816131592,
          -0.18854233622550964,
          -0.012489214539527893,
          -0.19178654253482819,
          0.152504563331604,
          -0.17602789402008057,
          0.3038402497768402,
          0.07496602088212967,
          0.09754620492458344,
          0.020922821015119553,
          0.1814495325088501,
          -0.17507138848304749,
          0.15137183666229248,
          -0.12853586673736572,
          0.3122848570346832
        ],
        [
          0.39547616243362427,
          0.6558746695518494,
          0.1689135581254959,
          -0.32969385385513306,
          0.3505038321018219,
          0.18625330924987793,
          0.11329241842031479,
          -0.13914582133293152,
          0.9478450417518616,
          0.7488902807235718,
          0.49532604217529297,
          0.31988754868507385,
          0.31290608644485474,
          -0.0349554717540741,
          0.12007023394107819,
          -0.14000801742076874,
          0.14271920919418335,
          -0.04148971289396286,
          0.06197388097643852,
          -0.05492794141173363,
          0.34066781401634216,
          0.19636067748069763,
          -0.19846545159816742,
          -0.02988886646926403,
          0.24699929356575012,
          0.16428494453430176,
          0.16146713495254517,
          -0.27931734919548035,
          0.1826227605342865,
          0.015301043167710304,
          -0.15772579610347748,
          -0.17574964463710785,
          0.36074307560920715,
          0.1678420454263687,
          -0.12150756269693375,
          -0.022053522989153862,
          0.4264169931411743,
          -0.16653339564800262,
          0.07813974469900131,
          -0.03892204537987709,
          0.2900950014591217,
          0.08934818208217621,
          0.05357702076435089,
          -0.25251755118370056,
          0.07024327665567398,
          0.06891194730997086,
          -0.1651228368282318,
          -0.34859952330589294,
          0.34912070631980896
        ],
        [
          0.12447594851255417,
          0.13699737191200256,
          -0.037602003663778305,
          -0.08148544281721115,
          -0.02985057421028614,
          -0.012900125235319138,
          -0.16810549795627594,
          -0.07894726097583771,
          0.24584676325321198,
          0.09208463132381439,
          0.026929348707199097,
          -0.04296677187085152,
          0.21123400330543518,
          0.14899811148643494,
          -0.05480166897177696,
          0.0737689808011055,
          -0.039850831031799316,
          0.09180303663015366,
          -0.040957216173410416,
          -0.1812763214111328,
          0.13059017062187195,
          -0.06401778012514114,
          0.02269485779106617,
          0.12429129332304001,
          0.2129504382610321,
          0.16367505490779877,
          0.06770064681768417,
          0.030691025778651237,
          0.20484983921051025,
          -0.09964045882225037,
          0.0684269368648529,
          0.14188501238822937,
          -0.05179203301668167,
          -0.13042674958705902,
          0.112371526658535,
          -0.06946612149477005,
          -0.04261263832449913,
          0.06040357053279877,
          0.02063506469130516,
          -0.01368582621216774,
          -0.13641595840454102,
          -0.15831950306892395,
          0.16896958649158478,
          0.0579138807952404,
          0.14197872579097748,
          -0.05331014469265938,
          -0.14495301246643066,
          0.1518252193927765,
          -0.03995789214968681
        ],
        [
          0.24662618339061737,
          0.6348990201950073,
          0.4382175803184509,
          -0.3229924440383911,
          0.27614259719848633,
          0.09499762207269669,
          0.02590409852564335,
          -0.21740099787712097,
          1.1941741704940796,
          1.0490174293518066,
          0.6134371161460876,
          0.47490376234054565,
          0.44400614500045776,
          -0.16683079302310944,
          0.025260204449295998,
          -0.002317288424819708,
          0.12550151348114014,
          0.02994326688349247,
          -0.028695860877633095,
          -0.12330418825149536,
          0.4305974841117859,
          -0.10552707314491272,
          -0.16704502701759338,
          -0.1860894411802292,
          0.22908896207809448,
          0.09647073596715927,
          -0.20317783951759338,
          0.0007766654016450047,
          0.4658161401748657,
          -0.04408269375562668,
          0.0014488791348412633,
          -0.05212701857089996,
          0.45218223333358765,
          -0.17594239115715027,
          -0.07541019469499588,
          -0.225666806101799,
          0.23495033383369446,
          0.18202465772628784,
          0.1460864543914795,
          -0.04656826704740524,
          0.26489800214767456,
          0.07682064175605774,
          -0.0399002768099308,
          -0.3126366138458252,
          0.15269453823566437,
          0.10646254569292068,
          0.05293605849146843,
          -0.18321482837200165,
          0.40081870555877686
        ],
        [
          -0.1159566268324852,
          0.04147155210375786,
          0.05258713662624359,
          -0.08131151646375656,
          -0.1511935591697693,
          0.14784486591815948,
          0.15115118026733398,
          -0.15190881490707397,
          -0.18730394542217255,
          -0.12918764352798462,
          0.058397743850946426,
          -0.010958489030599594,
          0.04735623300075531,
          0.07228453457355499,
          -0.005326411221176386,
          0.06516136974096298,
          -0.03188617527484894,
          -0.10389450937509537,
          -0.09596780687570572,
          0.21732930839061737,
          -0.09510154277086258,
          -0.06355424225330353,
          0.003780091879889369,
          -0.06649989634752274,
          -0.21737875044345856,
          -0.03305123373866081,
          0.1841001957654953,
          -0.0602608360350132,
          -0.1719971001148224,
          -0.13227514922618866,
          0.06048638001084328,
          0.014003588818013668,
          0.13609996438026428,
          -0.09702053666114807,
          -0.05588189885020256,
          -0.019806435331702232,
          -0.08110564202070236,
          0.14905813336372375,
          0.1735694259405136,
          -0.16534052789211273,
          0.05147215723991394,
          -0.13265864551067352,
          0.005973323713988066,
          0.14592520892620087,
          -0.10596754401922226,
          0.06693135201931,
          0.03970642760396004,
          0.07222729176282883,
          -0.11606622487306595
        ],
        [
          0.07291653007268906,
          0.18369536101818085,
          0.16625484824180603,
          -0.1450040489435196,
          0.2709082365036011,
          0.19362767040729523,
          0.111811563372612,
          -0.1269470602273941,
          0.6714391112327576,
          0.5096530914306641,
          0.35915446281433105,
          0.13494223356246948,
          0.2595476806163788,
          -0.17028756439685822,
          -0.10894504934549332,
          -0.0708511620759964,
          0.012990503571927547,
          0.11564494669437408,
          -0.17549218237400055,
          -0.04187672957777977,
          0.1909826248884201,
          -0.056619253009557724,
          -0.11307983845472336,
          0.07863514125347137,
          0.12707069516181946,
          0.11256667226552963,
          -0.13877592980861664,
          -0.24716487526893616,
          0.0676807314157486,
          -0.10248183459043503,
          -0.06623712927103043,
          -0.26601704955101013,
          0.3287241458892822,
          0.05121152102947235,
          -0.08495362848043442,
          -0.09838230907917023,
          0.1044655442237854,
          -0.09670621901750565,
          -0.21315070986747742,
          -0.1279413402080536,
          0.1900274008512497,
          0.15862712264060974,
          -0.08110702782869339,
          -0.004378874786198139,
          0.31523552536964417,
          0.06710126250982285,
          -0.16735121607780457,
          -0.08829380571842194,
          0.3207258880138397
        ],
        [
          0.020022666081786156,
          0.177972674369812,
          0.08894190192222595,
          -0.09745074808597565,
          0.01680397056043148,
          -0.17917439341545105,
          0.06510121375322342,
          -0.07570964843034744,
          0.39490392804145813,
          0.12893760204315186,
          0.2439877986907959,
          0.173221617937088,
          -0.050725795328617096,
          -0.19369466602802277,
          0.10682196915149689,
          -0.17785045504570007,
          0.08582698553800583,
          0.057563748210668564,
          -0.1264067441225052,
          0.034968215972185135,
          0.1710204780101776,
          -0.14743852615356445,
          -0.1773194819688797,
          -0.06032827869057655,
          0.13218727707862854,
          0.13425825536251068,
          0.05962073802947998,
          -0.11350677907466888,
          -0.03229041025042534,
          0.1453120857477188,
          -0.18258441984653473,
          -0.08082172274589539,
          0.030352460220456123,
          0.13507865369319916,
          -0.1827339231967926,
          0.15226635336875916,
          0.18685150146484375,
          0.16730526089668274,
          -0.004494932014495134,
          0.02538137137889862,
          -0.10125511139631271,
          0.16731815040111542,
          0.028986316174268723,
          0.14758078753948212,
          -0.06644712388515472,
          0.16460800170898438,
          -0.09853698313236237,
          0.05063201114535332,
          -0.055557649582624435
        ],
        [
          0.10240031778812408,
          -0.2748837172985077,
          -0.14142952859401703,
          0.05977928265929222,
          -0.15851755440235138,
          0.041980937123298645,
          -0.020391587167978287,
          -0.08747997134923935,
          -0.3738432824611664,
          -0.3183782696723938,
          -0.24187932908535004,
          0.03675079718232155,
          -0.01958313398063183,
          -0.04487387090921402,
          0.05441660061478615,
          -0.059236105531454086,
          0.10063125938177109,
          0.08526802808046341,
          0.0054956781677901745,
          0.11001134663820267,
          0.04501613602042198,
          0.13724645972251892,
          -0.02319776453077793,
          0.23600894212722778,
          -0.03850417211651802,
          0.009798101149499416,
          -0.016727102920413017,
          -0.013564513064920902,
          -0.267737478017807,
          -0.1366409957408905,
          -0.15764807164669037,
          -0.13026642799377441,
          -0.22688373923301697,
          -0.014163565821945667,
          0.09403856098651886,
          -0.011836669407784939,
          0.026320578530430794,
          -0.08356883376836777,
          -0.036675143986940384,
          -0.1228603944182396,
          -0.12649519741535187,
          -0.12000541388988495,
          0.16686956584453583,
          0.0749908909201622,
          -0.08968991786241531,
          -0.19366297125816345,
          -0.11271429061889648,
          -0.007551101036369801,
          0.07591336220502853
        ],
        [
          -0.3077325224876404,
          -0.6013995409011841,
          -0.45546042919158936,
          0.31427666544914246,
          -0.32704049348831177,
          -0.09381169080734253,
          0.17480774223804474,
          0.2913631200790405,
          -1.0242818593978882,
          -0.8441608548164368,
          -0.5570688247680664,
          -0.158372700214386,
          -0.4138876497745514,
          0.13445919752120972,
          -0.01606634631752968,
          -0.038890473544597626,
          -0.17443959414958954,
          0.01624526083469391,
          -0.13766257464885712,
          0.28541356325149536,
          -0.17799906432628632,
          -0.17744237184524536,
          -0.1589154452085495,
          0.18058903515338898,
          -0.09471723437309265,
          -0.14915184676647186,
          0.05512464791536331,
          0.17419014871120453,
          -0.11636795103549957,
          0.10857967287302017,
          -0.15154819190502167,
          -0.008548544719815254,
          -0.2764868140220642,
          0.07357365638017654,
          0.13846994936466217,
          0.07931926101446152,
          -0.25058087706565857,
          -0.06470885127782822,
          0.06302974373102188,
          -0.04353100061416626,
          -0.18836332857608795,
          0.02680942788720131,
          0.0816941112279892,
          0.054313018918037415,
          -0.458002507686615,
          -0.0008396814810112119,
          0.04721863567829132,
          0.27172327041625977,
          -0.22106729447841644
        ],
        [
          -0.1364511102437973,
          -0.1743013560771942,
          -0.14546211063861847,
          0.06717287749052048,
          -0.2845095992088318,
          0.08346892148256302,
          0.06335855275392532,
          -0.0035614999942481518,
          -0.5194383859634399,
          -0.4007522165775299,
          -0.43454474210739136,
          -0.2911444306373596,
          -0.27746981382369995,
          0.012866880744695663,
          0.0517180971801281,
          0.007090341299772263,
          -0.08277147263288498,
          0.19248971343040466,
          -0.03924384340643883,
          0.23418091237545013,
          -0.31368157267570496,
          -0.042819276452064514,
          -0.08276538550853729,
          -0.038862500339746475,
          -0.06871119886636734,
          -0.15548613667488098,
          0.0340137705206871,
          -0.06615844368934631,
          0.018009334802627563,
          -0.08638548105955124,
          -0.1323508322238922,
          0.01918088272213936,
          -0.05016034096479416,
          -0.09092529863119125,
          -0.03892212733626366,
          0.1758735030889511,
          -0.1335434466600418,
          0.19393238425254822,
          0.029582863673567772,
          0.18820707499980927,
          -0.03446658328175545,
          0.03553915023803711,
          0.12319639325141907,
          0.17789508402347565,
          -0.05239994078874588,
          -0.18862079083919525,
          0.04661089554429054,
          -0.0349346287548542,
          -0.2449457049369812
        ],
        [
          -0.08789997547864914,
          -0.5573608875274658,
          -0.24878743290901184,
          0.22702044248580933,
          -0.16442181169986725,
          0.18595950305461884,
          -0.02628200873732567,
          -0.10824459791183472,
          -0.8662884831428528,
          -0.6792736053466797,
          -0.299448698759079,
          -0.21807961165905,
          -0.14048638939857483,
          0.02503041923046112,
          -0.03043549507856369,
          0.09947335720062256,
          -0.3255401849746704,
          0.160371333360672,
          -0.08669395744800568,
          0.2254759818315506,
          -0.14429083466529846,
          -0.040635351091623306,
          0.17865034937858582,
          0.20816557109355927,
          -0.3875403106212616,
          -0.14270618557929993,
          -0.1162642240524292,
          0.15819011628627777,
          -0.2506380081176758,
          0.17890684306621552,
          0.19299113750457764,
          -0.05749284476041794,
          -0.06123562529683113,
          -0.09717728197574615,
          0.05811680853366852,
          0.2140093594789505,
          -0.18743866682052612,
          0.1542356014251709,
          -0.14092975854873657,
          0.08891233801841736,
          -0.20168040692806244,
          -0.18461763858795166,
          0.12538038194179535,
          0.26917850971221924,
          -0.18035751581192017,
          -0.02337062731385231,
          -0.16536405682563782,
          0.10084305703639984,
          -0.33662256598472595
        ],
        [
          0.3967497646808624,
          0.37037619948387146,
          0.25306588411331177,
          -0.2737118899822235,
          0.22335092723369598,
          0.10075461864471436,
          -0.061652593314647675,
          0.02364405058324337,
          0.7188032865524292,
          0.584878146648407,
          0.5244421362876892,
          0.1201467216014862,
          0.013621880672872066,
          -0.039910584688186646,
          -0.07508116215467453,
          -0.21296241879463196,
          0.3194151520729065,
          -0.15612627565860748,
          0.12503542006015778,
          0.10265569388866425,
          0.30945754051208496,
          -0.05310533568263054,
          -0.17547841370105743,
          -0.20599707961082458,
          0.34297752380371094,
          0.05442863702774048,
          0.08524291217327118,
          -0.20991477370262146,
          0.1155911237001419,
          -0.16658706963062286,
          -0.12733009457588196,
          -0.21307092905044556,
          0.24690884351730347,
          -0.10991748422384262,
          0.12941928207874298,
          0.02279328554868698,
          0.32556235790252686,
          -0.16546769440174103,
          -0.12583746016025543,
          -0.17892834544181824,
          0.27580010890960693,
          -0.08831422030925751,
          -0.07676060497760773,
          -0.2588326036930084,
          0.3703250288963318,
          0.1610720008611679,
          -0.09841952472925186,
          -0.07606184482574463,
          0.27680182456970215
        ],
        [
          -0.08717504888772964,
          0.2919662594795227,
          0.10374432057142258,
          0.009224077686667442,
          -0.10308775305747986,
          -0.058939129114151,
          -0.14698204398155212,
          0.025616610422730446,
          0.28466445207595825,
          0.2067277729511261,
          -0.010134350508451462,
          0.16036318242549896,
          0.2187059223651886,
          0.021050987765192986,
          0.10930170863866806,
          0.0506664402782917,
          0.15128445625305176,
          -0.02729002945125103,
          0.1333426535129547,
          0.043865229934453964,
          0.020456718280911446,
          0.09128320217132568,
          0.015549986623227596,
          0.13861523568630219,
          0.051676440984010696,
          -0.023387756198644638,
          -0.01770075410604477,
          0.005603644996881485,
          -0.10142736881971359,
          0.011542804539203644,
          -0.0569646880030632,
          -0.08508151769638062,
          0.13750934600830078,
          -0.18515680730342865,
          -0.1748078465461731,
          -0.2260275036096573,
          0.09988782554864883,
          -0.07539019733667374,
          0.12294822186231613,
          -0.19091059267520905,
          0.2615400552749634,
          0.07716195285320282,
          -0.16712278127670288,
          0.11687484383583069,
          0.07954103499650955,
          -0.18023815751075745,
          0.15189620852470398,
          0.09144292771816254,
          0.04328903183341026
        ],
        [
          0.12283889949321747,
          0.3065554201602936,
          0.0004718403215520084,
          0.1734911948442459,
          0.007233298383653164,
          0.019912531599402428,
          -0.051865074783563614,
          -0.11947470158338547,
          0.1533007025718689,
          0.08849585801362991,
          0.2969142496585846,
          0.1807771772146225,
          0.1558477282524109,
          0.12097529321908951,
          -0.17029018700122833,
          0.026733238250017166,
          0.14539454877376556,
          -0.018900983035564423,
          0.17382796108722687,
          -0.0833720937371254,
          0.2247353494167328,
          0.02537696249783039,
          0.09430010616779327,
          -0.04545645788311958,
          0.23614813387393951,
          -0.009799947030842304,
          -0.10661958158016205,
          0.03991682454943657,
          -0.04300357401371002,
          -0.019258540123701096,
          0.1335323303937912,
          0.1291547566652298,
          -0.10267109423875809,
          -0.045896634459495544,
          0.08322574943304062,
          0.03276008740067482,
          -0.07220907509326935,
          0.1019485592842102,
          -0.020353734493255615,
          -0.11477874964475632,
          0.07198212295770645,
          0.13943040370941162,
          -0.2017119973897934,
          0.1225414052605629,
          0.028857041150331497,
          0.025706028565764427,
          0.10990971326828003,
          -0.04211321100592613,
          -0.024268653243780136
        ],
        [
          0.2495548129081726,
          0.1741732358932495,
          0.15704557299613953,
          -0.10595957189798355,
          0.36721205711364746,
          0.069671630859375,
          -0.05662631615996361,
          -0.0835903212428093,
          0.648614764213562,
          0.2701385021209717,
          0.45097172260284424,
          0.08607117831707001,
          -0.0023382038343697786,
          -0.04422282055020332,
          -0.13355609774589539,
          -0.25417307019233704,
          -0.010709292255342007,
          0.03932168334722519,
          0.11828269809484482,
          -0.13430839776992798,
          0.2923542857170105,
          -0.03751489520072937,
          0.10622980445623398,
          -0.009515245445072651,
          0.15662363171577454,
          0.03893022611737251,
          0.1569463163614273,
          -0.041456397622823715,
          0.2863631844520569,
          -0.12332765758037567,
          -0.11284785717725754,
          -0.09895332157611847,
          0.29307112097740173,
          0.11933869123458862,
          0.029968252405524254,
          0.007203926332294941,
          0.3038555085659027,
          -0.05145806074142456,
          0.14071336388587952,
          -0.30689147114753723,
          0.2923109829425812,
          -0.11574406176805496,
          0.16687703132629395,
          -0.1932157278060913,
          0.04620804637670517,
          0.04845327511429787,
          -0.11687881499528885,
          -0.1065983772277832,
          0.3450298011302948
        ],
        [
          -0.012936988845467567,
          -0.7077877521514893,
          -0.10023802518844604,
          0.19469283521175385,
          -0.24836936593055725,
          0.18147288262844086,
          -0.08692347258329391,
          0.03630708158016205,
          -0.9211562275886536,
          -0.6496108174324036,
          -0.44735756516456604,
          -0.34911924600601196,
          -0.31732073426246643,
          0.18999846279621124,
          -0.10730915516614914,
          0.20969350636005402,
          -0.047351282089948654,
          0.07609035819768906,
          -0.15695974230766296,
          0.2643665671348572,
          -0.3071413040161133,
          -0.1700170934200287,
          -0.03468157351016998,
          -0.04628042131662369,
          -0.2187630534172058,
          0.19544553756713867,
          -0.13313786685466766,
          0.032868415117263794,
          -0.38408467173576355,
          0.09053785353899002,
          0.2098851501941681,
          -0.06806854903697968,
          -0.42162737250328064,
          0.06808992475271225,
          0.04107312858104706,
          0.25548672676086426,
          -0.15844444930553436,
          0.10070958733558655,
          0.023469364270567894,
          0.07203058898448944,
          -0.32507607340812683,
          -0.04913988709449768,
          0.026852598413825035,
          0.2318611890077591,
          -0.3283102214336395,
          -0.073199063539505,
          0.05330539494752884,
          0.23468856513500214,
          -0.07142921537160873
        ]
      ],
      "biases": [
        -0.0904482752084732,
        -0.17031314969062805,
        -0.21384479105472565,
        -0.42710044980049133,
        -0.15375374257564545,
        0.0005318389157764614,
        -0.009316525422036648,
        0.1994766891002655,
        0.35919317603111267,
        0.31286656856536865,
        0.09196902066469193,
        -0.2084270715713501,
        -0.05462964251637459,
        -0.016065314412117004,
        -0.06787513196468353,
        0.13861922919750214
      ]
    },
    {
      "weights": [
        [
          0.16676966845989227,
          0.3026725947856903,
          -0.03937048837542534,
          0.24647130072116852,
          -0.1113639697432518,
          0.40946289896965027,
          -0.042826712131500244,
          -0.1851869523525238,
          -0.2868170738220215,
          -0.35016167163848877,
          -0.437160462141037,
          0.3967459201812744,
          0.07500822097063065,
          0.12280221283435822,
          0.051097940653562546,
          -0.3799944519996643
        ],
        [
          0.35049864649772644,
          0.352701872587204,
          -0.027134206146001816,
          0.36243972182273865,
          0.11364785581827164,
          0.1810341328382492,
          -0.008050426840782166,
          -0.1204676628112793,
          -0.6149576902389526,
          -0.32463476061820984,
          -0.370138019323349,
          0.39603304862976074,
          -0.02452865242958069,
          0.22011347115039825,
          0.12591606378555298,
          -0.4409995675086975
        ],
        [
          0.3233219087123871,
          0.6206264495849609,
          0.02381122298538685,
          0.7299508452415466,
          0.04476967826485634,
          0.1424800008535385,
          -0.09343928843736649,
          -0.3319002091884613,
          -0.6516950130462646,
          -0.13838818669319153,
          -0.4862091839313507,
          0.177297443151474,
          0.10987306386232376,
          0.08259911090135574,
          0.2908017337322235,
          -0.4835693836212158
        ],
        [
          0.1471283733844757,
          0.6470699906349182,
          0.17324568331241608,
          0.7765697836875916,
          0.024200832471251488,
          0.3791612386703491,
          -0.036140792071819305,
          -0.2661862373352051,
          -0.7829349040985107,
          -0.321051687002182,
          -0.6770942211151123,
          0.42168688774108887,
          0.2203221172094345,
          -0.08459170162677765,
          0.32760336995124817,
          -0.623681902885437
        ],
        [
          0.1599768102169037,
          0.22763867676258087,
          -0.0207426268607378,
          0.21395881474018097,
          -0.2112209051847458,
          0.14857085049152374,
          0.15145288407802582,
          -0.1992534101009369,
          -0.31597277522087097,
          -0.16171376407146454,
          -0.26210618019104004,
          0.09981389343738556,
          -0.059331461787223816,
          0.20745208859443665,
          0.3038218915462494,
          -0.2666769325733185
        ],
        [
          0.35222765803337097,
          0.3831159770488739,
          -0.12402092665433884,
          0.4434984624385834,
          -0.20670892298221588,
          0.03239794820547104,
          0.012995043769478798,
          -0.22124198079109192,
          -0.29827916622161865,
          -0.23664924502372742,
          -0.4462564289569855,
          0.3109022080898285,
          0.15681412816047668,
          0.18333971500396729,
          0.3422522246837616,
          -0.5149722099304199
        ],
        [
          0.10375451296567917,
          0.39160698652267456,
          0.06900270283222198,
          0.5220133662223816,
          -0.12337912619113922,
          0.050164882093667984,
          0.2418563812971115,
          -0.21323595941066742,
          -0.4670296907424927,
          -0.29228389263153076,
          -0.3760082721710205,
          0.14652849733829498,
          -0.12389872223138809,
          -0.017010677605867386,
          0.04170547053217888,
          -0.45169660449028015
        ],
        [
          0.2373543530702591,
          0.3788784146308899,
          0.05084763467311859,
          0.6303717494010925,
          0.04880429804325104,
          0.2139616459608078,
          0.015716342255473137,
          -0.2521614134311676,
          -0.6463814377784729,
          -0.3034325838088989,
          -0.5019586682319641,
          0.4816187918186188,
          0.0753335952758789,
          -0.1469290405511856,
          0.45057281851768494,
          -0.4294366240501404
        ],
        [
          -0.3017483651638031,
          -0.1878112256526947,
          0.1800297647714615,
          -0.395335853099823,
          -0.08944159746170044,
          -0.2954495847225189,
          0.07069992274045944,
          0.15622389316558838,
          0.42297837138175964,
          0.26917076110839844,
          0.0986139178276062,
          -0.05275841802358627,
          0.08871763944625854,
          -0.14828592538833618,
          0.03741578385233879,
          0.3462711274623871
        ],
        [
          0.4215664863586426,
          0.8034355044364929,
          -0.04370458051562309,
          0.8349345326423645,
          -0.2907867133617401,
          0.5378082394599915,
          0.04887687787413597,
          -0.5015722513198853,
          -0.9527735710144043,
          -0.5384547114372253,
          -0.5581163167953491,
          0.7240709662437439,
          0.16162966191768646,
          0.07960448414087296,
          0.5256553888320923,
          -0.7756855487823486
        ],
        [
          0.06054645776748657,
          0.07705654948949814,
          0.16544291377067566,
          -0.2334795743227005,
          0.08398593217134476,
          -0.134745791554451,
          -0.1440601944923401,
          -0.0560503825545311,
          0.2426694631576538,
          0.11232011765241623,
          -0.03268926590681076,
          -0.16483275592327118,
          0.05917813628911972,
          -0.08791141211986542,
          -0.08138401061296463,
          0.22380980849266052
        ],
        [
          0.09707911312580109,
          0.20981477200984955,
          0.18220733106136322,
          0.09157200157642365,
          -0.21228905022144318,
          -0.058581944555044174,
          0.04293699935078621,
          -0.06355969607830048,
          -0.12683242559432983,
          -0.1320904940366745,
          -0.1269017606973648,
          0.20369325578212738,
          0.08058343082666397,
          0.04253246635198593,
          -0.040135420858860016,
          -0.22607077658176422
        ],
        [
          0.40303245186805725,
          0.3168008327484131,
          0.05826779827475548,
          0.6060202717781067,
          -0.044966921210289,
          0.08828089386224747,
          0.2121250182390213,
          -0.09732698649168015,
          -0.5478563904762268,
          -0.12821222841739655,
          -0.6217470169067383,
          0.27522581815719604,
          0.03885241225361824,
          0.10186705738306046,
          0.09767507761716843,
          -0.4882946014404297
        ],
        [
          0.5007339119911194,
          0.7643339037895203,
          -0.020286433398723602,
          1.137921690940857,
          -0.3236788511276245,
          0.47365912795066833,
          0.3200916349887848,
          -0.19880609214305878,
          -1.109085202217102,
          -0.6294389963150024,
          -0.777151882648468,
          0.6990463733673096,
          0.00926302932202816,
          0.06625734269618988,
          0.472124844789505,
          -0.9635086059570312
        ],
        [
          0.418773889541626,
          0.6225523352622986,
          0.16794301569461823,
          0.7961976528167725,
          -0.2896612286567688,
          0.32037442922592163,
          -0.010969855822622776,
          -0.22154931724071503,
          -0.5958001613616943,
          -0.5698737502098083,
          -0.676992654800415,
          0.27786388993263245,
          0.17321568727493286,
          -0.09475897252559662,
          0.2256941944360733,
          -0.748421847820282
        ],
        [
          0.20376616716384888,
          0.1475806087255478,
          0.23729826509952545,
          0.1284773349761963,
          -0.1336570680141449,
          0.07978446036577225,
          0.169270858168602,
          0.07642105221748352,
          0.04459994286298752,
          -0.2414114624261856,
          -0.016602912917733192,
          -0.06348871439695358,
          -0.028654057532548904,
          0.11987436562776566,
          -0.07776247709989548,
          -0.15691591799259186
        ]
      ],
      "biases": [
        -0.043397415429353714,
        -0.23594792187213898,
        -0.35371801257133484,
        -0.2954851984977722,
        -0.2414557933807373,
        -0.30229121446609497,
        -0.03358526900410652,
        -0.2643010914325714,
        -0.019014639779925346,
        -0.3634532690048218,
        0.2946751117706299,
        0.08862422406673431,
        -0.2735019326210022,
        -0.28147032856941223,
        -0.05733981356024742,
        -0.07315747439861298
      ]
    },
    {
      "weights": [
        [
          -0.20841409265995026,
          -0.2005441039800644,
          -0.4753009080886841,
          -0.3569231927394867,
          -0.26926276087760925,
          -0.2334265410900116,
          -0.072481669485569,
          -0.23344242572784424,
          0.17143480479717255,
          -0.5321298241615295,
          -0.03721141815185547,
          0.008272171020507812,
          -0.10695262253284454,
          -0.7193363904953003,
          -0.29127928614616394,
          -0.07525600492954254
        ],
        [
          -0.17274388670921326,
          -0.2543056607246399,
          -0.3147154152393341,
          -0.463124543428421,
          -0.044121529906988144,
          -0.435138076543808,
          -0.07794245332479477,
          -0.25120261311531067,
          -0.0167988408356905,
          -0.27451738715171814,
          0.09876807779073715,
          -0.03282563015818596,
          -0.14467471837997437,
          -0.530256450176239,
          -0.48553764820098877,
          -0.02759251929819584
        ],
        [
          -0.3785601258277893,
          -0.309050589799881,
          -0.1281358152627945,
          -0.19609247148036957,
          -0.15343815088272095,
          -0.01920493133366108,
          -0.2214951366186142,
          -0.18900129199028015,
          -0.19995510578155518,
          -0.41478317975997925,
          -0.2568489909172058,
          -0.13125544786453247,
          -0.31282082200050354,
          -0.3702539801597595,
          -0.32595348358154297,
          -0.03749260678887367
        ],
        [
          -0.09629354625940323,
          -0.23748838901519775,
          -0.2479831427335739,
          -0.4725094735622406,
          0.09299026429653168,
          -0.13061407208442688,
          -0.42090359330177307,
          -0.19469673931598663,
          0.45619073510169983,
          -0.7997945547103882,
          0.4352750778198242,
          -0.09009240567684174,
          -0.3393302261829376,
          -0.885022759437561,
          -0.5668545961380005,
          0.017240576446056366
        ],
        [
          -0.001667451811954379,
          -0.35439229011535645,
          -0.2219056785106659,
          -0.39934462308883667,
          -0.21372167766094208,
          -0.42543643712997437,
          -0.08072459697723389,
          -0.3870628774166107,
          0.1757766306400299,
          -0.5746166706085205,
          -0.004164633806794882,
          -0.09565725922584534,
          -0.07614227384328842,
          -0.6090287566184998,
          -0.2831685245037079,
          -0.04570026695728302
        ],
        [
          -0.3561140298843384,
          -0.28895825147628784,
          -0.17240138351917267,
          -0.2799636721611023,
          -0.1648276299238205,
          -0.03981241583824158,
          -0.02170489728450775,
          -0.3863300085067749,
          0.1324421763420105,
          -0.11872440576553345,
          -0.26271703839302063,
          -0.04040595144033432,
          -0.3293585777282715,
          -0.49080267548561096,
          -0.22295960783958435,
          -0.24882948398590088
        ],
        [
          -0.31871116161346436,
          -0.31194260716438293,
          -0.3965393900871277,
          -0.5802009701728821,
          -0.1544860452413559,
          -0.32916826009750366,
          -0.3610248565673828,
          -0.4291125535964966,
          0.5533868670463562,
          -0.7122819423675537,
          0.321737676858902,
          0.09053918719291687,
          -0.41747692227363586,
          -0.9800819754600525,
          -0.3794361650943756,
          0.29849109053611755
        ],
        [
          -0.2250276505947113,
          0.0973743200302124,
          0.030713874846696854,
          0.10104572027921677,
          0.02197962999343872,
          -0.004213069565594196,
          0.015346884727478027,
          -0.04715107008814812,
          -0.3002126216888428,
          -0.1706632822751999,
          -0.24766772985458374,
          -0.2621082067489624,
          -0.000013755923646385781,
          -0.24489833414554596,
          -0.02677224576473236,
          -0.17559760808944702
        ],
        [
          -0.09904072433710098,
          -0.2621385157108307,
          -0.2056274265050888,
          -0.45872563123703003,
          -0.04782923310995102,
          -0.14744006097316742,
          -0.1301403045654297,
          -0.3609471619129181,
          0.47998231649398804,
          -0.804973840713501,
          0.13812068104743958,
          0.009514453820884228,
          -0.3227565884590149,
          -0.7519255876541138,
          -0.6432282328605652,
          -0.1831354945898056
        ],
        [
          -0.14738498628139496,
          -0.3232504725456238,
          -0.256850928068161,
          -0.3986980617046356,
          -0.3211126923561096,
          -0.10664966702461243,
          -0.18778160214424133,
          -0.3705091178417206,
          0.22374002635478973,
          -0.4203645884990692,
          -0.14945952594280243,
          0.034438084810972214,
          -0.16945114731788635,
          -0.7254354357719421,
          -0.24909056723117828,
          -0.28276005387306213
        ],
        [
          -0.253625750541687,
          -0.06305261701345444,
          -0.5914533138275146,
          -0.5402272939682007,
          -0.19165898859500885,
          -0.18605531752109528,
          -0.09252634644508362,
          -0.32775548100471497,
          0.22106653451919556,
          -0.81123948097229,
          0.38796886801719666,
          0.09314408153295517,
          -0.4761377274990082,
          -0.9277858734130859,
          -0.5117391347885132,
          0.184715136885643
        ],
        [
          -0.24335704743862152,
          -0.30929407477378845,
          -0.4140695333480835,
          -0.6113964319229126,
          -0.05751357227563858,
          -0.2887466549873352,
          -0.060439497232437134,
          -0.2418205887079239,
          0.3454383313655853,
          -0.7088136672973633,
          0.22921238839626312,
          -0.13001933693885803,
          -0.07521436363458633,
          -0.4451121389865875,
          -0.47899872064590454,
          0.046973150223493576
        ],
        [
          -0.0831107646226883,
          -0.3143337368965149,
          -0.37807443737983704,
          -0.14782756567001343,
          -0.044675011187791824,
          -0.22347773611545563,
          -0.27091100811958313,
          -0.42252710461616516,
          0.08493369072675705,
          -0.5382645726203918,
          0.18825596570968628,
          -0.07833297550678253,
          -0.23709815740585327,
          -0.6081206202507019,
          -0.3941551744937897,
          0.05836060643196106
        ],
        [
          -0.3627541959285736,
          -0.259326308965683,
          -0.25319182872772217,
          -0.38782474398612976,
          -0.2562202513217926,
          -0.2469893991947174,
          -0.05979093536734581,
          -0.3952515423297882,
          0.3218989372253418,
          -0.5564978122711182,
          0.2921511232852936,
          -0.11668018996715546,
          -0.4667886197566986,
          -0.46647927165031433,
          -0.49472635984420776,
          -0.00527476891875267
        ],
        [
          -0.13443228602409363,
          -0.18720637261867523,
          -0.3951834738254547,
          -0.3675955533981323,
          -0.2120867371559143,
          -0.3424573242664337,
          -0.3740486800670624,
          -0.49571657180786133,
          0.36574649810791016,
          -0.4785749614238739,
          0.31645461916923523,
          -0.019382750615477562,
          -0.235602468252182,
          -0.6699995994567871,
          -0.5202121138572693,
          -0.01242109015583992
        ],
        [
          -0.2927369475364685,
          -0.3068547546863556,
          -0.06021957844495773,
          -0.1271398812532425,
          -0.2008349895477295,
          -0.3244096040725708,
          -0.35192927718162537,
          -0.31882718205451965,
          0.17234626412391663,
          -0.27759987115859985,
          -0.11904981732368469,
          -0.2912856936454773,
          -0.3819965422153473,
          -0.5622174143791199,
          -0.25239863991737366,
          -0.1889929622411728
        ]
      ],
      "biases": [
        -0.08422558754682541,
        -0.23985418677330017,
        -0.0921647772192955,
        0.07184632122516632,
        -0.10440533608198166,
        -0.22213754057884216,
        0.5045394897460938,
        -0.3360586166381836,
        0.24189241230487823,
        0.06786657124757767,
        0.44646966457366943,
        -0.08987674862146378,
        -0.20851509273052216,
        0.06406429409980774,
        0.1388009786605835,
        0.03887872025370598
      ]
    },
    {
      "weights": [
        [
          0.9534876346588135,
          0.7599840760231018,
          0.4495193064212799,
          1.473552942276001,
          0.9109978675842285,
          0.44557416439056396,
          1.7332042455673218,
          -0.2712577283382416,
          1.36381995677948,
          0.8802568912506104,
          1.6085587739944458,
          1.1270941495895386,
          0.8907471895217896,
          1.1211018562316895,
          1.2277326583862305,
          0.6835950016975403
        ]
      ],
      "biases": [
        -3.59305739402771
      ]
    }
  ],
  "inputLookup": {
    "totalClouds[0]": 0,
    "lowClouds[0]": 1,
    "mediumClouds[0]": 2,
    "highClouds[0]": 3,
    "rainChance[0]": 4,
    "rainAmount[0]": 5,
    "windSpeed[0]": 6,
    "temperature[0]": 7,
    "totalClouds[1]": 8,
    "lowClouds[1]": 9,
    "mediumClouds[1]": 10,
    "highClouds[1]": 11,
    "rainChance[1]": 12,
    "rainAmount[1]": 13,
    "windSpeed[1]": 14,
    "temperature[1]": 15,
    "totalClouds[2]": 16,
    "lowClouds[2]": 17,
    "mediumClouds[2]": 18,
    "highClouds[2]": 19,
    "rainChance[2]": 20,
    "rainAmount[2]": 21,
    "windSpeed[2]": 22,
    "temperature[2]": 23,
    "totalClouds[3]": 24,
    "lowClouds[3]": 25,
    "mediumClouds[3]": 26,
    "highClouds[3]": 27,
    "rainChance[3]": 28,
    "rainAmount[3]": 29,
    "windSpeed[3]": 30,
    "temperature[3]": 31,
    "totalClouds[4]": 32,
    "lowClouds[4]": 33,
    "mediumClouds[4]": 34,
    "highClouds[4]": 35,
    "rainChance[4]": 36,
    "rainAmount[4]": 37,
    "windSpeed[4]": 38,
    "temperature[4]": 39,
    "exposureLength": 40,
    "totalClouds[5]": 41,
    "lowClouds[5]": 42,
    "mediumClouds[5]": 43,
    "highClouds[5]": 44,
    "rainChance[5]": 45,
    "rainAmount[5]": 46,
    "windSpeed[5]": 47,
    "temperature[5]": 48
  },
  "inputLookupLength": 49,
  "outputLookup": {
    "totalImagingTime": 0
  },
  "outputLookupLength": 1,
  "options": {
    "inputSize": 0,
    "outputSize": 0,
    "binaryThresh": 0.5,
    "hiddenLayers": [
      16,
      16,
      16
    ]
  },
  "trainOpts": {
    "activation": "sigmoid",
    "iterations": 20000,
    "errorThresh": 0.005,
    "log": false,
    "logPeriod": 10,
    "leakyReluAlpha": 0.01,
    "learningRate": 0.3,
    "momentum": 0.1,
    "callbackPeriod": 10,
    "timeout": "Infinity",
    "beta1": 0.9,
    "beta2": 0.999,
    "epsilon": 1e-8
  }
}