{
  "type": "NeuralNetworkGPU",
  "sizes": [
    49,
    16,
    16,
    16,
    1
  ],
  "layers": [
    {
      "weights": [],
      "biases": []
    },
    {
      "weights": [
        [
          0.023019105195999146,
          0.21990029513835907,
          0.4927917420864105,
          -0.042279258370399475,
          0.19506403803825378,
          0.14220012724399567,
          -0.20149199664592743,
          -0.20213542878627777,
          0.6362278461456299,
          0.13738122582435608,
          0.17693985998630524,
          0.276913583278656,
          0.15247444808483124,
          0.05448341369628906,
          -0.15003140270709991,
          -0.19123975932598114,
          0.11234985291957855,
          0.04822065308690071,
          0.17158599197864532,
          -0.03165770322084427,
          -0.023888656869530678,
          0.19463050365447998,
          -0.1243850514292717,
          -0.1088549941778183,
          -0.05201684683561325,
          0.1680888533592224,
          -0.0484001450240612,
          -0.05612295866012573,
          0.22005067765712738,
          0.022655794396996498,
          -0.057064663618803024,
          0.09358702600002289,
          0.30976346135139465,
          -0.15118157863616943,
          -0.035217802971601486,
          -0.18449766933918,
          0.11961593478918076,
          -0.16012652218341827,
          0.11507368832826614,
          0.13027702271938324,
          0.14263583719730377,
          -0.1939588487148285,
          0.1656639724969864,
          0.04419614374637604,
          0.0008196952403523028,
          -0.024526020511984825,
          -0.13123367726802826,
          -0.15631170570850372,
          0.3275211751461029
        ],
        [
          0.09725413471460342,
          0.19127191603183746,
          -0.023929068818688393,
          -0.11743977665901184,
          0.14107389748096466,
          0.07485689222812653,
          -0.04557899385690689,
          -0.0006682789535261691,
          0.27122217416763306,
          -0.14225733280181885,
          -0.10239039361476898,
          -0.10143212974071503,
          -0.09132673591375351,
          -0.1822860836982727,
          -0.04588363692164421,
          0.12550725042819977,
          0.12181080132722855,
          0.004712916444987059,
          0.006423206068575382,
          0.07580689340829849,
          -0.14559267461299896,
          0.12251918017864227,
          -0.10935205966234207,
          -0.20855464041233063,
          0.04101089388132095,
          -0.12179113924503326,
          -0.0703950822353363,
          -0.18672241270542145,
          0.03741491585969925,
          0.1989271193742752,
          0.11808938533067703,
          0.12508897483348846,
          0.1803143471479416,
          0.1302827149629593,
          -0.15702398121356964,
          -0.16229797899723053,
          0.039959512650966644,
          0.13498812913894653,
          -0.13598503172397614,
          0.03768743947148323,
          0.2145809382200241,
          -0.1424342542886734,
          0.10906211286783218,
          0.1698324829339981,
          0.12226186692714691,
          0.10238382965326309,
          0.017004819586873055,
          0.1802009791135788,
          -0.15811388194561005
        ],
        [
          0.28691887855529785,
          0.0442613922059536,
          0.1902056336402893,
          0.12423109263181686,
          -0.005143371410667896,
          0.05294950306415558,
          0.11575465649366379,
          0.10420956462621689,
          0.3804517984390259,
          0.34809610247612,
          0.3686131536960602,
          0.11061868071556091,
          0.15552766621112823,
          -0.024878138676285744,
          -0.1486063003540039,
          0.03352081775665283,
          -0.050046391785144806,
          -0.16860322654247284,
          0.05323933809995651,
          -0.251325398683548,
          0.12277604639530182,
          -0.08009298890829086,
          0.17683130502700806,
          0.05584616959095001,
          0.20333139598369598,
          -0.04067109525203705,
          0.0699896588921547,
          -0.22482958436012268,
          0.2003597468137741,
          -0.111922487616539,
          -0.13065363466739655,
          -0.23132991790771484,
          0.15118969976902008,
          -0.12585565447807312,
          0.1518334150314331,
          0.09016269445419312,
          0.2687208652496338,
          -0.027054529637098312,
          0.10659774392843246,
          -0.09796871244907379,
          0.13380779325962067,
          -0.12003887444734573,
          0.15298330783843994,
          -0.054084427654743195,
          0.2566368877887726,
          0.04765266180038452,
          -0.11973916739225388,
          -0.0926617830991745,
          0.23617248237133026
        ],
        [
          0.17725679278373718,
          0.2518268823623657,
          -0.10988099128007889,
          -0.01256538275629282,
          0.07878518104553223,
          0.18212610483169556,
          -0.14164654910564423,
          -0.15955883264541626,
          0.04293560981750488,
          -0.10253220796585083,
          0.26803240180015564,
          0.24711348116397858,
          0.0864570215344429,
          0.10494646430015564,
          0.17443910241127014,
          -0.1062297597527504,
          -0.09824150055646896,
          0.11018447577953339,
          0.1619562953710556,
          -0.038035985082387924,
          0.21048498153686523,
          0.1982768476009369,
          -0.042742446064949036,
          0.012904124334454536,
          -0.12918061017990112,
          -0.06366066634654999,
          -0.03228982910513878,
          0.03365490213036537,
          0.0076185353100299835,
          0.08693045377731323,
          0.10013987123966217,
          -0.16682299971580505,
          0.09167928248643875,
          0.15933260321617126,
          -0.17892280220985413,
          0.1484730988740921,
          -0.010681623592972755,
          -0.052174702286720276,
          0.10468020290136337,
          -0.1501053124666214,
          -0.09587457031011581,
          -0.08593962341547012,
          0.03859296813607216,
          0.021707352250814438,
          -0.05951383337378502,
          0.04087436571717262,
          0.16554005444049835,
          -0.0407554991543293,
          0.1626829355955124
        ],
        [
          -0.014764271676540375,
          -0.1546216607093811,
          0.036013826727867126,
          0.038749564439058304,
          0.05536981299519539,
          0.06393571197986603,
          0.03660755977034569,
          0.044007524847984314,
          -0.19449357688426971,
          -0.01284482516348362,
          -0.01039708312600851,
          -0.02278582565486431,
          0.13852714002132416,
          -0.17562878131866455,
          0.024699466302990913,
          -0.1436055600643158,
          0.060193825513124466,
          0.175570547580719,
          0.06734760105609894,
          -0.1051274836063385,
          0.023814130574464798,
          0.05493943765759468,
          0.1476810872554779,
          -0.0936797708272934,
          0.18675944209098816,
          -0.14161060750484467,
          -0.13250485062599182,
          0.005294880364090204,
          0.1559383124113083,
          0.19794456660747528,
          -0.08752064406871796,
          0.034072861075401306,
          -0.011889978311955929,
          -0.1272553652524948,
          0.18048427999019623,
          0.037515491247177124,
          -0.05413481965661049,
          0.1444379985332489,
          0.15464042127132416,
          -0.19906964898109436,
          -0.18070025742053986,
          0.09185571223497391,
          -0.034312810748815536,
          0.07479490339756012,
          0.0883171334862709,
          -0.16117802262306213,
          -0.1307259351015091,
          0.15878726541996002,
          -0.11819610744714737
        ],
        [
          -0.07367201894521713,
          0.29775184392929077,
          0.21395687758922577,
          -0.018708376213908195,
          0.26258623600006104,
          0.02217332273721695,
          -0.1562012881040573,
          -0.23971711099147797,
          0.2634388208389282,
          0.2460852414369583,
          0.11072943359613419,
          0.272188663482666,
          -0.09476214647293091,
          0.1792617291212082,
          0.019919686019420624,
          0.011989089660346508,
          0.17728565633296967,
          -0.19225840270519257,
          -0.19861753284931183,
          0.05678188055753708,
          0.23672762513160706,
          0.007136321626603603,
          0.15117262303829193,
          0.1119445189833641,
          0.2408469170331955,
          0.02033923752605915,
          -0.0922529473900795,
          -0.18534325063228607,
          0.12032459676265717,
          -0.09874599426984787,
          -0.1916096955537796,
          0.00551360659301281,
          -0.13105064630508423,
          0.11205010861158371,
          0.01681046560406685,
          -0.012516587041318417,
          0.20323047041893005,
          0.03960767015814781,
          0.14275981485843658,
          0.05020136386156082,
          0.1370135396718979,
          -0.18253178894519806,
          -0.004300600849092007,
          0.05598216503858566,
          0.18666136264801025,
          0.04034264758229256,
          -0.03617803379893303,
          -0.09669720381498337,
          -0.06930762529373169
        ],
        [
          0.4903794527053833,
          0.6175205111503601,
          0.35569334030151367,
          -0.07936985790729523,
          0.19937650859355927,
          0.11919674277305603,
          -0.21669012308120728,
          -0.3811279535293579,
          0.886005163192749,
          0.6284828782081604,
          0.5719582438468933,
          0.23814208805561066,
          0.350139319896698,
          -0.00891793891787529,
          -0.09445585310459137,
          -0.11891881376504898,
          0.15558215975761414,
          -0.054736457765102386,
          -0.010195919312536716,
          -0.29378005862236023,
          0.1067514643073082,
          -0.1673755645751953,
          -0.13888303935527802,
          0.011531968601047993,
          0.35795915126800537,
          0.05633818358182907,
          -0.20468460023403168,
          -0.19547997415065765,
          0.3501121997833252,
          -0.07408978790044785,
          -0.04532746225595474,
          -0.18702413141727448,
          0.14515581727027893,
          0.13761435449123383,
          -0.12166061252355576,
          -0.051275476813316345,
          0.12800279259681702,
          0.11497808247804642,
          0.09694070369005203,
          -0.24092744290828705,
          0.0024580236058682203,
          -0.14144732058048248,
          -0.03897383064031601,
          -0.02253793366253376,
          0.3210809826850891,
          0.0661715641617775,
          0.14374475181102753,
          -0.2842917740345001,
          0.3573501706123352
        ],
        [
          0.316262811422348,
          0.44891592860221863,
          0.37546736001968384,
          -0.24112136662006378,
          0.24297131597995758,
          -0.07014253735542297,
          0.07841452956199646,
          -0.15041647851467133,
          0.5802022218704224,
          0.5098851919174194,
          0.48241788148880005,
          0.2231726497411728,
          0.1486964076757431,
          0.17214888334274292,
          0.19082605838775635,
          -0.20977210998535156,
          0.13951914012432098,
          0.2001214474439621,
          -0.13524550199508667,
          0.12720835208892822,
          0.28391435742378235,
          0.19004996120929718,
          -0.05877264589071274,
          -0.17223656177520752,
          0.23899777233600616,
          0.18994297087192535,
          -0.013043442741036415,
          -0.2543700337409973,
          0.2565000057220459,
          -0.06938248127698898,
          0.1630532443523407,
          -0.2582624554634094,
          0.27188578248023987,
          -0.14717508852481842,
          -0.00676703779026866,
          -0.1360889971256256,
          0.0654916912317276,
          0.17667844891548157,
          0.18554559350013733,
          0.02217005006968975,
          0.21885262429714203,
          0.03894927725195885,
          -0.10330871492624283,
          -0.02734101377427578,
          -0.07780453562736511,
          -0.12927034497261047,
          0.1094912514090538,
          -0.16402718424797058,
          0.06358380615711212
        ],
        [
          -0.5268986225128174,
          -0.7480131387710571,
          -0.7440287470817566,
          0.5192546248435974,
          -0.5944685935974121,
          0.1467808187007904,
          0.0656244307756424,
          0.09024302661418915,
          -1.0939319133758545,
          -0.9354633688926697,
          -0.7960638403892517,
          -0.23402655124664307,
          -0.24116124212741852,
          -0.01172830443829298,
          0.18648439645767212,
          0.4014120101928711,
          -0.3232988119125366,
          0.08189541846513748,
          -0.08589982241392136,
          0.3448117971420288,
          -0.18147434294223785,
          -0.08986954391002655,
          -0.11110489815473557,
          0.0803411677479744,
          -0.261715829372406,
          0.023851079866290092,
          -0.15060719847679138,
          0.3183440566062927,
          -0.2886078357696533,
          -0.11442003399133682,
          0.17499083280563354,
          0.311794638633728,
          -0.1961623877286911,
          0.09456267207860947,
          -0.00946728978306055,
          0.37955784797668457,
          -0.2594950199127197,
          -0.18891406059265137,
          0.03038955107331276,
          0.1479775458574295,
          -0.14114056527614594,
          -0.08146253973245621,
          0.06834814697504044,
          0.018645813688635826,
          -0.3310030698776245,
          0.003433549776673317,
          0.09561451524496078,
          0.14426912367343903,
          -0.045472946017980576
        ],
        [
          -0.31762298941612244,
          -0.4017842710018158,
          -0.46572813391685486,
          0.3653336465358734,
          -0.37794649600982666,
          -0.13252562284469604,
          0.01799148879945278,
          0.004403070546686649,
          -0.7519832253456116,
          -0.45991718769073486,
          -0.30166029930114746,
          -0.3567269444465637,
          -0.2292274534702301,
          0.1709171086549759,
          -0.13431012630462646,
          0.26753494143486023,
          0.011910012923181057,
          -0.10183662176132202,
          -0.09540577232837677,
          0.19254539906978607,
          -0.0375080481171608,
          0.1474795788526535,
          0.08967497944831848,
          0.09715838730335236,
          -0.16652125120162964,
          0.1658579707145691,
          0.025539444759488106,
          -0.01746172271668911,
          -0.2127130627632141,
          -0.14274181425571442,
          -0.0153927868232131,
          0.1733323186635971,
          -0.25949400663375854,
          0.17997927963733673,
          0.17177197337150574,
          0.07860088348388672,
          0.020579462870955467,
          -0.052265383303165436,
          0.10942716896533966,
          0.15272156894207,
          -0.016006356105208397,
          0.025664202868938446,
          -0.17008352279663086,
          0.2510125935077667,
          -0.218342125415802,
          0.16889820992946625,
          0.12858515977859497,
          0.05205732211470604,
          -0.2919091582298279
        ],
        [
          -0.5908120274543762,
          -0.8815844058990479,
          -0.9063263535499573,
          0.37615305185317993,
          -0.5618770718574524,
          0.16682462394237518,
          0.16450490057468414,
          0.46149688959121704,
          -1.3727868795394897,
          -1.0893727540969849,
          -0.7756044864654541,
          -0.23818761110305786,
          -0.284917950630188,
          0.18018166720867157,
          0.2052251398563385,
          0.13522286713123322,
          -0.3693946599960327,
          -0.034446701407432556,
          0.18636998534202576,
          0.20906256139278412,
          -0.18276835978031158,
          0.025608571246266365,
          0.12244793027639389,
          0.09542426466941833,
          -0.2591997981071472,
          0.16122636198997498,
          -0.09115714579820633,
          0.17615635693073273,
          -0.182961568236351,
          0.15448686480522156,
          -0.09007930010557175,
          0.43543076515197754,
          -0.28066253662109375,
          -0.1848955601453781,
          -0.00979213323444128,
          0.07067139446735382,
          -0.21200133860111237,
          -0.044262658804655075,
          -0.1449579894542694,
          0.11541734635829926,
          -0.10351743549108505,
          -0.05758001655340195,
          -0.023348476737737656,
          0.30072230100631714,
          -0.2016781121492386,
          0.06113860383629799,
          -0.05722628906369209,
          0.436540424823761,
          -0.24738970398902893
        ],
        [
          -0.35971739888191223,
          -0.4093344211578369,
          -0.5667405724525452,
          0.37491947412490845,
          -0.4777454137802124,
          0.1423056423664093,
          0.19405727088451385,
          0.1717604249715805,
          -0.6139402389526367,
          -0.6198423504829407,
          -0.5387169122695923,
          -0.19168968498706818,
          -0.05981077998876572,
          0.12987461686134338,
          0.04855259135365486,
          -0.04861127957701683,
          -0.2698652148246765,
          -0.1747344434261322,
          -0.08153266459703445,
          0.16949625313282013,
          -0.21570901572704315,
          0.06737509369850159,
          -0.176560178399086,
          0.3344048857688904,
          -0.29557108879089355,
          0.17191334068775177,
          0.13458295166492462,
          -0.06239871680736542,
          0.0466311052441597,
          0.019917039200663567,
          0.02027127519249916,
          -0.03280654922127724,
          -0.1431092470884323,
          -0.041753776371479034,
          -0.11633294075727463,
          0.2284172624349594,
          -0.19753091037273407,
          0.14770099520683289,
          -0.1767330914735794,
          0.1748722642660141,
          -0.029425375163555145,
          -0.035611581057310104,
          -0.1599748283624649,
          -0.010700417682528496,
          -0.009828301146626472,
          0.1486516147851944,
          -0.13737015426158905,
          0.2290683537721634,
          -0.24217386543750763
        ],
        [
          0.21871156990528107,
          -0.05412987247109413,
          0.21038661897182465,
          -0.1690462827682495,
          0.003833669936284423,
          0.05474051460623741,
          0.1356523036956787,
          -0.10657977312803268,
          0.124660424888134,
          -0.004825363866984844,
          0.32847389578819275,
          0.20550653338432312,
          0.20982544124126434,
          -0.1893593668937683,
          -0.06759119033813477,
          -0.12832865118980408,
          0.09428567439317703,
          0.07496556639671326,
          0.144351989030838,
          0.06791839003562927,
          -0.08524798601865768,
          -0.12002565711736679,
          0.09705747663974762,
          -0.015972774475812912,
          0.16674453020095825,
          -0.08674655109643936,
          -0.17033520340919495,
          -0.09491647779941559,
          -0.02596631459891796,
          -0.1408153772354126,
          0.18559372425079346,
          0.10055558383464813,
          0.22047345340251923,
          -0.15036433935165405,
          0.10915276408195496,
          0.14006465673446655,
          0.13529756665229797,
          -0.14446400105953217,
          -0.19347336888313293,
          -0.11323191225528717,
          0.06758303940296173,
          0.0019411909161135554,
          0.13595911860466003,
          0.022569913417100906,
          -0.0813269168138504,
          -0.17044484615325928,
          -0.1229783445596695,
          -0.17906662821769714,
          0.13137826323509216
        ],
        [
          0.3955698311328888,
          0.3616350293159485,
          0.30932044982910156,
          -0.16314594447612762,
          0.2416645586490631,
          -0.10043558478355408,
          -0.1064077690243721,
          -0.20533716678619385,
          0.9941173791885376,
          0.3992977738380432,
          0.5692296624183655,
          0.3723272383213043,
          0.36244824528694153,
          -0.043017368763685226,
          -0.11726541817188263,
          -0.07563488185405731,
          0.11613480001688004,
          0.061223872005939484,
          0.046846892684698105,
          -0.04741862788796425,
          0.20455345511436462,
          -0.030178219079971313,
          -0.027288736775517464,
          -0.21902230381965637,
          0.16835224628448486,
          0.18192198872566223,
          -0.16978022456169128,
          -0.12738409638404846,
          0.0065526957623660564,
          -0.17207616567611694,
          0.0027442239224910736,
          -0.14514759182929993,
          0.2499653398990631,
          0.07587157934904099,
          0.15309283137321472,
          -0.07771968841552734,
          0.19728901982307434,
          -0.0026205817703157663,
          0.02028789557516575,
          -0.09547635912895203,
          0.012209059670567513,
          0.011140991002321243,
          0.14950966835021973,
          -0.13770845532417297,
          0.1545431911945343,
          -0.16439472138881683,
          -0.1304684430360794,
          -0.23103725910186768,
          0.18024909496307373
        ],
        [
          0.12368829548358917,
          -0.26718780398368835,
          -0.3077421486377716,
          0.17382216453552246,
          0.05232884734869003,
          -0.08105776458978653,
          0.19147120416164398,
          -0.1639403998851776,
          -0.3144035339355469,
          -0.21534544229507446,
          -0.14959214627742767,
          -0.23517721891403198,
          -0.19791509211063385,
          0.0687212124466896,
          -0.01614115945994854,
          0.0028325682505965233,
          -0.16948868334293365,
          0.1832742542028427,
          0.03708569332957268,
          0.1537432223558426,
          -0.12803584337234497,
          0.07982300966978073,
          -0.17125651240348816,
          -0.1739964336156845,
          0.13546891510486603,
          0.0828479677438736,
          0.12420790642499924,
          -0.10575572401285172,
          -0.11757417768239975,
          -0.1628628969192505,
          0.18474727869033813,
          -0.07185649126768112,
          0.11825206130743027,
          0.16059599816799164,
          0.16615326702594757,
          0.08984547108411789,
          -0.033023543655872345,
          -0.03923434391617775,
          0.046988699585199356,
          0.1919199675321579,
          0.04599733650684357,
          0.1523599475622177,
          0.04184059053659439,
          0.012363540008664131,
          0.040868133306503296,
          -0.026602838188409805,
          -0.14272864162921906,
          -0.07853677123785019,
          -0.14076127111911774
        ],
        [
          0.035630762577056885,
          -0.18640080094337463,
          -0.23981699347496033,
          0.19657038152217865,
          -0.03951367735862732,
          0.025441614910960197,
          0.13940992951393127,
          -0.10437483340501785,
          -0.30133533477783203,
          -0.1158229261636734,
          -0.25007864832878113,
          -0.11456411331892014,
          -0.03671538084745407,
          0.16927461326122284,
          -0.1654898077249527,
          0.06561938673257828,
          -0.05349666625261307,
          0.1521764099597931,
          0.14189864695072174,
          0.10843700915575027,
          0.16618016362190247,
          -0.17342327535152435,
          -0.09894473105669022,
          0.07921231538057327,
          -0.1537119448184967,
          -0.07312048971652985,
          0.09943931549787521,
          0.13753370940685272,
          0.055887371301651,
          -0.17863762378692627,
          0.008753464557230473,
          0.03308181092143059,
          -0.09787303954362869,
          0.1478503793478012,
          -0.005617286544293165,
          0.03326043859124184,
          -0.12340886145830154,
          -0.11660926789045334,
          -0.19311554729938507,
          -0.01509789377450943,
          0.116473488509655,
          0.08111808449029922,
          0.1909441202878952,
          0.14556343853473663,
          0.1644209325313568,
          0.12700854241847992,
          -0.04042980447411537,
          0.15419252216815948,
          -0.09438221901655197
        ]
      ],
      "biases": [
        -0.18884596228599548,
        0.05972200259566307,
        -0.1494983583688736,
        0.09235271066427231,
        -0.1751766800880432,
        -0.07076751440763474,
        -0.266961932182312,
        -0.1644018590450287,
        0.27187323570251465,
        0.0772189348936081,
        0.4522000551223755,
        0.2627876102924347,
        -0.22933413088321686,
        -0.3439176678657532,
        0.08161003142595291,
        0.09809781610965729
      ]
    },
    {
      "weights": [
        [
          0.32254332304000854,
          -0.20385460555553436,
          0.4231302738189697,
          0.05433226749300957,
          -0.0740421712398529,
          0.0700492262840271,
          0.40669742226600647,
          0.41257214546203613,
          -0.7897782325744629,
          -0.4301402270793915,
          -0.9584648609161377,
          -0.6437438130378723,
          0.046512242406606674,
          0.540477991104126,
          -0.147866889834404,
          -0.20488367974758148
        ],
        [
          0.3080298602581024,
          0.08214239031076431,
          0.15938511490821838,
          0.04955407232046127,
          -0.1307574361562729,
          0.37704241275787354,
          0.7074718475341797,
          0.4367663562297821,
          -1.136598825454712,
          -0.6531163454055786,
          -1.1072241067886353,
          -0.7017733454704285,
          0.154302716255188,
          0.6407586932182312,
          -0.413516640663147,
          -0.10166899859905243
        ],
        [
          0.10767081379890442,
          0.06856746226549149,
          0.4360714554786682,
          0.09506811946630478,
          -0.04130057990550995,
          0.019272055476903915,
          0.5028689503669739,
          0.5770446062088013,
          -0.8814796805381775,
          -0.6652637124061584,
          -1.104873776435852,
          -0.6911247968673706,
          0.27888166904449463,
          0.4046330749988556,
          -0.04106742516160011,
          -0.33723995089530945
        ],
        [
          0.13277313113212585,
          0.07447434961795807,
          0.060768332332372665,
          -0.15612392127513885,
          -0.12050600349903107,
          0.13438938558101654,
          0.43021681904792786,
          0.34602785110473633,
          -0.5949465036392212,
          -0.4826849102973938,
          -0.5188261866569519,
          -0.2366034984588623,
          0.11067914217710495,
          0.3171156346797943,
          -0.26710423827171326,
          0.028039488941431046
        ],
        [
          0.011133086867630482,
          -0.12286268919706345,
          0.062279947102069855,
          -0.15688306093215942,
          -0.12362906336784363,
          0.038577478379011154,
          -0.22903285920619965,
          -0.31498077511787415,
          0.48796796798706055,
          0.23105984926223755,
          0.7465258240699768,
          0.4812960624694824,
          -0.1066991463303566,
          -0.3046678304672241,
          0.31543833017349243,
          0.1717662513256073
        ],
        [
          0.39354196190834045,
          -0.027667809277772903,
          0.301054447889328,
          -0.05563691258430481,
          -0.1601121425628662,
          0.324765682220459,
          0.6383129358291626,
          0.4105902314186096,
          -0.7464912533760071,
          -0.6109751462936401,
          -1.1807829141616821,
          -0.7377736568450928,
          0.1186089739203453,
          0.6178467273712158,
          -0.35021060705184937,
          -0.311428964138031
        ],
        [
          -0.11002809554338455,
          -0.04034612327814102,
          0.2904294431209564,
          -0.07791285216808319,
          -0.13411609828472137,
          0.15900571644306183,
          0.013093496672809124,
          0.09506852924823761,
          0.022272959351539612,
          -0.15527161955833435,
          -0.12838733196258545,
          -0.07684819400310516,
          0.09736325591802597,
          0.04207118600606918,
          -0.14144958555698395,
          0.028798963874578476
        ],
        [
          0.3585716485977173,
          -0.05331844091415405,
          0.1357092559337616,
          -0.11580246686935425,
          -0.10173299163579941,
          0.14364972710609436,
          0.7462296485900879,
          0.38972169160842896,
          -1.0516548156738281,
          -0.36899271607398987,
          -1.1226736307144165,
          -0.564288854598999,
          -0.044495970010757446,
          0.4860613942146301,
          -0.10043875128030777,
          -0.06188002601265907
        ],
        [
          -0.0024293470196425915,
          -0.012952946126461029,
          0.163018599152565,
          -0.1676347404718399,
          0.16876906156539917,
          -0.09815014898777008,
          -0.060696087777614594,
          0.12880480289459229,
          0.27413079142570496,
          0.0640062466263771,
          -0.029010076075792313,
          0.19950757920742035,
          -0.10064385086297989,
          -0.03609945625066757,
          -0.07975427061319351,
          0.21530097723007202
        ],
        [
          -0.010458419099450111,
          0.16977791488170624,
          0.1425279676914215,
          0.18403515219688416,
          -0.13866743445396423,
          -0.029374711215496063,
          0.08332753926515579,
          0.1062823235988617,
          -0.025261472910642624,
          -0.1131829172372818,
          -0.14394111931324005,
          -0.20021672546863556,
          -0.16155146062374115,
          0.03169800713658333,
          0.13184070587158203,
          -0.17785505950450897
        ],
        [
          -0.00004920208812109195,
          0.15757426619529724,
          0.13336926698684692,
          0.1697780042886734,
          -0.15737774968147278,
          0.19346383213996887,
          -0.1425439566373825,
          0.11470165848731995,
          0.03515227884054184,
          -0.0554952509701252,
          -0.15058282017707825,
          -0.09390856325626373,
          -0.01537296175956726,
          -0.03079962730407715,
          -0.06640101224184036,
          -0.0983697697520256
        ],
        [
          0.3459168076515198,
          0.09985284507274628,
          0.08377493172883987,
          -0.08263701945543289,
          -0.12994205951690674,
          0.05184999853372574,
          0.5800220966339111,
          0.2126801460981369,
          -0.7881960868835449,
          -0.42705219984054565,
          -0.7917871475219727,
          -0.4011897146701813,
          -0.08277136832475662,
          0.5004869699478149,
          -0.22572365403175354,
          -0.26412394642829895
        ],
        [
          0.10516298562288284,
          -0.023752262815833092,
          0.03826010227203369,
          0.1198381558060646,
          0.14841759204864502,
          0.023676512762904167,
          -0.03189355134963989,
          -0.16788507997989655,
          -0.03868544101715088,
          -0.03166867792606354,
          0.2059503197669983,
          -0.03189302235841751,
          0.11567152291536331,
          0.18342630565166473,
          -0.13966454565525055,
          0.21268026530742645
        ],
        [
          0.3065236508846283,
          0.11044564843177795,
          -0.020953131839632988,
          0.1406830996274948,
          0.03097298927605152,
          0.23392389714717865,
          0.350619375705719,
          0.10020921379327774,
          -0.7701671123504639,
          -0.4906972348690033,
          -0.5940858125686646,
          -0.5094283223152161,
          0.13065080344676971,
          0.38152867555618286,
          -0.04499012604355812,
          -0.12829804420471191
        ],
        [
          0.23469312489032745,
          -0.1271151602268219,
          0.35879409313201904,
          0.1657140552997589,
          0.09057097882032394,
          0.05578123405575752,
          0.5471348762512207,
          0.44129857420921326,
          -0.8291419148445129,
          -0.5527730584144592,
          -1.0750702619552612,
          -0.32706430554389954,
          0.16899782419204712,
          0.3069900572299957,
          -0.2832005023956299,
          -0.21608249843120575
        ],
        [
          0.23711006343364716,
          0.17827770113945007,
          0.07391125708818436,
          -0.029438359662890434,
          -0.16230055689811707,
          0.14345189929008484,
          0.23668700456619263,
          0.09962660074234009,
          -0.28474393486976624,
          -0.27643007040023804,
          -0.3510172665119171,
          -0.059157054871320724,
          -0.1476673185825348,
          0.2430029958486557,
          -0.14379534125328064,
          -0.21753115952014923
        ]
      ],
      "biases": [
        -0.07381286472082138,
        -0.049928098917007446,
        -0.03486773744225502,
        -0.23518973588943481,
        -0.003788486123085022,
        -0.01163801271468401,
        -0.11607792973518372,
        -0.030320407822728157,
        0.1312958300113678,
        -0.055660270154476166,
        0.03259021043777466,
        0.0025097825564444065,
        0.10933054238557816,
        -0.13316687941551208,
        -0.12795567512512207,
        0.1382238268852234
      ]
    },
    {
      "weights": [
        [
          -0.6134074926376343,
          -0.6334279179573059,
          -0.37124332785606384,
          -0.2518055737018585,
          0.2520129084587097,
          -0.5527864694595337,
          -0.055607546120882034,
          -0.32944390177726746,
          0.15537649393081665,
          -0.0962878167629242,
          0.013672992587089539,
          -0.3033055067062378,
          -0.13435907661914825,
          -0.23761221766471863,
          -0.28726184368133545,
          -0.13910050690174103
        ],
        [
          -0.2786349952220917,
          -0.44977352023124695,
          -0.2991147041320801,
          -0.24199576675891876,
          0.08544580638408661,
          -0.23426741361618042,
          -0.10118317604064941,
          -0.4656834602355957,
          -0.08905941992998123,
          -0.09164291620254517,
          -0.047300904989242554,
          -0.20516736805438995,
          -0.2613191604614258,
          -0.15038526058197021,
          -0.31719809770584106,
          -0.38596677780151367
        ],
        [
          0.34800273180007935,
          0.4922834634780884,
          0.41424986720085144,
          0.263950914144516,
          0.010022779926657677,
          0.5062602162361145,
          -0.0058794463984668255,
          0.15804588794708252,
          -0.182318776845932,
          -0.030262907966971397,
          -0.06414153426885605,
          0.19838428497314453,
          -0.0246733371168375,
          0.29903659224510193,
          0.3866676986217499,
          0.29399213194847107
        ],
        [
          -0.6329559683799744,
          -0.48391422629356384,
          -0.4608168303966522,
          -0.4441709816455841,
          0.6490967869758606,
          -0.7602343559265137,
          -0.1112307608127594,
          -0.6639085412025452,
          0.42060017585754395,
          -0.08410467207431793,
          0.24240700900554657,
          -0.6000180244445801,
          0.29298558831214905,
          -0.32083919644355774,
          -0.6060820817947388,
          0.08746974170207977
        ],
        [
          -0.477622389793396,
          -0.9767153859138489,
          -0.7327455282211304,
          -0.28949740529060364,
          0.8050221800804138,
          -0.8387930989265442,
          0.15290874242782593,
          -0.8292520046234131,
          0.37515878677368164,
          0.21556326746940613,
          0.09219346195459366,
          -0.6676788330078125,
          0.3735213577747345,
          -0.5463312268257141,
          -0.6981401443481445,
          0.035874757915735245
        ],
        [
          -0.47984790802001953,
          -0.3562733829021454,
          -0.5350974798202515,
          -0.09841225296258926,
          0.2358005940914154,
          -0.4637681841850281,
          -0.09713507443666458,
          -0.318880170583725,
          0.05461188033223152,
          -0.11834083497524261,
          -0.11132796108722687,
          -0.2624955475330353,
          -0.2553156018257141,
          -0.35070905089378357,
          -0.25518009066581726,
          -0.06435300409793854
        ],
        [
          -0.5610857605934143,
          -0.7564889788627625,
          -0.6935114860534668,
          -0.3072664439678192,
          0.5979567170143127,
          -0.4104189872741699,
          0.179721862077713,
          -0.6314796805381775,
          0.21215254068374634,
          -0.043195463716983795,
          0.008185278624296188,
          -0.30145010352134705,
          0.1657104194164276,
          -0.23959557712078094,
          -0.4960763454437256,
          -0.09572755545377731
        ],
        [
          -0.0023401847574859858,
          -0.17749351263046265,
          -0.12972168624401093,
          -0.11041684448719025,
          -0.2461780160665512,
          -0.3592614531517029,
          -0.17807428538799286,
          -0.27559253573417664,
          -0.19662992656230927,
          -0.2955579161643982,
          -0.27059897780418396,
          -0.2254244089126587,
          -0.0033862243872135878,
          -0.10236997157335281,
          -0.07262306660413742,
          -0.06045969948172569
        ],
        [
          -0.488910973072052,
          -0.5688751339912415,
          -0.4247627556324005,
          -0.30829811096191406,
          0.5373182892799377,
          -0.7228766679763794,
          0.14812467992305756,
          -0.6349276304244995,
          0.18937645852565765,
          0.01393735222518444,
          0.030581938102841377,
          -0.21452906727790833,
          0.10518131405115128,
          -0.2564238905906677,
          -0.4233632981777191,
          -0.3137168884277344
        ],
        [
          -0.13695979118347168,
          -0.31884634494781494,
          -0.37640294432640076,
          -0.08231651782989502,
          -0.1542932540178299,
          -0.1487179398536682,
          -0.1360360085964203,
          -0.44124191999435425,
          -0.08721324801445007,
          0.06330261379480362,
          -0.12929125130176544,
          -0.21366508305072784,
          -0.2700779438018799,
          -0.30251961946487427,
          -0.2258121222257614,
          -0.2738933861255646
        ],
        [
          -0.260233610868454,
          -0.4003811180591583,
          -0.5984921455383301,
          -0.16553029417991638,
          0.3586827218532562,
          -0.3641379177570343,
          -0.16657951474189758,
          -0.44283241033554077,
          -0.016455112025141716,
          0.008830979466438293,
          0.034459590911865234,
          -0.33371517062187195,
          0.12414095550775528,
          -0.3467828929424286,
          -0.5782128572463989,
          -0.012686186470091343
        ],
        [
          -0.5171098113059998,
          -0.5311105251312256,
          -0.4714098870754242,
          -0.19968277215957642,
          0.0003639176138676703,
          -0.5086713433265686,
          -0.05572175234556198,
          -0.28568726778030396,
          -0.2390940636396408,
          0.03676353022456169,
          0.07736757397651672,
          -0.35275569558143616,
          0.10401471704244614,
          -0.13721585273742676,
          -0.3296827971935272,
          -0.16663335263729095
        ],
        [
          -0.42358729243278503,
          -0.5836189985275269,
          -0.3378852605819702,
          -0.11808441579341888,
          0.13921353220939636,
          -0.2010466754436493,
          -0.2044881135225296,
          -0.23536159098148346,
          -0.0052752066403627396,
          -0.282636821269989,
          -0.2152382880449295,
          -0.22040829062461853,
          -0.037173330783843994,
          -0.3485545516014099,
          -0.2398497313261032,
          -0.1720922887325287
        ],
        [
          -0.14130672812461853,
          -0.33757197856903076,
          -0.4967578649520874,
          -0.3387148678302765,
          0.22877953946590424,
          -0.3999152183532715,
          -0.14971217513084412,
          -0.2643732726573944,
          -0.15897659957408905,
          0.03707617521286011,
          -0.08897515386343002,
          -0.30909672379493713,
          0.08656405657529831,
          -0.39893466234207153,
          -0.31631699204444885,
          -0.31116119027137756
        ],
        [
          -0.01091429777443409,
          -0.12751498818397522,
          0.008458057418465614,
          0.06383634358644485,
          -0.09196116030216217,
          -0.13116547465324402,
          -0.24007384479045868,
          -0.21027535200119019,
          -0.1349610984325409,
          -0.2916416823863983,
          0.019283274188637733,
          -0.008554141968488693,
          -0.17429696023464203,
          0.006299156695604324,
          -0.11969932913780212,
          -0.08170119673013687
        ],
        [
          0.018431317061185837,
          0.20405450463294983,
          -0.05994047224521637,
          0.18245269358158112,
          -0.19222760200500488,
          0.14714497327804565,
          -0.1969652771949768,
          0.05825449898838997,
          -0.15732936561107635,
          -0.08565602451562881,
          0.04872016981244087,
          0.06609157472848892,
          0.04945674538612366,
          0.11339695006608963,
          0.13290734589099884,
          -0.06009902060031891
        ]
      ],
      "biases": [
        0.04141288250684738,
        -0.054823171347379684,
        -0.13432636857032776,
        0.21771501004695892,
        0.6262680888175964,
        0.005112426355481148,
        0.1327490359544754,
        -0.3022153973579407,
        0.06122048571705818,
        -0.28262919187545776,
        -0.23583537340164185,
        -0.02915537729859352,
        -0.04384135454893112,
        -0.21535895764827728,
        -0.14417718350887299,
        -0.15668350458145142
      ]
    },
    {
      "weights": [
        [
          0.9944705367088318,
          0.585172712802887,
          -1.6918690204620361,
          1.5672205686569214,
          2.0064754486083984,
          0.7097513675689697,
          1.426859736442566,
          0.06642765551805496,
          1.2758920192718506,
          0.3962312936782837,
          0.930887758731842,
          0.8071082234382629,
          0.5785079002380371,
          0.7285181879997253,
          -0.24946753680706024,
          -0.6978237628936768
        ]
      ],
      "biases": [
        -2.8179473876953125
      ]
    }
  ],
  "inputLookup": {
    "totalClouds[0]": 0,
    "lowClouds[0]": 1,
    "mediumClouds[0]": 2,
    "highClouds[0]": 3,
    "rainChance[0]": 4,
    "rainAmount[0]": 5,
    "windSpeed[0]": 6,
    "temperature[0]": 7,
    "totalClouds[1]": 8,
    "lowClouds[1]": 9,
    "mediumClouds[1]": 10,
    "highClouds[1]": 11,
    "rainChance[1]": 12,
    "rainAmount[1]": 13,
    "windSpeed[1]": 14,
    "temperature[1]": 15,
    "totalClouds[2]": 16,
    "lowClouds[2]": 17,
    "mediumClouds[2]": 18,
    "highClouds[2]": 19,
    "rainChance[2]": 20,
    "rainAmount[2]": 21,
    "windSpeed[2]": 22,
    "temperature[2]": 23,
    "totalClouds[3]": 24,
    "lowClouds[3]": 25,
    "mediumClouds[3]": 26,
    "highClouds[3]": 27,
    "rainChance[3]": 28,
    "rainAmount[3]": 29,
    "windSpeed[3]": 30,
    "temperature[3]": 31,
    "totalClouds[4]": 32,
    "lowClouds[4]": 33,
    "mediumClouds[4]": 34,
    "highClouds[4]": 35,
    "rainChance[4]": 36,
    "rainAmount[4]": 37,
    "windSpeed[4]": 38,
    "temperature[4]": 39,
    "exposureLength": 40,
    "totalClouds[5]": 41,
    "lowClouds[5]": 42,
    "mediumClouds[5]": 43,
    "highClouds[5]": 44,
    "rainChance[5]": 45,
    "rainAmount[5]": 46,
    "windSpeed[5]": 47,
    "temperature[5]": 48
  },
  "inputLookupLength": 49,
  "outputLookup": {
    "totalImagingTime": 0
  },
  "outputLookupLength": 1,
  "options": {
    "inputSize": 0,
    "outputSize": 0,
    "binaryThresh": 0.5,
    "hiddenLayers": [
      16,
      16,
      16
    ]
  },
  "trainOpts": {
    "activation": "sigmoid",
    "iterations": 20000,
    "errorThresh": 0.005,
    "log": false,
    "logPeriod": 10,
    "leakyReluAlpha": 0.01,
    "learningRate": 0.3,
    "momentum": 0.1,
    "callbackPeriod": 10,
    "timeout": "Infinity",
    "beta1": 0.9,
    "beta2": 0.999,
    "epsilon": 1e-8
  }
}