{
  "type": "NeuralNetworkGPU",
  "sizes": [
    49,
    16,
    16,
    16,
    1
  ],
  "layers": [
    {
      "weights": [],
      "biases": []
    },
    {
      "weights": [
        [
          0.08098872750997543,
          0.29114848375320435,
          0.2913317084312439,
          0.01655702106654644,
          -0.014453861862421036,
          0.09323354065418243,
          -0.16168715059757233,
          0.04799970984458923,
          0.4692690074443817,
          0.15780171751976013,
          0.20397405326366425,
          -0.09337016940116882,
          0.140511155128479,
          0.18537254631519318,
          0.0886978879570961,
          -0.0314522311091423,
          0.1563497632741928,
          0.15477913618087769,
          0.1173044815659523,
          -0.09866209328174591,
          -0.05297093093395233,
          -0.052284371107816696,
          -0.0750776007771492,
          -0.06674952805042267,
          0.1270803064107895,
          -0.05342089384794235,
          0.01885513961315155,
          -0.1414724439382553,
          0.2659384310245514,
          0.006324422545731068,
          0.13780546188354492,
          -0.16317810118198395,
          -0.001201703562401235,
          0.09156562387943268,
          -0.061710648238658905,
          0.04554697871208191,
          0.23691780865192413,
          0.07580240070819855,
          0.1277221143245697,
          -0.0738115906715393,
          -0.029478227719664574,
          0.06301019340753555,
          0.03822585940361023,
          -0.08695046603679657,
          0.01473284512758255,
          0.1400686651468277,
          -0.14475011825561523,
          -0.17485125362873077,
          0.04646950215101242
        ],
        [
          -0.5094935894012451,
          -0.814339816570282,
          -0.7423453330993652,
          0.2766323387622833,
          -0.3573072552680969,
          0.10179778188467026,
          -0.07406050711870193,
          0.3261679708957672,
          -1.2256574630737305,
          -1.1137306690216064,
          -0.6114301085472107,
          -0.27455246448516846,
          -0.06130185350775719,
          0.08706222474575043,
          0.18101884424686432,
          0.27577582001686096,
          -0.2511129081249237,
          -0.19971047341823578,
          -0.06934529542922974,
          0.34269246459007263,
          -0.11947052925825119,
          0.09769138693809509,
          0.1566609889268875,
          0.3761581480503082,
          -0.04060159996151924,
          0.03383002057671547,
          0.1340416520833969,
          0.12357835471630096,
          -0.34191733598709106,
          -0.1164880096912384,
          0.02044898085296154,
          0.3646021783351898,
          -0.32264742255210876,
          -0.17747297883033752,
          -0.1680094450712204,
          0.25799646973609924,
          -0.21243032813072205,
          -0.07296682149171829,
          0.03941172733902931,
          0.0746505856513977,
          -0.3833189904689789,
          0.15935839712619781,
          0.09242810308933258,
          0.13618268072605133,
          -0.12757235765457153,
          -0.14536945521831512,
          0.19385693967342377,
          0.21562232077121735,
          -0.23103001713752747
        ],
        [
          0.3263457715511322,
          0.388619989156723,
          0.32324376702308655,
          -0.003203339409083128,
          0.09927286207675934,
          -0.03947708010673523,
          0.13708581030368805,
          -0.1870703250169754,
          0.4215029776096344,
          0.3982599377632141,
          0.3669052720069885,
          0.13287538290023804,
          -0.01558121107518673,
          -0.18791355192661285,
          -0.19571872055530548,
          -0.01561695709824562,
          -0.027658183127641678,
          0.040897298604249954,
          0.04760167375206947,
          -0.292047381401062,
          0.1765703558921814,
          -0.04897283390164375,
          -0.1024366170167923,
          -0.07127434760332108,
          0.11912162601947784,
          0.058284882456064224,
          -0.18033720552921295,
          -0.18949498236179352,
          -0.06561517715454102,
          0.170008584856987,
          0.05630434677004814,
          0.03621619567275047,
          -0.03468514233827591,
          -0.07181883603334427,
          0.13628223538398743,
          -0.09348312765359879,
          0.2697099447250366,
          -0.005672907456755638,
          0.0641184151172638,
          0.04584566876292229,
          -0.0635959655046463,
          0.09562361985445023,
          0.14864908158779144,
          -0.16559986770153046,
          0.18979549407958984,
          -0.0027110350783914328,
          0.06086425110697746,
          -0.15870408713817596,
          0.20703710615634918
        ],
        [
          0.7311490774154663,
          0.9875444173812866,
          0.8924298286437988,
          -0.3597354292869568,
          0.7435045838356018,
          -0.1059437170624733,
          -0.12605774402618408,
          -0.2091616541147232,
          1.5203497409820557,
          1.3159366846084595,
          0.8247319459915161,
          0.5258238315582275,
          0.10864432156085968,
          0.01415325328707695,
          0.11909282207489014,
          -0.40857040882110596,
          0.1766325980424881,
          0.09971024841070175,
          -0.10312674939632416,
          -0.25514936447143555,
          0.4661986231803894,
          0.1160300076007843,
          0.037421584129333496,
          -0.30703771114349365,
          0.1198054850101471,
          0.10894601792097092,
          0.11643186211585999,
          -0.24884116649627686,
          0.161466583609581,
          -0.03624532371759415,
          -0.09522378444671631,
          -0.32374560832977295,
          0.1295912116765976,
          -0.022851215675473213,
          -0.04572560638189316,
          -0.278144896030426,
          0.45285969972610474,
          -0.18376892805099487,
          -0.13265460729599,
          -0.0697687640786171,
          0.29733985662460327,
          -0.13597668707370758,
          0.02382471039891243,
          -0.28677916526794434,
          0.26224952936172485,
          0.19142697751522064,
          -0.05492042750120163,
          -0.3060404062271118,
          0.3632652759552002
        ],
        [
          0.24778985977172852,
          0.2332012951374054,
          0.23527173697948456,
          -0.05686548352241516,
          0.05387181416153908,
          0.10349863767623901,
          -0.1316102147102356,
          -0.011066730134189129,
          0.16132771968841553,
          0.1962563544511795,
          0.2632523775100708,
          -0.029945699498057365,
          0.12768542766571045,
          0.17984089255332947,
          0.02507229708135128,
          0.02960127405822277,
          0.15669094026088715,
          -0.13826633989810944,
          -0.17244164645671844,
          -0.0269699115306139,
          -0.11459817737340927,
          0.07187329977750778,
          0.03517618775367737,
          0.036426521837711334,
          0.1110333725810051,
          0.11355476081371307,
          0.14020755887031555,
          -0.051634036004543304,
          0.19887368381023407,
          -0.08710699528455734,
          0.13191185891628265,
          -0.18356269598007202,
          0.15950889885425568,
          0.01862478069961071,
          0.1646859049797058,
          0.08877464383840561,
          0.12026972323656082,
          -0.10715358704328537,
          -0.1224823147058487,
          -0.10665398091077805,
          -0.0667315199971199,
          -0.04582041874527931,
          0.13498157262802124,
          0.05411315709352493,
          -0.1289747655391693,
          -0.10647794604301453,
          -0.1552218794822693,
          -0.10682521015405655,
          -0.09187909215688705
        ],
        [
          -0.053863391280174255,
          -0.13681268692016602,
          -0.07011570781469345,
          0.29245156049728394,
          -0.2525489926338196,
          -0.12957707047462463,
          0.0812169685959816,
          -0.058912090957164764,
          -0.4167371690273285,
          -0.4491161108016968,
          -0.4404999613761902,
          -0.18123279511928558,
          -0.12911733984947205,
          0.10797517746686935,
          0.023664893582463264,
          0.059035707265138626,
          -0.24052396416664124,
          0.06488380581140518,
          0.06282061338424683,
          -0.11724850535392761,
          -0.017723258584737778,
          -0.12065156549215317,
          -0.14981479942798615,
          0.022365333512425423,
          0.11762570589780807,
          0.19314607977867126,
          0.17208491265773773,
          0.06748256087303162,
          -0.0941028967499733,
          -0.020768919959664345,
          0.10345223546028137,
          0.071962371468544,
          0.10036198794841766,
          -0.11047710478305817,
          0.014205020852386951,
          0.13719822466373444,
          -0.17528533935546875,
          -0.013476924039423466,
          -0.013230803422629833,
          0.13269288837909698,
          0.09052327275276184,
          -0.17496071755886078,
          0.14691044390201569,
          0.2449197918176651,
          -0.16914066672325134,
          -0.05847557634115219,
          -0.19006390869617462,
          0.1448870748281479,
          -0.10637489706277847
        ],
        [
          -0.1572575718164444,
          -0.5432847738265991,
          -0.4887813329696655,
          0.035498593002557755,
          -0.18782289326190948,
          0.15164890885353088,
          0.037709593772888184,
          0.13365021347999573,
          -0.5646076202392578,
          -0.37435853481292725,
          -0.4233006536960602,
          -0.11224374920129776,
          -0.21347647905349731,
          0.1993146538734436,
          -0.1508399397134781,
          0.2553989887237549,
          -0.2762623131275177,
          -0.10178771615028381,
          -0.08592568337917328,
          0.2036610096693039,
          -0.2533815801143646,
          0.04974812641739845,
          0.17302994430065155,
          0.15104182064533234,
          -0.2701299488544464,
          -0.046592872589826584,
          0.10732325911521912,
          0.20181475579738617,
          0.02869807742536068,
          -0.1864890307188034,
          0.13102011382579803,
          0.04369698464870453,
          0.07524306327104568,
          -0.08741432428359985,
          -0.12094976007938385,
          0.22932307422161102,
          -0.11739695817232132,
          -0.12373140454292297,
          0.0798134058713913,
          0.06980191916227341,
          -0.09961888939142227,
          0.12492047995328903,
          -0.12951983511447906,
          0.08065486699342728,
          0.06519082933664322,
          -0.06968332827091217,
          -0.14225433766841888,
          -0.018501050770282745,
          -0.24691428244113922
        ],
        [
          0.275068461894989,
          0.2593128979206085,
          0.3433808982372284,
          -0.1646845042705536,
          0.3423692584037781,
          -0.1583532691001892,
          -0.11134671419858932,
          -0.04254826158285141,
          0.2522917091846466,
          0.43616268038749695,
          0.4470241963863373,
          0.1837732046842575,
          0.022403398528695107,
          0.15905292332172394,
          -0.19029435515403748,
          0.061063870787620544,
          0.15015992522239685,
          0.20000635087490082,
          -0.198458731174469,
          -0.07417473196983337,
          0.1548304259777069,
          0.14692836999893188,
          0.028527120128273964,
          0.04766792804002762,
          0.1472056806087494,
          -0.012287086807191372,
          -0.18678253889083862,
          0.005046349950134754,
          0.11183859407901764,
          0.03520641103386879,
          0.0945892333984375,
          -0.14193420112133026,
          -0.02288874424993992,
          -0.03293450549244881,
          0.02159811742603779,
          0.03506647050380707,
          0.05885183438658714,
          -0.16886815428733826,
          0.019338062033057213,
          -0.034894488751888275,
          0.08462649583816528,
          0.1253344714641571,
          -0.08628101646900177,
          -0.1498754769563675,
          0.21437685191631317,
          0.03968735784292221,
          0.18578192591667175,
          -0.15420670807361603,
          0.23501043021678925
        ],
        [
          0.1606089025735855,
          0.2455357015132904,
          0.42267709970474243,
          0.12833979725837708,
          0.2992083430290222,
          0.05191076174378395,
          -0.20691047608852386,
          -0.16151727735996246,
          0.5305322408676147,
          0.12079263478517532,
          0.1653137505054474,
          0.3021029531955719,
          0.06669232994318008,
          -0.05741828680038452,
          0.027908869087696075,
          -0.059134308248758316,
          0.04132751002907753,
          0.1290270835161209,
          -0.12930138409137726,
          -0.034894902259111404,
          -0.045749057084321976,
          -0.11900916695594788,
          0.09903708845376968,
          -0.12852659821510315,
          -0.033412497490644455,
          -0.0007959984359331429,
          -0.08756916970014572,
          0.08278890699148178,
          0.10593470185995102,
          0.10319044440984726,
          -0.16886387765407562,
          0.11294322460889816,
          0.13612914085388184,
          0.11495646834373474,
          -0.09651244431734085,
          -0.2033076286315918,
          0.08266826719045639,
          0.17118333280086517,
          -0.11702718585729599,
          -0.09363291412591934,
          0.2465849220752716,
          0.02293425239622593,
          -0.15150220692157745,
          -0.23155683279037476,
          -0.020936675369739532,
          0.11640296876430511,
          -0.051497384905815125,
          0.07069864124059677,
          0.27142539620399475
        ],
        [
          -0.20591750741004944,
          -0.5332156419754028,
          -0.7571558356285095,
          0.37295377254486084,
          -0.5476628541946411,
          -0.1719294786453247,
          -0.1127311959862709,
          0.311629056930542,
          -1.1174060106277466,
          -0.929868221282959,
          -0.7732017040252686,
          -0.5100718140602112,
          -0.3233610689640045,
          0.021088305860757828,
          0.10390320420265198,
          0.05683532729744911,
          -0.02671956643462181,
          -0.04839218035340309,
          0.02032664231956005,
          0.1773417890071869,
          -0.07661846280097961,
          0.0013073018053546548,
          -0.13135658204555511,
          0.21699535846710205,
          -0.1962043195962906,
          0.047507014125585556,
          -0.08256079256534576,
          0.12304995208978653,
          -0.2817935645580292,
          -0.09781482070684433,
          -0.02189127914607525,
          0.34819984436035156,
          -0.3500502407550812,
          0.06745445728302002,
          -0.12757767736911774,
          0.029737871140241623,
          -0.03902501240372658,
          -0.17404425144195557,
          -0.07773923873901367,
          0.18082407116889954,
          -0.25062867999076843,
          0.01738065294921398,
          -0.13854055106639862,
          0.3161432147026062,
          -0.1730344146490097,
          -0.14248479902744293,
          -0.08689199388027191,
          0.3156011700630188,
          -0.09837782382965088
        ],
        [
          0.05936972424387932,
          -0.006169719621539116,
          0.008253388106822968,
          -0.15309807658195496,
          0.07747209817171097,
          0.19928257167339325,
          0.1685609668493271,
          -0.01318294182419777,
          0.10185270011425018,
          0.06313246488571167,
          0.10652237385511398,
          0.22133751213550568,
          -0.03438840061426163,
          -0.06650115549564362,
          -0.08572275191545486,
          0.1487821340560913,
          -0.0559750460088253,
          -0.0395093634724617,
          0.11310388147830963,
          -0.023332206532359123,
          -0.148071750998497,
          -0.12591060996055603,
          -0.04671892523765564,
          0.12493967264890671,
          0.1518658846616745,
          -0.15815703570842743,
          0.03371202200651169,
          -0.10649654269218445,
          0.15120665729045868,
          -0.1634472757577896,
          -0.12330583482980728,
          0.0989985466003418,
          0.2031598687171936,
          -0.0391932912170887,
          -0.18354220688343048,
          -0.12799739837646484,
          0.06705550104379654,
          -0.1677355170249939,
          0.17832116782665253,
          0.09894394874572754,
          0.2094697505235672,
          -0.018144547939300537,
          -0.1526631861925125,
          0.16453135013580322,
          0.10576874017715454,
          0.07958953827619553,
          0.10854421555995941,
          -0.1391587257385254,
          -0.02961844392120838
        ],
        [
          0.5305917263031006,
          0.3620871901512146,
          0.5587542057037354,
          -0.3525584936141968,
          0.5892723202705383,
          0.10780308395624161,
          -0.07841652631759644,
          -0.2756975591182709,
          1.1052898168563843,
          0.6621105074882507,
          0.5508784651756287,
          0.16769088804721832,
          0.31926384568214417,
          0.15663981437683105,
          -0.16269414126873016,
          -0.401815801858902,
          0.06463668495416641,
          0.13605491816997528,
          0.03902781009674072,
          -0.08657216280698776,
          0.059428632259368896,
          0.13851633667945862,
          0.09760159254074097,
          -0.20058588683605194,
          0.22906936705112457,
          0.16651219129562378,
          -0.05798628181219101,
          -0.04560910537838936,
          0.31904080510139465,
          0.0076371910981833935,
          -0.2074875384569168,
          -0.03898141160607338,
          0.08975578099489212,
          0.07960590720176697,
          -0.10735926032066345,
          -0.3778848350048065,
          0.29385343194007874,
          0.03843533247709274,
          -0.2016170471906662,
          -0.09989839047193527,
          0.1940360814332962,
          0.15151022374629974,
          0.08697696030139923,
          -0.16434480249881744,
          0.29753467440605164,
          0.1259697675704956,
          0.1075516790151596,
          -0.04788969084620476,
          0.3443191349506378
        ],
        [
          0.2879055142402649,
          0.18103009462356567,
          0.37106770277023315,
          0.03856312111020088,
          0.1482589840888977,
          0.02924112230539322,
          -0.1936483532190323,
          -0.03606468811631203,
          0.5721731781959534,
          0.45053452253341675,
          0.18783444166183472,
          0.3310747444629669,
          -0.0893741175532341,
          0.1937100738286972,
          -0.04843442142009735,
          -0.009481904096901417,
          0.2447366863489151,
          -0.12304189056158066,
          0.13483335077762604,
          -0.2887413203716278,
          0.19957494735717773,
          0.1313081830739975,
          0.14276708662509918,
          -0.2580470144748688,
          0.16542306542396545,
          0.11055795848369598,
          0.12657374143600464,
          0.036552101373672485,
          0.27725866436958313,
          -0.1851322203874588,
          0.18044352531433105,
          0.004690049681812525,
          0.23155780136585236,
          0.17607076466083527,
          0.053630515933036804,
          -0.11480031907558441,
          0.11397654563188553,
          0.003977459389716387,
          0.16103972494602203,
          -0.08045251667499542,
          -0.015525102615356445,
          -0.1605847179889679,
          -0.07543648034334183,
          -0.24115216732025146,
          0.2937140464782715,
          0.12243305146694183,
          -0.09407456964254379,
          -0.204749196767807,
          -0.0260673388838768
        ],
        [
          -0.08643632382154465,
          -0.40331777930259705,
          -0.5093865394592285,
          0.39437398314476013,
          -0.26255980134010315,
          -0.14216087758541107,
          -0.13121646642684937,
          0.10086074471473694,
          -0.7559585571289062,
          -0.31904035806655884,
          -0.32849785685539246,
          -0.13347089290618896,
          -0.08229243010282516,
          0.0055242725647985935,
          -0.10657647252082825,
          0.17723406851291656,
          -0.10698404163122177,
          -0.07845336198806763,
          -0.10107611119747162,
          0.1916319578886032,
          -0.24482829868793488,
          -0.15769580006599426,
          0.022329170256853104,
          0.15817876160144806,
          -0.22872337698936462,
          0.13078294694423676,
          -0.04110538586974144,
          0.1883271485567093,
          -0.2525136172771454,
          0.11572268605232239,
          -0.01487446203827858,
          0.06359581649303436,
          0.06711403280496597,
          0.12332794815301895,
          -0.18966767191886902,
          0.10812056809663773,
          -0.19708427786827087,
          -0.041826486587524414,
          0.14161205291748047,
          0.024693554267287254,
          -0.16394299268722534,
          0.10727109760046005,
          -0.04205651953816414,
          -0.005702064838260412,
          -0.1482577919960022,
          0.11652512103319168,
          0.0159914568066597,
          0.1770864576101303,
          -0.05425629764795303
        ],
        [
          -0.23976394534111023,
          -0.3855666518211365,
          -0.4346902072429657,
          0.2200663983821869,
          -0.4226347506046295,
          -0.027085527777671814,
          0.005454924423247576,
          0.17432425916194916,
          -0.486766517162323,
          -0.34876441955566406,
          -0.33307403326034546,
          0.03633328527212143,
          -0.06935910135507584,
          -0.04045373201370239,
          -0.13681520521640778,
          0.14825809001922607,
          0.032496728003025055,
          -0.1582256257534027,
          -0.17847494781017303,
          -0.06757751852273941,
          0.09414658695459366,
          0.01631283201277256,
          -0.07774289697408676,
          -0.0056869094260036945,
          -0.08887147158384323,
          0.029208818450570107,
          -0.1753564029932022,
          0.2327558696269989,
          0.08401266485452652,
          0.01922622323036194,
          -0.012185711413621902,
          0.08799254149198532,
          -0.2042565941810608,
          -0.10935606062412262,
          0.12059230357408524,
          0.13493821024894714,
          0.0037495819851756096,
          0.03319579362869263,
          -0.13814909756183624,
          0.13552814722061157,
          0.07679770141839981,
          0.03577487915754318,
          -0.03473145514726639,
          0.02321157231926918,
          -0.2680925130844116,
          0.12189360707998276,
          0.0890449807047844,
          0.21849167346954346,
          -0.14144641160964966
        ],
        [
          0.027063436806201935,
          0.39540573954582214,
          0.16872848570346832,
          0.11546193808317184,
          0.08121711760759354,
          0.11094273626804352,
          -0.006246599834412336,
          -0.03414631634950638,
          0.583511233329773,
          0.45901933312416077,
          0.30633053183555603,
          0.2635778784751892,
          0.21481730043888092,
          -0.1457514762878418,
          -0.09527097642421722,
          -0.24350261688232422,
          0.0918625071644783,
          -0.14910683035850525,
          -0.07383163273334503,
          -0.18447425961494446,
          -0.09763322025537491,
          -0.05969653278589249,
          0.04034744203090668,
          -0.013174258172512054,
          0.15539267659187317,
          0.1634303629398346,
          0.11217035353183746,
          -0.05737327039241791,
          0.04002448171377182,
          0.05661412328481674,
          0.1474883258342743,
          -0.0937645360827446,
          0.18980254232883453,
          0.16729725897312164,
          0.08815684914588928,
          -0.1665571630001068,
          0.20534981787204742,
          -0.013505195267498493,
          0.18233370780944824,
          -0.24333077669143677,
          0.26366090774536133,
          0.11141061782836914,
          0.05844460427761078,
          -0.1577269434928894,
          0.16999022662639618,
          0.18654927611351013,
          -0.16363433003425598,
          0.05068496614694595,
          0.2487739771604538
        ]
      ],
      "biases": [
        -0.029819302260875702,
        0.30371636152267456,
        -0.004730590619146824,
        -0.6440200209617615,
        -0.16052167117595673,
        -0.025684133172035217,
        0.03809875622391701,
        -0.3276265263557434,
        -0.2752995491027832,
        0.2702009379863739,
        -0.17312616109848022,
        -0.3951283097267151,
        -0.07703176885843277,
        0.012197580188512802,
        0.04526880756020546,
        -0.08463894575834274
      ]
    },
    {
      "weights": [
        [
          0.28086361289024353,
          -1.337550163269043,
          0.3459807336330414,
          1.3927624225616455,
          0.1011802926659584,
          -0.4099380075931549,
          -0.6494154334068298,
          0.3026438355445862,
          0.34585267305374146,
          -1.1318938732147217,
          -0.02833232469856739,
          0.8840607404708862,
          0.4894075393676758,
          -0.9418869614601135,
          -0.5605288743972778,
          0.3662974536418915
        ],
        [
          -0.09981219470500946,
          -0.13739711046218872,
          -0.05648979917168617,
          0.529956042766571,
          0.20927166938781738,
          0.051771990954875946,
          -0.18994249403476715,
          0.13671959936618805,
          0.09730547666549683,
          -0.2951718270778656,
          0.13907620310783386,
          0.14507818222045898,
          0.0012197806499898434,
          -0.1795753687620163,
          -0.3379043936729431,
          0.08484866470098495
        ],
        [
          0.08800772577524185,
          -0.5771841406822205,
          0.11786434799432755,
          0.25193729996681213,
          -0.025470487773418427,
          -0.14566583931446075,
          -0.1851891130208969,
          0.1341407597064972,
          0.23826010525226593,
          -0.5180296897888184,
          -0.034309808164834976,
          0.33916914463043213,
          -0.018932314589619637,
          -0.21601378917694092,
          -0.010054224170744419,
          0.017141275107860565
        ],
        [
          0.07688596099615097,
          -0.5940748453140259,
          0.10651737451553345,
          0.4093153476715088,
          0.10496784001588821,
          -0.31420183181762695,
          -0.10380890220403671,
          0.04247746989130974,
          -0.03633936494588852,
          -0.41209712624549866,
          -0.0014514891663566232,
          0.306342750787735,
          0.2156771421432495,
          -0.19338425993919373,
          -0.16105256974697113,
          0.2058350145816803
        ],
        [
          -0.035652607679367065,
          -0.2962699830532074,
          0.07261532545089722,
          0.40422847867012024,
          0.18334507942199707,
          -0.0017427768325433135,
          -0.04993895813822746,
          0.04744172841310501,
          0.18641987442970276,
          -0.4963460862636566,
          -0.13842394948005676,
          0.23554378747940063,
          0.0561162568628788,
          -0.04659441486001015,
          -0.021088195964694023,
          0.21498994529247284
        ],
        [
          0.1155746653676033,
          -0.4978462755680084,
          0.22914627194404602,
          0.46702897548675537,
          0.15104533731937408,
          0.050462014973163605,
          -0.3454476594924927,
          0.11129061132669449,
          0.1890040934085846,
          -0.13235411047935486,
          -0.12242504954338074,
          0.06039160117506981,
          -0.07897543162107468,
          -0.07568232715129852,
          -0.18507669866085052,
          0.08938634395599365
        ],
        [
          0.20949259400367737,
          -0.5141446590423584,
          0.248259037733078,
          0.7718830704689026,
          -0.005389743484556675,
          -0.3894563317298889,
          -0.2848304212093353,
          -0.0074055613949894905,
          -0.06256198137998581,
          -0.5827361345291138,
          -0.02033596858382225,
          0.2703130841255188,
          0.06255706399679184,
          -0.5368620753288269,
          -0.4533240497112274,
          0.3080659508705139
        ],
        [
          0.05706894025206566,
          -0.9657688736915588,
          0.30164432525634766,
          1.048772931098938,
          0.0027267932891845703,
          -0.46867677569389343,
          -0.5965749025344849,
          0.13564036786556244,
          0.19702668488025665,
          -1.0292295217514038,
          0.19578996300697327,
          0.6033377051353455,
          0.4548207223415375,
          -0.3456490933895111,
          -0.5738994479179382,
          0.2045980989933014
        ],
        [
          0.2069026678800583,
          -1.316792607307434,
          0.3466135561466217,
          1.4304331541061401,
          0.015632526949048042,
          -0.5959181189537048,
          -0.7763525247573853,
          0.4719904065132141,
          0.21165788173675537,
          -1.2031012773513794,
          -0.07053443789482117,
          0.9040188193321228,
          0.3941708207130432,
          -0.671299934387207,
          -0.5610151290893555,
          0.507928192615509
        ],
        [
          -0.018431972712278366,
          -0.425282746553421,
          0.04635431617498398,
          0.6375749707221985,
          0.19031447172164917,
          -0.19264785945415497,
          -0.48000675439834595,
          0.15338638424873352,
          0.3026691675186157,
          -0.5468887090682983,
          0.025955671444535255,
          0.40606585144996643,
          -0.030943404883146286,
          -0.30053290724754333,
          -0.4693410396575928,
          0.18992485105991364
        ],
        [
          0.06117866933345795,
          -1.001627802848816,
          0.09235582500696182,
          1.1947927474975586,
          -0.018400318920612335,
          -0.42481449246406555,
          -0.5895217061042786,
          0.4513556659221649,
          0.2821395695209503,
          -0.9580378532409668,
          -0.12477942556142807,
          0.7590320110321045,
          0.46143484115600586,
          -0.655104398727417,
          -0.4621213972568512,
          0.14253249764442444
        ],
        [
          -0.009967530146241188,
          -0.5106412768363953,
          0.14362700283527374,
          0.5110893249511719,
          0.252513587474823,
          -0.14346693456172943,
          -0.21704499423503876,
          -0.023174574598670006,
          0.007477044127881527,
          -0.40743276476860046,
          0.20252718031406403,
          0.28449252247810364,
          -0.030798694118857384,
          -0.2104509472846985,
          -0.2500653564929962,
          -0.052249517291784286
        ],
        [
          0.10946191847324371,
          -0.5920423269271851,
          0.2569168508052826,
          0.5823162198066711,
          0.020957209169864655,
          -0.2104405015707016,
          -0.35235562920570374,
          0.30009719729423523,
          -0.0414687804877758,
          -0.5885395407676697,
          0.009139382280409336,
          0.2772112190723419,
          0.0059861084446311,
          -0.32911211252212524,
          -0.03756238892674446,
          0.07180540263652802
        ],
        [
          0.1017521396279335,
          -0.28281185030937195,
          -0.0982016921043396,
          0.3329775631427765,
          0.011982924304902554,
          -0.2492792010307312,
          0.0443023145198822,
          0.01893596537411213,
          0.21787108480930328,
          -0.2402302473783493,
          -0.03345140069723129,
          0.026345185935497284,
          0.06816545873880386,
          0.055882904678583145,
          -0.15234479308128357,
          0.28142231702804565
        ],
        [
          -0.19524650275707245,
          0.003320560324937105,
          0.031320516020059586,
          -0.01030682772397995,
          -0.12416835129261017,
          -0.056490395218133926,
          -0.13727688789367676,
          -0.005576407536864281,
          -0.12618978321552277,
          -0.10854262113571167,
          -0.14653049409389496,
          -0.2026825100183487,
          -0.09481023252010345,
          -0.07710003852844238,
          0.08913777768611908,
          0.09846952557563782
        ],
        [
          0.19424785673618317,
          0.04625482112169266,
          0.1699589341878891,
          0.17846962809562683,
          0.20688405632972717,
          -0.05724414810538292,
          0.15741193294525146,
          -0.09945163875818253,
          0.2608145773410797,
          -0.13867981731891632,
          0.07028153538703918,
          -0.026400845497846603,
          0.05610242113471031,
          -0.1758396178483963,
          0.11785008013248444,
          -0.05339296907186508
        ]
      ],
      "biases": [
        -0.30500882863998413,
        -0.25266531109809875,
        0.03577323630452156,
        -0.10764408111572266,
        -0.04750800505280495,
        -0.012055818922817707,
        -0.020550182089209557,
        -0.2809418737888336,
        -0.21815702319145203,
        -0.2085312157869339,
        -0.24407389760017395,
        -0.0018136466387659311,
        -0.2209302932024002,
        0.10998359322547913,
        0.07479143142700195,
        -0.12486449629068375
      ]
    },
    {
      "weights": [
        [
          -0.4473710358142853,
          -0.2996993064880371,
          -0.14425364136695862,
          -0.11853574216365814,
          -0.14955618977546692,
          -0.3384396433830261,
          -0.2794804573059082,
          -0.3957974910736084,
          -0.43850478529930115,
          -0.08296695351600647,
          -0.5964562296867371,
          -0.21900145709514618,
          -0.06817501038312912,
          -0.29717200994491577,
          0.18478882312774658,
          -0.15050700306892395
        ],
        [
          -0.5621176958084106,
          -0.19330602884292603,
          -0.350993275642395,
          -0.3022129237651825,
          0.01914886385202408,
          0.004882480949163437,
          -0.19167767465114594,
          -0.3485164940357208,
          -0.6120930314064026,
          -0.3884795308113098,
          -0.4325069487094879,
          -0.0019096514442935586,
          -0.06832917034626007,
          -0.07361205667257309,
          -0.06233116611838341,
          -0.25830593705177307
        ],
        [
          -0.4560302495956421,
          -0.11006230860948563,
          -0.10152905434370041,
          -0.37667950987815857,
          -0.10794955492019653,
          -0.0584392175078392,
          -0.3364162743091583,
          -0.456171452999115,
          -0.5672733187675476,
          -0.34612879157066345,
          -0.386970579624176,
          -0.2592889070510864,
          -0.3099450170993805,
          -0.045523978769779205,
          0.14931881427764893,
          0.006921825464814901
        ],
        [
          -0.5776470303535461,
          0.08631917834281921,
          0.00997280701994896,
          -0.3081291615962982,
          -0.26762378215789795,
          -0.13266652822494507,
          -0.07673321664333344,
          -0.5299966335296631,
          -0.6389461159706116,
          -0.3771292567253113,
          -0.5584723949432373,
          -0.2569931447505951,
          -0.2040320783853531,
          0.056214094161987305,
          0.12558072805404663,
          -0.14424371719360352
        ],
        [
          -0.3363969922065735,
          -0.05753855034708977,
          -0.16119712591171265,
          -0.3696528673171997,
          -0.08095569908618927,
          -0.03683434799313545,
          -0.2618013918399811,
          -0.49819216132164,
          -0.35013076663017273,
          -0.19356173276901245,
          -0.40795859694480896,
          -0.2002520114183426,
          -0.3359844386577606,
          -0.3453294336795807,
          0.0023015206679701805,
          -0.22750897705554962
        ],
        [
          -0.9886366128921509,
          -0.10723409056663513,
          -0.02384728007018566,
          -0.2144019603729248,
          -0.02775220386683941,
          -0.08460409939289093,
          -0.22812087833881378,
          -0.7538285851478577,
          -1.0627150535583496,
          -0.3368675112724304,
          -0.5983275175094604,
          0.048988327383995056,
          -0.16424855589866638,
          0.22765791416168213,
          0.22740790247917175,
          0.1951482594013214
        ],
        [
          -0.6815269589424133,
          0.0075631472282111645,
          -0.3196817636489868,
          -0.11441152542829514,
          -0.20403414964675903,
          -0.24512945115566254,
          -0.20681558549404144,
          -0.29924502968788147,
          -0.6613997220993042,
          -0.10501221567392349,
          -0.4984939396381378,
          -0.14571122825145721,
          -0.24451977014541626,
          -0.21059036254882812,
          0.15011346340179443,
          0.009673580527305603
        ],
        [
          -0.39117684960365295,
          0.059978049248456955,
          -0.2327999472618103,
          -0.31880462169647217,
          -0.2319914698600769,
          -0.29895302653312683,
          -0.22052225470542908,
          -0.38763973116874695,
          -0.29744407534599304,
          -0.350879967212677,
          -0.4547363221645355,
          -0.28572702407836914,
          -0.26339930295944214,
          -0.12952947616577148,
          0.16481877863407135,
          -0.1685209572315216
        ],
        [
          -0.4444408118724823,
          -0.21615754067897797,
          -0.166256844997406,
          -0.24793539941310883,
          -0.36683768033981323,
          -0.06378737092018127,
          -0.22628988325595856,
          -0.25661948323249817,
          -0.2506234645843506,
          -0.1678331047296524,
          -0.3537842333316803,
          -0.3083866536617279,
          -0.10625717043876648,
          -0.27752387523651123,
          -0.25062867999076843,
          -0.22516188025474548
        ],
        [
          -0.7333837747573853,
          -0.02529439888894558,
          -0.10669324547052383,
          -0.11702816933393478,
          -0.30290696024894714,
          -0.14932405948638916,
          -0.46750709414482117,
          -0.4492695927619934,
          -0.45702192187309265,
          -0.17870880663394928,
          -0.4877661466598511,
          -0.32867273688316345,
          -0.1005835235118866,
          -0.07100091129541397,
          -0.07697140425443649,
          0.09203488379716873
        ],
        [
          -1.0490974187850952,
          -0.140797957777977,
          0.00710641173645854,
          -0.2052316665649414,
          0.14335328340530396,
          0.029968107119202614,
          -0.2839351296424866,
          -0.6282636523246765,
          -1.034624457359314,
          -0.35208290815353394,
          -0.8168586492538452,
          -0.2925463914871216,
          -0.29245132207870483,
          -0.049136169254779816,
          0.19688142836093903,
          0.37573760747909546
        ],
        [
          -0.876315712928772,
          -0.10212929546833038,
          -0.08482987433671951,
          -0.18384811282157898,
          0.012574267573654652,
          -0.3076215982437134,
          -0.23815561830997467,
          -0.3909060060977936,
          -0.6679049730300903,
          -0.27280640602111816,
          -0.611636221408844,
          -0.08717640489339828,
          -0.3763711750507355,
          0.11621612310409546,
          0.06074308231472969,
          -0.1252787560224533
        ],
        [
          -0.7855358123779297,
          -0.1273115873336792,
          -0.31475505232810974,
          -0.043790966272354126,
          -0.05034357309341431,
          -0.016876215115189552,
          -0.4557134509086609,
          -0.6634200215339661,
          -0.7368749976158142,
          -0.12835954129695892,
          -0.7128708362579346,
          0.0008924744324758649,
          -0.22798503935337067,
          0.15493358671665192,
          0.13748103380203247,
          0.05434126779437065
        ],
        [
          -0.5433457493782043,
          -0.2657279968261719,
          -0.27657315135002136,
          -0.015767697244882584,
          -0.2850818634033203,
          -0.10875765234231949,
          -0.3727957010269165,
          -0.5249371528625488,
          -0.7994105219841003,
          -0.30834487080574036,
          -0.3325880765914917,
          0.02165904827415943,
          -0.3615960478782654,
          -0.2608453631401062,
          0.029551386833190918,
          0.10428984463214874
        ],
        [
          -0.7123881578445435,
          -0.1863429993391037,
          -0.20031973719596863,
          -0.09184530377388,
          -0.18097849190235138,
          -0.20979979634284973,
          -0.15560971200466156,
          -0.22123318910598755,
          -0.7294646501541138,
          -0.3464163541793823,
          -0.3295792043209076,
          -0.3894243836402893,
          -0.25314655900001526,
          -0.007818279787898064,
          -0.07660896331071854,
          0.01987305097281933
        ],
        [
          -0.6797201633453369,
          -0.0677039623260498,
          -0.22739164531230927,
          -0.16283436119556427,
          -0.2978818714618683,
          0.03864356130361557,
          -0.337574303150177,
          -0.5571309328079224,
          -0.7658016085624695,
          -0.13121043145656586,
          -0.43342268466949463,
          -0.2395547479391098,
          -0.23736146092414856,
          -0.25162503123283386,
          0.04579015448689461,
          0.0050657051615417
        ]
      ],
      "biases": [
        -0.16317181289196014,
        -0.1664404273033142,
        -0.1728150099515915,
        -0.08125960826873779,
        -0.12982000410556793,
        0.2615310549736023,
        -0.1411040723323822,
        -0.21169514954090118,
        -0.1182282418012619,
        -0.02199445851147175,
        0.6025444865226746,
        0.16349154710769653,
        0.10667825490236282,
        0.2167765349149704,
        0.024135958403348923,
        0.2637157142162323
      ]
    },
    {
      "weights": [
        [
          0.7624248266220093,
          0.7402277588844299,
          0.8296651244163513,
          0.9284906983375549,
          0.5769964456558228,
          1.5751644372940063,
          0.9328722357749939,
          0.6715894341468811,
          0.43695375323295593,
          0.87784743309021,
          1.717092752456665,
          1.1977370977401733,
          1.294924259185791,
          1.0411207675933838,
          0.8908126950263977,
          1.116428017616272
        ]
      ],
      "biases": [
        -4.168515205383301
      ]
    }
  ],
  "inputLookup": {
    "totalClouds[0]": 0,
    "lowClouds[0]": 1,
    "mediumClouds[0]": 2,
    "highClouds[0]": 3,
    "rainChance[0]": 4,
    "rainAmount[0]": 5,
    "windSpeed[0]": 6,
    "temperature[0]": 7,
    "totalClouds[1]": 8,
    "lowClouds[1]": 9,
    "mediumClouds[1]": 10,
    "highClouds[1]": 11,
    "rainChance[1]": 12,
    "rainAmount[1]": 13,
    "windSpeed[1]": 14,
    "temperature[1]": 15,
    "totalClouds[2]": 16,
    "lowClouds[2]": 17,
    "mediumClouds[2]": 18,
    "highClouds[2]": 19,
    "rainChance[2]": 20,
    "rainAmount[2]": 21,
    "windSpeed[2]": 22,
    "temperature[2]": 23,
    "totalClouds[3]": 24,
    "lowClouds[3]": 25,
    "mediumClouds[3]": 26,
    "highClouds[3]": 27,
    "rainChance[3]": 28,
    "rainAmount[3]": 29,
    "windSpeed[3]": 30,
    "temperature[3]": 31,
    "totalClouds[4]": 32,
    "lowClouds[4]": 33,
    "mediumClouds[4]": 34,
    "highClouds[4]": 35,
    "rainChance[4]": 36,
    "rainAmount[4]": 37,
    "windSpeed[4]": 38,
    "temperature[4]": 39,
    "exposureLength": 40,
    "totalClouds[5]": 41,
    "lowClouds[5]": 42,
    "mediumClouds[5]": 43,
    "highClouds[5]": 44,
    "rainChance[5]": 45,
    "rainAmount[5]": 46,
    "windSpeed[5]": 47,
    "temperature[5]": 48
  },
  "inputLookupLength": 49,
  "outputLookup": {
    "totalImagingTime": 0
  },
  "outputLookupLength": 1,
  "options": {
    "inputSize": 0,
    "outputSize": 0,
    "binaryThresh": 0.5,
    "hiddenLayers": [
      16,
      16,
      16
    ]
  },
  "trainOpts": {
    "activation": "sigmoid",
    "iterations": 20000,
    "errorThresh": 0.005,
    "log": false,
    "logPeriod": 10,
    "leakyReluAlpha": 0.01,
    "learningRate": 0.3,
    "momentum": 0.1,
    "callbackPeriod": 10,
    "timeout": "Infinity",
    "beta1": 0.9,
    "beta2": 0.999,
    "epsilon": 1e-8
  }
}