{
  "type": "NeuralNetworkGPU",
  "sizes": [
    41,
    16,
    16,
    16,
    1
  ],
  "layers": [
    {
      "weights": [],
      "biases": []
    },
    {
      "weights": [
        [
          -0.2369394153356552,
          -0.438437283039093,
          0.021470747888088226,
          -0.016268756240606308,
          -0.40089234709739685,
          -0.2001514881849289,
          0.11221803724765778,
          0.13269607722759247,
          -0.3980797231197357,
          -0.6203034520149231,
          -0.2142447978258133,
          0.030471524223685265,
          -0.24383996427059174,
          -0.06000543758273125,
          0.01843094825744629,
          0.2513487637042999,
          -0.24916590750217438,
          0.105800561606884,
          0.14519605040550232,
          -0.1129048764705658,
          -0.2385990172624588,
          0.08904514461755753,
          -0.07488277554512024,
          0.20524217188358307,
          -0.11074304580688477,
          -0.16278040409088135,
          -0.20734384655952454,
          -0.0853850245475769,
          -0.10947079956531525,
          0.14106304943561554,
          -0.08436951041221619,
          0.17677918076515198,
          -0.26352816820144653,
          0.19592474400997162,
          0.06095154210925102,
          0.1718764454126358,
          -0.04671483486890793,
          -0.134590283036232,
          0.035137563943862915,
          0.05963129550218582,
          -0.1166064590215683
        ],
        [
          0.2759152948856354,
          0.48551955819129944,
          0.03635982424020767,
          -0.16473451256752014,
          0.5284712314605713,
          -0.1022200956940651,
          -0.06636128574609756,
          -0.19907477498054504,
          0.6970359086990356,
          0.7484270930290222,
          -0.05251935124397278,
          0.16938574612140656,
          0.4067331552505493,
          0.14354613423347473,
          0.20361603796482086,
          0.05893894284963608,
          0.3638029396533966,
          0.08848025649785995,
          0.13884638249874115,
          -0.24447892606258392,
          0.4758624732494354,
          -0.17067672312259674,
          -0.17179934680461884,
          -0.04680182784795761,
          0.09380502998828888,
          -0.004323500674217939,
          0.038416698575019836,
          -0.006045968271791935,
          0.17131514847278595,
          0.07880701124668121,
          0.21100564301013947,
          -0.1117667406797409,
          0.18769827485084534,
          0.16023795306682587,
          -0.18294240534305573,
          -0.02195911481976509,
          0.18373993039131165,
          0.08074463903903961,
          0.1713951677083969,
          -0.2573319375514984,
          0.42889320850372314
        ],
        [
          0.086201511323452,
          0.16041089594364166,
          0.12487126141786575,
          0.0469222329556942,
          0.1287963092327118,
          0.1856667399406433,
          -0.10713239759206772,
          0.05620163679122925,
          0.29720669984817505,
          0.1937304437160492,
          -0.13029885292053223,
          -0.02677002362906933,
          0.3215417265892029,
          0.1823028326034546,
          0.12994015216827393,
          -0.1433834284543991,
          0.05308571830391884,
          -0.0775255411863327,
          0.09284119307994843,
          0.11064852774143219,
          0.30346569418907166,
          0.19863373041152954,
          0.19015191495418549,
          -0.14030198752880096,
          0.24285443127155304,
          -0.18905287981033325,
          -0.1829695999622345,
          -0.06686023622751236,
          0.06749378144741058,
          0.07372011244297028,
          -0.16023214161396027,
          -0.18128131330013275,
          0.3152914345264435,
          -0.12110289931297302,
          -0.03587384894490242,
          -0.16198284924030304,
          0.02312316559255123,
          0.06198028102517128,
          0.0886513963341713,
          0.110898956656456,
          0.31598129868507385
        ],
        [
          0.14155235886573792,
          0.646393895149231,
          0.005394380073994398,
          -0.40398460626602173,
          0.4716757833957672,
          -0.07022678107023239,
          0.11925160884857178,
          -0.06891325116157532,
          0.6189583539962769,
          0.8117457628250122,
          -0.05160340294241905,
          0.12288831174373627,
          0.1664649397134781,
          0.10115917026996613,
          -0.1469116359949112,
          -0.2959279417991638,
          0.4698873460292816,
          0.19660107791423798,
          -0.1397307962179184,
          -0.25743618607521057,
          0.2120884209871292,
          -0.15250439941883087,
          0.06036068871617317,
          -0.04887206107378006,
          0.43747177720069885,
          -0.09436310082674026,
          -0.049148913472890854,
          -0.05839502811431885,
          0.3401121199131012,
          0.11888737976551056,
          0.19364018738269806,
          0.042897142469882965,
          0.3279719054698944,
          0.05776078999042511,
          -0.028756748884916306,
          -0.09017552435398102,
          0.3944457471370697,
          0.09500403702259064,
          -0.1855461150407791,
          -0.1410883367061615,
          0.4823245108127594
        ],
        [
          -0.17666199803352356,
          -0.1862669289112091,
          -0.022506047040224075,
          -0.10703396052122116,
          -0.28243288397789,
          -0.1512872725725174,
          -0.1394222527742386,
          -0.1289745718240738,
          -0.17319737374782562,
          -0.133971706032753,
          -0.19932179152965546,
          0.006251832470297813,
          0.019326014444231987,
          -0.16513657569885254,
          -0.08706524223089218,
          -0.0688997283577919,
          -0.2763090133666992,
          0.11633133143186569,
          -0.19987811148166656,
          -0.14419423043727875,
          0.04396496340632439,
          -0.18796665966510773,
          -0.08799206465482712,
          -0.07354318350553513,
          -0.1062413826584816,
          -0.10761011391878128,
          0.026314333081245422,
          0.189320370554924,
          -0.24954570829868317,
          -0.1763991117477417,
          0.12315379828214645,
          0.24197156727313995,
          0.10066810995340347,
          0.19728806614875793,
          0.04174910858273506,
          -0.0834721103310585,
          -0.20673160254955292,
          -0.028518876060843468,
          0.1764439046382904,
          -0.08469664305448532,
          -0.16537143290042877
        ],
        [
          -0.11756835132837296,
          -0.03820110857486725,
          0.023019274696707726,
          0.13751250505447388,
          0.24475237727165222,
          -0.05642041191458702,
          -0.1621471643447876,
          0.009875349700450897,
          0.13200199604034424,
          0.3656224012374878,
          -0.006048653740435839,
          0.0338183231651783,
          0.12027247995138168,
          -0.14367374777793884,
          -0.06812338531017303,
          0.10602473467588425,
          0.022935036569833755,
          -0.09229868650436401,
          0.058446649461984634,
          0.1213306412100792,
          -0.05305791646242142,
          -0.17340382933616638,
          0.1735076904296875,
          -0.08787538856267929,
          0.12554095685482025,
          -0.11474615335464478,
          0.11332599818706512,
          -0.03528020530939102,
          0.22516541182994843,
          -0.01351248286664486,
          0.19179627299308777,
          -0.07691384106874466,
          0.1377376914024353,
          -0.11879671365022659,
          0.04252861067652702,
          -0.03134875372052193,
          0.18902122974395752,
          0.01742599904537201,
          0.17959241569042206,
          0.004144681617617607,
          0.07833901047706604
        ],
        [
          0.0013316292315721512,
          -0.196635901927948,
          0.05027125030755997,
          0.17663465440273285,
          -0.17276373505592346,
          0.03763771429657936,
          -0.12193853408098221,
          -0.07840118557214737,
          0.07310787588357925,
          -0.11575553566217422,
          -0.040056776255369186,
          -0.039337724447250366,
          -0.040117297321558,
          0.16371463239192963,
          -0.052706386893987656,
          -0.18966716527938843,
          -0.03552274405956268,
          -0.17953671514987946,
          -0.1266249418258667,
          -0.06694591045379639,
          -0.02288767136633396,
          0.10372164845466614,
          0.057590823620557785,
          -0.09397880733013153,
          0.09805779904127121,
          0.15042704343795776,
          -0.05784184858202934,
          -0.14899837970733643,
          -0.13766565918922424,
          0.10743504017591476,
          -0.09905903786420822,
          0.05884971097111702,
          -0.13641363382339478,
          -0.027483133599162102,
          -0.15522457659244537,
          0.09530206024646759,
          0.12372494488954544,
          -0.09464017301797867,
          -0.04222603142261505,
          -0.0535409040749073,
          -0.1261475682258606
        ],
        [
          -0.008305604569613934,
          0.0561404749751091,
          0.19408874213695526,
          -0.16754250228405,
          0.17403481900691986,
          -0.11010405421257019,
          -0.185148224234581,
          0.06360240280628204,
          0.22911164164543152,
          0.10010959208011627,
          0.14889870584011078,
          0.05914664268493652,
          0.20788240432739258,
          0.1316254734992981,
          -0.18985238671302795,
          -0.1189422756433487,
          0.26009058952331543,
          -0.09701095521450043,
          0.05064317584037781,
          -0.07629185914993286,
          -0.0981263518333435,
          0.041096895933151245,
          0.1045224517583847,
          0.08339919149875641,
          -0.07687219232320786,
          -0.09050576388835907,
          -0.0635298565030098,
          0.146906316280365,
          0.07337823510169983,
          0.1418086439371109,
          -0.12967932224273682,
          -0.014572972431778908,
          0.20363862812519073,
          0.1754760891199112,
          0.0409361757338047,
          -0.1855160892009735,
          0.025764549151062965,
          0.06752027571201324,
          -0.08903074264526367,
          -0.1387214958667755,
          0.19532878696918488
        ],
        [
          0.17459720373153687,
          0.22344230115413666,
          0.0878191888332367,
          -0.15492843091487885,
          0.1302269995212555,
          0.19959130883216858,
          0.005993104539811611,
          -0.117182157933712,
          0.3623923659324646,
          0.3619312047958374,
          0.12006141245365143,
          0.21773988008499146,
          0.17150741815567017,
          0.16549526154994965,
          0.17496977746486664,
          -0.016471441835165024,
          0.13478979468345642,
          0.19764387607574463,
          0.18809251487255096,
          0.11477414518594742,
          0.15469065308570862,
          0.024068530648946762,
          0.07871189713478088,
          0.07000704854726791,
          0.070317842066288,
          -0.19431938230991364,
          0.029765432700514793,
          0.011760612949728966,
          0.2997145652770996,
          0.014422920532524586,
          0.08937371522188187,
          0.049099743366241455,
          0.02800627425312996,
          0.04128287732601166,
          0.11391041427850723,
          -0.1160837933421135,
          0.030388426035642624,
          0.17475178837776184,
          -0.038663674145936966,
          0.04816726595163345,
          0.1590684950351715
        ],
        [
          -0.25895997881889343,
          -0.2454986870288849,
          -0.01282423548400402,
          -0.08957110345363617,
          -0.13843151926994324,
          0.13890831172466278,
          -0.06772813200950623,
          -0.09665107727050781,
          -0.4010563790798187,
          -0.3096146285533905,
          -0.038400545716285706,
          0.023307843133807182,
          0.025492286309599876,
          0.0690801814198494,
          -0.047969087958335876,
          -0.07020409405231476,
          0.07181588560342789,
          0.16447699069976807,
          -0.08363021910190582,
          0.2111976593732834,
          0.037584736943244934,
          -0.008039242587983608,
          -0.17220789194107056,
          0.0214726310223341,
          0.0037263703998178244,
          -0.08536283671855927,
          -0.18159601092338562,
          -0.09700961410999298,
          -0.31406888365745544,
          -0.112363301217556,
          -0.07102974504232407,
          0.22133870422840118,
          -0.1706368327140808,
          -0.14995965361595154,
          0.17704185843467712,
          -0.008302722126245499,
          -0.297520250082016,
          0.03818006440997124,
          0.07392449676990509,
          0.008344572968780994,
          -0.06346111744642258
        ],
        [
          -0.00038177776150405407,
          0.13630741834640503,
          0.05631552264094353,
          -0.13512586057186127,
          0.09761389344930649,
          -0.10574277490377426,
          0.0575060173869133,
          -0.014594465494155884,
          0.1332855075597763,
          0.2140955924987793,
          0.21568991243839264,
          0.03337837755680084,
          -0.03731435537338257,
          -0.02350027859210968,
          -0.0928250327706337,
          0.07012646645307541,
          -0.035193465650081635,
          -0.18424759805202484,
          0.1923704892396927,
          -0.19486932456493378,
          0.2394953817129135,
          -0.05315170809626579,
          0.17643050849437714,
          -0.1271207332611084,
          0.2771829664707184,
          0.06286648660898209,
          0.1829739660024643,
          -0.04651886597275734,
          0.014052742160856724,
          0.18108811974525452,
          -0.033695608377456665,
          0.07463590055704117,
          0.052444811910390854,
          0.05631789192557335,
          -0.00803627260029316,
          0.005849773529917002,
          -0.03530522808432579,
          0.020771777257323265,
          0.15655988454818726,
          0.0423574261367321,
          0.07105004042387009
        ],
        [
          -0.17717190086841583,
          -0.7748059630393982,
          0.12210302799940109,
          0.33925551176071167,
          -0.5955397486686707,
          -0.06261477619409561,
          0.1288147270679474,
          0.22459988296031952,
          -0.6226528286933899,
          -0.8766558766365051,
          -0.15547282993793488,
          -0.08547826111316681,
          -0.23451624810695648,
          -0.13568095862865448,
          -0.02612912841141224,
          -0.02258380316197872,
          -0.31382524967193604,
          0.03773621469736099,
          -0.13908030092716217,
          0.13552075624465942,
          -0.14010651409626007,
          -0.042902108281850815,
          0.012495962902903557,
          0.010712599381804466,
          -0.4435522258281708,
          -0.15983642637729645,
          0.0759071335196495,
          0.06031672656536102,
          -0.0990346372127533,
          0.16518427431583405,
          0.1399204581975937,
          0.3345656096935272,
          -0.459749311208725,
          -0.016894735395908356,
          -0.20633120834827423,
          0.1851714849472046,
          -0.4498746991157532,
          -0.13041377067565918,
          -0.13505393266677856,
          0.20371469855308533,
          -0.40611669421195984
        ],
        [
          -0.05352861434221268,
          -0.2807600498199463,
          -0.00014848100545350462,
          0.2303030639886856,
          -0.372165322303772,
          0.13118556141853333,
          -0.15899859368801117,
          0.13818776607513428,
          -0.5141412019729614,
          -0.4376065731048584,
          -0.10571641474962234,
          -0.23266084492206573,
          -0.024250593036413193,
          -0.12196391820907593,
          -0.18663735687732697,
          0.1549077332019806,
          -0.26896169781684875,
          0.14411048591136932,
          0.12738558650016785,
          0.19825339317321777,
          -0.3079087436199188,
          0.16766475141048431,
          -0.14955592155456543,
          -0.09381665289402008,
          -0.10960221290588379,
          0.07979309558868408,
          -0.13745830953121185,
          0.16684237122535706,
          -0.13796605169773102,
          0.06959329545497894,
          -0.18951953947544098,
          0.14100822806358337,
          -0.2332840859889984,
          -0.10688846558332443,
          -0.037203870713710785,
          0.1728496253490448,
          -0.014621584676206112,
          0.06662936508655548,
          -0.17974059283733368,
          0.02537756785750389,
          -0.3496055603027344
        ],
        [
          0.09730502218008041,
          -0.19716139137744904,
          -0.019810505211353302,
          0.17731568217277527,
          -0.35924407839775085,
          -0.14139831066131592,
          0.06417789310216904,
          0.24170805513858795,
          -0.3095022737979889,
          -0.304313600063324,
          0.06532388180494308,
          -0.0014149368507787585,
          -0.16230550408363342,
          -0.030871158465743065,
          0.05887604504823685,
          0.0719974935054779,
          -0.28617554903030396,
          0.038752879947423935,
          -0.07240074127912521,
          -0.11164747178554535,
          -0.2443273961544037,
          0.1410863697528839,
          0.08241624385118484,
          -0.09037841856479645,
          -0.3294680416584015,
          -0.17307507991790771,
          0.07389656454324722,
          -0.10727979242801666,
          -0.19946503639221191,
          0.02554064430296421,
          0.001695444225333631,
          -0.06640121340751648,
          -0.3281460106372833,
          0.05601001903414726,
          -0.05607865750789642,
          -0.018563928082585335,
          -0.20359161496162415,
          0.07608027756214142,
          0.050529271364212036,
          0.050737421959638596,
          -0.049342527985572815
        ],
        [
          0.3411649763584137,
          0.20428740978240967,
          0.02884361520409584,
          -0.34279417991638184,
          0.3972597122192383,
          0.05488596111536026,
          -0.15900954604148865,
          0.009994547814130783,
          0.48947399854660034,
          0.4535703659057617,
          0.019367188215255737,
          0.14797894656658173,
          0.19184710085391998,
          0.027711432427167892,
          0.04142068326473236,
          -0.1171892061829567,
          0.08520255982875824,
          0.14802707731723785,
          0.09314066916704178,
          0.05775432288646698,
          0.30902016162872314,
          0.10580769926309586,
          0.19282273948192596,
          -0.1336623579263687,
          0.3326294720172882,
          0.1361505389213562,
          -0.07295358180999756,
          -0.04587089270353317,
          0.3734897971153259,
          0.14511360228061676,
          0.05167512595653534,
          0.016889538615942,
          0.3593008816242218,
          -0.08134450763463974,
          0.18297594785690308,
          -0.12108509987592697,
          0.3435652256011963,
          -0.0940246731042862,
          -0.130265474319458,
          -0.294942170381546,
          0.0903007835149765
        ],
        [
          0.08375438302755356,
          0.45249706506729126,
          -0.17026765644550323,
          -0.21854902803897858,
          0.3993523120880127,
          -0.03665609657764435,
          -0.17696718871593475,
          -0.19022628664970398,
          0.5046144127845764,
          0.5830077528953552,
          0.16357505321502686,
          -0.03442258760333061,
          0.24642659723758698,
          0.04607345536351204,
          0.12870818376541138,
          -0.15692110359668732,
          0.3082575500011444,
          0.010782410390675068,
          0.14384955167770386,
          -0.1850149780511856,
          0.19459547102451324,
          -0.19766570627689362,
          -0.05047249794006348,
          -0.07207740098237991,
          0.3654615581035614,
          -0.06537989526987076,
          0.017681647092103958,
          -0.010880163870751858,
          0.3022746741771698,
          0.18749243021011353,
          -0.012814912013709545,
          0.019842077046632767,
          0.2783203125,
          -0.15319231152534485,
          -0.15765826404094696,
          0.09367505460977554,
          0.1466306895017624,
          0.18433316051959991,
          0.18247276544570923,
          -0.12571215629577637,
          0.059454310685396194
        ]
      ],
      "biases": [
        0.0029634502716362476,
        -0.2818998396396637,
        -0.04688338190317154,
        -0.15647193789482117,
        -0.005391882266849279,
        -0.19276534020900726,
        0.14836734533309937,
        -0.14576703310012817,
        -0.23576860129833221,
        0.1240730807185173,
        0.10710611939430237,
        0.04850952699780464,
        -0.10244879126548767,
        0.229116752743721,
        -0.2135411947965622,
        -0.19113823771476746
      ]
    },
    {
      "weights": [
        [
          0.018481051549315453,
          -0.1946689784526825,
          0.029730523005127907,
          -0.2054833471775055,
          0.08185095340013504,
          -0.1917208582162857,
          -0.04658161476254463,
          0.11011722683906555,
          0.047823380678892136,
          0.03468850255012512,
          -0.028787028044462204,
          0.16079813241958618,
          0.23829437792301178,
          0.15407031774520874,
          0.11149131506681442,
          0.10165779292583466
        ],
        [
          0.22718659043312073,
          -0.43300265073776245,
          0.0768471211194992,
          -0.42004844546318054,
          0.18283933401107788,
          -0.1812703013420105,
          -0.019519926980137825,
          -0.21085093915462494,
          -0.27552008628845215,
          0.1988973319530487,
          0.14735886454582214,
          0.28576773405075073,
          0.3360452651977539,
          0.2055494487285614,
          -0.2230188250541687,
          -0.2808404266834259
        ],
        [
          0.32957538962364197,
          -0.41949763894081116,
          -0.22586025297641754,
          -0.34971874952316284,
          0.20880195498466492,
          -0.15496021509170532,
          0.03989887982606888,
          -0.07480265945196152,
          -0.32471680641174316,
          0.20760245621204376,
          -0.24043616652488708,
          0.5389639139175415,
          0.3119133412837982,
          0.3560408055782318,
          -0.2468947470188141,
          -0.3766515851020813
        ],
        [
          -0.15179365873336792,
          -0.00043690786696970463,
          -0.0015674522146582603,
          0.27616026997566223,
          -0.1045953705906868,
          0.08339179307222366,
          -0.16295835375785828,
          -0.13744144141674042,
          0.005519162863492966,
          0.04914567247033119,
          0.10436069965362549,
          0.05281607806682587,
          0.042943354696035385,
          -0.023775912821292877,
          0.19610171020030975,
          -0.002889021532610059
        ],
        [
          -0.4710858166217804,
          0.5526886582374573,
          0.32076114416122437,
          0.45462870597839355,
          -0.1345743089914322,
          0.031469300389289856,
          -0.09815125167369843,
          0.1724446713924408,
          -0.0097801573574543,
          -0.14385756850242615,
          0.14981594681739807,
          -0.7659782767295837,
          -0.38479694724082947,
          -0.4396717846393585,
          0.32589101791381836,
          0.3578282594680786
        ],
        [
          -0.7033324837684631,
          0.758242130279541,
          0.3465084433555603,
          0.816231369972229,
          -0.4178510904312134,
          0.2013450562953949,
          -0.10259120911359787,
          0.2881944477558136,
          0.3727456331253052,
          -0.4046577513217926,
          0.04616279527544975,
          -1.043749213218689,
          -0.3933808207511902,
          -0.3836827278137207,
          0.37832018733024597,
          0.5190026164054871
        ],
        [
          0.042524904012680054,
          0.2908882200717926,
          -0.10295869410037994,
          0.03032960183918476,
          -0.0470145009458065,
          -0.09363386034965515,
          -0.05848381295800209,
          0.042796541005373,
          0.0035166176967322826,
          -0.20471377670764923,
          -0.08222818374633789,
          -0.36907216906547546,
          -0.04075722396373749,
          0.09843920171260834,
          0.07943230122327805,
          0.2962529957294464
        ],
        [
          -0.3709641396999359,
          0.43385615944862366,
          0.3493845462799072,
          0.6763490438461304,
          -0.32132622599601746,
          0.15610115230083466,
          -0.1942143589258194,
          -0.08073464035987854,
          0.28430598974227905,
          -0.31215474009513855,
          0.030300455167889595,
          -0.8616460561752319,
          -0.6005221009254456,
          -0.3384380638599396,
          0.5483890771865845,
          0.5451890826225281
        ],
        [
          0.18408948183059692,
          -0.057182878255844116,
          -0.014301291666924953,
          -0.08903734385967255,
          0.17609728872776031,
          -0.22532454133033752,
          0.08447367697954178,
          -0.01369568519294262,
          -0.05037420615553856,
          0.23427090048789978,
          0.05175277218222618,
          0.1807975023984909,
          0.2303212732076645,
          0.21419982612133026,
          -0.08966217935085297,
          -0.1822131872177124
        ],
        [
          -0.08516844362020493,
          0.22336266934871674,
          0.16400830447673798,
          0.2940780520439148,
          0.01930423639714718,
          -0.02474692463874817,
          -0.010116524063050747,
          0.1436680406332016,
          0.00866767205297947,
          -0.08283431082963943,
          0.08152271807193756,
          -0.10761652886867523,
          -0.08851302415132523,
          -0.10557138919830322,
          0.069721519947052,
          0.010354338213801384
        ],
        [
          -0.3266405761241913,
          0.1259254813194275,
          0.005187043454498053,
          0.20305748283863068,
          0.07575289905071259,
          0.022135965526103973,
          -0.14364303648471832,
          -0.1166786476969719,
          0.19947747886180878,
          0.0848458856344223,
          0.054453808814287186,
          -0.20627053081989288,
          0.007662602700293064,
          -0.3285946249961853,
          0.3483648896217346,
          0.3637267053127289
        ],
        [
          -0.04102087393403053,
          0.026543742045760155,
          0.20548103749752045,
          -0.02194271609187126,
          0.12191900610923767,
          -0.11769258975982666,
          -0.013623746111989021,
          0.1257534921169281,
          0.09216271340847015,
          0.033131033182144165,
          0.050556574016809464,
          -0.1556646227836609,
          0.025357777252793312,
          -0.19833196699619293,
          0.2792247533798218,
          0.16827161610126495
        ],
        [
          -0.3689509332180023,
          0.30792006850242615,
          -0.06771058589220047,
          0.4053516387939453,
          0.10046373307704926,
          -0.004820586647838354,
          0.10918568074703217,
          0.07483723014593124,
          0.00215981830842793,
          -0.26735836267471313,
          0.1374969631433487,
          -0.4168979227542877,
          -0.0648115798830986,
          0.01958269625902176,
          0.27201810479164124,
          0.11952400952577591
        ],
        [
          0.5586116909980774,
          -0.8732110857963562,
          -0.2540223300457001,
          -0.9834578633308411,
          0.37722933292388916,
          -0.1583862453699112,
          0.22445671260356903,
          -0.14344441890716553,
          -0.26430368423461914,
          0.41075751185417175,
          -0.1700814664363861,
          1.0591191053390503,
          0.7021936178207397,
          0.5664173364639282,
          -0.5775001049041748,
          -0.5078490376472473
        ],
        [
          -0.0015546184731647372,
          -0.017104608938097954,
          0.08884517103433609,
          0.08167824894189835,
          -0.17978128790855408,
          0.1299688071012497,
          0.06445290893316269,
          0.12885348498821259,
          0.14532339572906494,
          0.20061366260051727,
          0.015843700617551804,
          0.1821795105934143,
          0.11335761100053787,
          0.06297513842582703,
          -0.13164149224758148,
          0.06349410116672516
        ],
        [
          -0.3273756504058838,
          0.25386717915534973,
          -0.08695188909769058,
          0.3559386730194092,
          0.053666338324546814,
          0.074935182929039,
          -0.11417701840400696,
          0.07876948267221451,
          0.1605042815208435,
          0.0020923928823322058,
          0.18608711659908295,
          -0.17612077295780182,
          -0.24362744390964508,
          0.015366683714091778,
          0.3301073908805847,
          0.18795788288116455
        ]
      ],
      "biases": [
        0.0025100104976445436,
        0.08614835888147354,
        0.21053041517734528,
        0.07879479974508286,
        0.04840662702918053,
        -0.2542572617530823,
        -0.025475895032286644,
        -0.071733258664608,
        -0.14659614861011505,
        -0.13703259825706482,
        0.12031444907188416,
        0.05250031128525734,
        -0.18582093715667725,
        0.08481815457344055,
        0.08146512508392334,
        -0.04220881685614586
      ]
    },
    {
      "weights": [
        [
          -0.2851735055446625,
          -0.46741676330566406,
          -0.7264879941940308,
          0.10746757686138153,
          0.7103748321533203,
          0.7698051333427429,
          0.11591651290655136,
          0.847703218460083,
          -0.12671366333961487,
          0.10710148513317108,
          0.2979697585105896,
          0.09312112629413605,
          0.3818231523036957,
          -1.1745535135269165,
          -0.178771510720253,
          0.19714215397834778
        ],
        [
          0.12451227009296417,
          0.43170177936553955,
          0.5163259506225586,
          0.07208392769098282,
          -0.3060447573661804,
          -0.9051565527915955,
          -0.15748152136802673,
          -0.6911810040473938,
          0.16686539351940155,
          -0.11894790828227997,
          -0.08869705349206924,
          -0.17162030935287476,
          -0.14946971833705902,
          1.0385736227035522,
          0.12985801696777344,
          -0.18023212254047394
        ],
        [
          0.04508848860859871,
          -0.013024709187448025,
          0.10771126300096512,
          -0.2568933367729187,
          -0.25835874676704407,
          -0.5551043748855591,
          -0.21811817586421967,
          -0.3317442238330841,
          0.01554439589381218,
          -0.13390418887138367,
          -0.15374810993671417,
          -0.08408913761377335,
          -0.2242337316274643,
          0.33027687668800354,
          -0.17630623281002045,
          -0.1561005413532257
        ],
        [
          -0.12503458559513092,
          -0.2173805832862854,
          0.17094960808753967,
          -0.3007277846336365,
          -0.19666504859924316,
          -0.23815762996673584,
          -0.28801384568214417,
          -0.13031205534934998,
          -0.13944421708583832,
          -0.03129738196730614,
          -0.15406222641468048,
          -0.12153294682502747,
          -0.21639777719974518,
          0.1534871906042099,
          -0.22887784242630005,
          -0.13509926199913025
        ],
        [
          0.11620187759399414,
          0.3191838562488556,
          0.3560418486595154,
          -0.16560299694538116,
          -0.3617943525314331,
          -0.5987176299095154,
          -0.06798037886619568,
          -0.4906884729862213,
          0.07926201820373535,
          -0.25032639503479004,
          -0.1320716142654419,
          -0.18925930559635162,
          -0.15240521728992462,
          0.7069811820983887,
          0.17234714329242706,
          -0.2469881922006607
        ],
        [
          -0.2598046362400055,
          0.14053352177143097,
          -0.09149662405252457,
          -0.14398331940174103,
          -0.19330145418643951,
          -0.21342286467552185,
          -0.24464291334152222,
          -0.41286522150039673,
          -0.23526735603809357,
          -0.13029378652572632,
          -0.2614389955997467,
          -0.0492372065782547,
          -0.002958392258733511,
          0.06282536685466766,
          -0.010986937209963799,
          -0.1935528665781021
        ],
        [
          -0.26582008600234985,
          -0.2851457893848419,
          -0.4171774089336395,
          -0.11781664937734604,
          0.5560348629951477,
          0.5581789016723633,
          -0.0475623719394207,
          0.4951843023300171,
          -0.13031913340091705,
          0.11150399595499039,
          0.22970309853553772,
          -0.06975314766168594,
          0.2648606598377228,
          -0.846992552280426,
          -0.16090147197246552,
          0.21354979276657104
        ],
        [
          -0.046976957470178604,
          0.12635207176208496,
          0.25958380103111267,
          -0.07672295719385147,
          -0.16481083631515503,
          -0.3818686306476593,
          -0.06364460289478302,
          -0.4984382688999176,
          -0.01612536422908306,
          -0.048793815076351166,
          -0.10148786753416061,
          -0.2574714124202728,
          -0.1992740035057068,
          0.26189175248146057,
          -0.13498055934906006,
          -0.328870564699173
        ],
        [
          -0.19325944781303406,
          -0.2638574242591858,
          -0.4074970781803131,
          -0.17319314181804657,
          -0.00022084329975768924,
          0.2708128094673157,
          -0.08563663065433502,
          0.038158074021339417,
          -0.24839073419570923,
          -0.210048645734787,
          0.13417263329029083,
          -0.025041762739419937,
          0.21370159089565277,
          -0.40029799938201904,
          -0.02312309667468071,
          0.1349649429321289
        ],
        [
          -0.08390353620052338,
          0.11502744257450104,
          0.018434595316648483,
          -0.000002343110736546805,
          -0.12209738045930862,
          -0.4617964029312134,
          -0.23873518407344818,
          -0.10501787066459656,
          -0.043075546622276306,
          -0.14641466736793518,
          -0.36369937658309937,
          -0.14746718108654022,
          0.043110352009534836,
          -0.04255431145429611,
          -0.31878313422203064,
          -0.34024086594581604
        ],
        [
          -0.26829028129577637,
          -0.347904235124588,
          -0.005707545205950737,
          -0.020392466336488724,
          -0.25107285380363464,
          -0.20355910062789917,
          -0.13699378073215485,
          0.046333860605955124,
          -0.011949874460697174,
          -0.096056267619133,
          -0.24192428588867188,
          -0.30472204089164734,
          -0.12146510183811188,
          -0.4077662527561188,
          -0.08976300805807114,
          -0.29509061574935913
        ],
        [
          -0.09652245044708252,
          -0.1964496374130249,
          -0.24595826864242554,
          0.07135972380638123,
          0.5241413712501526,
          0.5320232510566711,
          -0.030382394790649414,
          0.5686514973640442,
          -0.28412386775016785,
          -0.07457396388053894,
          0.1863020807504654,
          -0.10861583054065704,
          0.20784428715705872,
          -0.767772912979126,
          -0.1403045505285263,
          0.3266051113605499
        ],
        [
          -0.21002325415611267,
          0.34000852704048157,
          0.24989518523216248,
          -0.05226849764585495,
          -0.24489520490169525,
          -0.5890950560569763,
          0.06683091074228287,
          -0.43881818652153015,
          0.1269988715648651,
          -0.24048209190368652,
          -0.24556340277194977,
          -0.11862753331661224,
          -0.3082466423511505,
          0.5751861333847046,
          0.03198762238025665,
          -0.07360129803419113
        ],
        [
          0.2529633045196533,
          0.33403539657592773,
          0.3511366844177246,
          -0.15845967829227448,
          -0.4604204595088959,
          -0.6983886957168579,
          -0.27162835001945496,
          -0.2914429008960724,
          0.3084471821784973,
          -0.2747766971588135,
          -0.0031150388531386852,
          -0.12085132300853729,
          -0.09196685999631882,
          0.8173518180847168,
          -0.07812349498271942,
          -0.23580138385295868
        ],
        [
          -0.056262366473674774,
          0.2173013985157013,
          0.19615823030471802,
          0.1363929808139801,
          -0.4486461877822876,
          -0.62517911195755,
          -0.2821059823036194,
          -0.5446840524673462,
          0.18267732858657837,
          0.011149322614073753,
          -0.17861279845237732,
          -0.10764133185148239,
          -0.05544712021946907,
          0.37469738721847534,
          -0.06925860792398453,
          -0.01869700290262699
        ],
        [
          -0.15344657003879547,
          0.13609300553798676,
          0.290788471698761,
          -0.12290041148662567,
          -0.2855057716369629,
          -0.5375107526779175,
          -0.05686456710100174,
          -0.3195449113845825,
          0.1439918577671051,
          -0.16908703744411469,
          -0.10931520909070969,
          0.003187674330547452,
          -0.1271498054265976,
          0.5103065967559814,
          -0.23524217307567596,
          -0.03032168745994568
        ]
      ],
      "biases": [
        -0.15564243495464325,
        -0.1399201899766922,
        0.07897555083036423,
        -0.35224297642707825,
        -0.011086076498031616,
        -0.2531406283378601,
        0.09459488838911057,
        -0.09883078932762146,
        -0.11461059004068375,
        -0.1641245186328888,
        -0.04266498610377312,
        -0.16676731407642365,
        -0.018675504252314568,
        -0.09139679372310638,
        -0.07798667252063751,
        -0.27001938223838806
      ]
    },
    {
      "weights": [
        [
          -2.1518611907958984,
          1.636880874633789,
          0.7297606468200684,
          0.31767725944519043,
          1.2068222761154175,
          0.3535623848438263,
          -1.4417635202407837,
          0.6982839703559875,
          -0.631151020526886,
          0.36526909470558167,
          -0.10256217420101166,
          -1.3311573266983032,
          1.026136040687561,
          1.2902429103851318,
          0.9668264389038086,
          0.8468584418296814
        ]
      ],
      "biases": [
        -0.4566447138786316
      ]
    }
  ],
  "inputLookup": {
    "totalClouds[0]": 0,
    "lowClouds[0]": 1,
    "mediumClouds[0]": 2,
    "highClouds[0]": 3,
    "rainChance[0]": 4,
    "rainAmount[0]": 5,
    "windSpeed[0]": 6,
    "temperature[0]": 7,
    "totalClouds[1]": 8,
    "lowClouds[1]": 9,
    "mediumClouds[1]": 10,
    "highClouds[1]": 11,
    "rainChance[1]": 12,
    "rainAmount[1]": 13,
    "windSpeed[1]": 14,
    "temperature[1]": 15,
    "totalClouds[2]": 16,
    "lowClouds[2]": 17,
    "mediumClouds[2]": 18,
    "highClouds[2]": 19,
    "rainChance[2]": 20,
    "rainAmount[2]": 21,
    "windSpeed[2]": 22,
    "temperature[2]": 23,
    "totalClouds[3]": 24,
    "lowClouds[3]": 25,
    "mediumClouds[3]": 26,
    "highClouds[3]": 27,
    "rainChance[3]": 28,
    "rainAmount[3]": 29,
    "windSpeed[3]": 30,
    "temperature[3]": 31,
    "totalClouds[4]": 32,
    "lowClouds[4]": 33,
    "mediumClouds[4]": 34,
    "highClouds[4]": 35,
    "rainChance[4]": 36,
    "rainAmount[4]": 37,
    "windSpeed[4]": 38,
    "temperature[4]": 39,
    "exposureLength": 40
  },
  "inputLookupLength": 41,
  "outputLookup": {
    "totalImagingTime": 0
  },
  "outputLookupLength": 1,
  "options": {
    "inputSize": 0,
    "outputSize": 0,
    "binaryThresh": 0.5,
    "hiddenLayers": [
      16,
      16,
      16
    ]
  },
  "trainOpts": {
    "activation": "sigmoid",
    "iterations": 20000,
    "errorThresh": 0.005,
    "log": false,
    "logPeriod": 10,
    "leakyReluAlpha": 0.01,
    "learningRate": 0.3,
    "momentum": 0.1,
    "callbackPeriod": 10,
    "timeout": "Infinity",
    "beta1": 0.9,
    "beta2": 0.999,
    "epsilon": 1e-8
  }
}