{
  "type": "NeuralNetworkGPU",
  "sizes": [
    49,
    16,
    16,
    16,
    1
  ],
  "layers": [
    {
      "weights": [],
      "biases": []
    },
    {
      "weights": [
        [
          0.3249337077140808,
          0.3154965937137604,
          0.1553393006324768,
          0.15893639624118805,
          0.19406725466251373,
          -0.1842174530029297,
          0.06584174185991287,
          -0.010915454477071762,
          0.20890876650810242,
          0.0710388720035553,
          0.021738717332482338,
          0.10233255475759506,
          0.28547975420951843,
          0.049949537962675095,
          0.19599168002605438,
          -0.052735984325408936,
          -0.0014295929577201605,
          0.1931750625371933,
          -0.1477278620004654,
          -0.1336635798215866,
          -0.019761184230446815,
          0.0473436638712883,
          0.026986146345734596,
          -0.1835564523935318,
          -0.053188834339380264,
          0.15258748829364777,
          0.0665467381477356,
          0.11015970259904861,
          0.29290178418159485,
          -0.15490198135375977,
          -0.01827227510511875,
          0.13619516789913177,
          0.007815273478627205,
          -0.1296491026878357,
          0.1244175061583519,
          0.08560573309659958,
          -0.05852213874459267,
          0.10200882703065872,
          -0.17367137968540192,
          -0.025195451453328133,
          0.0427233912050724,
          0.03288082778453827,
          -0.011343737132847309,
          0.07508436590433121,
          0.27715250849723816,
          -0.11453055590391159,
          0.07378751039505005,
          0.1006413921713829,
          0.06414470076560974
        ],
        [
          0.059087272733449936,
          0.7098916172981262,
          0.24993622303009033,
          -0.028062008321285248,
          0.20079487562179565,
          -0.08802993595600128,
          -0.13764362037181854,
          -0.15294480323791504,
          0.9971611499786377,
          0.8095126748085022,
          0.4795707166194916,
          0.26747944951057434,
          0.21946169435977936,
          -0.17074164748191833,
          -0.10412652045488358,
          -0.07629603147506714,
          0.36098143458366394,
          -0.15556147694587708,
          0.04465678706765175,
          -0.03082062490284443,
          0.21329684555530548,
          -0.05304365232586861,
          0.15389755368232727,
          0.008834020234644413,
          0.06895610690116882,
          -0.02558584325015545,
          -0.11081326752901077,
          -0.26540684700012207,
          0.21248459815979004,
          -0.15259918570518494,
          -0.028369830921292305,
          -0.03760937973856926,
          0.2796836495399475,
          0.1903575211763382,
          0.03407536819577217,
          0.030370362102985382,
          0.34752193093299866,
          0.11295262724161148,
          -0.013016692362725735,
          -0.24521209299564362,
          0.1524811089038849,
          -0.009835601784288883,
          -0.11589787155389786,
          -0.14255668222904205,
          0.40801486372947693,
          0.07066195458173752,
          -0.18926382064819336,
          -0.1629839986562729,
          0.1804424673318863
        ],
        [
          -0.1965581327676773,
          -0.5940269827842712,
          -0.21452389657497406,
          0.2271849513053894,
          -0.37536245584487915,
          0.1750001758337021,
          0.08369126915931702,
          0.07118399441242218,
          -0.8814966082572937,
          -0.7220962643623352,
          -0.3683937191963196,
          -0.46035823225975037,
          -0.26302024722099304,
          0.1395801454782486,
          -0.11833791434764862,
          -0.042591895908117294,
          -0.1172734946012497,
          0.08563486486673355,
          -0.13484472036361694,
          0.24178940057754517,
          -0.24215030670166016,
          -0.1908380091190338,
          0.07609876990318298,
          0.2393140196800232,
          -0.3702801764011383,
          0.19826768338680267,
          -0.018848460167646408,
          0.21752682328224182,
          -0.12763847410678864,
          -0.07740810513496399,
          0.15207144618034363,
          0.15885677933692932,
          -0.3690130114555359,
          0.04942794516682625,
          0.1337476670742035,
          0.24351826310157776,
          -0.24684396386146545,
          -0.03241625055670738,
          0.19159266352653503,
          0.07730330526828766,
          -0.2870771884918213,
          -0.07934361696243286,
          0.16835442185401917,
          0.15141195058822632,
          -0.2608601450920105,
          -0.12004518508911133,
          0.20845717191696167,
          -0.027923446148633957,
          -0.21775682270526886
        ],
        [
          0.31044015288352966,
          0.3658435046672821,
          0.08312259614467621,
          -0.21061024069786072,
          0.3604920208454132,
          0.19983147084712982,
          -0.13263384997844696,
          -0.1353512555360794,
          0.4078773260116577,
          0.4244726300239563,
          0.18969520926475525,
          0.28092992305755615,
          0.2710106670856476,
          -0.036624833941459656,
          -0.07663793116807938,
          -0.16832810640335083,
          0.12063391506671906,
          0.11414026468992233,
          -0.059096671640872955,
          -0.0889967754483223,
          0.142222598195076,
          0.07405108958482742,
          0.0575285442173481,
          -0.230083167552948,
          0.224714457988739,
          -0.12488407641649246,
          0.15001007914543152,
          0.04121387377381325,
          0.28211334347724915,
          0.055310219526290894,
          0.1321234554052353,
          -0.16518709063529968,
          0.2162550985813141,
          0.0750252902507782,
          0.18666858971118927,
          0.007857870310544968,
          0.156549334526062,
          -0.012308540754020214,
          -0.07066342979669571,
          -0.03478694334626198,
          0.16832412779331207,
          -0.05431719124317169,
          -0.18028698861598969,
          0.03016510233283043,
          -0.006971912924200296,
          0.01498712133616209,
          0.059248488396406174,
          -0.08829235285520554,
          0.27848580479621887
        ],
        [
          0.1654520183801651,
          0.5133217573165894,
          0.14640934765338898,
          -0.17932896316051483,
          0.33772405982017517,
          -0.09509970992803574,
          0.06522026658058167,
          0.06302393227815628,
          0.8024311065673828,
          0.6732785105705261,
          0.5145240426063538,
          0.22510142624378204,
          0.08253605663776398,
          -0.07232461869716644,
          0.015329631045460701,
          -0.08702507615089417,
          0.3282864987850189,
          -0.001277281786315143,
          0.16945971548557281,
          0.09803734719753265,
          0.3014293611049652,
          0.055634111166000366,
          -0.12936994433403015,
          -0.28513550758361816,
          0.1993396133184433,
          0.15989190340042114,
          0.07563198357820511,
          -0.029207568615674973,
          0.31002649664878845,
          -0.15783962607383728,
          -0.005933912470936775,
          -0.29017961025238037,
          0.06324371695518494,
          -0.17739897966384888,
          0.11533737182617188,
          -0.05335414409637451,
          0.22142572700977325,
          0.168723464012146,
          0.10235684365034103,
          0.013434944674372673,
          0.19419588148593903,
          0.09978948533535004,
          0.1140996664762497,
          -0.1435016244649887,
          0.16233794391155243,
          -0.13407383859157562,
          0.15702486038208008,
          -0.21102480590343475,
          0.1978931576013565
        ],
        [
          -0.012378367595374584,
          -0.046616893261671066,
          -0.11214403808116913,
          -0.16318900883197784,
          0.09729743748903275,
          0.0662757158279419,
          -0.1198326051235199,
          0.10343749821186066,
          0.2770622670650482,
          0.22614309191703796,
          0.13663682341575623,
          0.03831440210342407,
          -0.13110539317131042,
          0.14028921723365784,
          -0.1035015657544136,
          -0.010251885280013084,
          0.06377206742763519,
          -0.19714339077472687,
          0.013750772923231125,
          -0.08325273543596268,
          0.14317592978477478,
          -0.11739178001880646,
          0.19333156943321228,
          -0.1878066211938858,
          0.043100930750370026,
          0.19281263649463654,
          0.02054862305521965,
          -0.11132163554430008,
          0.012238262221217155,
          0.18500056862831116,
          0.1684866100549698,
          0.09203340858221054,
          0.167906254529953,
          0.03591560572385788,
          -0.07921595126390457,
          -0.16842500865459442,
          -0.03838742896914482,
          0.0037760622799396515,
          0.06452872604131699,
          0.09557177871465683,
          0.019438596442341805,
          0.004782523959875107,
          -0.13603240251541138,
          -0.15068022906780243,
          -0.09335203468799591,
          -0.16149617731571198,
          -0.16687236726284027,
          -0.09641923755407333,
          0.153065487742424
        ],
        [
          -0.027265174314379692,
          -0.13219791650772095,
          -0.11730740964412689,
          0.121295265853405,
          -0.10201404988765717,
          0.03300740197300911,
          0.177847757935524,
          -0.054426614195108414,
          -0.18701784312725067,
          0.02016974613070488,
          -0.11575066298246384,
          -0.14692732691764832,
          -0.04412080720067024,
          -0.09911081194877625,
          0.027120092883706093,
          -0.16919296979904175,
          -0.03582895174622536,
          -0.17453902959823608,
          0.0012621658388525248,
          -0.19106820225715637,
          0.12077673524618149,
          0.0458514504134655,
          0.10146872699260712,
          0.10537616163492203,
          -0.09210198372602463,
          0.10745539516210556,
          0.042882006615400314,
          -0.11936571449041367,
          0.12891125679016113,
          -0.18916651606559753,
          0.008374806493520737,
          -0.13402247428894043,
          0.033409252762794495,
          -0.040398113429546356,
          -0.06994786113500595,
          -0.14939150214195251,
          0.028793424367904663,
          -0.08709347248077393,
          -0.06471624970436096,
          -0.05404229834675789,
          0.1069355234503746,
          0.020385824143886566,
          0.18864509463310242,
          -0.08427634090185165,
          -0.06584250181913376,
          -0.02956586331129074,
          -0.0023075081408023834,
          0.1838918924331665,
          -0.18487700819969177
        ],
        [
          -0.02978600189089775,
          -0.6871917247772217,
          -0.4479995667934418,
          0.3488486111164093,
          -0.3787443935871124,
          0.09815650433301926,
          0.019769273698329926,
          -0.0664452612400055,
          -1.0004222393035889,
          -0.721476674079895,
          -0.34040403366088867,
          -0.512093722820282,
          -0.1439356505870819,
          0.10363014042377472,
          0.13799546658992767,
          -0.022218091413378716,
          -0.11851716041564941,
          -0.13020433485507965,
          0.15439747273921967,
          0.10116614401340485,
          -0.3869602084159851,
          0.157414510846138,
          0.0336732491850853,
          0.19410699605941772,
          -0.38005292415618896,
          -0.17793168127536774,
          0.049983397126197815,
          0.23260533809661865,
          -0.32787224650382996,
          -0.13171036541461945,
          -0.06340733915567398,
          -0.09498567879199982,
          -0.1643274426460266,
          0.07660962641239166,
          -0.0109456367790699,
          0.16944152116775513,
          -0.2237796038389206,
          -0.027719508856534958,
          0.008309358730912209,
          -0.03474123030900955,
          -0.3311685621738434,
          0.08173336833715439,
          0.10380738228559494,
          0.1508348286151886,
          -0.37390613555908203,
          -0.01450125128030777,
          0.07543059438467026,
          0.24748525023460388,
          -0.37662291526794434
        ],
        [
          -0.3600085973739624,
          -0.6463361382484436,
          -0.42998015880584717,
          0.22595125436782837,
          -0.5182725191116333,
          -0.14167363941669464,
          0.14393796026706696,
          0.26154130697250366,
          -0.8988096117973328,
          -0.6953017115592957,
          -0.31227415800094604,
          -0.29652875661849976,
          -0.42467495799064636,
          -0.06953195482492447,
          -0.08085911720991135,
          0.2376006841659546,
          -0.1885976940393448,
          0.1607174277305603,
          -0.18364395201206207,
          -0.019976848736405373,
          -0.40471407771110535,
          0.1877509504556656,
          0.20939157903194427,
          -0.025979137048125267,
          -0.16402806341648102,
          0.08041255921125412,
          0.12130904942750931,
          0.15950682759284973,
          -0.030121197924017906,
          -0.16853487491607666,
          -0.159739151597023,
          0.23462840914726257,
          -0.16773103177547455,
          -0.03271717578172684,
          -0.08143215626478195,
          0.1483113169670105,
          -0.29502877593040466,
          -0.010577169246971607,
          -0.14188967645168304,
          -0.03173268958926201,
          -0.270298033952713,
          -0.03483349084854126,
          0.2149667590856552,
          0.09474031627178192,
          -0.2066517025232315,
          0.005950290709733963,
          -0.15830756723880768,
          0.09292484819889069,
          -0.18989752233028412
        ],
        [
          -0.18782444298267365,
          -0.3766239583492279,
          -0.3395802676677704,
          0.16714264452457428,
          -0.09374140948057175,
          0.12688232958316803,
          0.16972248256206512,
          -0.006337854079902172,
          -0.47454357147216797,
          -0.27994784712791443,
          -0.21511310338974,
          -0.10064246505498886,
          -0.05011596158146858,
          0.009824925102293491,
          -0.12775321304798126,
          -0.03253983333706856,
          -0.11892921477556229,
          -0.024832384660840034,
          0.018821043893694878,
          -0.10151524841785431,
          -0.16503189504146576,
          -0.18348382413387299,
          -0.1511312872171402,
          0.03353999927639961,
          -0.22032853960990906,
          0.002800858113914728,
          0.10211919248104095,
          0.0198202021420002,
          -0.23194938898086548,
          0.15310004353523254,
          0.14822302758693695,
          0.21559958159923553,
          0.001311150728724897,
          -0.14521045982837677,
          -0.14309680461883545,
          0.11252224445343018,
          -0.2637052536010742,
          0.09572382271289825,
          0.18066030740737915,
          0.005681177135556936,
          0.023734547197818756,
          -0.1673281043767929,
          0.03646506741642952,
          -0.030570222064852715,
          -0.012925351969897747,
          0.0567566454410553,
          0.20118185877799988,
          -0.046906519681215286,
          -0.01118090096861124
        ],
        [
          0.3222438097000122,
          0.3110024929046631,
          0.2223072648048401,
          -0.16504709422588348,
          0.26081499457359314,
          0.03114049695432186,
          0.181687131524086,
          -0.1835520714521408,
          0.41281765699386597,
          0.4393419325351715,
          0.3064507246017456,
          0.03650972247123718,
          0.2843794524669647,
          0.024837739765644073,
          -0.14644049108028412,
          -0.1577797681093216,
          0.0075898845680058,
          -0.0053333137184381485,
          -0.09499851614236832,
          0.004006387200206518,
          0.3366544246673584,
          -0.016740277409553528,
          -0.1025543138384819,
          -0.11447697132825851,
          0.23490342497825623,
          0.03947429358959198,
          -0.12491213530302048,
          0.11209309846162796,
          0.3201347589492798,
          0.19575417041778564,
          -0.10712829977273941,
          -0.09434331208467484,
          0.15591654181480408,
          0.10728247463703156,
          0.1322464644908905,
          0.031969696283340454,
          0.27496933937072754,
          -0.05814359337091446,
          0.09550528973340988,
          -0.05292157828807831,
          0.015419647097587585,
          -0.031763575971126556,
          -0.006962338928133249,
          -0.2107880562543869,
          0.2224242240190506,
          -0.021442042663693428,
          -0.14080439507961273,
          0.00036709452979266644,
          0.017704442143440247
        ],
        [
          -0.25384172797203064,
          -0.703808605670929,
          -0.4426778256893158,
          0.21531392633914948,
          -0.29667791724205017,
          -0.047594860196113586,
          -0.08019761741161346,
          -0.013628987595438957,
          -1.0470247268676758,
          -0.9241552948951721,
          -0.4693758189678192,
          -0.5013791918754578,
          -0.19009624421596527,
          0.14707905054092407,
          0.19716311991214752,
          0.1831250637769699,
          -0.14378800988197327,
          0.17756803333759308,
          -0.13591594994068146,
          0.07458237558603287,
          -0.4411522448062897,
          -0.14858616888523102,
          -0.022198889404535294,
          0.19889207184314728,
          -0.45833566784858704,
          0.1291186511516571,
          0.20335526764392853,
          0.10382383316755295,
          -0.4549407660961151,
          0.03380367159843445,
          0.06611832231283188,
          0.28555208444595337,
          -0.13533268868923187,
          0.032963044941425323,
          0.07608050107955933,
          0.003798711346462369,
          -0.18882301449775696,
          -0.16179883480072021,
          -0.1684621125459671,
          0.0725187137722969,
          -0.1452987790107727,
          0.19813090562820435,
          -0.13001759350299835,
          0.15243355929851532,
          -0.2313012033700943,
          0.1420975625514984,
          0.01504124328494072,
          0.29647010564804077,
          -0.3413686752319336
        ],
        [
          -0.1627989262342453,
          -0.08948579430580139,
          0.08555687218904495,
          -0.0693664476275444,
          0.07323230057954788,
          -0.1484471559524536,
          -0.13500669598579407,
          0.06310390681028366,
          -0.25529706478118896,
          0.022773392498493195,
          -0.20639897882938385,
          -0.2390579730272293,
          -0.11755522340536118,
          0.0633680447936058,
          -0.19509568810462952,
          0.040159158408641815,
          -0.05715636909008026,
          0.15814200043678284,
          -0.13567349314689636,
          -0.006861347705125809,
          0.086786650121212,
          0.06639567762613297,
          -0.022244956344366074,
          -0.06351825594902039,
          0.16096197068691254,
          -0.05168771743774414,
          -0.017570916563272476,
          0.1898474395275116,
          -0.22658877074718475,
          -0.04112345352768898,
          0.1427590250968933,
          0.06218869984149933,
          -0.10008098185062408,
          0.10992024093866348,
          0.07237496972084045,
          -0.13706621527671814,
          0.1247268095612526,
          -0.13300152122974396,
          -0.15202251076698303,
          -0.0569581612944603,
          0.11624493449926376,
          0.1283467561006546,
          0.04851575195789337,
          -0.11271476000547409,
          -0.056821782141923904,
          -0.03905872255563736,
          -0.06771712005138397,
          0.195832759141922,
          0.04036597162485123
        ],
        [
          -0.27973422408103943,
          -0.2889252305030823,
          -0.28209546208381653,
          0.07800137251615524,
          -0.10484234988689423,
          -0.18211740255355835,
          0.05667923390865326,
          0.22387294471263885,
          -0.5341077446937561,
          -0.46755895018577576,
          -0.3162592947483063,
          -0.349171906709671,
          -0.22615401446819305,
          -0.02666940540075302,
          0.0013738952111452818,
          -0.07439002394676208,
          -0.22597332298755646,
          0.045288681983947754,
          -0.08313983678817749,
          0.07098880410194397,
          -0.3306468725204468,
          0.11491230130195618,
          -0.10535028576850891,
          0.2634947896003723,
          -0.3459203541278839,
          0.014529235661029816,
          -0.11775073409080505,
          0.18087950348854065,
          -0.30755263566970825,
          0.1578422635793686,
          -0.05490198731422424,
          0.029162220656871796,
          -0.18412069976329803,
          -0.19104668498039246,
          0.11554521322250366,
          0.23543870449066162,
          -0.3495158851146698,
          0.1540863960981369,
          0.20793983340263367,
          0.19503235816955566,
          -0.3135806918144226,
          -0.12220331281423569,
          0.03121660277247429,
          -0.09362557530403137,
          -0.17218191921710968,
          0.013889922760426998,
          0.11513029038906097,
          0.04516717791557312,
          -0.045476034283638
        ],
        [
          0.024460511282086372,
          -0.44430825114250183,
          -0.2860552966594696,
          -0.00406148936599493,
          -0.16819976270198822,
          0.17302453517913818,
          -0.0011716969311237335,
          0.018765317276120186,
          -0.5657336711883545,
          -0.49942782521247864,
          -0.38394343852996826,
          -0.0007908396073617041,
          -0.15108318626880646,
          -0.19444714486598969,
          -0.0026048666331917048,
          0.1139456257224083,
          -0.2679692506790161,
          -0.021619653329253197,
          -0.03252081573009491,
          -0.10836579650640488,
          -0.11690586805343628,
          -0.07901204377412796,
          -0.06864883750677109,
          0.1519632339477539,
          -0.1915811151266098,
          -0.1131141185760498,
          -0.18927322328090668,
          0.17385464906692505,
          0.0633598044514656,
          0.15711207687854767,
          -0.17664630711078644,
          0.06853137165307999,
          -0.10075373947620392,
          0.01910441368818283,
          -0.15025769174098969,
          0.1164778396487236,
          -0.167693629860878,
          -0.15679387748241425,
          -0.027252083644270897,
          -0.11109963804483414,
          0.04279356077313423,
          0.0761004313826561,
          0.18017038702964783,
          -0.06455696374177933,
          -0.11442679166793823,
          0.18370598554611206,
          -0.013481676578521729,
          0.0718536451458931,
          -0.06724101305007935
        ],
        [
          0.07969500124454498,
          0.1508084237575531,
          0.1887856125831604,
          -0.04726684093475342,
          0.2619176506996155,
          -0.0746629536151886,
          0.08619818836450577,
          0.044997550547122955,
          0.5779000520706177,
          0.6134752631187439,
          0.3678036332130432,
          0.33848151564598083,
          0.18695737421512604,
          -0.005340457893908024,
          0.11014819890260696,
          -0.2076927125453949,
          0.07854576408863068,
          -0.14477524161338806,
          0.05275454372167587,
          -0.2520768344402313,
          0.12974219024181366,
          0.1890619695186615,
          0.1091599389910698,
          -0.20360714197158813,
          0.26109325885772705,
          -0.12198182940483093,
          0.06990402191877365,
          -0.20544841885566711,
          0.029152680188417435,
          -0.022504588589072227,
          -0.11839029937982559,
          -0.10637626051902771,
          0.2615100145339966,
          0.11703716218471527,
          0.15802130103111267,
          0.12159585952758789,
          0.07824622839689255,
          -0.193372443318367,
          -0.044304296374320984,
          -0.18587177991867065,
          0.0852302759885788,
          0.04496598243713379,
          0.05364333093166351,
          0.126921147108078,
          0.1776781678199768,
          0.07361665368080139,
          -0.16154566407203674,
          -0.09181763231754303,
          0.23125262558460236
        ]
      ],
      "biases": [
        -0.0969996377825737,
        -0.2442994862794876,
        -0.03930714353919029,
        -0.0048459190875291824,
        -0.21804587543010712,
        -0.16766302287578583,
        -0.008580837398767471,
        0.2296505719423294,
        0.25691652297973633,
        0.22290706634521484,
        -0.15721037983894348,
        0.26143285632133484,
        -0.12951508164405823,
        -0.029705751687288284,
        0.17693160474300385,
        0.05519326776266098
      ]
    },
    {
      "weights": [
        [
          0.017391731962561607,
          0.3231900632381439,
          -0.36835286021232605,
          0.35136884450912476,
          0.16080090403556824,
          -0.03310639411211014,
          -0.09990754723548889,
          -0.32283610105514526,
          -0.40156352519989014,
          -0.20548921823501587,
          0.287047803401947,
          -0.4024554193019867,
          -0.09114787727594376,
          -0.22255177795886993,
          -0.2727765440940857,
          0.05097879841923714
        ],
        [
          0.2516784965991974,
          0.595003068447113,
          -0.4896099865436554,
          0.3804270625114441,
          0.4927944242954254,
          0.2273762971162796,
          -0.01224345900118351,
          -0.700975775718689,
          -0.6092989444732666,
          -0.24915124475955963,
          0.1677159070968628,
          -0.6360812783241272,
          -0.17442403733730316,
          -0.519745945930481,
          -0.4041573405265808,
          0.31276121735572815
        ],
        [
          0.08920080959796906,
          0.5402035117149353,
          -0.5589680075645447,
          0.48549872636795044,
          0.3513074219226837,
          -0.08210378140211105,
          -0.03029181994497776,
          -0.7544666528701782,
          -0.3964264690876007,
          -0.23235441744327545,
          0.4326896071434021,
          -0.8230968713760376,
          -0.09062577039003372,
          -0.3071896433830261,
          -0.11399402469396591,
          0.291597843170166
        ],
        [
          0.32625776529312134,
          0.4877767264842987,
          -0.5361906290054321,
          0.36926135420799255,
          0.7762646675109863,
          0.2852115035057068,
          -0.259490966796875,
          -0.6541300415992737,
          -0.8024490475654602,
          -0.321652352809906,
          0.3907463848590851,
          -0.7769305109977722,
          0.004771380685269833,
          -0.4347626566886902,
          -0.4992610216140747,
          0.40670356154441833
        ],
        [
          -0.10920456796884537,
          0.42676979303359985,
          -0.24297162890434265,
          0.2554267346858978,
          0.41448652744293213,
          -0.042982153594493866,
          0.08103317767381668,
          -0.4472295045852661,
          -0.4897604286670685,
          -0.3179914057254791,
          0.3049418330192566,
          -0.5310274958610535,
          -0.2001381367444992,
          -0.3367202877998352,
          -0.09667456895112991,
          0.2176559865474701
        ],
        [
          0.046199068427085876,
          0.631610095500946,
          -0.7135034203529358,
          0.227060005068779,
          0.5490419864654541,
          0.043708886951208115,
          -0.15908390283584595,
          -0.5265681147575378,
          -0.4647268056869507,
          -0.2702142894268036,
          0.3546123802661896,
          -0.7722035050392151,
          -0.06369537860155106,
          -0.2493855506181717,
          -0.341688334941864,
          0.1956149935722351
        ],
        [
          -0.0034570307470858097,
          0.5749351382255554,
          -0.33804789185523987,
          0.421144038438797,
          0.28322485089302063,
          -0.0848298966884613,
          -0.14472456276416779,
          -0.4879167377948761,
          -0.5337619185447693,
          -0.07656636089086533,
          0.4095327854156494,
          -0.5744560360908508,
          -0.19844169914722443,
          -0.5061213374137878,
          -0.24626603722572327,
          0.31182265281677246
        ],
        [
          0.19605106115341187,
          0.5358319878578186,
          -0.39141982793807983,
          0.11108443140983582,
          0.31769928336143494,
          0.15731307864189148,
          0.09973768144845963,
          -0.5941668748855591,
          -0.4433746039867401,
          -0.37058374285697937,
          0.13956278562545776,
          -0.31932297348976135,
          -0.2527890205383301,
          -0.20393402874469757,
          -0.10726521909236908,
          0.12080474942922592
        ],
        [
          0.2678133249282837,
          0.2583919167518616,
          -0.49444082379341125,
          0.06275130063295364,
          0.38432714343070984,
          -0.011252926662564278,
          -0.20207054913043976,
          -0.43095260858535767,
          -0.4603733718395233,
          -0.3010384142398834,
          0.3388272225856781,
          -0.43947556614875793,
          -0.01635858416557312,
          -0.4621293544769287,
          -0.18641236424446106,
          0.1629941612482071
        ],
        [
          0.3001572787761688,
          0.4517441689968109,
          -0.6072454452514648,
          0.08953148126602173,
          0.2777025103569031,
          0.07748693972826004,
          -0.10362785309553146,
          -0.7082759141921997,
          -0.48932361602783203,
          -0.2223139852285385,
          0.4246925711631775,
          -0.6976511478424072,
          0.07722094655036926,
          -0.4588550329208374,
          -0.38127729296684265,
          0.38996773958206177
        ],
        [
          -0.008887505158782005,
          0.2625327408313751,
          -0.3936496675014496,
          0.153254896402359,
          0.0764320120215416,
          -0.0898127481341362,
          -0.17044036090373993,
          -0.08366648107767105,
          -0.428195595741272,
          -0.24977321922779083,
          0.07787863165140152,
          -0.3087296187877655,
          0.05937134101986885,
          -0.1564197689294815,
          -0.023840662091970444,
          0.18116900324821472
        ],
        [
          0.1861424744129181,
          0.21556444466114044,
          -0.3443891406059265,
          0.040505148470401764,
          0.23234812915325165,
          0.15187591314315796,
          -0.1373976618051529,
          -0.1311568021774292,
          -0.4150569438934326,
          -0.2874108850955963,
          -0.03325143828988075,
          -0.34938687086105347,
          0.04706090688705444,
          -0.3488779366016388,
          -0.3529660105705261,
          0.2231474667787552
        ],
        [
          0.19633984565734863,
          -0.01863708160817623,
          0.11403664201498032,
          -0.04112689942121506,
          0.18860489130020142,
          0.15738879144191742,
          0.07210113108158112,
          -0.006422245409339666,
          0.05877723544836044,
          0.03862442448735237,
          0.04586949571967125,
          0.08853638917207718,
          0.02436603419482708,
          -0.008142872713506222,
          0.0024451210629194975,
          0.05650951713323593
        ],
        [
          0.10758914798498154,
          0.4876052737236023,
          -0.6454463601112366,
          0.45756831765174866,
          0.30650094151496887,
          0.08998376876115799,
          0.09481757879257202,
          -0.7258748412132263,
          -0.5135596394538879,
          -0.030916880816221237,
          0.27539730072021484,
          -0.6903067231178284,
          -0.10287652909755707,
          -0.23342478275299072,
          -0.40013447403907776,
          0.4134850800037384
        ],
        [
          0.011203616857528687,
          0.7504899501800537,
          -0.6579708456993103,
          0.2716332972049713,
          0.38044559955596924,
          0.1953449696302414,
          -0.11772986501455307,
          -0.5893310308456421,
          -0.6126978397369385,
          -0.29921457171440125,
          0.1475130319595337,
          -0.7773185968399048,
          -0.2184106409549713,
          -0.4835435748100281,
          -0.3335515558719635,
          0.4505188763141632
        ],
        [
          0.033066026866436005,
          0.4540848433971405,
          -0.4654144048690796,
          0.23052899539470673,
          0.5775139927864075,
          -0.11016075313091278,
          -0.01961778663098812,
          -0.4539644122123718,
          -0.676275908946991,
          -0.37191927433013916,
          0.08918445557355881,
          -0.6334624886512756,
          0.057922471314668655,
          -0.5252370834350586,
          -0.22170805931091309,
          0.3991636037826538
        ]
      ],
      "biases": [
        0.06423967331647873,
        0.025324160233139992,
        -0.045805566012859344,
        -0.03944402188062668,
        -0.13948576152324677,
        0.10925222933292389,
        -0.10709013789892197,
        -0.158634215593338,
        0.02006545476615429,
        0.09818131476640701,
        -0.08192689716815948,
        -0.02870612032711506,
        -0.16346414387226105,
        -0.08666370064020157,
        0.25285977125167847,
        0.11057475209236145
      ]
    },
    {
      "weights": [
        [
          -0.1528943032026291,
          -0.5106472373008728,
          -0.289595365524292,
          -0.43670496344566345,
          -0.45530593395233154,
          -0.4415014684200287,
          -0.17705608904361725,
          -0.07233220338821411,
          -0.4160100519657135,
          -0.5261891484260559,
          -0.028891582041978836,
          -0.2500709593296051,
          0.24934229254722595,
          -0.585614800453186,
          -0.5256969332695007,
          -0.4159058928489685
        ],
        [
          -0.16414481401443481,
          -0.28232571482658386,
          -0.47606557607650757,
          -0.5120323896408081,
          -0.28825104236602783,
          -0.32472166419029236,
          -0.1972050815820694,
          -0.3820898234844208,
          -0.109888955950737,
          -0.45942267775535583,
          0.05948016047477722,
          -0.18535278737545013,
          0.2615951597690582,
          -0.5673817992210388,
          -0.5902548432350159,
          -0.3540765941143036
        ],
        [
          -0.32828643918037415,
          -0.43953704833984375,
          -0.41947826743125916,
          -0.19853436946868896,
          -0.4156431257724762,
          -0.39200925827026367,
          -0.46349427103996277,
          -0.22171366214752197,
          -0.16038663685321808,
          -0.30683010816574097,
          -0.2470642626285553,
          -0.06505931913852692,
          -0.14167988300323486,
          -0.4564912021160126,
          -0.32488879561424255,
          -0.13344408571720123
        ],
        [
          -0.35527950525283813,
          -0.44882842898368835,
          -0.22774966061115265,
          -0.33859479427337646,
          -0.08687862753868103,
          -0.5234655737876892,
          -0.2289506494998932,
          -0.34033384919166565,
          -0.3268783688545227,
          -0.530159056186676,
          -0.19750379025936127,
          -0.2965669631958008,
          0.17611539363861084,
          -0.2225242704153061,
          -0.4390504062175751,
          -0.42614632844924927
        ],
        [
          -0.20892859995365143,
          -0.35910797119140625,
          -0.4513176679611206,
          -0.4867415428161621,
          -0.1953250765800476,
          -0.38938668370246887,
          -0.4206641912460327,
          -0.17735765874385834,
          -0.14144042134284973,
          -0.1700698733329773,
          -0.09845709055662155,
          -0.16055499017238617,
          0.039135124534368515,
          -0.15537820756435394,
          -0.5055065155029297,
          -0.44583967328071594
        ],
        [
          -0.3242250382900238,
          -0.20799177885055542,
          -0.3829617500305176,
          -0.506373941898346,
          -0.08640389889478683,
          -0.1607588678598404,
          -0.21679039299488068,
          -0.21065929532051086,
          -0.2623690962791443,
          -0.16002945601940155,
          -0.0375664196908474,
          -0.27427443861961365,
          -0.21478864550590515,
          -0.45323818922042847,
          -0.1883697658777237,
          -0.15913556516170502
        ],
        [
          -0.07570533454418182,
          -0.5712215900421143,
          -0.5737525820732117,
          -0.5866392850875854,
          -0.3051590621471405,
          -0.16299231350421906,
          -0.42684152722358704,
          -0.09781037271022797,
          -0.299398273229599,
          -0.2361457198858261,
          -0.06192050501704216,
          -0.007175233215093613,
          0.22922298312187195,
          -0.2050875574350357,
          -0.49834975600242615,
          -0.5713227391242981
        ],
        [
          -0.07346038520336151,
          -0.30889570713043213,
          -0.21425601840019226,
          -0.5201898813247681,
          -0.057212989777326584,
          -0.3628073036670685,
          -0.1722031980752945,
          -0.38613972067832947,
          -0.28655293583869934,
          -0.44648250937461853,
          0.028837189078330994,
          -0.18659667670726776,
          -0.16389209032058716,
          -0.37414926290512085,
          -0.40228787064552307,
          -0.20748281478881836
        ],
        [
          -0.09434112161397934,
          -0.5227808952331543,
          -0.44288596510887146,
          -0.6038194894790649,
          -0.1752919852733612,
          -0.501681923866272,
          -0.18038076162338257,
          -0.1293773055076599,
          -0.19988450407981873,
          -0.24296382069587708,
          -0.03905465453863144,
          -0.10772842168807983,
          -0.11983788013458252,
          -0.29668208956718445,
          -0.2293081432580948,
          -0.28021055459976196
        ],
        [
          -0.21329611539840698,
          -0.23262004554271698,
          -0.3873758018016815,
          -0.5703341960906982,
          -0.35350486636161804,
          -0.42766162753105164,
          -0.1620938777923584,
          -0.24399662017822266,
          -0.2674126923084259,
          -0.32424503564834595,
          -0.09396468102931976,
          -0.3106641471385956,
          0.15035337209701538,
          -0.35238945484161377,
          -0.3557392954826355,
          -0.20872466266155243
        ],
        [
          -0.3631519377231598,
          -0.24112217128276825,
          -0.24235829710960388,
          -0.2993808090686798,
          -0.20211349427700043,
          -0.4994910657405853,
          -0.4465790092945099,
          -0.05606359243392944,
          -0.17197708785533905,
          -0.3140351474285126,
          -0.34129729866981506,
          -0.10702391713857651,
          -0.04385713115334511,
          -0.2639080882072449,
          -0.20144177973270416,
          -0.45675861835479736
        ],
        [
          -0.36593109369277954,
          -0.25426509976387024,
          -0.5599485635757446,
          -0.3456854522228241,
          -0.32268136739730835,
          -0.4594181478023529,
          -0.2675585150718689,
          -0.3226226270198822,
          -0.12803341448307037,
          -0.38178378343582153,
          -0.17145274579524994,
          -0.09217891097068787,
          0.0681605339050293,
          -0.22510336339473724,
          -0.3484026789665222,
          -0.4291078448295593
        ],
        [
          -0.08343597501516342,
          -0.38173553347587585,
          -0.2819952666759491,
          -0.6091234683990479,
          -0.1799822598695755,
          -0.28480783104896545,
          -0.4468189775943756,
          -0.23282958567142487,
          -0.4105176627635956,
          -0.3838645815849304,
          -0.04415036737918854,
          -0.14519420266151428,
          0.14492207765579224,
          -0.41522228717803955,
          -0.6314743757247925,
          -0.2352929264307022
        ],
        [
          -0.03638020157814026,
          -0.5559604167938232,
          -0.21905812621116638,
          -0.5357043743133545,
          -0.28331199288368225,
          -0.366727352142334,
          -0.46254995465278625,
          -0.36702388525009155,
          -0.29025280475616455,
          -0.4609253406524658,
          -0.26555490493774414,
          -0.019879179075360298,
          0.23947326838970184,
          -0.4906589090824127,
          -0.483580619096756,
          -0.18879994750022888
        ],
        [
          -0.014354989863932133,
          -0.3993252217769623,
          -0.4228736162185669,
          -0.4220206141471863,
          -0.1471443921327591,
          -0.40407174825668335,
          -0.37069156765937805,
          -0.23287011682987213,
          -0.07915803045034409,
          -0.22994719445705414,
          -0.2728181481361389,
          -0.20086520910263062,
          -0.14027661085128784,
          -0.12685032188892365,
          -0.20119769871234894,
          -0.3068918287754059
        ],
        [
          -0.2796589136123657,
          -0.348171204328537,
          -0.19767709076404572,
          -0.5986512899398804,
          -0.10817781835794449,
          -0.39457136392593384,
          -0.2596835196018219,
          -0.4169479310512543,
          -0.32428616285324097,
          -0.3206546902656555,
          -0.17140167951583862,
          -0.2391652911901474,
          0.11447253823280334,
          -0.3101336359977722,
          -0.21436534821987152,
          -0.39807558059692383
        ]
      ],
      "biases": [
        0.3514610826969147,
        0.07679281383752823,
        0.11774537712335587,
        0.2208908200263977,
        -0.061864424496889114,
        -0.2552978992462158,
        -0.007323853205889463,
        -0.15575848519802094,
        -0.11577158421278,
        -0.04972904548048973,
        -0.10298321396112442,
        0.11024710536003113,
        0.09193464368581772,
        0.21958380937576294,
        -0.24549247324466705,
        0.029523568227887154
      ]
    },
    {
      "weights": [
        [
          1.470102310180664,
          1.3166890144348145,
          1.021250605583191,
          1.1507134437561035,
          1.0099939107894897,
          0.6359401941299438,
          1.305732250213623,
          0.8574376702308655,
          0.9339751601219177,
          1.0093454122543335,
          0.822559654712677,
          1.0490930080413818,
          1.2881128787994385,
          1.2887616157531738,
          0.743830144405365,
          0.9954890608787537
        ]
      ],
      "biases": [
        -3.4886324405670166
      ]
    }
  ],
  "inputLookup": {
    "totalClouds[0]": 0,
    "lowClouds[0]": 1,
    "mediumClouds[0]": 2,
    "highClouds[0]": 3,
    "rainChance[0]": 4,
    "rainAmount[0]": 5,
    "windSpeed[0]": 6,
    "temperature[0]": 7,
    "totalClouds[1]": 8,
    "lowClouds[1]": 9,
    "mediumClouds[1]": 10,
    "highClouds[1]": 11,
    "rainChance[1]": 12,
    "rainAmount[1]": 13,
    "windSpeed[1]": 14,
    "temperature[1]": 15,
    "totalClouds[2]": 16,
    "lowClouds[2]": 17,
    "mediumClouds[2]": 18,
    "highClouds[2]": 19,
    "rainChance[2]": 20,
    "rainAmount[2]": 21,
    "windSpeed[2]": 22,
    "temperature[2]": 23,
    "totalClouds[3]": 24,
    "lowClouds[3]": 25,
    "mediumClouds[3]": 26,
    "highClouds[3]": 27,
    "rainChance[3]": 28,
    "rainAmount[3]": 29,
    "windSpeed[3]": 30,
    "temperature[3]": 31,
    "totalClouds[4]": 32,
    "lowClouds[4]": 33,
    "mediumClouds[4]": 34,
    "highClouds[4]": 35,
    "rainChance[4]": 36,
    "rainAmount[4]": 37,
    "windSpeed[4]": 38,
    "temperature[4]": 39,
    "exposureLength": 40,
    "totalClouds[5]": 41,
    "lowClouds[5]": 42,
    "mediumClouds[5]": 43,
    "highClouds[5]": 44,
    "rainChance[5]": 45,
    "rainAmount[5]": 46,
    "windSpeed[5]": 47,
    "temperature[5]": 48
  },
  "inputLookupLength": 49,
  "outputLookup": {
    "totalImagingTime": 0
  },
  "outputLookupLength": 1,
  "options": {
    "inputSize": 0,
    "outputSize": 0,
    "binaryThresh": 0.5,
    "hiddenLayers": [
      16,
      16,
      16
    ]
  },
  "trainOpts": {
    "activation": "sigmoid",
    "iterations": 20000,
    "errorThresh": 0.005,
    "log": false,
    "logPeriod": 10,
    "leakyReluAlpha": 0.01,
    "learningRate": 0.3,
    "momentum": 0.1,
    "callbackPeriod": 10,
    "timeout": "Infinity",
    "beta1": 0.9,
    "beta2": 0.999,
    "epsilon": 1e-8
  }
}