{
  "type": "NeuralNetworkGPU",
  "sizes": [
    49,
    16,
    16,
    16,
    1
  ],
  "layers": [
    {
      "weights": [],
      "biases": []
    },
    {
      "weights": [
        [
          -0.12917238473892212,
          -0.3757074177265167,
          -0.010076181031763554,
          0.07707104086875916,
          -0.03682557865977287,
          -0.1522040218114853,
          0.16307944059371948,
          0.26095882058143616,
          -0.3412657082080841,
          -0.1687866449356079,
          -0.2462434470653534,
          0.05323879420757294,
          -0.20649820566177368,
          -0.1370588093996048,
          -0.1287371665239334,
          -0.08280909806489944,
          0.022810140624642372,
          0.14259551465511322,
          0.06606721132993698,
          0.26064684987068176,
          0.08813536167144775,
          -0.09819839894771576,
          -0.1429467350244522,
          0.05244647338986397,
          0.02352233976125717,
          -0.07236385345458984,
          -0.09530916064977646,
          -0.1207265630364418,
          0.055292099714279175,
          0.1962805688381195,
          0.032978605479002,
          -0.05940091237425804,
          -0.198613241314888,
          0.11377152800559998,
          0.13011901080608368,
          -0.003754771314561367,
          -0.2751751244068146,
          0.059878818690776825,
          0.008489914238452911,
          -0.0484878309071064,
          0.02619950845837593,
          0.02044511027634144,
          0.06498754769563675,
          0.12869587540626526,
          0.01596607267856598,
          -0.1768486499786377,
          0.07414814084768295,
          -0.1297057718038559,
          -0.07959455251693726
        ],
        [
          0.23989130556583405,
          0.27542993426322937,
          0.021230358630418777,
          -0.19602200388908386,
          0.06834916025400162,
          -0.14844036102294922,
          0.061900146305561066,
          -0.13903093338012695,
          0.5868234634399414,
          0.4809423089027405,
          0.3665299713611603,
          -0.003319850889965892,
          0.13129478693008423,
          -0.06705880910158157,
          -0.17063218355178833,
          0.018936922773718834,
          0.20862428843975067,
          -0.09687837958335876,
          0.11766351759433746,
          -0.17069219052791595,
          0.1118028536438942,
          -0.18051038682460785,
          0.11964809894561768,
          -0.1156013160943985,
          0.27244535088539124,
          -0.08871950209140778,
          -0.028801733627915382,
          0.033555082976818085,
          0.10476893931627274,
          0.1563555896282196,
          -0.13287904858589172,
          0.043743669986724854,
          0.17269791662693024,
          0.17762963473796844,
          -0.0034090906847268343,
          -0.16205723583698273,
          0.2800169289112091,
          0.02240096777677536,
          0.10544208437204361,
          -0.18499766290187836,
          0.23640863597393036,
          -0.11186281591653824,
          -0.15776461362838745,
          -0.0829555094242096,
          0.04892560467123985,
          0.15458789467811584,
          -0.14130717515945435,
          0.0657229870557785,
          0.273481160402298
        ],
        [
          0.15177683532238007,
          0.17820654809474945,
          -0.06650718301534653,
          0.13588319718837738,
          0.22294464707374573,
          -0.19509854912757874,
          0.12716814875602722,
          0.03137829154729843,
          0.04278118163347244,
          0.24038803577423096,
          0.21722128987312317,
          0.11083922535181046,
          0.04388817027211189,
          -0.1294100433588028,
          -0.1593538522720337,
          -0.17996631562709808,
          -0.13601689040660858,
          0.03539824113249779,
          0.11317642778158188,
          -0.014335998333990574,
          0.02415153570473194,
          -0.07592378556728363,
          -0.0046269712038338184,
          -0.057626258581876755,
          -0.07534582167863846,
          -0.15189102292060852,
          0.033594220876693726,
          0.01956062950193882,
          -0.02126612700521946,
          -0.018011542037129402,
          -0.16608808934688568,
          -0.005506481043994427,
          0.01616033911705017,
          -0.0391303114593029,
          -0.14583562314510345,
          -0.19865871965885162,
          0.11808304488658905,
          -0.1428239494562149,
          -0.11904353648424149,
          0.07422313094139099,
          0.07398905605077744,
          -0.1234622374176979,
          0.09447252750396729,
          -0.2142920345067978,
          -0.07536254078149796,
          -0.12445368617773056,
          0.16266083717346191,
          0.17351163923740387,
          0.18973787128925323
        ],
        [
          -0.10233817994594574,
          -0.15560033917427063,
          -0.29530489444732666,
          0.040352001786231995,
          -0.2883114814758301,
          0.007190878037363291,
          0.1635785847902298,
          -0.003490606788545847,
          -0.34236761927604675,
          -0.29857179522514343,
          -0.3972885012626648,
          -0.22280532121658325,
          -0.07968026399612427,
          0.19752223789691925,
          0.19878622889518738,
          -0.044598862528800964,
          -0.06263890117406845,
          0.18152298033237457,
          0.04294166713953018,
          0.0664747804403305,
          -0.0019988780841231346,
          0.1618354320526123,
          0.04096416383981705,
          0.2046620100736618,
          -0.12601928412914276,
          0.10989636182785034,
          0.0764194056391716,
          -0.010315329767763615,
          -0.19827812910079956,
          -0.11980060487985611,
          -0.07652395963668823,
          0.1024654358625412,
          -0.2841944992542267,
          0.1711236834526062,
          -0.16281497478485107,
          0.21150504052639008,
          -0.18242275714874268,
          0.13270577788352966,
          -0.03217153996229172,
          0.24612881243228912,
          -0.35628554224967957,
          0.1903170347213745,
          0.10839826613664627,
          0.07266949117183685,
          -0.20385994017124176,
          0.14901791512966156,
          0.15971678495407104,
          0.11802889406681061,
          -0.2246716022491455
        ],
        [
          0.0677027627825737,
          0.4565794765949249,
          0.20972369611263275,
          -0.16700266301631927,
          0.1726449728012085,
          -0.09574278444051743,
          -0.1314476579427719,
          -0.26539960503578186,
          0.43493199348449707,
          0.21634818613529205,
          0.28048333525657654,
          0.2669205665588379,
          -0.02612803317606449,
          -0.12783312797546387,
          0.029020866379141808,
          -0.025948401540517807,
          0.02655409276485443,
          0.005248654633760452,
          0.10028660297393799,
          0.1022862121462822,
          0.19898656010627747,
          -0.07672680169343948,
          0.14461936056613922,
          -0.09017471224069595,
          0.18366381525993347,
          0.15669825673103333,
          -0.01493150182068348,
          0.029319554567337036,
          0.25615137815475464,
          0.12155889719724655,
          -0.10206569731235504,
          -0.18588224053382874,
          0.16737574338912964,
          0.15556257963180542,
          -0.04937984049320221,
          0.01665475219488144,
          0.28283533453941345,
          -0.11512620747089386,
          0.08725844323635101,
          0.061068277806043625,
          -0.008328424766659737,
          0.15129131078720093,
          0.12025466561317444,
          -0.21844127774238586,
          0.33137255907058716,
          -0.15545780956745148,
          0.1539694219827652,
          0.013966314494609833,
          0.1543266475200653
        ],
        [
          0.36022794246673584,
          0.47455090284347534,
          0.3839995265007019,
          -0.19011783599853516,
          0.570575475692749,
          0.07122012972831726,
          -0.12507086992263794,
          -0.14298386871814728,
          0.9885608553886414,
          0.8020028471946716,
          0.5933425426483154,
          0.43818455934524536,
          0.28216803073883057,
          -0.16009552776813507,
          -0.07737711071968079,
          -0.201455757021904,
          0.23926104605197906,
          -0.1739904135465622,
          0.13262484967708588,
          -0.22065646946430206,
          0.3182103931903839,
          0.04939128831028938,
          -0.19251252710819244,
          -0.16504783928394318,
          0.43520891666412354,
          -0.06990811973810196,
          -0.04393230006098747,
          0.1098083108663559,
          0.3615119755268097,
          -0.039673931896686554,
          0.05833243206143379,
          -0.2574009895324707,
          0.4272490441799164,
          0.1677863746881485,
          -0.1307360678911209,
          -0.20442931354045868,
          0.30747243762016296,
          -0.1052539274096489,
          -0.20284070074558258,
          -0.21745435893535614,
          0.2392522543668747,
          -0.023306502029299736,
          -0.17041923105716705,
          -0.03745526820421219,
          0.39931148290634155,
          -0.16154862940311432,
          0.035163696855306625,
          -0.1794361025094986,
          0.17330282926559448
        ],
        [
          0.29419493675231934,
          0.2826581597328186,
          0.153168186545372,
          0.006088879890739918,
          0.222915381193161,
          -0.1258455216884613,
          0.051267147064208984,
          0.007108550053089857,
          0.3079592287540436,
          0.09317127615213394,
          0.1941608488559723,
          0.270912230014801,
          0.25292590260505676,
          -0.004036348313093185,
          0.16994768381118774,
          -0.20509479939937592,
          0.2609815299510956,
          0.1416267603635788,
          0.012001251801848412,
          -0.2520332932472229,
          0.2616925835609436,
          0.10765516012907028,
          -0.1859949231147766,
          -0.22054536640644073,
          0.08540608733892441,
          -0.17712008953094482,
          -0.13736745715141296,
          -0.07879979908466339,
          0.17627449333667755,
          0.001962966052815318,
          0.17017510533332825,
          0.00990529265254736,
          0.2274588942527771,
          -0.14650562405586243,
          0.16956588625907898,
          -0.0803215503692627,
          0.09003236144781113,
          -0.032411493360996246,
          -0.009708529338240623,
          -0.17376820743083954,
          -0.023346412926912308,
          0.10504374653100967,
          0.06572631746530533,
          -0.10093586146831512,
          0.27113208174705505,
          -0.18136578798294067,
          -0.09776492416858673,
          -0.04967610538005829,
          -0.02346251718699932
        ],
        [
          -0.2844284474849701,
          -0.3507954776287079,
          -0.25396963953971863,
          0.1884508579969406,
          -0.4928843379020691,
          -0.07531333714723587,
          -0.1013178899884224,
          -0.036425549536943436,
          -0.781091570854187,
          -0.49847495555877686,
          -0.347192645072937,
          -0.12492848187685013,
          -0.2604096233844757,
          0.011213094927370548,
          0.15204238891601562,
          -0.0007981781964190304,
          -0.23938637971878052,
          0.15807686746120453,
          -0.1318362057209015,
          0.026236219331622124,
          -0.3975006341934204,
          0.010599290952086449,
          -0.13864797353744507,
          0.19619345664978027,
          -0.263133704662323,
          0.17370589077472687,
          -0.10605482012033463,
          0.25802871584892273,
          -0.2537400722503662,
          0.04896099865436554,
          0.15697795152664185,
          0.25936898589134216,
          -0.25712868571281433,
          -0.15670785307884216,
          0.03264649212360382,
          0.22918498516082764,
          -0.4090632498264313,
          0.0137016661465168,
          -0.161182701587677,
          0.1700364351272583,
          -0.23498639464378357,
          -0.0881463959813118,
          0.13444244861602783,
          0.10182903707027435,
          -0.13328085839748383,
          -0.11648748815059662,
          -0.08532126992940903,
          0.05205404758453369,
          -0.11068286746740341
        ],
        [
          0.18039177358150482,
          0.2345835417509079,
          0.02716594748198986,
          -0.10381847620010376,
          0.3926345407962799,
          0.15185916423797607,
          -0.15868879854679108,
          -0.02204590104520321,
          0.6746136546134949,
          0.567908763885498,
          0.41049301624298096,
          0.35389605164527893,
          0.34334081411361694,
          -0.13633908331394196,
          -0.04812489077448845,
          0.040427159518003464,
          0.20102852582931519,
          -0.11630565673112869,
          -0.032571472227573395,
          0.06540310382843018,
          0.27722352743148804,
          -0.006262579932808876,
          0.1378932148218155,
          -0.264961838722229,
          0.2648279666900635,
          -0.04715490713715553,
          0.14564108848571777,
          -0.09274552762508392,
          0.09430613368749619,
          0.1252577304840088,
          0.1554451584815979,
          -0.03280944004654884,
          0.01491550263017416,
          0.10280673950910568,
          0.025098556652665138,
          -0.23547841608524323,
          0.03137516975402832,
          -0.18464107811450958,
          0.08237723261117935,
          -0.2567424178123474,
          0.17287525534629822,
          -0.10259276628494263,
          0.010357256047427654,
          -0.14119435846805573,
          0.0702219158411026,
          -0.1281401664018631,
          -0.093036949634552,
          -0.03626437857747078,
          0.14231568574905396
        ],
        [
          0.10130389034748077,
          -0.15107138454914093,
          -0.2826499938964844,
          0.08286034315824509,
          -0.08777793496847153,
          0.18542012572288513,
          0.011338554322719574,
          0.027732620015740395,
          -0.3412036895751953,
          -0.15834751725196838,
          -0.349836140871048,
          -0.025963565334677696,
          -0.00013278145343065262,
          -0.14797718822956085,
          0.17755165696144104,
          -0.09338339418172836,
          -0.24767367541790009,
          -0.1526988297700882,
          0.189082533121109,
          0.28052666783332825,
          0.004445284139364958,
          -0.11865847557783127,
          -0.1270885467529297,
          -0.0027389538008719683,
          -0.31052374839782715,
          0.11699997633695602,
          -0.17532730102539062,
          0.12180929630994797,
          -0.3257564902305603,
          0.09982898831367493,
          -0.17324930429458618,
          -0.07506751269102097,
          -0.011361457407474518,
          -0.016636354848742485,
          0.006809863727539778,
          -0.08034523576498032,
          -0.043208297342061996,
          -0.11473441869020462,
          0.17044690251350403,
          0.007498142775148153,
          -0.004201116040349007,
          -0.1667107194662094,
          0.1360798478126526,
          0.04368724301457405,
          -0.1901005357503891,
          -0.13292337954044342,
          -0.10316191613674164,
          0.08514312654733658,
          -0.3220515847206116
        ],
        [
          -0.05064120143651962,
          -0.2729153633117676,
          -0.028926774859428406,
          -0.04159018024802208,
          0.13784947991371155,
          0.12041902542114258,
          -0.14792779088020325,
          0.16976454854011536,
          0.018000833690166473,
          -0.20860300958156586,
          -0.025206033140420914,
          0.07093796879053116,
          -0.08296424895524979,
          0.12274327129125595,
          -0.039704859256744385,
          0.1800205409526825,
          -0.033871129155159,
          -0.06534194201231003,
          -0.1918201595544815,
          -0.1526080071926117,
          -0.1657327264547348,
          0.12467999011278152,
          -0.11303579807281494,
          0.17024675011634827,
          0.04641389474272728,
          -0.1713709831237793,
          -0.170157790184021,
          -0.1333678662776947,
          -0.10063711553812027,
          -0.11459038406610489,
          -0.14764855802059174,
          -0.09100385755300522,
          0.1258193552494049,
          -0.12883725762367249,
          0.20133386552333832,
          0.0970093384385109,
          -0.22375693917274475,
          -0.06795822083950043,
          -0.0573519729077816,
          -0.08079434186220169,
          -0.17334935069084167,
          -0.04499652981758118,
          0.18835295736789703,
          0.21848046779632568,
          -0.03200744092464447,
          -0.07441191375255585,
          -0.11802490055561066,
          -0.012885862030088902,
          0.08318424224853516
        ],
        [
          0.3269113302230835,
          0.4976167678833008,
          0.19581879675388336,
          -0.2811090350151062,
          0.43179285526275635,
          -0.09381569176912308,
          0.001062004012055695,
          -0.18909943103790283,
          0.7024351954460144,
          0.4172232449054718,
          0.3659193515777588,
          0.22816286981105804,
          0.11530331522226334,
          0.07322404533624649,
          -0.030506538227200508,
          -0.17859798669815063,
          -0.021122701466083527,
          0.019107021391391754,
          -0.03256142884492874,
          -0.22773051261901855,
          0.27906522154808044,
          -0.09800778329372406,
          -0.12631657719612122,
          -0.2046256959438324,
          0.12127071619033813,
          0.08118285983800888,
          0.09193435311317444,
          -0.16793963313102722,
          0.28296035528182983,
          0.18146894872188568,
          -0.16840322315692902,
          -0.05222206562757492,
          0.06120162829756737,
          -0.16361284255981445,
          0.0403582826256752,
          -0.0020849460270255804,
          0.31602025032043457,
          -0.03294619917869568,
          0.1036914587020874,
          0.09650267660617828,
          0.32047176361083984,
          -0.19775044918060303,
          -0.16536717116832733,
          0.03912126272916794,
          0.21325545012950897,
          -0.15831977128982544,
          0.16189004480838776,
          -0.19160863757133484,
          0.07589411735534668
        ],
        [
          0.08079813420772552,
          -0.04660264402627945,
          -0.1787838339805603,
          0.09674704074859619,
          -0.03949471935629845,
          -0.14065834879875183,
          0.10519352555274963,
          -0.019951025024056435,
          -0.23569007217884064,
          0.10631220042705536,
          -0.09761485457420349,
          -0.0631389319896698,
          -0.002660064259544015,
          0.06839010864496231,
          -0.011884303763508797,
          0.00010685346205718815,
          0.08897560089826584,
          0.11569070816040039,
          0.1973268836736679,
          -0.038512226194143295,
          -0.1289268583059311,
          0.03751209378242493,
          0.070306196808815,
          0.1197877749800682,
          0.09271214157342911,
          -0.10732688009738922,
          -0.16657890379428864,
          0.03355422988533974,
          0.1359081119298935,
          0.07016477733850479,
          0.20005224645137787,
          -0.18556049466133118,
          0.17987917363643646,
          -0.17976076900959015,
          -0.1438451111316681,
          0.181741863489151,
          0.01585719734430313,
          0.1280573010444641,
          0.006552945356816053,
          0.14578744769096375,
          -0.02112160250544548,
          -0.1170402243733406,
          0.17284120619297028,
          -0.15446016192436218,
          -0.06217644736170769,
          -0.02100578509271145,
          -0.09526747465133667,
          0.08511172980070114,
          0.08541308343410492
        ],
        [
          0.3734070956707001,
          0.6589410305023193,
          0.3425314426422119,
          -0.3313988149166107,
          0.4545368254184723,
          0.026966633275151253,
          0.07753291726112366,
          -0.021355286240577698,
          0.8559231758117676,
          0.6938652396202087,
          0.40704163908958435,
          0.24754832684993744,
          0.13545499742031097,
          0.13016290962696075,
          0.09924587607383728,
          -0.053204912692308426,
          0.3891047239303589,
          0.11295774579048157,
          -0.14367949962615967,
          -0.15598033368587494,
          0.3401569724082947,
          -0.11338242888450623,
          -0.03781391680240631,
          -0.11859821528196335,
          0.33413732051849365,
          -0.1758417934179306,
          -0.19702988862991333,
          -0.08253385871648788,
          0.2726876139640808,
          0.018766924738883972,
          0.09272173047065735,
          -0.010928268544375896,
          0.1873425841331482,
          -0.02074141800403595,
          -0.0029786494560539722,
          -0.16181926429271698,
          0.23077180981636047,
          -0.02205684408545494,
          0.047108739614486694,
          -0.20779918134212494,
          0.12229142338037491,
          -0.12407398968935013,
          -0.006787669379264116,
          -0.17667169868946075,
          0.2917112708091736,
          0.1297973096370697,
          -0.12702985107898712,
          -0.2995549440383911,
          0.06377318501472473
        ],
        [
          0.0915336087346077,
          0.3159888684749603,
          0.27824166417121887,
          -0.049132511019706726,
          0.5051358938217163,
          0.0319930724799633,
          -0.02813655138015747,
          0.05623922869563103,
          0.89433354139328,
          0.7058180570602417,
          0.5208670496940613,
          0.4052131474018097,
          0.09254418313503265,
          0.19565096497535706,
          -0.04417261853814125,
          -0.2655452489852905,
          0.4169011414051056,
          0.01973654516041279,
          0.16932646930217743,
          -0.012395653873682022,
          0.290781170129776,
          -0.030834289267659187,
          -0.0647163987159729,
          -0.21712689101696014,
          0.2748282849788666,
          -0.055340997874736786,
          -0.0322982519865036,
          -0.20218153297901154,
          0.05424095690250397,
          0.184167742729187,
          -0.0179368257522583,
          -0.27617597579956055,
          0.40032345056533813,
          -0.09478947520256042,
          0.004920593928545713,
          -0.3068505525588989,
          0.09484602510929108,
          -0.09422896802425385,
          0.0963267982006073,
          -0.021342091262340546,
          0.14375172555446625,
          -0.04818877950310707,
          0.008810579776763916,
          0.009773295372724533,
          0.31096577644348145,
          -0.07299203425645828,
          -0.16202813386917114,
          -0.19679518043994904,
          0.28806787729263306
        ],
        [
          -0.31258130073547363,
          -0.5072991251945496,
          -0.3022739589214325,
          0.16255661845207214,
          -0.23262247443199158,
          -0.19555999338626862,
          0.1428900510072708,
          0.1362239569425583,
          -0.8062338829040527,
          -0.5063932538032532,
          -0.30033764243125916,
          -0.37352338433265686,
          -0.25316157937049866,
          0.17835238575935364,
          -0.12439516186714172,
          0.24702028930187225,
          -0.07250631600618362,
          -0.1669677197933197,
          -0.18760544061660767,
          0.1927044540643692,
          -0.08910642564296722,
          0.1294703334569931,
          -0.1270434558391571,
          0.2621038556098938,
          -0.26731497049331665,
          0.18806573748588562,
          0.11118535697460175,
          0.24414627254009247,
          -0.13336029648780823,
          -0.09778948128223419,
          -0.18380635976791382,
          -0.0747932642698288,
          -0.1876627504825592,
          -0.031730759888887405,
          -0.05787006393074989,
          -0.037804316729307175,
          -0.11521658301353455,
          0.10205072909593582,
          -0.1697498857975006,
          -0.06658166646957397,
          -0.40281379222869873,
          -0.07349801063537598,
          0.14163610339164734,
          0.05125958099961281,
          -0.29852595925331116,
          -0.04645403102040291,
          0.18680551648139954,
          0.22972159087657928,
          -0.37836509943008423
        ]
      ],
      "biases": [
        0.030501214787364006,
        -0.22100776433944702,
        -0.08583042025566101,
        0.13845691084861755,
        -0.2806550860404968,
        -0.3204764127731323,
        0.02536340244114399,
        0.19964976608753204,
        -0.26967644691467285,
        0.013638773933053017,
        0.059935830533504486,
        -0.2102259248495102,
        0.02133674919605255,
        -0.25762391090393066,
        -0.18121954798698425,
        0.34958744049072266
      ]
    },
    {
      "weights": [
        [
          0.0027880296111106873,
          0.29667872190475464,
          -0.014694897457957268,
          -0.16589516401290894,
          0.23432320356369019,
          0.11633949726819992,
          0.12444113940000534,
          -0.2723049223423004,
          -0.04735719785094261,
          -0.04297393187880516,
          0.10492082685232162,
          0.28448817133903503,
          0.13282808661460876,
          0.017518023028969765,
          -0.012113661505281925,
          -0.2904704511165619
        ],
        [
          -0.3370923399925232,
          0.44492626190185547,
          -0.038636814802885056,
          -0.54791659116745,
          0.20081563293933868,
          0.846233606338501,
          -0.040159743279218674,
          -0.7066851258277893,
          0.4797486364841461,
          -0.1824546754360199,
          -0.1276610791683197,
          0.4352527856826782,
          0.01922529563307762,
          0.5688939690589905,
          0.43957051634788513,
          -0.6739356517791748
        ],
        [
          0.03386250138282776,
          0.3627263605594635,
          -0.04366389662027359,
          -0.4406454265117645,
          0.2933094799518585,
          0.4048275649547577,
          0.20862187445163727,
          -0.5144937634468079,
          0.3350358307361603,
          -0.15486249327659607,
          0.06687363237142563,
          0.33496788144111633,
          -0.13762937486171722,
          0.25296929478645325,
          0.28308117389678955,
          -0.5233222246170044
        ],
        [
          0.10302425920963287,
          -0.10718004405498505,
          -0.17524906992912292,
          -0.02808951959013939,
          -0.01860196888446808,
          -0.2525559067726135,
          -0.15064381062984467,
          0.07318170368671417,
          -0.12229350954294205,
          -0.06823762506246567,
          -0.16215161979198456,
          0.0836605355143547,
          -0.08051522821187973,
          -0.1599544733762741,
          0.06663410365581512,
          -0.09924697875976562
        ],
        [
          -0.15637525916099548,
          0.20283374190330505,
          0.002599553670734167,
          -0.37701359391212463,
          0.19473624229431152,
          0.8251934051513672,
          0.25884777307510376,
          -0.670208215713501,
          0.30779537558555603,
          -0.33956384658813477,
          -0.2144835740327835,
          0.3195011615753174,
          -0.25361162424087524,
          0.42821934819221497,
          0.666826605796814,
          -0.3855098783969879
        ],
        [
          -0.23657919466495514,
          0.250282347202301,
          -0.07756908982992172,
          -0.024594638496637344,
          0.1880728155374527,
          0.30602800846099854,
          0.07077616453170776,
          -0.14831198751926422,
          0.2910051643848419,
          -0.2515678405761719,
          -0.293077677488327,
          0.312550812959671,
          0.06177746504545212,
          0.2990003824234009,
          0.17397762835025787,
          -0.4698934853076935
        ],
        [
          -0.44609779119491577,
          0.1967448741197586,
          0.12000677734613419,
          -0.49181124567985535,
          0.3473198115825653,
          0.7182326912879944,
          0.08276280760765076,
          -0.8889750242233276,
          0.5215147733688354,
          -0.44910889863967896,
          -0.09181534498929977,
          0.35453540086746216,
          -0.10943682491779327,
          0.7504296898841858,
          0.6797224283218384,
          -0.6931763291358948
        ],
        [
          -0.13513517379760742,
          -0.012603300623595715,
          0.10857900977134705,
          -0.3243110477924347,
          0.19488495588302612,
          0.5118411779403687,
          0.16336505115032196,
          -0.25534531474113464,
          0.17143450677394867,
          -0.18119464814662933,
          -0.18737265467643738,
          0.29544955492019653,
          -0.11244113743305206,
          0.09697593748569489,
          0.14717045426368713,
          -0.2607153058052063
        ],
        [
          -0.2026452273130417,
          0.10270456224679947,
          0.093388132750988,
          -0.47625064849853516,
          -0.04851538687944412,
          0.35768821835517883,
          0.2981230616569519,
          -0.39287951588630676,
          0.41277146339416504,
          -0.47419464588165283,
          -0.15217436850070953,
          0.4908922016620636,
          -0.1867848038673401,
          0.6253719925880432,
          0.5279097557067871,
          -0.6676273941993713
        ],
        [
          -0.2429875135421753,
          -0.008113279938697815,
          -0.06441423296928406,
          -0.06210263818502426,
          0.19409120082855225,
          0.49007683992385864,
          0.29043883085250854,
          -0.33515921235084534,
          0.17048528790473938,
          -0.17931972444057465,
          -0.27196386456489563,
          0.06518901139497757,
          -0.2591807246208191,
          0.5064399242401123,
          0.44658172130584717,
          -0.43852585554122925
        ],
        [
          -0.31950950622558594,
          0.41211390495300293,
          -0.054730962961912155,
          -0.45456671714782715,
          0.3176094591617584,
          0.7027708292007446,
          0.27457016706466675,
          -0.5209506750106812,
          0.13558802008628845,
          -0.44946494698524475,
          -0.1583900898694992,
          0.470829576253891,
          -0.18655522167682648,
          0.6462920904159546,
          0.4609547257423401,
          -0.8096374273300171
        ],
        [
          0.06033150851726532,
          0.03494829684495926,
          0.16519658267498016,
          0.09575890004634857,
          0.1479800045490265,
          0.15398378670215607,
          -0.11058256030082703,
          0.1556478887796402,
          -0.09486087411642075,
          0.16903220117092133,
          0.19751501083374023,
          0.14998729526996613,
          0.2084595412015915,
          -0.08359196037054062,
          -0.06658255308866501,
          -0.1597384512424469
        ],
        [
          0.14107389748096466,
          -0.4312744140625,
          0.04593641683459282,
          0.397230863571167,
          -0.35472017526626587,
          -0.6924775242805481,
          -0.2624301016330719,
          0.7376689910888672,
          -0.24658861756324768,
          0.2576706111431122,
          0.11588982492685318,
          -0.40880224108695984,
          0.11450670659542084,
          -0.5497820973396301,
          -0.4455307424068451,
          0.7111570239067078
        ],
        [
          0.024406734853982925,
          -0.19352485239505768,
          -0.17733131349086761,
          0.16849428415298462,
          0.11691657453775406,
          -0.2588999569416046,
          -0.18988758325576782,
          0.05618438124656677,
          0.004020553547888994,
          -0.027540381997823715,
          -0.1190234050154686,
          -0.1181124746799469,
          0.03335574269294739,
          0.04816858097910881,
          0.0938582643866539,
          0.04032782092690468
        ],
        [
          -0.21203890442848206,
          0.12885567545890808,
          0.1913357377052307,
          -0.044099610298871994,
          0.2650436758995056,
          0.42667356133461,
          -0.055815551429986954,
          -0.4148838520050049,
          0.05360383167862892,
          -0.1836497038602829,
          -0.2703671157360077,
          0.09340298920869827,
          -0.07826969772577286,
          0.23933957517147064,
          0.41852447390556335,
          -0.2990076541900635
        ],
        [
          -0.2927018105983734,
          0.0990212932229042,
          0.054553721100091934,
          -0.3676288425922394,
          0.10021930932998657,
          0.3966195285320282,
          0.128768190741539,
          -0.5309157967567444,
          0.4275754690170288,
          -0.2099737972021103,
          -0.2341897189617157,
          0.1625039428472519,
          0.04356016963720322,
          0.3130856454372406,
          0.49566423892974854,
          -0.22139225900173187
        ]
      ],
      "biases": [
        -0.1870897263288498,
        -0.36211878061294556,
        -0.37645116448402405,
        0.040953394025564194,
        -0.36597970128059387,
        -0.10194343328475952,
        -0.28518161177635193,
        0.07441525906324387,
        -0.16354934871196747,
        -0.11442241072654724,
        -0.19561737775802612,
        0.08331660181283951,
        0.40472978353500366,
        0.0306209996342659,
        -0.06503517925739288,
        -0.2524450421333313
      ]
    },
    {
      "weights": [
        [
          -0.10956919938325882,
          -0.3798406422138214,
          -0.1465819776058197,
          0.2594245374202728,
          -0.5521903038024902,
          -0.0863257348537445,
          -0.6396266222000122,
          -0.13741032779216766,
          -0.4524841606616974,
          -0.3129056692123413,
          -0.33350133895874023,
          -0.11504354327917099,
          0.642778217792511,
          0.07947428524494171,
          -0.08873680233955383,
          -0.10511616617441177
        ],
        [
          -0.26545125246047974,
          -0.2953348159790039,
          -0.2393103837966919,
          0.010867385193705559,
          -0.31455522775650024,
          -0.028919843956828117,
          -0.42106112837791443,
          -0.3026655912399292,
          -0.23589634895324707,
          -0.07778561115264893,
          -0.4806777834892273,
          -0.2096872478723526,
          0.2740101218223572,
          -0.21875731647014618,
          -0.003122097346931696,
          -0.14138288795948029
        ],
        [
          0.009208908304572105,
          -0.6791532039642334,
          -0.14334727823734283,
          0.10874143987894058,
          -0.5792346596717834,
          -0.2797556519508362,
          -0.7623858451843262,
          -0.07141271978616714,
          -0.41973525285720825,
          -0.21945355832576752,
          -0.599916398525238,
          0.3159968852996826,
          0.8149147629737854,
          0.04237041249871254,
          -0.09867531806230545,
          -0.2967723608016968
        ],
        [
          -0.01570480316877365,
          -0.18401238322257996,
          -0.1517503708600998,
          0.0012731427559629083,
          -0.45623302459716797,
          -0.07057692855596542,
          -0.40978989005088806,
          -0.15888512134552002,
          -0.11927513033151627,
          -0.42807671427726746,
          -0.44516992568969727,
          -0.18804676830768585,
          -0.008848012425005436,
          0.06652937084436417,
          -0.16494104266166687,
          -0.15679575502872467
        ],
        [
          -0.16995015740394592,
          -0.7107452154159546,
          -0.5263746380805969,
          0.27723783254623413,
          -0.48210203647613525,
          -0.08590343594551086,
          -0.5206888318061829,
          0.025058554485440254,
          -0.5534066557884216,
          -0.16646718978881836,
          -0.31454217433929443,
          0.2228182703256607,
          0.8246970176696777,
          -0.004491718020290136,
          -0.26805150508880615,
          -0.3967025578022003
        ],
        [
          -0.05687104910612106,
          0.24183650314807892,
          -0.02509164623916149,
          0.08006592094898224,
          0.31116071343421936,
          0.111014723777771,
          0.11850053071975708,
          -0.04214426875114441,
          0.15343165397644043,
          -0.10876674950122833,
          0.2926359474658966,
          -0.10540422797203064,
          -0.40779492259025574,
          -0.10192079842090607,
          0.1565019190311432,
          0.0962887704372406
        ],
        [
          0.012287145480513573,
          -0.4935750365257263,
          -0.24919316172599792,
          0.06392309069633484,
          -0.1272590458393097,
          -0.3510156273841858,
          -0.6042792797088623,
          -0.08989563584327698,
          -0.20342184603214264,
          -0.2265712469816208,
          -0.34664374589920044,
          -0.038561396300792694,
          0.4738989770412445,
          0.1568092405796051,
          -0.2618005573749542,
          -0.30346181988716125
        ],
        [
          -0.22269168496131897,
          -0.44682520627975464,
          -0.46761640906333923,
          0.2815461754798889,
          -0.41271039843559265,
          -0.25037211179733276,
          -0.7529803514480591,
          -0.0578174851834774,
          -0.5680016279220581,
          -0.1538201868534088,
          -0.5234060287475586,
          -0.05093233659863472,
          0.5449457168579102,
          0.3364640772342682,
          -0.1654605269432068,
          -0.07005467265844345
        ],
        [
          0.008998335339128971,
          -0.35584887862205505,
          -0.08250977098941803,
          0.07230501621961594,
          -0.14504298567771912,
          -0.13884148001670837,
          -0.2934543788433075,
          -0.11076629906892776,
          -0.20983222126960754,
          -0.06792949885129929,
          -0.3519354462623596,
          -0.23838573694229126,
          -0.1371990591287613,
          0.035154324024915695,
          -0.1330154687166214,
          -0.04104912281036377
        ],
        [
          0.002214017091318965,
          0.3274047076702118,
          0.23682723939418793,
          -0.014446566812694073,
          0.4456559419631958,
          0.23105488717556,
          0.34160956740379333,
          0.23812051117420197,
          0.12989045679569244,
          0.39483487606048584,
          0.36265331506729126,
          -0.16667033731937408,
          -0.3382473587989807,
          -0.14857564866542816,
          -0.018410515040159225,
          0.2041461020708084
        ],
        [
          0.13424625992774963,
          -0.6466370224952698,
          -0.14766941964626312,
          0.17230871319770813,
          -0.41083213686943054,
          -0.17864559590816498,
          -0.5256533026695251,
          -0.21375083923339844,
          -0.5465789437294006,
          -0.12929761409759521,
          -0.6083964705467224,
          0.23983657360076904,
          0.6496650576591492,
          0.10720570385456085,
          -0.023174528032541275,
          -0.33951905369758606
        ],
        [
          -0.038809239864349365,
          -0.3483060300350189,
          -0.2641078233718872,
          0.17674729228019714,
          -0.3542433977127075,
          -0.30640411376953125,
          -0.3255707621574402,
          -0.1437831073999405,
          -0.3496707081794739,
          -0.30721595883369446,
          -0.41354042291641235,
          0.15308107435703278,
          0.4849626421928406,
          0.13270749151706696,
          -0.38457491993904114,
          -0.4480155110359192
        ],
        [
          -0.17946232855319977,
          -0.45217007398605347,
          -0.2925257682800293,
          -0.060246698558330536,
          -0.36670175194740295,
          -0.14329710602760315,
          -0.28436312079429626,
          -0.3521050810813904,
          -0.3200613260269165,
          -0.01266793254762888,
          -0.19726626574993134,
          -0.12174391001462936,
          0.2909587621688843,
          -0.0024348057340830564,
          -0.2995243966579437,
          -0.2857794761657715
        ],
        [
          -0.10615352541208267,
          -0.2627107799053192,
          -0.26557445526123047,
          0.04690929502248764,
          -0.21389131247997284,
          -0.0358300507068634,
          -0.441788911819458,
          -0.19207769632339478,
          -0.11668512970209122,
          -0.05043569207191467,
          -0.48531728982925415,
          -0.30562588572502136,
          -0.1499703973531723,
          -0.04057159647345543,
          -0.07424062490463257,
          -0.07968233525753021
        ],
        [
          -0.06764859706163406,
          -0.49204567074775696,
          -0.4358871579170227,
          -0.08826854079961777,
          -0.27907052636146545,
          -0.0336332768201828,
          -0.4586378335952759,
          -0.3362773358821869,
          -0.19518810510635376,
          -0.39105772972106934,
          -0.5836777091026306,
          0.08529038727283478,
          0.7385952472686768,
          0.31039097905158997,
          -0.3394148647785187,
          -0.1318453997373581
        ],
        [
          -0.15619173645973206,
          -0.2444303035736084,
          -0.25273585319519043,
          0.1744515746831894,
          -0.27448737621307373,
          -0.24974918365478516,
          -0.5920127034187317,
          -0.2665884792804718,
          -0.4239778518676758,
          -0.3654012084007263,
          -0.4737260043621063,
          0.17797930538654327,
          0.6880811452865601,
          0.2683979272842407,
          -0.2140897512435913,
          -0.3530789911746979
        ]
      ],
      "biases": [
        -0.06426874548196793,
        -0.07538893818855286,
        0.3046405613422394,
        -0.1278429925441742,
        0.291046142578125,
        -0.02193482220172882,
        -0.1109778881072998,
        0.3651161789894104,
        -0.27992817759513855,
        -0.2035103291273117,
        -0.016040589660406113,
        0.010535025969147682,
        -0.019625693559646606,
        -0.08894839137792587,
        0.06952943652868271,
        0.011757742613554
      ]
    },
    {
      "weights": [
        [
          1.1455450057983398,
          0.6295148134231567,
          1.5546537637710571,
          0.5332474708557129,
          1.467213749885559,
          -0.8507779836654663,
          0.9288845062255859,
          1.381028175354004,
          0.20527687668800354,
          -1.3751288652420044,
          1.3092224597930908,
          1.0226435661315918,
          0.738241970539093,
          0.33598455786705017,
          1.2667820453643799,
          1.2624574899673462
        ]
      ],
      "biases": [
        -2.3972702026367188
      ]
    }
  ],
  "inputLookup": {
    "totalClouds[0]": 0,
    "lowClouds[0]": 1,
    "mediumClouds[0]": 2,
    "highClouds[0]": 3,
    "rainChance[0]": 4,
    "rainAmount[0]": 5,
    "windSpeed[0]": 6,
    "temperature[0]": 7,
    "totalClouds[1]": 8,
    "lowClouds[1]": 9,
    "mediumClouds[1]": 10,
    "highClouds[1]": 11,
    "rainChance[1]": 12,
    "rainAmount[1]": 13,
    "windSpeed[1]": 14,
    "temperature[1]": 15,
    "totalClouds[2]": 16,
    "lowClouds[2]": 17,
    "mediumClouds[2]": 18,
    "highClouds[2]": 19,
    "rainChance[2]": 20,
    "rainAmount[2]": 21,
    "windSpeed[2]": 22,
    "temperature[2]": 23,
    "totalClouds[3]": 24,
    "lowClouds[3]": 25,
    "mediumClouds[3]": 26,
    "highClouds[3]": 27,
    "rainChance[3]": 28,
    "rainAmount[3]": 29,
    "windSpeed[3]": 30,
    "temperature[3]": 31,
    "totalClouds[4]": 32,
    "lowClouds[4]": 33,
    "mediumClouds[4]": 34,
    "highClouds[4]": 35,
    "rainChance[4]": 36,
    "rainAmount[4]": 37,
    "windSpeed[4]": 38,
    "temperature[4]": 39,
    "exposureLength": 40,
    "totalClouds[5]": 41,
    "lowClouds[5]": 42,
    "mediumClouds[5]": 43,
    "highClouds[5]": 44,
    "rainChance[5]": 45,
    "rainAmount[5]": 46,
    "windSpeed[5]": 47,
    "temperature[5]": 48
  },
  "inputLookupLength": 49,
  "outputLookup": {
    "totalImagingTime": 0
  },
  "outputLookupLength": 1,
  "options": {
    "inputSize": 0,
    "outputSize": 0,
    "binaryThresh": 0.5,
    "hiddenLayers": [
      16,
      16,
      16
    ]
  },
  "trainOpts": {
    "activation": "sigmoid",
    "iterations": 20000,
    "errorThresh": 0.005,
    "log": false,
    "logPeriod": 10,
    "leakyReluAlpha": 0.01,
    "learningRate": 0.3,
    "momentum": 0.1,
    "callbackPeriod": 10,
    "timeout": "Infinity",
    "beta1": 0.9,
    "beta2": 0.999,
    "epsilon": 1e-8
  }
}