{
  "type": "NeuralNetworkGPU",
  "sizes": [
    49,
    16,
    16,
    16,
    1
  ],
  "layers": [
    {
      "weights": [],
      "biases": []
    },
    {
      "weights": [
        [
          -0.22182615101337433,
          -0.6437766551971436,
          -0.6754631400108337,
          0.19590792059898376,
          -0.38155218958854675,
          0.09473513811826706,
          0.0511123463511467,
          0.052133575081825256,
          -1.0286965370178223,
          -0.6518839597702026,
          -0.5357600450515747,
          -0.23827098309993744,
          -0.22133561968803406,
          0.06057210639119148,
          0.008941560983657837,
          0.18343129754066467,
          -0.004843283444643021,
          -0.1609325110912323,
          0.05679959058761597,
          0.08124241232872009,
          -0.08982931077480316,
          -0.1499246060848236,
          0.06360208243131638,
          0.19535696506500244,
          -0.3289070725440979,
          -0.044739410281181335,
          0.12202925235033035,
          0.17941290140151978,
          -0.343539297580719,
          0.10224771499633789,
          0.1659945845603943,
          0.08957725763320923,
          -0.31517094373703003,
          0.14433546364307404,
          -0.13133934140205383,
          0.2619442641735077,
          -0.276134192943573,
          -0.18514102697372437,
          -0.10774575918912888,
          0.052185047417879105,
          -0.339713454246521,
          0.19762858748435974,
          -0.08696084469556808,
          0.06983023881912231,
          -0.11401492357254028,
          -0.0409502312541008,
          -0.04866035282611847,
          0.251608669757843,
          -0.19062915444374084
        ],
        [
          0.45246216654777527,
          0.622334897518158,
          0.38451921939849854,
          -0.2918281555175781,
          0.4926260709762573,
          0.009627572260797024,
          -0.014236463233828545,
          -0.2749478816986084,
          0.9063084125518799,
          0.6600638031959534,
          0.6948323249816895,
          0.26726213097572327,
          0.32093900442123413,
          -0.00656041968613863,
          0.09807341545820236,
          -0.30033332109451294,
          0.03608182817697525,
          -0.1395496428012848,
          0.08793220669031143,
          -0.3256285786628723,
          0.16098353266716003,
          0.15388478338718414,
          -0.09041712433099747,
          0.0000140210977406241,
          0.22853994369506836,
          0.1739678531885147,
          -0.11817184835672379,
          -0.024910053238272667,
          0.32217562198638916,
          -0.15520183742046356,
          -0.16920386254787445,
          -0.16336002945899963,
          -0.020000135526061058,
          0.17595486342906952,
          0.01548273116350174,
          -0.2144322693347931,
          0.008622633293271065,
          0.0709773451089859,
          -0.15196509659290314,
          -0.11719435453414917,
          0.26799124479293823,
          -0.1459309607744217,
          -0.22148622572422028,
          -0.11126929521560669,
          0.30561190843582153,
          0.1811555027961731,
          0.014109394513070583,
          -0.23375913500785828,
          0.18155819177627563
        ],
        [
          0.19035841524600983,
          0.04704880714416504,
          -0.17889820039272308,
          0.23516204953193665,
          0.1500966101884842,
          0.12176511436700821,
          -0.02952614799141884,
          -0.14893417060375214,
          0.001275956747122109,
          -0.18037040531635284,
          0.02827039361000061,
          -0.0003440748550929129,
          -0.09312091767787933,
          0.06963412463665009,
          0.031616125255823135,
          0.05864114314317703,
          -0.13500337302684784,
          0.059298351407051086,
          0.09616708010435104,
          0.16291259229183197,
          -0.03141392767429352,
          0.07949559390544891,
          0.007316900417208672,
          -0.034199535846710205,
          -0.007471853867173195,
          -0.09381595999002457,
          0.17091047763824463,
          0.14600829780101776,
          -0.1681499481201172,
          -0.15641750395298004,
          -0.12408720701932907,
          -0.13535358011722565,
          0.2104695737361908,
          -0.0922909677028656,
          -0.03198883682489395,
          -0.11083128303289413,
          -0.029916120693087578,
          -0.0456286184489727,
          -0.03420105576515198,
          0.1400090605020523,
          -0.15587560832500458,
          0.1086629182100296,
          0.11457156389951706,
          -0.13551874458789825,
          -0.09891125559806824,
          0.03206067532300949,
          0.030877167358994484,
          -0.03804562985897064,
          -0.03046492673456669
        ],
        [
          0.2806292772293091,
          0.28556403517723083,
          0.49933022260665894,
          -0.27851733565330505,
          0.3036673963069916,
          -0.19795803725719452,
          0.12812365591526031,
          -0.025666173547506332,
          0.9025507569313049,
          0.4244464635848999,
          0.46060261130332947,
          0.31596240401268005,
          0.3375662565231323,
          -0.08264133334159851,
          0.11851506680250168,
          -0.11223524808883667,
          0.054501622915267944,
          0.16317012906074524,
          -0.02120913937687874,
          -0.08393394947052002,
          0.2552012801170349,
          -0.07707271724939346,
          -0.14673179388046265,
          -0.12761957943439484,
          0.17207171022891998,
          -0.07867623120546341,
          -0.2002112865447998,
          -0.1133766621351242,
          -0.006077967118471861,
          0.18905390799045563,
          0.0736759603023529,
          -0.06004161760210991,
          0.022186018526554108,
          -0.15597105026245117,
          -0.01709776744246483,
          -0.18246378004550934,
          0.15300630033016205,
          -0.1853180080652237,
          0.16203302145004272,
          -0.1873636096715927,
          0.13351409137248993,
          0.08348331600427628,
          -0.1411002278327942,
          -0.007148048374801874,
          0.11384309083223343,
          -0.1388462483882904,
          0.10312801599502563,
          -0.15187020599842072,
          0.20223744213581085
        ],
        [
          0.17851553857326508,
          0.29125604033470154,
          -0.032177917659282684,
          -0.0596083402633667,
          0.2040814757347107,
          -0.062277261167764664,
          0.04418094456195831,
          -0.10637178272008896,
          0.12486258149147034,
          0.3598010241985321,
          0.3211086094379425,
          0.03554975986480713,
          -0.10591472685337067,
          -0.0710810050368309,
          -0.2036215364933014,
          -0.12474960088729858,
          0.20259283483028412,
          0.17015793919563293,
          0.06429921835660934,
          0.018257632851600647,
          0.13118819892406464,
          0.13705949485301971,
          -0.011595779098570347,
          -0.17333072423934937,
          0.1957067996263504,
          -0.0681004598736763,
          0.10537204891443253,
          0.04043005034327507,
          0.12234611809253693,
          0.009423498995602131,
          0.11812513321638107,
          0.12233267724514008,
          0.10844580829143524,
          -0.07620733231306076,
          0.08590427786111832,
          -0.23377376794815063,
          0.11730027198791504,
          -0.08701285719871521,
          0.07410193234682083,
          0.02147340029478073,
          -0.00396166043356061,
          -0.1801752895116806,
          -0.06498423963785172,
          -0.22776669263839722,
          0.21339137852191925,
          0.011391778476536274,
          0.19197846949100494,
          0.0883195549249649,
          0.17499764263629913
        ],
        [
          0.09798726439476013,
          -0.166902095079422,
          -0.27776220440864563,
          -0.017879586666822433,
          -0.3068976104259491,
          0.060451943427324295,
          -0.10885937511920929,
          0.20551449060440063,
          -0.25062185525894165,
          -0.38181594014167786,
          0.005651521030813456,
          -0.082243911921978,
          0.05802936479449272,
          -0.13251271843910217,
          -0.13006921112537384,
          -0.044875286519527435,
          -0.221755251288414,
          0.035297244787216187,
          0.14991100132465363,
          -0.08477181941270828,
          -0.09631208330392838,
          0.1931171864271164,
          -0.1428055614233017,
          0.16305693984031677,
          0.1406286358833313,
          -0.002168387873098254,
          -0.11605653911828995,
          0.1968611180782318,
          -0.029504161328077316,
          0.13865549862384796,
          -0.17113380134105682,
          -0.04531610757112503,
          -0.19299691915512085,
          0.1907685548067093,
          0.05757297948002815,
          0.03794586658477783,
          -0.04494499787688255,
          0.036822810769081116,
          0.20612646639347076,
          0.07236526161432266,
          0.12229406088590622,
          -0.07275120168924332,
          -0.17420221865177155,
          0.03230010345578194,
          0.10265589505434036,
          0.0337306372821331,
          0.1154865249991417,
          0.1748303472995758,
          0.016713779419660568
        ],
        [
          0.012153963558375835,
          0.18956905603408813,
          0.18643493950366974,
          0.09474164992570877,
          0.39254534244537354,
          -0.013818533159792423,
          -0.15482178330421448,
          -0.23871788382530212,
          0.5218584537506104,
          0.4239627718925476,
          0.2746763527393341,
          0.16496439278125763,
          0.022864732891321182,
          -0.18975873291492462,
          -0.04258464276790619,
          -0.011674802750349045,
          0.08747366815805435,
          -0.18113087117671967,
          -0.1759185940027237,
          0.043508805334568024,
          0.09968679398298264,
          -0.10952136665582657,
          0.15503647923469543,
          -0.2045137882232666,
          0.11672437191009521,
          -0.12884488701820374,
          0.0031836186535656452,
          -0.15871462225914001,
          0.2431827038526535,
          0.05524967983365059,
          -0.18124696612358093,
          0.12282004207372665,
          -0.07155688107013702,
          -0.09380025416612625,
          0.11090412735939026,
          -0.04422774165868759,
          0.2837600111961365,
          0.17205026745796204,
          0.052000030875205994,
          -0.1791304647922516,
          0.1446790099143982,
          0.0964331328868866,
          0.12175954133272171,
          -0.023552676662802696,
          -0.08184341341257095,
          0.09872491657733917,
          0.14391133189201355,
          -0.05956847220659256,
          0.18382807075977325
        ],
        [
          0.31646957993507385,
          0.3103216290473938,
          0.5725371241569519,
          0.08265429735183716,
          0.3559100925922394,
          -0.00023498525843024254,
          -0.1605282723903656,
          0.06597474962472916,
          0.6184011101722717,
          0.4105485677719116,
          0.359068900346756,
          0.15285980701446533,
          0.21603097021579742,
          -0.06959879398345947,
          -0.19409045577049255,
          -0.1603967547416687,
          0.11311918497085571,
          0.09860536456108093,
          0.12806129455566406,
          -0.269853413105011,
          0.3016427755355835,
          0.129442498087883,
          0.04603958874940872,
          -0.08711482584476471,
          -0.0235601793974638,
          0.11975102126598358,
          0.18353953957557678,
          -0.043749645352363586,
          0.1686714142560959,
          0.1077938973903656,
          -0.05949365347623825,
          -0.14529424905776978,
          0.02825613133609295,
          -0.19643855094909668,
          0.1748766005039215,
          -0.20446157455444336,
          0.006898785941302776,
          0.12355105578899384,
          -0.036608628928661346,
          -0.25966018438339233,
          0.29139479994773865,
          -0.010908326134085655,
          -0.0017342966748401523,
          -0.055743202567100525,
          0.30679914355278015,
          0.11569248139858246,
          0.16919517517089844,
          -0.2595491409301758,
          0.07335427403450012
        ],
        [
          -0.5183559656143188,
          -0.8887959122657776,
          -0.5201345086097717,
          0.31378209590911865,
          -0.6656967401504517,
          -0.03975345566868782,
          -0.06103558838367462,
          0.3262244760990143,
          -1.3167500495910645,
          -0.8276458978652954,
          -0.5085175037384033,
          -0.4644433856010437,
          -0.34579944610595703,
          -0.15758655965328217,
          0.012130171060562134,
          0.19253957271575928,
          -0.15747836232185364,
          0.1526017189025879,
          0.10470179468393326,
          0.21319147944450378,
          -0.1516711413860321,
          -0.05057545006275177,
          0.1676260530948639,
          0.37922579050064087,
          -0.3260732889175415,
          0.020771993324160576,
          0.10066250711679459,
          0.3594368100166321,
          -0.36454397439956665,
          0.12606006860733032,
          -0.07078149169683456,
          0.3347318768501282,
          -0.17871391773223877,
          0.08572966605424881,
          0.22818908095359802,
          0.09262935817241669,
          -0.18749427795410156,
          -0.0740652084350586,
          0.04699597880244255,
          0.37374913692474365,
          -0.062227316200733185,
          -0.018679846078157425,
          -0.06548868864774704,
          0.05499143525958061,
          -0.17970862984657288,
          -0.08023589104413986,
          -0.027545208111405373,
          -0.0074469344690442085,
          -0.0003985414223279804
        ],
        [
          0.0704018697142601,
          0.18231359124183655,
          0.40885162353515625,
          -0.017230277881026268,
          0.06975415349006653,
          0.062431368976831436,
          0.09079933166503906,
          -0.15196214616298676,
          0.3554653227329254,
          0.17964833974838257,
          0.48912307620048523,
          0.28907346725463867,
          -0.03638671711087227,
          0.19145680963993073,
          0.0031352899968624115,
          -0.1251073032617569,
          0.21066594123840332,
          -0.07781849801540375,
          -0.042997345328330994,
          -0.09528978914022446,
          0.26618143916130066,
          0.12423456460237503,
          0.11746789515018463,
          -0.1111157014966011,
          0.11951521039009094,
          -0.09646736830472946,
          0.16077162325382233,
          -0.09412888437509537,
          0.23276284337043762,
          0.1429884284734726,
          -0.13651874661445618,
          -0.15419644117355347,
          0.06976933777332306,
          -0.0714694932103157,
          0.11222706735134125,
          -0.2068101167678833,
          -0.012769934721291065,
          -0.13593776524066925,
          -0.18472695350646973,
          0.09493453055620193,
          0.19732771813869476,
          -0.06985510140657425,
          0.1610701084136963,
          -0.10128381103277206,
          0.293255478143692,
          0.1566537618637085,
          -0.20299820601940155,
          0.14882659912109375,
          0.09612113237380981
        ],
        [
          0.4852330982685089,
          0.28560686111450195,
          0.2799869179725647,
          -0.1555837243795395,
          0.29792657494544983,
          0.04358671233057976,
          -0.1776779443025589,
          -0.06450817734003067,
          0.7892453074455261,
          0.39233121275901794,
          0.6552137732505798,
          0.3659989535808563,
          0.07033891975879669,
          0.03683678060770035,
          -0.03014286234974861,
          -0.08342724293470383,
          0.24644574522972107,
          0.012630093842744827,
          -0.13615073263645172,
          -0.04503945633769035,
          0.2848774790763855,
          -0.0499177984893322,
          -0.06936586648225784,
          -0.25531741976737976,
          0.1202862411737442,
          -0.10229254513978958,
          -0.07898686826229095,
          -0.05350309982895851,
          0.2976986765861511,
          0.14383433759212494,
          -0.1427646428346634,
          0.03265049681067467,
          0.004821560345590115,
          -0.12850885093212128,
          -0.15876080095767975,
          -0.12175974994897842,
          0.2063174992799759,
          0.0011462983675301075,
          0.17562894523143768,
          -0.21274347603321075,
          0.0041961148381233215,
          0.02111957222223282,
          -0.12796200811862946,
          -0.17601896822452545,
          0.3668479323387146,
          0.009146557189524174,
          0.16699205338954926,
          -0.27482661604881287,
          0.28711915016174316
        ],
        [
          0.24766725301742554,
          -0.02516333945095539,
          0.1318977028131485,
          -0.02713562361896038,
          0.23495803773403168,
          -0.1453888714313507,
          0.04665287584066391,
          -0.12322496622800827,
          0.3525087833404541,
          -0.03425450250506401,
          0.18125727772712708,
          0.06420835852622986,
          0.03322530537843704,
          -0.052232760936021805,
          0.11798352003097534,
          -0.09539762139320374,
          -0.007827378809452057,
          0.08797587454319,
          0.13521400094032288,
          0.09132832288742065,
          -0.04516982287168503,
          -0.026265697553753853,
          -0.13127200305461884,
          -0.18003705143928528,
          -0.10318666696548462,
          -0.11605781316757202,
          -0.05524183437228203,
          -0.13620704412460327,
          -0.08298129588365555,
          0.04058455303311348,
          -0.16535784304141998,
          -0.19546109437942505,
          0.13616631925106049,
          0.14617399871349335,
          0.06956842541694641,
          0.04641587287187576,
          0.11013371497392654,
          -0.06200530007481575,
          -0.10389043390750885,
          -0.12378968298435211,
          0.2061232477426529,
          0.019905656576156616,
          -0.053852397948503494,
          -0.058512866497039795,
          0.22007842361927032,
          -0.033008310943841934,
          0.02620580606162548,
          0.09838955104351044,
          0.0321793407201767
        ],
        [
          -0.17711417376995087,
          -0.35318589210510254,
          -0.3384988009929657,
          0.28114408254623413,
          -0.32700932025909424,
          -0.05806611105799675,
          0.22167012095451355,
          0.07454311847686768,
          -0.76297527551651,
          -0.5368819236755371,
          -0.26560530066490173,
          -0.2695954144001007,
          -0.13562454283237457,
          0.02392052859067917,
          -0.10743346810340881,
          0.23163843154907227,
          -0.0019742557778954506,
          -0.06106657162308693,
          -0.16538958251476288,
          0.20600542426109314,
          0.08903875201940536,
          -0.15056215226650238,
          0.013863462954759598,
          0.1480444073677063,
          -0.1448334902524948,
          -0.10466816276311874,
          0.01689131185412407,
          0.14876317977905273,
          -0.10342828184366226,
          -0.12436778098344803,
          -0.17149369418621063,
          0.01985885202884674,
          -0.2968255877494812,
          -0.008288536220788956,
          0.12046676129102707,
          0.20214861631393433,
          -0.2251012772321701,
          0.044050995260477066,
          -0.18087007105350494,
          0.023556523025035858,
          -0.14767484366893768,
          0.19794857501983643,
          0.03375614807009697,
          -0.06799978762865067,
          -0.06583068519830704,
          -0.09670861810445786,
          -0.12576614320278168,
          0.21432355046272278,
          -0.27225327491760254
        ],
        [
          -0.48067793250083923,
          -0.40049871802330017,
          -0.6553137898445129,
          0.3137771785259247,
          -0.4879552125930786,
          0.03913994878530502,
          -0.10173723846673965,
          0.11801435053348541,
          -0.996465265750885,
          -0.8167943358421326,
          -0.6971414089202881,
          -0.3076117932796478,
          -0.2183278650045395,
          -0.10239528119564056,
          0.20289401710033417,
          0.08517885953187943,
          -0.2855549454689026,
          0.14455576241016388,
          -0.011434626765549183,
          0.21450738608837128,
          -0.3123195171356201,
          -0.13732370734214783,
          -0.14354921877384186,
          0.01865512691438198,
          -0.09604698419570923,
          -0.14171557128429413,
          -0.033624958246946335,
          0.2455209642648697,
          -0.07882678508758545,
          -0.07941191643476486,
          0.20724894106388092,
          0.0250833909958601,
          -0.09643632173538208,
          0.1761418730020523,
          0.1449257880449295,
          0.12964047491550446,
          -0.25750911235809326,
          0.13003875315189362,
          -0.08869840204715729,
          0.3087826669216156,
          -0.10883063077926636,
          -0.12928715348243713,
          -0.08854399621486664,
          0.12966476380825043,
          -0.013939366675913334,
          -0.015474054031074047,
          0.16218514740467072,
          0.28385844826698303,
          -0.12718547880649567
        ],
        [
          0.08375049382448196,
          -0.04104754701256752,
          -0.15012401342391968,
          0.2887573838233948,
          -0.31835582852363586,
          -0.13445544242858887,
          -0.18977996706962585,
          0.006733606103807688,
          -0.40574806928634644,
          -0.08721805363893509,
          -0.2856541872024536,
          -0.06682196259498596,
          -0.09621422737836838,
          0.11297232657670975,
          0.17371122539043427,
          0.17367835342884064,
          0.11240198463201523,
          -0.031198523938655853,
          0.16666023433208466,
          -0.12958551943302155,
          -0.005405306816101074,
          0.10469287633895874,
          -0.11229295283555984,
          0.03811778500676155,
          -0.17505508661270142,
          -0.18623612821102142,
          -0.15076544880867004,
          0.0653260201215744,
          0.14309121668338776,
          0.14881283044815063,
          -0.1566934883594513,
          -0.1655559092760086,
          0.029635434970259666,
          0.16759423911571503,
          0.07760541886091232,
          -0.04502326622605324,
          -0.23584608733654022,
          0.11621866375207901,
          0.20175334811210632,
          0.13930530846118927,
          -0.13105356693267822,
          -0.03146597370505333,
          0.17952793836593628,
          -0.07906298339366913,
          0.033001307398080826,
          0.17235130071640015,
          -0.1122622862458229,
          0.015486630611121655,
          -0.15020741522312164
        ],
        [
          0.32752344012260437,
          0.39481619000434875,
          0.6552829146385193,
          -0.23723843693733215,
          0.5224308371543884,
          -0.10260842740535736,
          -0.20336395502090454,
          -0.3916301429271698,
          1.1304386854171753,
          0.70310378074646,
          0.4056362211704254,
          0.40491896867752075,
          0.3507222533226013,
          0.12134578078985214,
          -0.178954616189003,
          -0.10880469530820847,
          0.29162290692329407,
          0.023123668506741524,
          -0.14694352447986603,
          -0.15430206060409546,
          0.00695363013073802,
          -0.050650276243686676,
          0.08245991915464401,
          -0.23220837116241455,
          0.31879010796546936,
          -0.1228753924369812,
          0.1310800462961197,
          -0.19158712029457092,
          0.07005953788757324,
          0.07423403114080429,
          -0.06552349030971527,
          -0.15407171845436096,
          0.06427036225795746,
          -0.10669545084238052,
          -0.18664614856243134,
          -0.26534533500671387,
          0.17244918644428253,
          0.08936305344104767,
          0.1472560614347458,
          -0.06362080574035645,
          0.04695027694106102,
          -0.1311638355255127,
          -0.07743488252162933,
          -0.04527252912521362,
          0.06955286860466003,
          -0.07261184602975845,
          0.006201887037605047,
          -0.0718216523528099,
          0.2539782226085663
        ]
      ],
      "biases": [
        0.46250173449516296,
        -0.20561791956424713,
        0.13610593974590302,
        -0.3283956050872803,
        -0.11072149872779846,
        0.02490321733057499,
        -0.2614579200744629,
        -0.02561185322701931,
        0.32677093148231506,
        -0.20477360486984253,
        -0.31906694173812866,
        -0.000345283595379442,
        0.08718787133693695,
        0.41027313470840454,
        0.1918763518333435,
        -0.2279738485813141
      ]
    },
    {
      "weights": [
        [
          0.07738539576530457,
          -0.1634349226951599,
          0.19838880002498627,
          0.10941452533006668,
          -0.14319826662540436,
          0.16766396164894104,
          -0.024733979254961014,
          0.13250479102134705,
          0.35618239641189575,
          -0.06940462440252304,
          -0.17568093538284302,
          0.07837477326393127,
          0.253162682056427,
          0.33519795536994934,
          0.0653296560049057,
          -0.07813730835914612
        ],
        [
          -1.0692094564437866,
          0.9595394730567932,
          -0.10474806278944016,
          0.7379360795021057,
          0.24613839387893677,
          -0.32822385430336,
          0.44761422276496887,
          0.5384678840637207,
          -1.313242793083191,
          0.33279839158058167,
          0.7482334971427917,
          0.0748855248093605,
          -0.7938132882118225,
          -1.1172845363616943,
          -0.4490152597427368,
          0.9697902798652649
        ],
        [
          0.025731584057211876,
          -0.2826516926288605,
          0.1797507405281067,
          -0.17848935723304749,
          0.11346308887004852,
          0.06480339914560318,
          -0.1986374706029892,
          -0.1562480926513672,
          0.3823385536670685,
          0.08584839850664139,
          0.10733691602945328,
          0.004137595184147358,
          0.2781117558479309,
          0.22387902438640594,
          0.1316540390253067,
          0.04591040313243866
        ],
        [
          -0.0003990224504377693,
          0.010405250824987888,
          0.16863271594047546,
          0.024661285802721977,
          0.08414692431688309,
          0.09175611287355423,
          0.212494894862175,
          0.16036413609981537,
          -0.1915142834186554,
          0.009768196381628513,
          0.2207777351140976,
          -0.1537497341632843,
          -0.07723827660083771,
          -0.004387008957564831,
          0.06380724161863327,
          0.16532665491104126
        ],
        [
          -0.314302921295166,
          0.1999204158782959,
          -0.11687246710062027,
          0.31330186128616333,
          0.1355104148387909,
          -0.05157884955406189,
          0.2879893481731415,
          0.17944180965423584,
          -0.5281777381896973,
          0.23260626196861267,
          0.15915995836257935,
          0.05000120773911476,
          -0.2933010458946228,
          -0.3633377254009247,
          -0.21457496285438538,
          0.20649054646492004
        ],
        [
          -0.5102564096450806,
          0.15670721232891083,
          0.0508088655769825,
          0.3528490960597992,
          0.04678919166326523,
          -0.205814927816391,
          0.15149234235286713,
          0.1201220378279686,
          -0.3265681564807892,
          0.033022210001945496,
          0.16346433758735657,
          0.17879675328731537,
          -0.3068631887435913,
          -0.35941243171691895,
          -0.0006631112773902714,
          0.010657903738319874
        ],
        [
          -0.31310150027275085,
          0.3310514986515045,
          0.05021899566054344,
          0.23796281218528748,
          -0.025305235758423805,
          -0.07019291073083878,
          -0.07960887998342514,
          0.1477254182100296,
          0.03942239657044411,
          0.23912763595581055,
          0.04736499860882759,
          0.05814778059720993,
          0.045732516795396805,
          0.052355699241161346,
          -0.15248754620552063,
          0.10198085010051727
        ],
        [
          -0.7419636249542236,
          0.6997745037078857,
          0.046183031052351,
          0.4922148883342743,
          0.25408098101615906,
          -0.45626401901245117,
          0.08593347668647766,
          0.5454900860786438,
          -1.0276159048080444,
          0.24768345057964325,
          0.45605146884918213,
          0.24951834976673126,
          -0.6650276780128479,
          -0.8727738261222839,
          -0.44524189829826355,
          0.7034325003623962
        ],
        [
          -0.8181293606758118,
          0.6859446167945862,
          -0.25183048844337463,
          0.24374771118164062,
          -0.018412383273243904,
          -0.13388898968696594,
          0.3194054663181305,
          0.4016675651073456,
          -0.968202531337738,
          0.1710226833820343,
          0.5568088889122009,
          0.07929579168558121,
          -0.5330132246017456,
          -0.8057407140731812,
          -0.2169816493988037,
          0.6632636785507202
        ],
        [
          -0.8519315123558044,
          0.4720602035522461,
          -0.12317512184381485,
          0.41506943106651306,
          0.22246207296848297,
          -0.26833316683769226,
          0.1180734634399414,
          0.16476625204086304,
          -1.0310478210449219,
          0.3496481776237488,
          0.5067214369773865,
          -0.011539812199771404,
          -0.3567396402359009,
          -0.8061661720275879,
          -0.10871021449565887,
          0.633215069770813
        ],
        [
          -0.4882522523403168,
          0.2962687611579895,
          -0.04287727177143097,
          0.38578173518180847,
          0.2689710855484009,
          0.04190612584352493,
          -0.03627321869134903,
          0.10332852602005005,
          -0.4267740249633789,
          0.057654090225696564,
          0.11586496233940125,
          -0.027543434873223305,
          -0.33066147565841675,
          -0.5831550359725952,
          -0.002383424434810877,
          0.49448755383491516
        ],
        [
          0.3613296151161194,
          -0.21613773703575134,
          0.10509493201971054,
          -0.037378326058387756,
          0.1982044130563736,
          0.22911956906318665,
          -0.06038039177656174,
          0.015507177449762821,
          0.09059082716703415,
          -0.046265359967947006,
          -0.06357220560312271,
          -0.05352991446852684,
          -0.014518743380904198,
          0.34297892451286316,
          0.12213609367609024,
          -0.16179259121418
        ],
        [
          -0.7418731451034546,
          0.459381639957428,
          -0.11147890985012054,
          0.3824407160282135,
          0.01721090078353882,
          -0.08538633584976196,
          0.1599266678094864,
          0.37564146518707275,
          -0.9182801246643066,
          0.31377390027046204,
          0.3542189300060272,
          -0.024551836773753166,
          -0.5039684772491455,
          -0.7449094653129578,
          -0.4133668839931488,
          0.6005014181137085
        ],
        [
          -0.2424415946006775,
          0.2598859667778015,
          0.04519394785165787,
          0.33492612838745117,
          -0.06667175143957138,
          -0.17923861742019653,
          0.17743653059005737,
          0.3060982823371887,
          -0.45871084928512573,
          -0.0790145993232727,
          0.27617326378822327,
          0.02921270951628685,
          -0.3210124373435974,
          -0.35365766286849976,
          -0.19962145388126373,
          0.3136143982410431
        ],
        [
          -0.6837384700775146,
          0.3491557836532593,
          -0.31583428382873535,
          0.33256006240844727,
          0.09225888550281525,
          -0.36441969871520996,
          0.27259474992752075,
          0.46009933948516846,
          -0.6413083076477051,
          0.18310707807540894,
          0.3990596532821655,
          0.24257507920265198,
          -0.28683561086654663,
          -0.5928909778594971,
          -0.09218017756938934,
          0.30561408400535583
        ],
        [
          -0.008778945542871952,
          0.09950382262468338,
          0.1585717350244522,
          0.11346977204084396,
          0.2365572303533554,
          -0.10770978033542633,
          0.18062737584114075,
          -0.07151380181312561,
          -0.04799589887261391,
          0.17192044854164124,
          0.2016673982143402,
          0.012970228679478168,
          -0.30368685722351074,
          -0.21168383955955505,
          0.0494365356862545,
          0.2596592903137207
        ]
      ],
      "biases": [
        0.024176914244890213,
        -0.431112676858902,
        0.1551140695810318,
        -0.06788133084774017,
        -0.19468216598033905,
        0.07340186834335327,
        -0.13754788041114807,
        -0.33546605706214905,
        -0.2437944859266281,
        -0.19937041401863098,
        -0.25150758028030396,
        0.11242718249559402,
        -0.08252062648534775,
        -0.14627686142921448,
        -0.28826555609703064,
        -0.0003465422778390348
      ]
    },
    {
      "weights": [
        [
          -0.20402976870536804,
          -0.5633461475372314,
          -0.16001711785793304,
          0.052167389541864395,
          -0.04788235202431679,
          -0.3016684055328369,
          -0.26571500301361084,
          -0.18292899429798126,
          -0.3533766269683838,
          -0.17998628318309784,
          -0.1670122891664505,
          0.1120409220457077,
          -0.28325533866882324,
          -0.1218549907207489,
          -0.29087287187576294,
          -0.2776469588279724
        ],
        [
          0.5349066257476807,
          -1.2317845821380615,
          0.5142308473587036,
          0.18440543115139008,
          -0.2734479606151581,
          -0.1168905645608902,
          0.12843258678913116,
          -0.683224618434906,
          -0.6473920345306396,
          -0.8295078277587891,
          -0.24149949848651886,
          0.5317789316177368,
          -0.5714342594146729,
          -0.16878293454647064,
          -0.5748447775840759,
          -0.06067847087979317
        ],
        [
          -0.03139755502343178,
          -0.2694500982761383,
          -0.06009940057992935,
          -0.29213088750839233,
          -0.1732170730829239,
          -0.07559669017791748,
          -0.23336277902126312,
          -0.25769704580307007,
          -0.13487201929092407,
          -0.16694976389408112,
          -0.2843235433101654,
          -0.0635652020573616,
          -0.29753807187080383,
          -0.16431894898414612,
          -0.3262847661972046,
          -0.10692664980888367
        ],
        [
          0.0010549447033554316,
          -0.8208600282669067,
          0.36302852630615234,
          -0.09603985399007797,
          -0.21362772583961487,
          -0.23561175167560577,
          -0.13287106156349182,
          -0.7181118726730347,
          -0.6498703956604004,
          -0.2840728163719177,
          -0.18347154557704926,
          0.38140183687210083,
          -0.4311126172542572,
          -0.2020520269870758,
          -0.38701456785202026,
          -0.14018094539642334
        ],
        [
          -0.030703265219926834,
          -0.6872256398200989,
          -0.0505758561193943,
          -0.07692255824804306,
          -0.38778939843177795,
          -0.07355624437332153,
          -0.07035475969314575,
          -0.5904896855354309,
          -0.3640536665916443,
          -0.40514111518859863,
          -0.22356045246124268,
          0.05485969036817551,
          -0.4825471043586731,
          -0.06075871363282204,
          -0.08179514110088348,
          -0.09274008125066757
        ],
        [
          0.03848734498023987,
          -0.5702688694000244,
          0.11012393236160278,
          -0.2785082161426544,
          -0.16597729921340942,
          -0.31330564618110657,
          -0.20765496790409088,
          -0.19555336236953735,
          -0.22753846645355225,
          -0.44656670093536377,
          -0.15972255170345306,
          -0.20950815081596375,
          -0.40283438563346863,
          -0.18082170188426971,
          -0.4183517396450043,
          -0.14858387410640717
        ],
        [
          0.16988733410835266,
          -0.5323889851570129,
          0.06108731031417847,
          -0.033294953405857086,
          -0.40621620416641235,
          -0.30909058451652527,
          0.0428522452712059,
          -0.331537663936615,
          -0.2662084400653839,
          -0.595912516117096,
          -0.34208330512046814,
          0.09680600464344025,
          -0.5180253386497498,
          -0.16825921833515167,
          -0.27438417077064514,
          -0.08726613223552704
        ],
        [
          0.5907465219497681,
          -1.1559795141220093,
          0.4935202896595001,
          0.16176870465278625,
          -0.14757142961025238,
          -0.13202136754989624,
          0.24579128623008728,
          -0.9632852673530579,
          -0.8402630686759949,
          -0.7321736812591553,
          -0.19720132648944855,
          0.511792004108429,
          -0.7943949103355408,
          -0.1860547810792923,
          -0.5680812001228333,
          0.18990418314933777
        ],
        [
          0.18768198788166046,
          -0.7851877212524414,
          0.13590767979621887,
          0.05202164128422737,
          -0.09103313833475113,
          -0.11812464147806168,
          -0.21043696999549866,
          -0.5947214961051941,
          -0.36033642292022705,
          -0.36474135518074036,
          -0.24070052802562714,
          -0.014599718153476715,
          -0.36463499069213867,
          -0.3718208968639374,
          -0.2742903530597687,
          -0.1812804937362671
        ],
        [
          -0.19584150612354279,
          0.5429928302764893,
          -0.08587285131216049,
          0.09858459234237671,
          0.1821650266647339,
          0.2317437380552292,
          0.27056246995925903,
          0.3585381507873535,
          0.1348661333322525,
          0.2040720283985138,
          0.2577046751976013,
          -0.16202528774738312,
          0.14666156470775604,
          0.007192520424723625,
          0.007279158569872379,
          -0.03970588371157646
        ],
        [
          -0.13732172548770905,
          -0.5332847833633423,
          -0.22898170351982117,
          -0.16315393149852753,
          -0.07925914973020554,
          -0.04175351932644844,
          -0.0939677506685257,
          -0.382146954536438,
          -0.44986262917518616,
          -0.18506185710430145,
          -0.3834877610206604,
          -0.21693652868270874,
          -0.11974126100540161,
          -0.12957237660884857,
          -0.2556006908416748,
          -0.16266301274299622
        ],
        [
          0.0012157559394836426,
          -0.5629465579986572,
          0.05097512528300285,
          -0.03743142634630203,
          -0.06285431981086731,
          -0.041891079396009445,
          -0.3194418251514435,
          -0.5376168489456177,
          -0.33261367678642273,
          -0.18154646456241608,
          -0.16037467122077942,
          -0.09062495082616806,
          -0.4816838204860687,
          -0.25053003430366516,
          -0.2238008975982666,
          -0.12379241734743118
        ],
        [
          -0.2149745225906372,
          -0.42772752046585083,
          -0.22621670365333557,
          -0.1137833371758461,
          -0.04273052513599396,
          -0.36987701058387756,
          -0.22162142395973206,
          -0.26479271054267883,
          -0.27550816535949707,
          -0.14753800630569458,
          -0.3590638339519501,
          -0.18425489962100983,
          -0.36877572536468506,
          -0.17974422872066498,
          -0.2714073359966278,
          -0.20356324315071106
        ],
        [
          -0.19033288955688477,
          -0.24358049035072327,
          -0.10120388120412827,
          -0.16476723551750183,
          -0.3864033818244934,
          -0.06692490726709366,
          -0.08017906546592712,
          -0.30229851603507996,
          -0.38170507550239563,
          -0.3656427264213562,
          -0.22872436046600342,
          -0.12618042528629303,
          -0.1720535010099411,
          -0.20531025528907776,
          -0.3571355938911438,
          -0.18677456676959991
        ],
        [
          0.4801921844482422,
          -1.1066631078720093,
          0.5526745319366455,
          0.010257489047944546,
          -0.30103522539138794,
          -0.1608133465051651,
          0.06565472483634949,
          -0.6894457936286926,
          -0.7817261219024658,
          -0.7295187711715698,
          -0.37773463129997253,
          0.48134544491767883,
          -0.4380582273006439,
          -0.37181103229522705,
          -0.4779813289642334,
          0.09924770146608353
        ],
        [
          -0.05690998211503029,
          -0.2612610161304474,
          -0.31946173310279846,
          -0.13228891789913177,
          -0.30961233377456665,
          -0.009268498979508877,
          -0.19818171858787537,
          -0.4836180806159973,
          -0.33774837851524353,
          -0.1468849778175354,
          -0.16325236856937408,
          -0.2603715658187866,
          -0.21119743585586548,
          -0.1879982054233551,
          -0.2208128273487091,
          -0.19592207670211792
        ]
      ],
      "biases": [
        -0.34249401092529297,
        0.3907744884490967,
        -0.19966505467891693,
        0.2427566945552826,
        -0.06644328683614731,
        -0.03393978625535965,
        -0.13527899980545044,
        0.4007933735847473,
        -0.02786559984087944,
        0.08298055827617645,
        -0.15510442852973938,
        -0.260013222694397,
        -0.0482119657099247,
        -0.09315847605466843,
        0.5058084726333618,
        -0.08538412302732468
      ]
    },
    {
      "weights": [
        [
          0.42723047733306885,
          1.76764714717865,
          0.17837725579738617,
          1.2235463857650757,
          0.8182289004325867,
          0.626562774181366,
          0.8054305911064148,
          1.9108614921569824,
          0.9551995992660522,
          -1.3130412101745605,
          0.44487032294273376,
          0.620522141456604,
          0.4434722363948822,
          0.3673788011074066,
          1.7345937490463257,
          0.28966471552848816
        ]
      ],
      "biases": [
        -3.530503511428833
      ]
    }
  ],
  "inputLookup": {
    "totalClouds[0]": 0,
    "lowClouds[0]": 1,
    "mediumClouds[0]": 2,
    "highClouds[0]": 3,
    "rainChance[0]": 4,
    "rainAmount[0]": 5,
    "windSpeed[0]": 6,
    "temperature[0]": 7,
    "totalClouds[1]": 8,
    "lowClouds[1]": 9,
    "mediumClouds[1]": 10,
    "highClouds[1]": 11,
    "rainChance[1]": 12,
    "rainAmount[1]": 13,
    "windSpeed[1]": 14,
    "temperature[1]": 15,
    "totalClouds[2]": 16,
    "lowClouds[2]": 17,
    "mediumClouds[2]": 18,
    "highClouds[2]": 19,
    "rainChance[2]": 20,
    "rainAmount[2]": 21,
    "windSpeed[2]": 22,
    "temperature[2]": 23,
    "totalClouds[3]": 24,
    "lowClouds[3]": 25,
    "mediumClouds[3]": 26,
    "highClouds[3]": 27,
    "rainChance[3]": 28,
    "rainAmount[3]": 29,
    "windSpeed[3]": 30,
    "temperature[3]": 31,
    "totalClouds[4]": 32,
    "lowClouds[4]": 33,
    "mediumClouds[4]": 34,
    "highClouds[4]": 35,
    "rainChance[4]": 36,
    "rainAmount[4]": 37,
    "windSpeed[4]": 38,
    "temperature[4]": 39,
    "exposureLength": 40,
    "totalClouds[5]": 41,
    "lowClouds[5]": 42,
    "mediumClouds[5]": 43,
    "highClouds[5]": 44,
    "rainChance[5]": 45,
    "rainAmount[5]": 46,
    "windSpeed[5]": 47,
    "temperature[5]": 48
  },
  "inputLookupLength": 49,
  "outputLookup": {
    "totalImagingTime": 0
  },
  "outputLookupLength": 1,
  "options": {
    "inputSize": 0,
    "outputSize": 0,
    "binaryThresh": 0.5,
    "hiddenLayers": [
      16,
      16,
      16
    ]
  },
  "trainOpts": {
    "activation": "sigmoid",
    "iterations": 20000,
    "errorThresh": 0.005,
    "log": false,
    "logPeriod": 10,
    "leakyReluAlpha": 0.01,
    "learningRate": 0.3,
    "momentum": 0.1,
    "callbackPeriod": 10,
    "timeout": "Infinity",
    "beta1": 0.9,
    "beta2": 0.999,
    "epsilon": 1e-8
  }
}