{
  "type": "NeuralNetworkGPU",
  "sizes": [
    49,
    16,
    16,
    16,
    1
  ],
  "layers": [
    {
      "weights": [],
      "biases": []
    },
    {
      "weights": [
        [
          -0.2895008325576782,
          -0.3223976492881775,
          -0.4378867447376251,
          -0.06608569622039795,
          -0.2994813323020935,
          0.08491100370883942,
          -0.18165725469589233,
          -0.11087508499622345,
          -0.2848298251628876,
          -0.4293122887611389,
          -0.3495221436023712,
          -0.025868672877550125,
          -0.1618683636188507,
          -0.06241241469979286,
          -0.09545723348855972,
          0.10465488582849503,
          -0.1373988389968872,
          -0.11544974148273468,
          -0.0894332155585289,
          0.08274810761213303,
          -0.058938220143318176,
          0.029312843456864357,
          -0.004778887145221233,
          0.05643559619784355,
          0.007924855686724186,
          -0.1181473657488823,
          0.013819857500493526,
          0.0910319909453392,
          0.030411897227168083,
          0.0645863339304924,
          -0.14678718149662018,
          0.02054251730442047,
          -0.08708900958299637,
          0.0009834971278905869,
          0.06463421136140823,
          0.07237140089273453,
          -0.23552140593528748,
          0.025527266785502434,
          -0.18641018867492676,
          0.03442579135298729,
          -0.3013443350791931,
          -0.038708049803972244,
          0.10923516005277634,
          -0.06575004011392593,
          -0.04909602552652359,
          0.019142406061291695,
          -0.1928364485502243,
          0.18870604038238525,
          -0.17861932516098022
        ],
        [
          0.12453005462884903,
          0.37622183561325073,
          0.5033952593803406,
          -0.3287612497806549,
          0.29839596152305603,
          0.031110364943742752,
          0.04999082162976265,
          -0.1271936595439911,
          0.811196506023407,
          0.6526234149932861,
          0.4977988600730896,
          0.2749785780906677,
          0.12830212712287903,
          0.19896258413791656,
          0.06651663035154343,
          -0.17383167147636414,
          0.2067786455154419,
          0.18624810874462128,
          0.0022266064770519733,
          -0.27293530106544495,
          -0.044560812413692474,
          0.04886993020772934,
          -0.10732495039701462,
          0.030415620654821396,
          0.2310980260372162,
          0.08907607197761536,
          -0.10972132533788681,
          -0.07425913959741592,
          0.3080570101737976,
          -0.18426832556724548,
          -0.11088898032903671,
          -0.043148498982191086,
          -0.02632443979382515,
          0.041854873299598694,
          -0.18537895381450653,
          -0.23133569955825806,
          0.33045774698257446,
          -0.12043026834726334,
          0.015153752639889717,
          -0.1272352635860443,
          -0.03666543588042259,
          0.192111074924469,
          -0.1639808565378189,
          -0.009886632673442364,
          0.2931889295578003,
          -0.08807378262281418,
          0.1373721808195114,
          0.01185920462012291,
          0.1205679252743721
        ],
        [
          -0.12912499904632568,
          -0.0453316792845726,
          -0.01213787216693163,
          -0.012876346707344055,
          -0.153198704123497,
          -0.07776828855276108,
          -0.09306492656469345,
          0.0353337824344635,
          -0.2505509853363037,
          -0.03220280632376671,
          -0.02753513865172863,
          -0.025324329733848572,
          -0.07651828974485397,
          0.1504928171634674,
          0.14321960508823395,
          0.0725189596414566,
          -0.18195609748363495,
          -0.05915956199169159,
          -0.02776074968278408,
          -0.14461691677570343,
          0.08992967754602432,
          0.16835464537143707,
          0.03883902728557587,
          -0.03931980952620506,
          0.029202276840806007,
          0.14689397811889648,
          -0.14356543123722076,
          -0.0030296011827886105,
          -0.023534925654530525,
          -0.12714223563671112,
          0.07922546565532684,
          0.13358460366725922,
          0.13105864822864532,
          -0.1173022985458374,
          -0.11473677307367325,
          -0.06617976725101471,
          0.08042585104703903,
          -0.014429999515414238,
          0.13833436369895935,
          -0.09689381718635559,
          -0.19460923969745636,
          -0.031245015561580658,
          0.12290145456790924,
          0.0027351980097591877,
          -0.1981937140226364,
          -0.007578680291771889,
          -0.09477655589580536,
          -0.023436017334461212,
          -0.2229338437318802
        ],
        [
          -0.1049504280090332,
          -0.2235250622034073,
          -0.11424880474805832,
          -0.023622285574674606,
          -0.13513189554214478,
          0.16198743879795074,
          -0.06036282703280449,
          -0.004524366930127144,
          -0.19932308793067932,
          -0.027485791593790054,
          -0.0024971025995910168,
          -0.17054753005504608,
          -0.032331548631191254,
          -0.016240766271948814,
          -0.17903870344161987,
          0.20786160230636597,
          0.10020482540130615,
          -0.03993239998817444,
          -0.002031483454629779,
          -0.12270968407392502,
          -0.055674441158771515,
          -0.11794247478246689,
          0.07099591940641403,
          -0.04767439886927605,
          -0.18187882006168365,
          -0.07229042798280716,
          0.03464590013027191,
          -0.14791253209114075,
          0.0015211940044537187,
          -0.12882119417190552,
          0.08384391665458679,
          -0.13029471039772034,
          -0.19774620234966278,
          0.11918166279792786,
          -0.12312892079353333,
          -0.050553593784570694,
          -0.11945454776287079,
          0.026003088802099228,
          0.039119698107242584,
          0.029879970476031303,
          -0.025902491062879562,
          -0.003046235768124461,
          0.018971974030137062,
          -0.10093165189027786,
          -0.04225361347198486,
          -0.16931083798408508,
          0.04667459428310394,
          -0.05656525120139122,
          -0.06393876671791077
        ],
        [
          -0.17116811871528625,
          -0.27685046195983887,
          -0.21020439267158508,
          -0.12115544825792313,
          -0.0807187408208847,
          0.0996314138174057,
          -0.10802007466554642,
          0.03373425826430321,
          -0.23171593248844147,
          -0.35858094692230225,
          -0.05857183784246445,
          -0.1520155370235443,
          0.08887936919927597,
          -0.05086610093712807,
          -0.17033204436302185,
          -0.1650097519159317,
          -0.06568174809217453,
          -0.10008542984724045,
          0.18311364948749542,
          -0.14295242726802826,
          0.10710281878709793,
          0.15391448140144348,
          0.010193318128585815,
          0.1127455085515976,
          -0.12225549668073654,
          -0.17601755261421204,
          -0.1886780858039856,
          -0.14465738832950592,
          -0.10047516971826553,
          -0.032615482807159424,
          -0.16293491423130035,
          -0.013763466849923134,
          -0.045507438480854034,
          -0.09786733239889145,
          -0.10104825347661972,
          -0.027980508282780647,
          -0.21320326626300812,
          0.048499368131160736,
          -0.12676693499088287,
          0.05749928951263428,
          0.09220423549413681,
          0.11222216486930847,
          -0.07727975398302078,
          0.08346299827098846,
          -0.2078474909067154,
          -0.16247257590293884,
          -0.026104573160409927,
          0.15070568025112152,
          0.07480926066637039
        ],
        [
          0.34523478150367737,
          0.37801796197891235,
          0.49913352727890015,
          0.012226732447743416,
          0.5665238499641418,
          0.1910579353570938,
          -0.027773084118962288,
          -0.3470107614994049,
          1.012715458869934,
          0.8198827505111694,
          0.2628052532672882,
          0.2743453085422516,
          0.1336490511894226,
          -0.028225447982549667,
          0.04243681952357292,
          0.017532188445329666,
          0.2903995215892792,
          -0.0332786850631237,
          -0.0993775874376297,
          -0.16612963378429413,
          0.2931230664253235,
          -0.03699517995119095,
          -0.0756833553314209,
          -0.2303767055273056,
          0.04373827576637268,
          -0.17453038692474365,
          -0.054702747613191605,
          0.06366029381752014,
          0.3566269278526306,
          -0.14669115841388702,
          -0.040210213512182236,
          -0.16698552668094635,
          0.35762709379196167,
          -0.04485945776104927,
          0.16069139540195465,
          -0.3305595815181732,
          0.29859188199043274,
          0.15628144145011902,
          -0.0008422204991802573,
          -0.06673829257488251,
          0.1563171148300171,
          0.12327301502227783,
          -0.0013271813513711095,
          -0.12416313588619232,
          0.3188890814781189,
          0.08914458006620407,
          0.17219184339046478,
          -0.07668137550354004,
          0.014225012622773647
        ],
        [
          0.07029648870229721,
          0.31198564171791077,
          0.16263264417648315,
          -0.10436522215604782,
          0.29972633719444275,
          -0.12342456728219986,
          0.03509046882390976,
          -0.03478303179144859,
          0.6936670541763306,
          0.5680935978889465,
          0.468257874250412,
          0.2183912843465805,
          0.061663344502449036,
          -0.1177612692117691,
          0.11502847820520401,
          -0.30468255281448364,
          0.20310352742671967,
          0.016859538853168488,
          -0.05106637254357338,
          0.008624862879514694,
          0.22141240537166595,
          -0.15205912292003632,
          -0.14971919357776642,
          -0.17955008149147034,
          0.3161887526512146,
          -0.18846791982650757,
          0.08352216333150864,
          0.03221064433455467,
          0.08891307562589645,
          0.11995752900838852,
          0.061346497386693954,
          -0.09986580163240433,
          0.25148168206214905,
          0.19312043488025665,
          -0.042342741042375565,
          -0.027275966480374336,
          0.022730698809027672,
          0.16640052199363708,
          -0.11144592612981796,
          -0.07688277214765549,
          0.3000739514827728,
          -0.08704231679439545,
          -0.13630370795726776,
          0.033164892345666885,
          0.00262604933232069,
          0.05553815886378288,
          -0.03829557076096535,
          -0.2853074073791504,
          0.29141557216644287
        ],
        [
          0.054181016981601715,
          0.3444749712944031,
          0.19420839846134186,
          0.054095443338155746,
          0.27664873003959656,
          0.013775705359876156,
          -0.14585751295089722,
          0.04368571564555168,
          0.4501075744628906,
          0.07338321208953857,
          0.22109486162662506,
          0.04099968448281288,
          0.15178248286247253,
          0.06522193551063538,
          -0.16596391797065735,
          0.10401038080453873,
          0.05750574916601181,
          0.017879566177725792,
          -0.002703558886423707,
          -0.04068165272474289,
          -0.034632887691259384,
          0.10797931253910065,
          -0.18597090244293213,
          -0.14656199514865875,
          -0.0483272522687912,
          0.04052119329571724,
          0.04883313551545143,
          0.10164464265108109,
          0.1080542802810669,
          -0.065761998295784,
          -0.09203281998634338,
          0.08054056018590927,
          0.19417744874954224,
          0.19169297814369202,
          0.10011307895183563,
          -0.13642196357250214,
          0.05370774120092392,
          0.05607764050364494,
          -0.0507819764316082,
          -0.16356678307056427,
          0.2562685012817383,
          -0.16615080833435059,
          0.06561878323554993,
          -0.057388193905353546,
          -0.09319737553596497,
          -0.007612424902617931,
          -0.02106008678674698,
          0.15159176290035248,
          0.13515031337738037
        ],
        [
          -0.10400855541229248,
          -0.15304560959339142,
          0.0003416068502701819,
          -0.06845378875732422,
          0.08746261894702911,
          -0.15707595646381378,
          0.17900192737579346,
          0.18778647482395172,
          -0.09941762685775757,
          -0.12701617181301117,
          -0.09608551859855652,
          0.14752307534217834,
          -0.06728760153055191,
          -0.08549820631742477,
          0.1762443333864212,
          0.07892335951328278,
          -0.14892122149467468,
          0.0063551911152899265,
          -0.1647128313779831,
          0.14853312075138092,
          -0.061213184148073196,
          -0.0035551697947084904,
          0.1501130312681198,
          -0.10353022813796997,
          -0.17303195595741272,
          0.021413112059235573,
          0.06662160903215408,
          0.07266438007354736,
          0.1225230023264885,
          0.1016499251127243,
          0.030200105160474777,
          -0.1557682305574417,
          0.010113830678164959,
          -0.050666484981775284,
          0.1680680364370346,
          0.0700913816690445,
          -0.200672447681427,
          0.15160761773586273,
          0.143668070435524,
          0.16073353588581085,
          0.1284628063440323,
          0.1736648827791214,
          -0.12336415797472,
          0.13065747916698456,
          -0.18781571090221405,
          0.15822668373584747,
          0.03141142427921295,
          -0.1894010454416275,
          -0.13928799331188202
        ],
        [
          -0.3849620521068573,
          -0.5728863477706909,
          -0.3001072108745575,
          0.07893744856119156,
          -0.38373109698295593,
          -0.0927274078130722,
          -0.06347164511680603,
          0.23372814059257507,
          -0.928946316242218,
          -0.8548821210861206,
          -0.2246427685022354,
          -0.40876948833465576,
          -0.2290540486574173,
          -0.14800938963890076,
          -0.03421187028288841,
          0.32600992918014526,
          -0.09327378869056702,
          -0.007403505500406027,
          -0.06421377509832382,
          0.18786226212978363,
          -0.0833369642496109,
          -0.08067993074655533,
          -0.14022256433963776,
          0.30689942836761475,
          -0.20804856717586517,
          -0.014610214158892632,
          0.09746793657541275,
          0.14136825501918793,
          -0.21366171538829803,
          -0.15984782576560974,
          0.1786273568868637,
          -0.01035284623503685,
          -0.29738539457321167,
          0.019298525527119637,
          -0.18204434216022491,
          0.35632556676864624,
          -0.17847542464733124,
          0.11659760773181915,
          -0.10626069456338882,
          0.07681072503328323,
          -0.3157997727394104,
          0.17335890233516693,
          -0.09426423162221909,
          0.13061095774173737,
          -0.03883132338523865,
          0.0737038105726242,
          0.01885826513171196,
          0.04488762840628624,
          -0.24757440388202667
        ],
        [
          -0.06143832951784134,
          -0.2029503881931305,
          -0.2800656855106354,
          0.0007385120261460543,
          -0.07327225804328918,
          -0.017921479418873787,
          0.08109381794929504,
          0.20813427865505219,
          -0.24591442942619324,
          -0.45503729581832886,
          -0.2607565224170685,
          0.04566837474703789,
          -0.18750151991844177,
          -0.05537803843617439,
          -0.14804238080978394,
          0.00418816739693284,
          -0.22288739681243896,
          -0.009413950145244598,
          0.14963459968566895,
          -0.03937271237373352,
          -0.06865691393613815,
          -0.058701466768980026,
          -0.04945448040962219,
          -0.02194175496697426,
          -0.14750267565250397,
          -0.01131723914295435,
          0.10189583897590637,
          0.11750898510217667,
          -0.21955427527427673,
          -0.11695753037929535,
          -0.04887518286705017,
          -0.08443454653024673,
          0.004305392969399691,
          0.04362714663147926,
          -0.14244359731674194,
          0.038225188851356506,
          -0.032329216599464417,
          -0.0768626406788826,
          0.19330912828445435,
          -0.15541638433933258,
          0.03985214978456497,
          0.07004545629024506,
          0.15042266249656677,
          -0.11497444659471512,
          0.04106695204973221,
          0.07428000122308731,
          -0.13428860902786255,
          0.153114452958107,
          -0.21598652005195618
        ],
        [
          0.24749813973903656,
          0.20269902050495148,
          -0.09492285549640656,
          -0.0009675978217273951,
          0.003825639607384801,
          0.19645243883132935,
          0.0329100601375103,
          -0.12449751794338226,
          0.11074677109718323,
          0.16225016117095947,
          0.14366406202316284,
          0.16344207525253296,
          -0.12628774344921112,
          -0.06719065457582474,
          0.1160113662481308,
          -0.13590233027935028,
          -0.0021644511725753546,
          -0.1177273616194725,
          -0.1847965270280838,
          0.059377387166023254,
          0.01606597565114498,
          0.002536962740123272,
          -0.07157541066408157,
          0.039363130927085876,
          0.03649277985095978,
          0.03822921961545944,
          0.19794820249080658,
          0.058945611119270325,
          0.21892979741096497,
          0.03638478368520737,
          0.1516098529100418,
          0.0045651462860405445,
          -0.08076965063810349,
          0.11081147938966751,
          0.09065358340740204,
          -0.056253544986248016,
          -0.007491687312722206,
          -0.05125514417886734,
          -0.08683837205171585,
          0.00966388639062643,
          -0.0934247300028801,
          0.1658049076795578,
          0.15312232077121735,
          -0.1888931542634964,
          -0.1310170292854309,
          -0.17032048106193542,
          -0.12252987176179886,
          0.08876447379589081,
          0.019797934219241142
        ],
        [
          0.3443359434604645,
          0.07535217702388763,
          0.2698941230773926,
          0.11635173112154007,
          0.3951827585697174,
          -0.037076856940984726,
          0.07651321589946747,
          -0.1362331211566925,
          0.45576605200767517,
          0.2241194248199463,
          0.28760939836502075,
          0.12292979657649994,
          -0.03002084419131279,
          -0.06310510635375977,
          0.07853622734546661,
          -0.015334420837461948,
          0.14952482283115387,
          0.12970730662345886,
          0.016297299414873123,
          0.08466073870658875,
          0.00638334546238184,
          0.16369183361530304,
          0.02595280110836029,
          -0.0889441967010498,
          0.09746941179037094,
          -0.13620984554290771,
          0.11943577229976654,
          0.028950603678822517,
          0.10752224177122116,
          0.1635477989912033,
          -0.08487395942211151,
          -0.14670869708061218,
          0.03443993628025055,
          0.01513595599681139,
          0.1776033192873001,
          -0.13221746683120728,
          0.05570918321609497,
          -0.08074173331260681,
          -0.042208846658468246,
          -0.038787536323070526,
          -0.03931023180484772,
          0.1861138939857483,
          0.13544198870658875,
          -0.07518073916435242,
          0.28951650857925415,
          -0.08512498438358307,
          0.1362895369529724,
          -0.004516595974564552,
          -0.07482519000768661
        ],
        [
          0.40220534801483154,
          0.6498585343360901,
          0.42286017537117004,
          -0.2974785268306732,
          0.6452028155326843,
          -0.05305254086852074,
          -0.18182703852653503,
          -0.07359176129102707,
          1.001050353050232,
          0.6154926419258118,
          0.47928595542907715,
          0.4939929246902466,
          0.07221975177526474,
          0.04976183548569679,
          0.14613838493824005,
          -0.034561511129140854,
          0.18418261408805847,
          0.19272997975349426,
          0.04236803203821182,
          -0.10635755211114883,
          0.25457561016082764,
          -0.07259605079889297,
          -0.039533719420433044,
          -0.3014070689678192,
          0.3475308418273926,
          -0.10127543658018112,
          0.07573382556438446,
          -0.2695052921772003,
          0.322587788105011,
          -0.0430113822221756,
          0.022189337760210037,
          -0.14853708446025848,
          0.1876162886619568,
          0.14725139737129211,
          0.12080104649066925,
          -0.07866925746202469,
          0.29744040966033936,
          -0.068569116294384,
          0.03990142047405243,
          -0.24800194799900055,
          0.13194343447685242,
          -0.00924698356539011,
          0.14390282332897186,
          -0.1304929107427597,
          0.13465917110443115,
          0.01911681890487671,
          0.18100614845752716,
          -0.0466478131711483,
          0.21787986159324646
        ],
        [
          -0.31222328543663025,
          -0.7161470055580139,
          -0.3372810184955597,
          0.12204043567180634,
          -0.728022575378418,
          -0.051313694566488266,
          0.019798260182142258,
          0.12625661492347717,
          -1.2630624771118164,
          -1.004246473312378,
          -0.7137249112129211,
          -0.5696630477905273,
          -0.35197940468788147,
          0.16393297910690308,
          0.09122159332036972,
          0.09671195596456528,
          -0.19357922673225403,
          0.18079625070095062,
          0.06885593384504318,
          0.3996778130531311,
          -0.4104919731616974,
          -0.050684064626693726,
          -0.16227400302886963,
          0.20175889134407043,
          -0.33525004982948303,
          -0.07432808727025986,
          -0.04426052048802376,
          0.1480790674686432,
          -0.2692777216434479,
          0.14395560324192047,
          -0.10802427679300308,
          0.3444349765777588,
          -0.09118112176656723,
          0.18992352485656738,
          0.06896359473466873,
          0.1299346387386322,
          -0.33145204186439514,
          0.07514751702547073,
          0.010339787229895592,
          0.3466659188270569,
          -0.2830825746059418,
          0.06450223922729492,
          0.024122627452015877,
          0.17532005906105042,
          -0.07487698644399643,
          -0.1587146520614624,
          0.13262838125228882,
          0.3602526783943176,
          -0.0941837802529335
        ],
        [
          -0.4178575575351715,
          -0.6252987384796143,
          -0.1936279684305191,
          0.21754424273967743,
          -0.28540489077568054,
          -0.005498978309333324,
          -0.07040378451347351,
          0.29078209400177,
          -0.5099178552627563,
          -0.7374218106269836,
          -0.4607483446598053,
          -0.4623565077781677,
          -0.06692743301391602,
          -0.00007472218567272648,
          -0.1706167608499527,
          0.22297300398349762,
          -0.1827959269285202,
          -0.15870356559753418,
          0.1957210749387741,
          0.15359346568584442,
          0.01471299584954977,
          -0.06531896442174911,
          -0.15515829622745514,
          0.13043396174907684,
          -0.08011274039745331,
          0.008562078699469566,
          0.029911810532212257,
          -0.027661968022584915,
          -0.10202310979366302,
          -0.07321496307849884,
          0.0002783424570225179,
          0.03814564645290375,
          -0.06210748478770256,
          0.17214611172676086,
          0.19007737934589386,
          0.24497638642787933,
          -0.3262067437171936,
          -0.12074914574623108,
          -0.08736716210842133,
          0.029297009110450745,
          -0.19989918172359467,
          0.07833036035299301,
          0.10837633907794952,
          -0.10300134867429733,
          -0.0905403196811676,
          0.09284734725952148,
          -0.16106893122196198,
          0.2765834629535675,
          -0.3003128170967102
        ]
      ],
      "biases": [
        0.11726215481758118,
        -0.19591239094734192,
        -0.1293780505657196,
        -0.1548328995704651,
        0.0683041512966156,
        -0.48909273743629456,
        -0.12321462482213974,
        -0.22483386099338531,
        0.1715770810842514,
        0.23080307245254517,
        -0.02240537479519844,
        0.02232189103960991,
        -0.25300249457359314,
        -0.5412364602088928,
        0.30272048711776733,
        0.19813475012779236
      ]
    },
    {
      "weights": [
        [
          -0.39301761984825134,
          0.35846686363220215,
          -0.05493002384901047,
          -0.06032208353281021,
          -0.12558826804161072,
          0.819131076335907,
          0.40094247460365295,
          0.1616448312997818,
          -0.015498385764658451,
          -0.8187710642814636,
          -0.40199559926986694,
          -0.17097915709018707,
          0.3612525165081024,
          0.8431363701820374,
          -1.0651214122772217,
          -0.785734236240387
        ],
        [
          0.1594417542219162,
          -0.21045561134815216,
          0.06332949548959732,
          0.13716821372509003,
          0.11606280505657196,
          -0.28755226731300354,
          -0.12533390522003174,
          0.10287322103977203,
          -0.1664964109659195,
          -0.04272003471851349,
          -0.08667443692684174,
          -0.09854791313409805,
          0.020797234028577805,
          -0.2934530973434448,
          0.06982670724391937,
          0.09440625458955765
        ],
        [
          -0.4404996335506439,
          0.049188870936632156,
          0.09415467083454132,
          -0.15184403955936432,
          -0.22480551898479462,
          0.47088009119033813,
          0.0029112943448126316,
          0.13411730527877808,
          0.018264729529619217,
          -0.34497326612472534,
          -0.09643550217151642,
          -0.08484002202749252,
          0.28582924604415894,
          0.5604243874549866,
          -0.42263758182525635,
          -0.11492583155632019
        ],
        [
          -0.007327014114707708,
          -0.10913898050785065,
          0.14095506072044373,
          -0.17486955225467682,
          -0.14312328398227692,
          0.08246234804391861,
          -0.10993004590272903,
          0.0311594121158123,
          -0.1360415518283844,
          -0.18298475444316864,
          0.10406032204627991,
          -0.145486518740654,
          -0.06092606857419014,
          -0.03652782365679741,
          -0.2329336255788803,
          -0.14765064418315887
        ],
        [
          0.40615034103393555,
          -0.6334959268569946,
          0.30887681245803833,
          0.2102312445640564,
          0.1926550269126892,
          -0.6906493306159973,
          -0.5383208394050598,
          -0.20868845283985138,
          0.31335726380348206,
          0.858836829662323,
          0.29394543170928955,
          -0.15482547879219055,
          -0.2739050090312958,
          -0.6855583190917969,
          1.0641652345657349,
          0.581451416015625
        ],
        [
          0.19498211145401,
          -0.13658557832241058,
          -0.027514465153217316,
          -0.1389857530593872,
          0.03677472844719887,
          0.05165039002895355,
          0.05328572541475296,
          -0.16125039756298065,
          -0.02328566648066044,
          0.15651383996009827,
          0.09693523496389389,
          -0.07415350526571274,
          0.13459908962249756,
          -0.271375834941864,
          0.3287135362625122,
          0.19831638038158417
        ],
        [
          0.3405093848705292,
          -0.4299710690975189,
          0.16192516684532166,
          0.048524510115385056,
          0.2566341161727905,
          -0.3427886366844177,
          -0.464739590883255,
          -0.3239145576953888,
          0.14317572116851807,
          0.3305904269218445,
          0.325899213552475,
          -0.1015017181634903,
          0.0230336245149374,
          -0.5726156830787659,
          0.5636447668075562,
          0.5235463976860046
        ],
        [
          0.16307269036769867,
          -0.3617646396160126,
          -0.03652604669332504,
          0.1752571165561676,
          0.19331896305084229,
          -0.1586207002401352,
          -0.3345164954662323,
          -0.19706691801548004,
          0.06623711436986923,
          0.26314082741737366,
          0.05148245021700859,
          0.10613691061735153,
          0.02323123626410961,
          -0.13361188769340515,
          0.4393669068813324,
          0.020045015960931778
        ],
        [
          0.308342844247818,
          -0.3175366222858429,
          -0.07453014701604843,
          0.20268107950687408,
          0.15750087797641754,
          -0.019764693453907967,
          -0.273677259683609,
          -0.25632837414741516,
          -0.11271436512470245,
          0.3974054753780365,
          0.28856173157691956,
          -0.0672624409198761,
          -0.237008735537529,
          -0.3653527796268463,
          0.5293800234794617,
          0.10340127348899841
        ],
        [
          -0.37042540311813354,
          0.5765543580055237,
          -0.19564929604530334,
          -0.26555368304252625,
          -0.3503951132297516,
          0.7158979773521423,
          0.20316584408283234,
          0.06713957339525223,
          -0.11571237444877625,
          -0.6225572228431702,
          -0.2760929465293884,
          0.2369648963212967,
          0.26474347710609436,
          0.6594974994659424,
          -0.9783329367637634,
          -0.4087781310081482
        ],
        [
          -0.23736906051635742,
          0.4787796437740326,
          -0.23490987718105316,
          -0.15370623767375946,
          -0.09242740273475647,
          0.6574904322624207,
          0.3132905662059784,
          0.0380219966173172,
          -0.3239729702472687,
          -0.46480634808540344,
          -0.3402979075908661,
          0.16923104226589203,
          0.0016826051287353039,
          0.47122088074684143,
          -0.809142529964447,
          -0.4580683708190918
        ],
        [
          0.1704043745994568,
          -0.17135116457939148,
          0.05750720202922821,
          0.270208477973938,
          0.029370058327913284,
          -0.22285103797912598,
          -0.2117922157049179,
          0.035344649106264114,
          -0.06340528279542923,
          0.3702678382396698,
          0.013392418622970581,
          -0.14088958501815796,
          -0.2594931423664093,
          -0.47388774156570435,
          0.5346900224685669,
          0.35860419273376465
        ],
        [
          -0.071815624833107,
          0.05881987139582634,
          0.1639944165945053,
          -0.10434731841087341,
          0.011738333851099014,
          0.03569914028048515,
          0.04370011389255524,
          -0.13077040016651154,
          0.11031311005353928,
          -0.2229730784893036,
          0.08019886165857315,
          0.12948890030384064,
          -0.01545863226056099,
          0.2899795472621918,
          -0.3017890155315399,
          -0.26927363872528076
        ],
        [
          0.011167342774569988,
          -0.16386543214321136,
          -0.05293256416916847,
          -0.03310004249215126,
          0.21532459557056427,
          -0.22636939585208893,
          -0.23959927260875702,
          0.027369659394025803,
          0.015669073909521103,
          0.08351872116327286,
          0.05365579202771187,
          0.08113647252321243,
          -0.057045143097639084,
          0.10739624500274658,
          0.1238754466176033,
          -0.043085500597953796
        ],
        [
          -0.1600566804409027,
          -0.06995107233524323,
          -0.1748085767030716,
          -0.21773865818977356,
          -0.22144286334514618,
          0.2653699219226837,
          0.08747641742229462,
          -0.11945612728595734,
          0.03662072494626045,
          -0.20784926414489746,
          -0.0350055918097496,
          -0.13920658826828003,
          0.08046980947256088,
          -0.0008089541224762797,
          -0.04464258998632431,
          -0.24928054213523865
        ],
        [
          -0.4936857223510742,
          0.7820175886154175,
          -0.31313082575798035,
          -0.16423949599266052,
          -0.42919424176216125,
          0.7825533747673035,
          0.7012887597084045,
          0.4267890155315399,
          -0.1650599241256714,
          -0.9537814259529114,
          -0.39672648906707764,
          -0.029236529022455215,
          0.38609078526496887,
          0.8052148222923279,
          -1.1786407232284546,
          -0.8779518604278564
        ]
      ],
      "biases": [
        -0.1377665251493454,
        0.1614168882369995,
        0.07774345576763153,
        0.03548193722963333,
        0.11134949326515198,
        -0.04739151895046234,
        0.12265139818191528,
        -0.08168734610080719,
        -0.1060389056801796,
        -0.19423000514507294,
        0.022937873378396034,
        -0.0197447519749403,
        0.150971457362175,
        0.14853204786777496,
        -0.04074656963348389,
        -0.2246934324502945
      ]
    },
    {
      "weights": [
        [
          -0.42616549134254456,
          0.10620171576738358,
          -0.22457469999790192,
          -0.196681946516037,
          0.3489038348197937,
          -0.12022462487220764,
          0.22729746997356415,
          0.11911855638027191,
          0.1866091787815094,
          -0.4827190041542053,
          -0.5576556324958801,
          0.05999373644590378,
          -0.2734960913658142,
          0.07746323943138123,
          -0.12364326417446136,
          -0.3959343731403351
        ],
        [
          -0.3675781190395355,
          0.016280537471175194,
          -0.22852930426597595,
          -0.023369451984763145,
          0.2263694405555725,
          -0.20639798045158386,
          0.05694340169429779,
          0.029252419248223305,
          0.0798366367816925,
          -0.34432369470596313,
          -0.2925669252872467,
          -0.008752838708460331,
          -0.18902228772640228,
          -0.2659272253513336,
          -0.15333980321884155,
          -0.514015257358551
        ],
        [
          0.11837611347436905,
          -0.1353280395269394,
          -0.003907942213118076,
          -0.2349569946527481,
          -0.045498624444007874,
          -0.24217505753040314,
          -0.21627172827720642,
          -0.24572348594665527,
          -0.08688195794820786,
          0.0549582839012146,
          -0.10588449239730835,
          -0.010428986512124538,
          0.05336962640285492,
          -0.32942700386047363,
          0.10329104214906693,
          0.16355368494987488
        ],
        [
          -0.9341171979904175,
          0.18101587891578674,
          -0.3765565752983093,
          -0.03708551451563835,
          1.0671252012252808,
          0.3884163498878479,
          0.5843955278396606,
          0.475352019071579,
          0.39644917845726013,
          -0.8788286447525024,
          -0.47799599170684814,
          0.5642658472061157,
          -0.27445054054260254,
          0.2887548804283142,
          -0.010563195683062077,
          -1.1842215061187744
        ],
        [
          -0.3238498568534851,
          0.035785891115665436,
          -0.3468587398529053,
          -0.015524451620876789,
          0.17718634009361267,
          -0.2145177274942398,
          -0.04488132521510124,
          0.06862843036651611,
          0.00034627068089321256,
          -0.2980249226093292,
          -0.07063405960798264,
          0.025868099182844162,
          -0.21843722462654114,
          -0.19331812858581543,
          -0.17131049931049347,
          -0.2923843562602997
        ],
        [
          0.11447105556726456,
          0.0797666385769844,
          0.0993092954158783,
          -0.09006450325250626,
          -0.3328098952770233,
          -0.14947539567947388,
          -0.2633700668811798,
          0.07418599724769592,
          -0.1757047325372696,
          0.0217873714864254,
          0.0880308523774147,
          -0.298467755317688,
          -0.02340828813612461,
          -0.2390032708644867,
          -0.05253046005964279,
          0.39866480231285095
        ],
        [
          -0.42686378955841064,
          -0.11529382318258286,
          -0.149476557970047,
          -0.04257165268063545,
          0.18708465993404388,
          -0.10190065205097198,
          0.21022111177444458,
          0.12779134511947632,
          -0.01697712577879429,
          -0.41297537088394165,
          -0.4102088212966919,
          0.11006202548742294,
          -0.024341529235243797,
          0.07131168991327286,
          0.09783010929822922,
          -0.6206609606742859
        ],
        [
          -0.44282981753349304,
          -0.08450424671173096,
          -0.1747225522994995,
          -0.009307595901191235,
          0.15252332389354706,
          -0.3110552728176117,
          0.05155657231807709,
          -0.05352857708930969,
          0.04351663216948509,
          -0.416695773601532,
          -0.4123736023902893,
          0.01642625406384468,
          -0.1117079108953476,
          -0.052317582070827484,
          -0.0033527202904224396,
          -0.17395511269569397
        ],
        [
          -0.7522405385971069,
          0.06894943863153458,
          -0.3680795729160309,
          -0.23012693226337433,
          0.84964519739151,
          0.2866436243057251,
          0.45919057726860046,
          0.2316601425409317,
          0.5049392580986023,
          -0.45545312762260437,
          -0.6735520958900452,
          0.1279565393924713,
          -0.2154802829027176,
          0.14889690279960632,
          -0.017583677545189857,
          -0.9602426886558533
        ],
        [
          -0.44676098227500916,
          0.16537994146347046,
          -0.4324455261230469,
          0.06597834825515747,
          0.4440097510814667,
          0.22561998665332794,
          0.12445341050624847,
          0.11129378527402878,
          -0.034040212631225586,
          -0.4283800423145294,
          -0.5508272647857666,
          0.3246135413646698,
          0.020368987694382668,
          -0.04783233255147934,
          -0.26022467017173767,
          -0.5675023198127747
        ],
        [
          -0.4142681360244751,
          0.030962510034441948,
          -0.27898651361465454,
          -0.22869308292865753,
          0.27279841899871826,
          0.029045026749372482,
          0.1876201629638672,
          0.1591084897518158,
          -0.15679965913295746,
          -0.36630016565322876,
          -0.39599505066871643,
          0.11097843945026398,
          -0.07815350592136383,
          -0.22661742568016052,
          -0.09941957145929337,
          -0.5260413289070129
        ],
        [
          0.49154409766197205,
          -0.036815106868743896,
          0.09020961821079254,
          -0.04712662473320961,
          -0.41468727588653564,
          -0.02613568678498268,
          -0.2619786262512207,
          -0.16855715215206146,
          -0.2813118100166321,
          0.24267931282520294,
          0.1376180648803711,
          -0.19913852214813232,
          0.05431108921766281,
          -0.03571261838078499,
          0.07254986464977264,
          0.5419046878814697
        ],
        [
          -0.04446002095937729,
          -0.23460470139980316,
          -0.3035263419151306,
          -0.054056745022535324,
          0.010405946522951126,
          -0.17823266983032227,
          -0.17988663911819458,
          -0.13676422834396362,
          -0.1435985565185547,
          -0.1821010857820511,
          -0.1919291615486145,
          -0.1360854059457779,
          -0.15493537485599518,
          0.03602376580238342,
          -0.01646890491247177,
          0.015478497371077538
        ],
        [
          0.5736714601516724,
          -0.12868022918701172,
          0.15177278220653534,
          0.19414545595645905,
          -0.5383575558662415,
          -0.14426156878471375,
          -0.5237023234367371,
          -0.34426096081733704,
          -0.43630433082580566,
          0.6641947031021118,
          0.43119269609451294,
          -0.261857271194458,
          0.13386161625385284,
          -0.2503282427787781,
          0.22711800038814545,
          0.7680000066757202
        ],
        [
          0.9465571641921997,
          -0.3464173972606659,
          0.4819220304489136,
          -0.09481838345527649,
          -1.0722707509994507,
          -0.15778958797454834,
          -0.8238587975502014,
          -0.24208596348762512,
          -0.5913863778114319,
          0.7752635478973389,
          0.5028123259544373,
          -0.6485809087753296,
          0.027767227962613106,
          0.0070220185443758965,
          0.24049565196037292,
          1.1029750108718872
        ],
        [
          -0.40545815229415894,
          0.09571954607963562,
          -0.33069857954978943,
          0.00813043862581253,
          0.2972170114517212,
          -0.01874231919646263,
          0.010241624899208546,
          0.06047038361430168,
          -0.128868967294693,
          -0.2431154102087021,
          -0.3888415992259979,
          -0.1435900330543518,
          -0.19510257244110107,
          -0.1840457171201706,
          -0.004828533157706261,
          -0.28730469942092896
        ]
      ],
      "biases": [
        -0.12313059717416763,
        -0.10439815372228622,
        -0.044302914291620255,
        -0.04595857486128807,
        -0.3990522623062134,
        0.014674616046249866,
        -0.369714617729187,
        -0.27172836661338806,
        0.15976133942604065,
        -0.2766944169998169,
        -0.21168802678585052,
        0.09853039681911469,
        -0.2418336570262909,
        0.09000173211097717,
        0.045962315052747726,
        -0.3621094822883606
      ]
    },
    {
      "weights": [
        [
          0.7131237983703613,
          0.478491872549057,
          -0.5318673253059387,
          1.8603010177612305,
          0.27406781911849976,
          -0.8172153234481812,
          0.6253725290298462,
          0.33878928422927856,
          1.4175523519515991,
          0.8481575846672058,
          0.6019814014434814,
          -1.2243502140045166,
          -0.15771545469760895,
          -1.8660989999771118,
          -2.5998871326446533,
          0.40058255195617676
        ]
      ],
      "biases": [
        -0.8178167939186096
      ]
    }
  ],
  "inputLookup": {
    "totalClouds[0]": 0,
    "lowClouds[0]": 1,
    "mediumClouds[0]": 2,
    "highClouds[0]": 3,
    "rainChance[0]": 4,
    "rainAmount[0]": 5,
    "windSpeed[0]": 6,
    "temperature[0]": 7,
    "totalClouds[1]": 8,
    "lowClouds[1]": 9,
    "mediumClouds[1]": 10,
    "highClouds[1]": 11,
    "rainChance[1]": 12,
    "rainAmount[1]": 13,
    "windSpeed[1]": 14,
    "temperature[1]": 15,
    "totalClouds[2]": 16,
    "lowClouds[2]": 17,
    "mediumClouds[2]": 18,
    "highClouds[2]": 19,
    "rainChance[2]": 20,
    "rainAmount[2]": 21,
    "windSpeed[2]": 22,
    "temperature[2]": 23,
    "totalClouds[3]": 24,
    "lowClouds[3]": 25,
    "mediumClouds[3]": 26,
    "highClouds[3]": 27,
    "rainChance[3]": 28,
    "rainAmount[3]": 29,
    "windSpeed[3]": 30,
    "temperature[3]": 31,
    "totalClouds[4]": 32,
    "lowClouds[4]": 33,
    "mediumClouds[4]": 34,
    "highClouds[4]": 35,
    "rainChance[4]": 36,
    "rainAmount[4]": 37,
    "windSpeed[4]": 38,
    "temperature[4]": 39,
    "exposureLength": 40,
    "totalClouds[5]": 41,
    "lowClouds[5]": 42,
    "mediumClouds[5]": 43,
    "highClouds[5]": 44,
    "rainChance[5]": 45,
    "rainAmount[5]": 46,
    "windSpeed[5]": 47,
    "temperature[5]": 48
  },
  "inputLookupLength": 49,
  "outputLookup": {
    "totalImagingTime": 0
  },
  "outputLookupLength": 1,
  "options": {
    "inputSize": 0,
    "outputSize": 0,
    "binaryThresh": 0.5,
    "hiddenLayers": [
      16,
      16,
      16
    ]
  },
  "trainOpts": {
    "activation": "sigmoid",
    "iterations": 20000,
    "errorThresh": 0.005,
    "log": false,
    "logPeriod": 10,
    "leakyReluAlpha": 0.01,
    "learningRate": 0.3,
    "momentum": 0.1,
    "callbackPeriod": 10,
    "timeout": "Infinity",
    "beta1": 0.9,
    "beta2": 0.999,
    "epsilon": 1e-8
  }
}