{
  "type": "NeuralNetworkGPU",
  "sizes": [
    41,
    16,
    16,
    16,
    1
  ],
  "layers": [
    {
      "weights": [],
      "biases": []
    },
    {
      "weights": [
        [
          -0.07737203687429428,
          -0.18223728239536285,
          -0.04477570205926895,
          -0.04210986942052841,
          -0.005698435008525848,
          0.17377328872680664,
          -0.025501390919089317,
          -0.035558562725782394,
          -0.007661041803658009,
          0.07953931391239166,
          -0.16872228682041168,
          0.13279254734516144,
          -0.13603322207927704,
          0.05924798548221588,
          0.11121147871017456,
          -0.06434188038110733,
          -0.10033954679965973,
          0.04159054532647133,
          -0.15759553015232086,
          0.10578637570142746,
          0.1527545303106308,
          0.05553643777966499,
          -0.15354023873806,
          0.16092272102832794,
          -0.17697565257549286,
          0.058632150292396545,
          -0.08251149952411652,
          0.1358957290649414,
          -0.11415357142686844,
          0.11722899228334427,
          0.07801756262779236,
          -0.1989387422800064,
          -0.06242505460977554,
          0.06624417006969452,
          0.18118497729301453,
          0.056123875081539154,
          -0.09688660502433777,
          0.19286270439624786,
          -0.05799495428800583,
          0.19709472358226776,
          -0.1799357384443283
        ],
        [
          -0.06020243838429451,
          -0.1970897614955902,
          -0.056711990386247635,
          -0.07800464332103729,
          -0.031078986823558807,
          -0.0150403818115592,
          -0.08407751470804214,
          -0.12796182930469513,
          0.17762517929077148,
          0.12662462890148163,
          0.08958780020475388,
          -0.07131017744541168,
          0.026666469871997833,
          0.07122227549552917,
          -0.10224262624979019,
          0.030705420300364494,
          0.16562850773334503,
          0.10028914362192154,
          -0.07737940549850464,
          -0.05777140334248543,
          -0.02211516723036766,
          -0.17520809173583984,
          0.16764996945858002,
          0.026322592049837112,
          0.15949110686779022,
          -0.148747518658638,
          -0.18938736617565155,
          0.13675907254219055,
          0.07302099466323853,
          0.1521068811416626,
          0.0191687922924757,
          0.15575891733169556,
          -0.039517514407634735,
          -0.10343896597623825,
          0.13634976744651794,
          0.020498691126704216,
          0.09458454698324203,
          -0.17387646436691284,
          -0.12444165349006653,
          0.11187589913606644,
          0.08127722889184952
        ],
        [
          0.10790428519248962,
          -0.059153202921152115,
          -0.011564848944544792,
          -0.08172443509101868,
          0.17708685994148254,
          -0.12032835185527802,
          0.0515410415828228,
          0.1711568683385849,
          -0.04650231823325157,
          0.07453992962837219,
          0.15007536113262177,
          -0.10912449657917023,
          0.1568698287010193,
          -0.09595300257205963,
          -0.03674737364053726,
          -0.03456402197480202,
          0.12592250108718872,
          -0.14263054728507996,
          -0.08333136141300201,
          -0.14463503658771515,
          0.1436067670583725,
          0.07044083625078201,
          0.06706098467111588,
          -0.176266610622406,
          0.016849171370267868,
          0.113890141248703,
          0.14390121400356293,
          0.09566668421030045,
          -0.19396573305130005,
          0.015828905627131462,
          -0.007549811154603958,
          0.13686439394950867,
          0.12912745773792267,
          -0.09835642576217651,
          -0.19974589347839355,
          -0.18564197421073914,
          -0.10462245345115662,
          0.026585513725876808,
          -0.0634550154209137,
          -0.12256612628698349,
          0.023600293323397636
        ],
        [
          0.1218831017613411,
          -0.12160906940698624,
          0.13819830119609833,
          0.10797753930091858,
          -0.08073016256093979,
          -0.1719270944595337,
          0.10085687041282654,
          -0.09820497035980225,
          -0.1217728778719902,
          0.00879276916384697,
          -0.14155232906341553,
          -0.11543833464384079,
          0.07260268181562424,
          -0.00042653532000258565,
          0.19558918476104736,
          -0.1434677690267563,
          -0.1730351448059082,
          0.14598293602466583,
          -0.10574394464492798,
          -0.09415990859270096,
          -0.196987584233284,
          0.03228658810257912,
          0.039206575602293015,
          -0.0189939234405756,
          -0.15438126027584076,
          0.16067317128181458,
          -0.12062403559684753,
          -0.08022715896368027,
          0.01748989336192608,
          -0.12922635674476624,
          0.0803566426038742,
          0.16823314130306244,
          0.18003229796886444,
          -0.14345282316207886,
          0.16304032504558563,
          0.15679746866226196,
          0.11285798996686935,
          0.03424867242574692,
          0.07424215227365494,
          -0.0974414199590683,
          -0.19221509993076324
        ],
        [
          -0.1342652142047882,
          0.1225447952747345,
          -0.12233078479766846,
          -0.03197738900780678,
          -0.18933098018169403,
          -0.05705150589346886,
          0.10790873318910599,
          -0.047909144312143326,
          0.18626905977725983,
          0.10651784390211105,
          0.08599330484867096,
          0.08554943650960922,
          0.026877006515860558,
          0.12745065987110138,
          0.12055475264787674,
          -0.08017587661743164,
          -0.014504040591418743,
          -0.1988711655139923,
          0.13156390190124512,
          0.18818989396095276,
          -0.0007968196296133101,
          0.016123535111546516,
          -0.041550446301698685,
          0.10859350860118866,
          0.06560540199279785,
          -0.05937089025974274,
          0.07982798665761948,
          0.061502061784267426,
          0.10212720930576324,
          -0.03557729348540306,
          -0.10172297805547714,
          0.05281469225883484,
          0.11396752297878265,
          -0.13996995985507965,
          -0.023837294429540634,
          -0.09583378583192825,
          -0.07004173845052719,
          -0.17910045385360718,
          0.036671221256256104,
          0.1839067041873932,
          0.1753920018672943
        ],
        [
          0.1032462790608406,
          -0.0900857076048851,
          -0.001986921299248934,
          -0.051725320518016815,
          -0.08646775782108307,
          0.10132855921983719,
          0.03473258763551712,
          0.08488330245018005,
          0.10040176659822464,
          -0.08974592387676239,
          0.17308159172534943,
          0.0541258342564106,
          -0.11093483865261078,
          -0.14564576745033264,
          0.18460054695606232,
          0.09696132689714432,
          -0.07355206459760666,
          0.018278473988175392,
          -0.09387607872486115,
          0.16840879619121552,
          0.11235693842172623,
          0.1214105561375618,
          -0.0047615766525268555,
          0.16269606351852417,
          -0.14297786355018616,
          0.11886992305517197,
          -0.19588789343833923,
          -0.1584642380475998,
          -0.1880505532026291,
          -0.11734714359045029,
          -0.16389445960521698,
          0.0374688096344471,
          0.09260953217744827,
          0.18351277709007263,
          -0.18778294324874878,
          -0.027815362438559532,
          -0.16961805522441864,
          -0.10113509744405746,
          0.05282624438405037,
          -0.17487864196300507,
          -0.001019482733681798
        ],
        [
          -0.19179114699363708,
          -0.1275365799665451,
          -0.10386496782302856,
          -0.0933021828532219,
          -0.06519976258277893,
          -0.10793985426425934,
          -0.00003683267641463317,
          0.17131507396697998,
          0.1017584577202797,
          0.13993443548679352,
          -0.10936005413532257,
          -0.1194281205534935,
          -0.15450988709926605,
          0.16673992574214935,
          0.09970956295728683,
          -0.18128985166549683,
          0.15120215713977814,
          -0.14129382371902466,
          -0.16484376788139343,
          -0.191945880651474,
          -0.1552371084690094,
          0.006808787118643522,
          -0.027544129639863968,
          -0.0835428461432457,
          -0.1737549901008606,
          -0.08517565578222275,
          0.1657283902168274,
          0.1687416136264801,
          -0.09691318869590759,
          0.07256650924682617,
          -0.18292419612407684,
          -0.10235097259283066,
          0.18257300555706024,
          0.13391080498695374,
          -0.1648530513048172,
          0.12494587153196335,
          0.011799239553511143,
          0.10302622616291046,
          -0.13596872985363007,
          -0.02125495858490467,
          0.08149842172861099
        ],
        [
          0.14966265857219696,
          0.186310276389122,
          -0.12997734546661377,
          0.13910451531410217,
          -0.13972851634025574,
          -0.1375141739845276,
          -0.1864611655473709,
          -0.16532392799854279,
          0.0069958302192389965,
          0.1731896698474884,
          -0.0961608961224556,
          0.16403605043888092,
          -0.11572790145874023,
          0.07410294562578201,
          0.1006503477692604,
          -0.06346393376588821,
          -0.05807206779718399,
          0.08082927763462067,
          -0.07666787505149841,
          0.03318290412425995,
          -0.11927026510238647,
          -0.04249030351638794,
          0.03392569720745087,
          -0.10378487408161163,
          0.07615921646356583,
          -0.01537780836224556,
          -0.027970438823103905,
          0.0023642652668058872,
          -0.14177529513835907,
          -0.16237685084342957,
          0.15032637119293213,
          0.1546640694141388,
          0.0559423603117466,
          0.19674095511436462,
          -0.021432975307106972,
          0.18437081575393677,
          -0.038324806839227676,
          0.0860024020075798,
          -0.009857859462499619,
          -0.14619280397891998,
          -0.1922016590833664
        ],
        [
          0.05515515059232712,
          -0.19480611383914948,
          -0.08130642026662827,
          0.04751342907547951,
          -0.10911320149898529,
          -0.16100512444972992,
          0.04681875929236412,
          0.07035892456769943,
          0.13870735466480255,
          0.09128901362419128,
          0.11784394085407257,
          0.09754933416843414,
          -0.06145118921995163,
          0.09778091311454773,
          0.018033843487501144,
          -0.17003220319747925,
          -0.17437873780727386,
          0.094707190990448,
          -0.01070424448698759,
          0.19470106065273285,
          0.060557324439287186,
          0.12155697494745255,
          0.1813317835330963,
          0.14583425223827362,
          -0.0008042253321036696,
          -0.1567559391260147,
          0.05213230848312378,
          0.0696202963590622,
          -0.19817426800727844,
          -0.06483455002307892,
          0.051794860512018204,
          0.12043268978595734,
          0.11516936123371124,
          0.15618756413459778,
          -0.02931615337729454,
          -0.17330752313137054,
          0.17072667181491852,
          -0.15944209694862366,
          0.15722180902957916,
          -0.18859995901584625,
          0.028937965631484985
        ],
        [
          0.08381423354148865,
          -0.1488458514213562,
          0.04309535771608353,
          -0.008888160809874535,
          -0.043231602758169174,
          0.04557311534881592,
          -0.13078998029232025,
          -0.09177231788635254,
          -0.18854841589927673,
          0.027940602973103523,
          0.10444697737693787,
          0.1448250114917755,
          -0.1359325349330902,
          0.14977994561195374,
          -0.1899862289428711,
          0.05713266134262085,
          0.16280999779701233,
          0.13240426778793335,
          -0.13854031264781952,
          -0.1568741351366043,
          -0.05766322836279869,
          -0.12396371364593506,
          0.1954302042722702,
          -0.008036714047193527,
          0.0422309972345829,
          0.15275812149047852,
          0.1403474062681198,
          -0.025746271014213562,
          -0.13052412867546082,
          0.16294577717781067,
          0.19775821268558502,
          -0.00814854633063078,
          -0.1550707072019577,
          0.16043183207511902,
          -0.14256516098976135,
          -0.014761215075850487,
          0.11500948667526245,
          0.1493319272994995,
          0.0939938947558403,
          -0.11641905456781387,
          -0.01951923407614231
        ],
        [
          -0.03279009461402893,
          -0.1706864982843399,
          0.09085637331008911,
          0.16220389306545258,
          0.03939993679523468,
          0.13638265430927277,
          0.12269243597984314,
          0.06524759531021118,
          0.003978518769145012,
          0.17742684483528137,
          0.12982216477394104,
          0.08105356991291046,
          -0.0007029369589872658,
          -0.19644242525100708,
          0.19439281523227692,
          0.11878834664821625,
          -0.08017733693122864,
          -0.12490793317556381,
          0.15754179656505585,
          -0.017905106768012047,
          -0.07404529303312302,
          -0.19178633391857147,
          -0.19199559092521667,
          -0.002831527264788747,
          -0.015450749546289444,
          0.13822130858898163,
          -0.1842525452375412,
          0.09624357521533966,
          -0.02565816603600979,
          0.16714002192020416,
          0.09832301735877991,
          -0.15351465344429016,
          -0.19224520027637482,
          0.13453620672225952,
          0.15569904446601868,
          0.040509697049856186,
          0.10408108681440353,
          -0.09634704142808914,
          0.1639169156551361,
          -0.14529305696487427,
          -0.18638385832309723
        ],
        [
          -0.08546369522809982,
          0.10302633792161942,
          0.016499796882271767,
          0.050655074417591095,
          -0.09707976877689362,
          0.01907779835164547,
          -0.146632120013237,
          0.0759054496884346,
          0.1312982738018036,
          0.17278403043746948,
          0.1926569640636444,
          -0.09680288285017014,
          0.19441474974155426,
          -0.05375586077570915,
          0.005384300835430622,
          -0.09370636194944382,
          -0.001713631092570722,
          -0.1522538661956787,
          0.12036119401454926,
          0.19827309250831604,
          0.18801037967205048,
          -0.19678807258605957,
          0.13763870298862457,
          0.13217076659202576,
          -0.1528787761926651,
          0.0864371508359909,
          -0.03778831288218498,
          0.058037374168634415,
          -0.12804004549980164,
          0.1477711796760559,
          0.08909906446933746,
          -0.16415652632713318,
          0.0886281356215477,
          0.0844949260354042,
          -0.15115004777908325,
          -0.016728291288018227,
          0.18503476679325104,
          0.017560292035341263,
          -0.18866758048534393,
          -0.11954919993877411,
          -0.12318961322307587
        ],
        [
          -0.15484653413295746,
          -0.18838076293468475,
          -0.17883837223052979,
          0.06226280704140663,
          -0.037915512919425964,
          -0.0957740992307663,
          0.05499207600951195,
          -0.033600568771362305,
          0.02067154459655285,
          0.04029178246855736,
          -0.05064919963479042,
          -0.1777762919664383,
          -0.0390317477285862,
          -0.0019153073662891984,
          -0.06076078489422798,
          -0.018384994938969612,
          0.16884282231330872,
          0.10170747339725494,
          0.17888401448726654,
          -0.08367522805929184,
          -0.01650688424706459,
          -0.10812439769506454,
          -0.16373591125011444,
          -0.08771581202745438,
          0.188590407371521,
          -0.1783248484134674,
          0.18284977972507477,
          -0.04667191207408905,
          0.13439050316810608,
          0.02422391064465046,
          0.01804349757730961,
          0.12375576794147491,
          -0.14497360587120056,
          -0.09094511717557907,
          -0.11476843059062958,
          0.05569802597165108,
          0.11742809414863586,
          0.017460055649280548,
          -0.17261572182178497,
          -0.08615581691265106,
          0.1602993756532669
        ],
        [
          0.08999007195234299,
          0.18887834250926971,
          -0.03192460536956787,
          -0.1692385971546173,
          0.11124005913734436,
          0.048610035330057144,
          0.04846174642443657,
          -0.17889522016048431,
          -0.03662164881825447,
          0.15837658941745758,
          0.053318023681640625,
          -0.03065146505832672,
          0.1106237918138504,
          -0.16996608674526215,
          -0.198225200176239,
          0.16042853891849518,
          0.1373443454504013,
          -0.09898040443658829,
          0.09621773660182953,
          0.19949842989444733,
          0.10499561578035355,
          0.08695097267627716,
          -0.15164361894130707,
          -0.16635502874851227,
          -0.0006903584580868483,
          0.11488407105207443,
          -0.12948927283287048,
          -0.1458880454301834,
          -0.19106967747211456,
          -0.08563831448554993,
          -0.07541780173778534,
          -0.17010873556137085,
          0.18617954850196838,
          -0.10996876657009125,
          0.08506252616643906,
          0.09188167005777359,
          -0.11059697717428207,
          -0.1428302526473999,
          0.019276868551969528,
          -0.13440825045108795,
          0.18638509511947632
        ],
        [
          0.1322249472141266,
          -0.10746897011995316,
          0.06776431947946548,
          0.11282826960086823,
          0.0495508648455143,
          -0.009295979514718056,
          -0.182162344455719,
          0.051334917545318604,
          -0.16334748268127441,
          -0.163141131401062,
          -0.05040593445301056,
          0.1805160939693451,
          0.07560056447982788,
          0.08283457905054092,
          -0.13800424337387085,
          0.1005735769867897,
          -0.17242230474948883,
          -0.19399228692054749,
          0.17896875739097595,
          0.06854428350925446,
          0.011012678034603596,
          0.11866921931505203,
          0.17102716863155365,
          0.010293243452906609,
          -0.046113595366477966,
          -0.012279529124498367,
          -0.18825052678585052,
          -0.08842183649539948,
          -0.16841410100460052,
          -0.17899054288864136,
          -0.04666703939437866,
          0.1783965677022934,
          0.04357666149735451,
          -0.02780918963253498,
          -0.0313982293009758,
          -0.05178547650575638,
          0.1380981057882309,
          -0.0012160312617197633,
          0.07132614403963089,
          0.1946350336074829,
          -0.06241198256611824
        ],
        [
          -0.09222918003797531,
          -0.14034521579742432,
          0.17703178524971008,
          0.19475296139717102,
          0.15084025263786316,
          0.028232887387275696,
          0.04933074116706848,
          -0.1822241246700287,
          0.15676048398017883,
          -0.091215118765831,
          0.12698674201965332,
          -0.14035341143608093,
          -0.18898949027061462,
          -0.01778758317232132,
          0.09631431102752686,
          -0.03456897661089897,
          -0.19221363961696625,
          -0.19616539776325226,
          0.05025336146354675,
          0.05248376727104187,
          -0.13409140706062317,
          0.03283568099141121,
          0.03843797743320465,
          0.05999622493982315,
          0.15681962668895721,
          -0.11729457229375839,
          0.10360487550497055,
          -0.1390344202518463,
          0.1431957334280014,
          0.17688332498073578,
          0.05043097585439682,
          -0.010751983150839806,
          0.16996994614601135,
          0.0797819197177887,
          0.0493965819478035,
          0.17183822393417358,
          0.044590167701244354,
          -0.12132462114095688,
          0.13839319348335266,
          0.07507020980119705,
          -0.08060804009437561
        ]
      ],
      "biases": [
        -0.09643630683422089,
        0.07386786490678787,
        0.10105597972869873,
        -0.021296732127666473,
        -0.1547716110944748,
        0.0011644376209005713,
        0.10642896592617035,
        -0.0008838298381306231,
        -0.1748763918876648,
        -0.08427165448665619,
        0.1634521186351776,
        -0.0782088190317154,
        -0.08464031666517258,
        -0.11518402397632599,
        -0.04760243371129036,
        0.09118692576885223
      ]
    },
    {
      "weights": [
        [
          0.120880126953125,
          0.061911821365356445,
          -0.09536575525999069,
          0.15911929309368134,
          -0.1247621700167656,
          -0.15593910217285156,
          -0.007367995101958513,
          0.1544802039861679,
          0.014080452732741833,
          0.09607607871294022,
          0.15269127488136292,
          0.16751506924629211,
          -0.09989225119352341,
          0.07263064384460449,
          -0.05872083827853203,
          -0.10186701267957687
        ],
        [
          0.19528016448020935,
          -0.011132287792861462,
          -0.16393141448497772,
          -0.060306768864393234,
          -0.1588454693555832,
          -0.17478296160697937,
          0.15401525795459747,
          -0.14983786642551422,
          -0.011938648298382759,
          -0.1633765548467636,
          0.1960926651954651,
          -0.0339449904859066,
          -0.12277434021234512,
          -0.14649194478988647,
          0.012071219272911549,
          -0.19183669984340668
        ],
        [
          0.11392498016357422,
          0.020234722644090652,
          0.01484687253832817,
          0.04566122964024544,
          0.17099861800670624,
          -0.08989347517490387,
          -0.17747105658054352,
          -0.16571278870105743,
          -0.16013364493846893,
          0.08627742528915405,
          0.06674335896968842,
          0.04271616041660309,
          0.16866391897201538,
          0.07925145328044891,
          0.010916396975517273,
          -0.16736814379692078
        ],
        [
          0.05738132447004318,
          0.06082582846283913,
          0.17834104597568512,
          0.15976707637310028,
          -0.026095496490597725,
          0.17135699093341827,
          -0.08197413384914398,
          -0.016091851517558098,
          0.07787375152111053,
          0.16328170895576477,
          -0.016027148813009262,
          0.17238236963748932,
          0.14257219433784485,
          -0.09666411578655243,
          0.10993754863739014,
          0.08309406042098999
        ],
        [
          0.11456477642059326,
          -0.10561231523752213,
          0.11724615097045898,
          0.19837155938148499,
          -0.16558872163295746,
          0.11243961751461029,
          0.008709046989679337,
          0.06957930326461792,
          0.10042067617177963,
          -0.08669287711381912,
          0.01927347667515278,
          0.13716350495815277,
          -0.19613872468471527,
          -0.04052114859223366,
          -0.009996057488024235,
          0.15165194869041443
        ],
        [
          -0.06777406483888626,
          0.15194809436798096,
          0.16320757567882538,
          0.10947923362255096,
          -0.13560400903224945,
          0.17727652192115784,
          0.12376128137111664,
          0.11589086055755615,
          -0.1476612538099289,
          -0.097271628677845,
          -0.005044787190854549,
          0.17591379582881927,
          -0.0594402514398098,
          -0.02037738636136055,
          0.05711717903614044,
          -0.19753673672676086
        ],
        [
          -0.0973004400730133,
          -0.09113854914903641,
          -0.18763701617717743,
          -0.15286846458911896,
          -0.06539547443389893,
          -0.08481862396001816,
          -0.041590671986341476,
          -0.14761173725128174,
          0.017370879650115967,
          0.011411182582378387,
          0.06819910556077957,
          0.08850405365228653,
          0.09032731503248215,
          0.17839409410953522,
          0.0639374852180481,
          -0.12709683179855347
        ],
        [
          0.07400105893611908,
          0.11643487215042114,
          0.16693420708179474,
          -0.08207083493471146,
          -0.18630197644233704,
          -0.1971290558576584,
          -0.039194125682115555,
          0.08896660804748535,
          0.12120375782251358,
          0.11949626356363297,
          0.14967334270477295,
          -0.11006070673465729,
          -0.15526056289672852,
          0.07098916918039322,
          -0.024800019338726997,
          0.06731800734996796
        ],
        [
          0.1958026885986328,
          -0.12981975078582764,
          -0.16489481925964355,
          -0.01889154314994812,
          -0.18722252547740936,
          -0.002241195412352681,
          -0.08866263180971146,
          -0.1003405824303627,
          -0.05762454867362976,
          -0.03957023471593857,
          -0.13309480249881744,
          -0.16860519349575043,
          0.1185656264424324,
          0.1799938976764679,
          -0.07823799550533295,
          0.16112975776195526
        ],
        [
          -0.033528611063957214,
          -0.19072294235229492,
          -0.0805128961801529,
          -0.16664928197860718,
          -0.031248219311237335,
          0.17436479032039642,
          -0.11086410284042358,
          0.17081698775291443,
          0.0751282349228859,
          -0.06497454643249512,
          0.14525607228279114,
          0.02258990705013275,
          -0.14769577980041504,
          -0.10561294108629227,
          0.144224613904953,
          -0.06791694462299347
        ],
        [
          -0.06402610242366791,
          0.1776168793439865,
          0.10531359910964966,
          0.1850370466709137,
          0.19635599851608276,
          0.1784711629152298,
          0.09726162254810333,
          -0.00684055732563138,
          -0.13427092134952545,
          -0.16363151371479034,
          -0.06165839359164238,
          -0.0038208509795367718,
          0.07449022680521011,
          -0.17788168787956238,
          0.12314015626907349,
          0.007785087917000055
        ],
        [
          0.020435022190213203,
          0.10909121483564377,
          -0.12723074853420258,
          -0.0041800253093242645,
          -0.012445022352039814,
          0.13372023403644562,
          -0.10252536088228226,
          -0.1934264898300171,
          -0.02261238917708397,
          -0.09103141725063324,
          0.14535082876682281,
          0.13729974627494812,
          0.16601574420928955,
          -0.046094562858343124,
          0.013239121995866299,
          0.15083380043506622
        ],
        [
          0.14463934302330017,
          -0.15474139153957367,
          0.16836290061473846,
          0.04135232791304588,
          -0.17373314499855042,
          -0.11731238663196564,
          0.11094998568296432,
          0.16315926611423492,
          -0.07080282270908356,
          0.06833262741565704,
          0.07354604452848434,
          0.08733312040567398,
          0.08784912526607513,
          0.13522221148014069,
          -0.13640373945236206,
          -0.022832579910755157
        ],
        [
          0.19046948850154877,
          -0.1296340525150299,
          0.11530901491641998,
          0.014036432839930058,
          0.09372705966234207,
          0.0015238298801705241,
          0.016283325850963593,
          -0.1799878478050232,
          -0.07902819663286209,
          -0.03309107944369316,
          -0.029692022129893303,
          -0.18733450770378113,
          -0.17419123649597168,
          0.031284693628549576,
          0.039296433329582214,
          -0.033810995519161224
        ],
        [
          -0.11463353037834167,
          0.15397274494171143,
          0.02435006946325302,
          -0.19740597903728485,
          -0.11781594157218933,
          -0.010240627452731133,
          0.1310867965221405,
          0.08933330327272415,
          0.03938230499625206,
          0.08979466557502747,
          -0.16927991807460785,
          -0.06900843232870102,
          0.05045941844582558,
          -0.17301703989505768,
          -0.09492247551679611,
          0.12826699018478394
        ],
        [
          -0.12981851398944855,
          0.04246417060494423,
          -0.17161017656326294,
          -0.1492834836244583,
          -0.13192611932754517,
          -0.15545706450939178,
          -0.14513304829597473,
          -0.13970249891281128,
          -0.10268587619066238,
          0.060389917343854904,
          0.12906286120414734,
          -0.08856981247663498,
          -0.11545181274414062,
          -0.0800485759973526,
          0.18605345487594604,
          0.13712655007839203
        ]
      ],
      "biases": [
        -0.04557926580309868,
        -0.019593633711338043,
        -0.16816829144954681,
        -0.07892639189958572,
        0.047909580171108246,
        0.09183097630739212,
        0.05425596237182617,
        0.12933848798274994,
        0.1725137084722519,
        -0.03533857688307762,
        -0.15031664073467255,
        -0.10686273872852325,
        0.13230454921722412,
        0.05442696437239647,
        -0.12603162229061127,
        -0.10890606790781021
      ]
    },
    {
      "weights": [
        [
          -0.015495294705033302,
          0.04154438525438309,
          -0.08070600777864456,
          -0.01391702052205801,
          -0.08515451103448868,
          -0.09998496621847153,
          0.03507164493203163,
          0.013648469932377338,
          -0.1825423240661621,
          0.1440400630235672,
          -0.13725464046001434,
          0.14135096967220306,
          -0.06685128808021545,
          -0.11591587215662003,
          -0.05579052120447159,
          -0.011290463618934155
        ],
        [
          -0.0008404431282542646,
          0.08296322077512741,
          0.1882600635290146,
          -0.039510734379291534,
          0.10177282989025116,
          0.1823502480983734,
          0.08526758849620819,
          0.09081903845071793,
          0.054728537797927856,
          -0.03426782786846161,
          -0.11929415166378021,
          -0.16647136211395264,
          0.11216121912002563,
          0.09622655808925629,
          0.0030696652829647064,
          -0.15721918642520905
        ],
        [
          0.175240620970726,
          0.1317109912633896,
          -0.14643383026123047,
          0.12646597623825073,
          0.028376074507832527,
          -0.08575381338596344,
          -0.032405346632003784,
          0.09358160942792892,
          -0.09933587163686752,
          0.12678149342536926,
          0.006367711815983057,
          0.20524077117443085,
          -0.008298341184854507,
          -0.14477162063121796,
          0.10713397711515427,
          0.010726425796747208
        ],
        [
          0.1997503787279129,
          -0.050246018916368484,
          -0.04625860974192619,
          0.022852614521980286,
          -0.13376136124134064,
          -0.0008637614664621651,
          -0.15740934014320374,
          0.035578254610300064,
          0.1443803459405899,
          -0.0031121880747377872,
          0.13551585376262665,
          -0.1199226975440979,
          0.11011219769716263,
          -0.09053508937358856,
          0.09468924254179001,
          0.008792758919298649
        ],
        [
          -0.11286847293376923,
          -0.026915811002254486,
          0.05804112181067467,
          -0.13184969127178192,
          -0.08072233945131302,
          0.04562824219465256,
          -0.12638381123542786,
          0.08139561116695404,
          -0.07782008498907089,
          0.15039850771427155,
          0.14738935232162476,
          -0.14791812002658844,
          0.1272984743118286,
          -0.06247466430068016,
          0.14818359911441803,
          0.18368740379810333
        ],
        [
          0.09496907889842987,
          0.03525320440530777,
          -0.11755046993494034,
          0.1192089095711708,
          0.21751350164413452,
          -0.03345639631152153,
          0.10781567543745041,
          0.17978528141975403,
          0.08647642284631729,
          0.09104065597057343,
          -0.03355928137898445,
          -0.06704884767532349,
          -0.05651316046714783,
          0.0634666308760643,
          0.1684306114912033,
          -0.17316973209381104
        ],
        [
          0.04312219098210335,
          -0.17243418097496033,
          0.17821180820465088,
          -0.09149777889251709,
          0.053272273391485214,
          -0.19227665662765503,
          0.06874937564134598,
          -0.18931631743907928,
          0.11728639900684357,
          -0.03632805123925209,
          -0.1444329023361206,
          -0.024873578920960426,
          -0.015892958268523216,
          0.17404672503471375,
          0.024828406050801277,
          0.18175536394119263
        ],
        [
          0.07962281256914139,
          -0.04593435674905777,
          -0.06383116543292999,
          0.013729940168559551,
          0.09673703461885452,
          -0.09352072328329086,
          0.10499651730060577,
          0.03961966931819916,
          -0.1807185411453247,
          -0.13336747884750366,
          -0.07301897555589676,
          -0.13507206737995148,
          0.1732434630393982,
          0.1668267399072647,
          0.08255334943532944,
          0.16450434923171997
        ],
        [
          0.1955312341451645,
          0.11693289130926132,
          -0.12287063896656036,
          -0.08155348151922226,
          0.11693697422742844,
          0.14916397631168365,
          0.02173355221748352,
          -0.19202584028244019,
          0.1788642555475235,
          0.06127731129527092,
          0.1291380673646927,
          -0.1574621945619583,
          0.030105754733085632,
          -0.008419916965067387,
          -0.08646533638238907,
          -0.13590939342975616
        ],
        [
          0.195900559425354,
          -0.07217139005661011,
          0.03532404080033302,
          -0.1620219349861145,
          -0.0036934679374098778,
          0.03123682178556919,
          0.11996351927518845,
          -0.07615704834461212,
          -0.0749577209353447,
          0.1887563169002533,
          0.19343522191047668,
          0.08917050808668137,
          0.014609706588089466,
          -0.050858039408922195,
          0.11303596198558807,
          -0.052811261266469955
        ],
        [
          -0.18066424131393433,
          0.09710771590471268,
          0.05569799616932869,
          0.15570737421512604,
          0.04053041711449623,
          -0.1468953639268875,
          -0.1702757179737091,
          0.18914631009101868,
          0.04600711166858673,
          -0.12859615683555603,
          -0.15814347565174103,
          -0.010458741337060928,
          -0.13139517605304718,
          0.08166053146123886,
          -0.07602420449256897,
          0.044923510402441025
        ],
        [
          0.0004562815302051604,
          0.012197766453027725,
          0.16303779184818268,
          -0.1065400019288063,
          0.03438762202858925,
          -0.11979523301124573,
          -0.11718926578760147,
          -0.07964451611042023,
          -0.06258842349052429,
          0.07682802528142929,
          -0.08511250466108322,
          -0.03007569909095764,
          -0.010773209854960442,
          0.11893527954816818,
          -0.14367808401584625,
          -0.09187889844179153
        ],
        [
          0.06852520257234573,
          0.0763360783457756,
          0.14545564353466034,
          0.1946108639240265,
          -0.082607202231884,
          -0.1062825620174408,
          -0.09792248904705048,
          -0.08219198882579803,
          0.14364488422870636,
          0.17304004728794098,
          0.14830006659030914,
          0.09942872077226639,
          0.09912750124931335,
          0.06504087150096893,
          0.05135969817638397,
          -0.08860499411821365
        ],
        [
          0.08206044882535934,
          0.02513960190117359,
          0.12769222259521484,
          -0.1369299441576004,
          0.08695679157972336,
          0.1715463250875473,
          -0.18923261761665344,
          0.14933764934539795,
          0.012031661346554756,
          0.07004739344120026,
          -0.12861482799053192,
          -0.17544427514076233,
          -0.037130147218704224,
          -0.14560015499591827,
          -0.06345697492361069,
          0.1832507997751236
        ],
        [
          -0.06249312311410904,
          0.11444666981697083,
          0.12066790461540222,
          -0.1636202484369278,
          0.001077375840395689,
          -0.18337735533714294,
          0.1116538792848587,
          -0.005170722026377916,
          -0.07355722039937973,
          0.14911127090454102,
          0.09345419704914093,
          -0.007492760196328163,
          -0.02890450693666935,
          -0.19060301780700684,
          -0.04512052983045578,
          -0.06974104791879654
        ],
        [
          -0.15099966526031494,
          -0.12020451575517654,
          0.09783900529146194,
          -0.19139868021011353,
          0.17690500617027283,
          0.02383619174361229,
          -0.13448962569236755,
          0.01437799260020256,
          -0.06762362271547318,
          0.09896521270275116,
          0.017771730199456215,
          -0.0005789699498564005,
          -0.13832855224609375,
          -0.1894380748271942,
          0.02654723823070526,
          0.044911935925483704
        ]
      ],
      "biases": [
        -0.16015683114528656,
        0.07360667735338211,
        0.16701415181159973,
        -0.06474801152944565,
        -0.06035564839839935,
        -0.07028782367706299,
        -0.07508116960525513,
        -0.09403512626886368,
        0.0212540440261364,
        0.22035977244377136,
        0.027288753539323807,
        0.199499249458313,
        -0.13407905399799347,
        -0.08978607505559921,
        0.17324715852737427,
        0.06473856419324875
      ]
    },
    {
      "weights": [
        [
          -0.25647640228271484,
          -0.2328169196844101,
          -0.24542485177516937,
          -0.2207583636045456,
          -0.3403189778327942,
          -0.39157581329345703,
          -0.1993516981601715,
          -0.26368120312690735,
          -0.12813887000083923,
          -0.3988996744155884,
          -0.2500086724758148,
          -0.4162522554397583,
          -0.3473074734210968,
          -0.24783366918563843,
          -0.22912219166755676,
          -0.11450842767953873
        ]
      ],
      "biases": [
        -0.5372289419174194
      ]
    }
  ],
  "inputLookup": {
    "totalClouds[0]": 0,
    "lowClouds[0]": 1,
    "mediumClouds[0]": 2,
    "highClouds[0]": 3,
    "rainChance[0]": 4,
    "rainAmount[0]": 5,
    "windSpeed[0]": 6,
    "temperature[0]": 7,
    "totalClouds[1]": 8,
    "lowClouds[1]": 9,
    "mediumClouds[1]": 10,
    "highClouds[1]": 11,
    "rainChance[1]": 12,
    "rainAmount[1]": 13,
    "windSpeed[1]": 14,
    "temperature[1]": 15,
    "totalClouds[2]": 16,
    "lowClouds[2]": 17,
    "mediumClouds[2]": 18,
    "highClouds[2]": 19,
    "rainChance[2]": 20,
    "rainAmount[2]": 21,
    "windSpeed[2]": 22,
    "temperature[2]": 23,
    "totalClouds[3]": 24,
    "lowClouds[3]": 25,
    "mediumClouds[3]": 26,
    "highClouds[3]": 27,
    "rainChance[3]": 28,
    "rainAmount[3]": 29,
    "windSpeed[3]": 30,
    "temperature[3]": 31,
    "totalClouds[4]": 32,
    "lowClouds[4]": 33,
    "mediumClouds[4]": 34,
    "highClouds[4]": 35,
    "rainChance[4]": 36,
    "rainAmount[4]": 37,
    "windSpeed[4]": 38,
    "temperature[4]": 39,
    "exposureLength": 40
  },
  "inputLookupLength": 41,
  "outputLookup": {
    "totalImagingTime": 0
  },
  "outputLookupLength": 1,
  "options": {
    "inputSize": 0,
    "outputSize": 0,
    "binaryThresh": 0.5,
    "hiddenLayers": [
      16,
      16,
      16
    ]
  },
  "trainOpts": {
    "activation": "sigmoid",
    "iterations": 20000,
    "errorThresh": 0.005,
    "log": false,
    "logPeriod": 10,
    "leakyReluAlpha": 0.01,
    "learningRate": 0.3,
    "momentum": 0.1,
    "callbackPeriod": 10,
    "timeout": "Infinity",
    "beta1": 0.9,
    "beta2": 0.999,
    "epsilon": 1e-8
  }
}